svm_type c_svc
kernel_type rbf
degree 3
gamma 0.5
nr_class 2
total_sv 96
rho 0.20114
label 0 1
probA -2.7482
probB -0.3119
nr_sv 48 48
SV
9 0:0.15706  1:0.62059  2:0.16327  3:0.024484  4:0.016594  5:0.018014  6:0.2393  7:0.39663  8:0.17758  9:0.044328  10:0.061195  11:0.080971  12:0.28786  13:0.30865  14:0.17046  15:0.056686  16:0.084053  17:0.092301  18:0.16038  19:0.6017  20:0.17652  21:0.022738  22:0.018179  23:0.020474  24:0  25:0  26:0  27:0  28:0  29:0  30:0  31:0  32:0  33:0  34:0  35:0  36:0  37:0  38:0  39:0  40:0  41:0  42:0  43:0  44:0  45:0  46:0  47:0
9 0:0.22067  1:0.69193  2:0.074383  3:0.01135  4:0.00096361  5:0.00070418  6:0.16174  7:0.56711  8:0.21113  9:0.041676  10:0.0087007  11:0.0096532  12:0.15632  13:0.5011  14:0.31288  15:0.020706  16:0.0046476  17:0.0043424  18:0.22444  19:0.66823  20:0.094768  21:0.010911  22:0.00089435  23:0.00075468  24:0  25:0  26:0  27:0  28:0  29:0  30:0  31:0  32:0  33:0  34:0  35:0  36:0  37:0  38:0  39:0  40:0  41:0  42:0  43:0  44:0  45:0  46:0  47:0
9 0:0.25115  1:0.63812  2:0.098654  3:0.010479  4:0.00076397  5:0.00083626  6:0.22689  7:0.53071  8:0.16014  9:0.060194  10:0.0096964  11:0.012362  12:0.15442  13:0.49434  14:0.31402  15:0.025789  16:0.0059648  17:0.005468  18:0.23085  19:0.63884  20:0.11799  21:0.010628  22:0.00088029  23:0.00079857  24:0  25:0  26:0  27:0  28:0  29:0  30:0  31:0  32:0  33:0  34:0  35:0  36:0  37:0  38:0  39:0  40:0  41:0  42:0  43:0  44:0  45:0  46:0  47:0
9 0:0.25149  1:0.6266  2:0.11371  3:0.0074707  4:0.00033002  5:0.00040744  6:0.21654  7:0.50185  8:0.20815  9:0.052886  10:0.0090064  11:0.011561  12:0.17436  13:0.611  14:0.17199  15:0.029827  16:0.0073643  17:0.0054623  18:0.235  19:0.6373  20:0.11972  21:0.0071491  22:0.00045356  23:0.00037614  24:0  25:0  26:0  27:0  28:0  29:0  30:0  31:0  32:0  33:0  34:0  35:0  36:0  37:0  38:0  39:0  40:0  41:0  42:0  43:0  44:0  45:0  46:0  47:0
9 0:0.25966  1:0.61043  2:0.12279  3:0.0062914  4:0.00046935  5:0.00036892  6:0.12614  7:0.50458  8:0.296  9:0.053004  10:0.0098678  11:0.010404  12:0.20764  13:0.5927  14:0.15859  15:0.032025  16:0.00496  17:0.0040821  18:0.25966  19:0.60361  20:0.12947  21:0.0063379  22:0.00053105  23:0.00038387  24:0  25:0  26:0  27:0  28:0  29:0  30:0  31:0  32:0  33:0  34:0  35:0  36:0  37:0  38:0  39:0  40:0  41:0  42:0  43:0  44:0  45:0  46:0  47:0
9 0:0.24234  1:0.525  2:0.2103  3:0.019411  4:0.0017463  5:0.0012123  6:0.092243  7:0.5583  8:0.25777  9:0.06768  10:0.012834  11:0.011174  12:0.20513  13:0.62803  14:0.12999  15:0.02931  16:0.0042909  17:0.003247  18:0.28044  19:0.51614  20:0.19056  21:0.0099045  22:0.0017875  23:0.0011684  24:0  25:0  26:0  27:0  28:0  29:0  30:0  31:0  32:0  33:0  34:0  35:0  36:0  37:0  38:0  39:0  40:0  41:0  42:0  43:0  44:0  45:0  46:0  47:0
9 0:0.24211  1:0.6735  2:0.074745  3:0.00821  4:0.00070965  5:0.00072012  6:0.07111  7:0.6437  8:0.16157  9:0.083135  10:0.020652  11:0.01983  12:0.1608  13:0.74318  14:0.064127  15:0.017492  16:0.0079578  17:0.0064446  18:0.23879  19:0.68948  20:0.06577  21:0.0044739  22:0.00077713  23:0.00070878  24:0  25:0  26:0  27:0  28:0  29:0  30:0  31:0  32:0  33:0  34:0  35:0  36:0  37:0  38:0  39:0  40:0  41:0  42:0  43:0  44:0  45:0  46:0  47:0
9 0:0.24424  1:0.68716  2:0.063486  3:0.003412  4:0.00086682  5:0.00083392  6:0.12712  7:0.52115  8:0.21479  9:0.080609  10:0.023599  11:0.032725  12:0.10037  13:0.63166  14:0.13454  15:0.092361  16:0.020261  17:0.020805  18:0.22448  19:0.6665  20:0.098911  21:0.0078915  22:0.00096535  23:0.0012469  24:0  25:0  26:0  27:0  28:0  29:0  30:0  31:0  32:0  33:0  34:0  35:0  36:0  37:0  38:0  39:0  40:0  41:0  42:0  43:0  44:0  45:0  46:0  47:0
9 0:0.17689  1:0.65571  2:0.12952  3:0.025795  4:0.0058141  5:0.0062641  6:0.28859  7:0.28683  8:0.26052  9:0.10863  10:0.02286  11:0.032567  12:0.11087  13:0.47691  14:0.26786  15:0.10144  16:0.02343  17:0.0195  18:0.15042  19:0.54596  20:0.25852  21:0.036551  22:0.0039798  23:0.0045704  24:0  25:0  26:0  27:0  28:0  29:0  30:0  31:0  32:0  33:0  34:0  35:0  36:0  37:0  38:0  39:0  40:0  41:0  42:0  43:0  44:0  45:0  46:0  47:0
0.0077624 0:0.036417  1:0.10454  2:0.71744  3:0.13264  4:0.006288  5:0.0026749  6:0.10349  7:0.25228  8:0.50681  9:0.11275  10:0.011825  11:0.012857  12:0.062482  13:0.62004  14:0.24903  15:0.034629  16:0.0091416  17:0.024671  18:0.026876  19:0.19721  20:0.73074  21:0.037092  22:0.0054779  23:0.0026007  24:0  25:0  26:0  27:0  28:0  29:0  30:0  31:0  32:0  33:0  34:0  35:0  36:0  37:0  38:0  39:0  40:0  41:0  42:0  43:0  44:0  45:0  46:0  47:0
9 0:0.095417  1:0.50172  2:0.35527  3:0.040498  4:0.004197  5:0.0028952  6:0.077229  7:0.57213  8:0.2629  9:0.061129  10:0.01398  11:0.012632  12:0.067706  13:0.55909  14:0.2379  15:0.10741  16:0.013812  17:0.014082  18:0.060919  19:0.58784  20:0.24942  21:0.087926  22:0.0058681  23:0.008027  24:0  25:0  26:0  27:0  28:0  29:0  30:0  31:0  32:0  33:0  34:0  35:0  36:0  37:0  38:0  39:0  40:0  41:0  42:0  43:0  44:0  45:0  46:0  47:0
9 0:0.046768  1:0.55928  2:0.31212  3:0.065351  4:0.011604  5:0.0048791  6:0.09316  7:0.47579  8:0.36134  9:0.046855  10:0.015273  11:0.0075803  12:0.096331  13:0.51205  14:0.30617  15:0.055512  16:0.014675  17:0.015262  18:0.14723  19:0.57922  20:0.23098  21:0.026074  22:0.010566  23:0.0059261  24:0  25:0  26:0  27:0  28:0  29:0  30:0  31:0  32:0  33:0  34:0  35:0  36:0  37:0  38:0  39:0  40:0  41:0  42:0  43:0  44:0  45:0  46:0  47:0
6.2718 0:0.063925  1:0.65158  2:0.23492  3:0.042685  4:0.0047641  5:0.0021321  6:0.1288  7:0.47556  8:0.26417  9:0.10838  10:0.016083  11:0.006999  12:0.19082  13:0.56342  14:0.1799  15:0.046326  16:0.0091433  17:0.010397  18:0.064925  19:0.50701  20:0.36582  21:0.053697  22:0.0052849  23:0.0032631  24:0  25:0  26:0  27:0  28:0  29:0  30:0  31:0  32:0  33:0  34:0  35:0  36:0  37:0  38:0  39:0  40:0  41:0  42:0  43:0  44:0  45:0  46:0  47:0
9 0:0.081433  1:0.63677  2:0.21395  3:0.058268  4:0.0061129  5:0.0034652  6:0.1265  7:0.47813  8:0.26633  9:0.10889  10:0.012647  11:0.0075047  12:0.11775  13:0.65993  14:0.13269  15:0.06642  16:0.011619  17:0.011589  18:0.022479  19:0.50805  20:0.40854  21:0.053279  22:0.0039358  23:0.0037143  24:0  25:0  26:0  27:0  28:0  29:0  30:0  31:0  32:0  33:0  34:0  35:0  36:0  37:0  38:0  39:0  40:0  41:0  42:0  43:0  44:0  45:0  46:0  47:0
1.2571 0:0.053641  1:0.29813  2:0.47291  3:0.1694  4:0.0039128  5:0.0020095  6:0.072177  7:0.37851  8:0.37994  9:0.15407  10:0.010229  11:0.005073  12:0.029432  13:0.35845  14:0.50773  15:0.089275  16:0.007074  17:0.008033  18:0.019532  19:0.35048  20:0.55079  21:0.071336  22:0.0048225  23:0.0030409  24:0  25:0  26:0  27:0  28:0  29:0  30:0  31:0  32:0  33:0  34:0  35:0  36:0  37:0  38:0  39:0  40:0  41:0  42:0  43:0  44:0  45:0  46:0  47:0
9 0:0.047658  1:0.56095  2:0.35263  3:0.028424  4:0.0062859  5:0.0040539  6:0.15425  7:0.31572  8:0.43727  9:0.071832  10:0.0099198  11:0.011014  12:0.083893  13:0.51411  14:0.33821  15:0.039754  16:0.013456  17:0.010572  18:0.10969  19:0.47001  20:0.36218  21:0.04615  22:0.0072609  23:0.0047005  24:0  25:0  26:0  27:0  28:0  29:0  30:0  31:0  32:0  33:0  34:0  35:0  36:0  37:0  38:0  39:0  40:0  41:0  42:0  43:0  44:0  45:0  46:0  47:0
5.8409 0:0.056688  1:0.47532  2:0.34732  3:0.10586  4:0.0074161  5:0.0073993  6:0.072297  7:0.64845  8:0.18239  9:0.078727  10:0.0091079  11:0.0090221  12:0.10212  13:0.49554  14:0.33574  15:0.045611  16:0.010052  17:0.010943  18:0.080248  19:0.67001  20:0.18658  21:0.045167  22:0.0086998  23:0.0092939  24:0  25:0  26:0  27:0  28:0  29:0  30:0  31:0  32:0  33:0  34:0  35:0  36:0  37:0  38:0  39:0  40:0  41:0  42:0  43:0  44:0  45:0  46:0  47:0
9 0:0.081633  1:0.55722  2:0.31085  3:0.044934  4:0.0029417  5:0.0024197  6:0.098428  7:0.7002  8:0.15242  9:0.036903  10:0.0070474  11:0.0050051  12:0.092444  13:0.56125  14:0.23791  15:0.083457  16:0.012265  17:0.012679  18:0.10391  19:0.63718  20:0.20808  21:0.037266  22:0.0074282  23:0.0061406  24:0  25:0  26:0  27:0  28:0  29:0  30:0  31:0  32:0  33:0  34:0  35:0  36:0  37:0  38:0  39:0  40:0  41:0  42:0  43:0  44:0  45:0  46:0  47:0
9 0:0.058733  1:0.5845  2:0.30847  3:0.041288  4:0.0036495  5:0.0033591  6:0.086673  7:0.57051  8:0.25586  9:0.063312  10:0.011405  11:0.012234  12:0.10444  13:0.53271  14:0.29388  15:0.057714  16:0.0063417  17:0.0049077  18:0.041715  19:0.6022  20:0.26782  21:0.071973  22:0.008678  23:0.0076154  24:0  25:0  26:0  27:0  28:0  29:0  30:0  31:0  32:0  33:0  34:0  35:0  36:0  37:0  38:0  39:0  40:0  41:0  42:0  43:0  44:0  45:0  46:0  47:0
9 0:0.11253  1:0.58969  2:0.23394  3:0.054241  4:0.0043025  5:0.0052949  6:0.15489  7:0.41318  8:0.36581  9:0.046731  10:0.012025  11:0.0073567  12:0.085504  13:0.52659  14:0.31582  15:0.058522  16:0.0063491  17:0.0072191  18:0.09247  19:0.52837  20:0.32378  21:0.042735  22:0.0074319  23:0.00521  24:0  25:0  26:0  27:0  28:0  29:0  30:0  31:0  32:0  33:0  34:0  35:0  36:0  37:0  38:0  39:0  40:0  41:0  42:0  43:0  44:0  45:0  46:0  47:0
9 0:0.034422  1:0.62729  2:0.30288  3:0.03032  4:0.0026717  5:0.0024118  6:0.11791  7:0.49369  8:0.3185  9:0.053515  10:0.007775  11:0.0086082  12:0.048242  13:0.66393  14:0.21384  15:0.053172  16:0.0077964  17:0.013017  18:0.06981  19:0.60155  20:0.2744  21:0.041749  22:0.0061404  23:0.0063508  24:0  25:0  26:0  27:0  28:0  29:0  30:0  31:0  32:0  33:0  34:0  35:0  36:0  37:0  38:0  39:0  40:0  41:0  42:0  43:0  44:0  45:0  46:0  47:0
9 0:0.081055  1:0.70657  2:0.13386  3:0.055634  4:0.0069328  5:0.01594  6:0.17944  7:0.44696  8:0.27178  9:0.060651  10:0.01407  11:0.027096  12:0.13969  13:0.36423  14:0.38703  15:0.060868  16:0.021056  17:0.027133  18:0.089973  19:0.59369  20:0.23082  21:0.050213  22:0.014115  23:0.021192  24:0  25:0  26:0  27:0  28:0  29:0  30:0  31:0  32:0  33:0  34:0  35:0  36:0  37:0  38:0  39:0  40:0  41:0  42:0  43:0  44:0  45:0  46:0  47:0
9 0:0.073626  1:0.69361  2:0.14808  3:0.056128  4:0.0073252  5:0.021233  6:0.11903  7:0.5322  8:0.27186  9:0.045487  10:0.010986  11:0.020434  12:0.16069  13:0.37711  14:0.32062  15:0.098638  16:0.01813  17:0.024816  18:0.089606  19:0.5202  20:0.31634  21:0.042641  22:0.012012  23:0.019202  24:0  25:0  26:0  27:0  28:0  29:0  30:0  31:0  32:0  33:0  34:0  35:0  36:0  37:0  38:0  39:0  40:0  41:0  42:0  43:0  44:0  45:0  46:0  47:0
9 0:0.045928  1:0.52971  2:0.37635  3:0.042318  4:0.0029305  5:0.0027548  6:0.092658  7:0.46658  8:0.35697  9:0.046381  10:0.018046  11:0.01937  12:0.073327  13:0.47174  14:0.39948  15:0.030957  16:0.016023  17:0.0084799  18:0.066007  19:0.57419  20:0.32058  21:0.027989  22:0.005946  23:0.0052912  24:0  25:0  26:0  27:0  28:0  29:0  30:0  31:0  32:0  33:0  34:0  35:0  36:0  37:0  38:0  39:0  40:0  41:0  42:0  43:0  44:0  45:0  46:0  47:0
9 0:0.061101  1:0.62082  2:0.21937  3:0.089214  4:0.0061721  5:0.0033305  6:0.1006  7:0.47102  8:0.34085  9:0.05424  10:0.020099  11:0.013191  12:0.10024  13:0.37361  14:0.41478  15:0.079387  16:0.014115  17:0.017868  18:0.046126  19:0.58529  20:0.30587  21:0.051897  22:0.0064394  23:0.0043782  24:0  25:0  26:0  27:0  28:0  29:0  30:0  31:0  32:0  33:0  34:0  35:0  36:0  37:0  38:0  39:0  40:0  41:0  42:0  43:0  44:0  45:0  46:0  47:0
9 0:0.073815  1:0.57453  2:0.27261  3:0.064447  4:0.0086456  5:0.0059492  6:0.077499  7:0.55169  8:0.26781  9:0.060853  10:0.018383  11:0.023764  12:0.11596  13:0.41027  14:0.29882  15:0.11091  16:0.035642  17:0.028412  18:0.13122  19:0.55411  20:0.24329  21:0.057697  22:0.0061289  23:0.0075579  24:0  25:0  26:0  27:0  28:0  29:0  30:0  31:0  32:0  33:0  34:0  35:0  36:0  37:0  38:0  39:0  40:0  41:0  42:0  43:0  44:0  45:0  46:0  47:0
9 0:0.10657  1:0.65637  2:0.1908  3:0.0343  4:0.007734  5:0.0042304  6:0.077555  7:0.44564  8:0.33499  9:0.104  10:0.017505  11:0.020309  12:0.10519  13:0.51113  14:0.15565  15:0.1626  16:0.032138  17:0.033293  18:0.12208  19:0.58839  20:0.22581  21:0.04974  22:0.0072643  23:0.0067152  24:0  25:0  26:0  27:0  28:0  29:0  30:0  31:0  32:0  33:0  34:0  35:0  36:0  37:0  38:0  39:0  40:0  41:0  42:0  43:0  44:0  45:0  46:0  47:0
9 0:0.1354  1:0.55003  2:0.26047  3:0.04267  4:0.0068209  5:0.0046068  6:0.085312  7:0.5281  8:0.27723  9:0.0841  10:0.01443  11:0.010821  12:0.0931  13:0.52391  14:0.1568  15:0.13884  16:0.052634  17:0.03471  18:0.20295  19:0.50999  20:0.21741  21:0.054377  22:0.0093879  23:0.0058835  24:0  25:0  26:0  27:0  28:0  29:0  30:0  31:0  32:0  33:0  34:0  35:0  36:0  37:0  38:0  39:0  40:0  41:0  42:0  43:0  44:0  45:0  46:0  47:0
4.6471 0:0.11178  1:0.27484  2:0.5101  3:0.094678  4:0.0052994  5:0.0033006  6:0.28087  7:0.35214  8:0.19555  9:0.1332  10:0.01661  11:0.021644  12:0.089878  13:0.48582  14:0.31818  15:0.055508  16:0.021772  17:0.028843  18:0.11972  19:0.35994  20:0.44821  21:0.062257  22:0.0059574  23:0.0039118  24:0  25:0  26:0  27:0  28:0  29:0  30:0  31:0  32:0  33:0  34:0  35:0  36:0  37:0  38:0  39:0  40:0  41:0  42:0  43:0  44:0  45:0  46:0  47:0
0.40243 0:0.03163  1:0.34712  2:0.58169  3:0.03321  4:0.0035168  5:0.0028286  6:0.079106  7:0.34378  8:0.46215  9:0.067436  10:0.021275  11:0.026257  12:0.16357  13:0.27462  14:0.35429  15:0.15107  16:0.020738  17:0.035716  18:0.055167  19:0.32284  20:0.56469  21:0.048388  22:0.0046674  23:0.0042524  24:0  25:0  26:0  27:0  28:0  29:0  30:0  31:0  32:0  33:0  34:0  35:0  36:0  37:0  38:0  39:0  40:0  41:0  42:0  43:0  44:0  45:0  46:0  47:0
9 0:0.027362  1:0.22458  2:0.70202  3:0.037948  4:0.0047943  5:0.0033017  6:0.062877  7:0.38474  8:0.45987  9:0.065057  10:0.015461  11:0.012  12:0.096219  13:0.21378  14:0.44664  15:0.18109  16:0.026862  17:0.035409  18:0.066749  19:0.27398  20:0.60255  21:0.045308  22:0.007416  23:0.004004  24:0  25:0  26:0  27:0  28:0  29:0  30:0  31:0  32:0  33:0  34:0  35:0  36:0  37:0  38:0  39:0  40:0  41:0  42:0  43:0  44:0  45:0  46:0  47:0
9 0:0.080164  1:0.4717  2:0.40402  3:0.036471  4:0.003304  5:0.004341  6:0.077636  7:0.44751  8:0.36769  9:0.078001  10:0.011541  11:0.017621  12:0.062601  13:0.55354  14:0.30817  15:0.04755  16:0.014642  17:0.013498  18:0.087134  19:0.49733  20:0.35948  21:0.044686  22:0.0057787  23:0.0055855  24:0  25:0  26:0  27:0  28:0  29:0  30:0  31:0  32:0  33:0  34:0  35:0  36:0  37:0  38:0  39:0  40:0  41:0  42:0  43:0  44:0  45:0  46:0  47:0
0.42569 0:0.035904  1:0.51347  2:0.42936  3:0.014348  4:0.003603  5:0.003311  6:0.060697  7:0.35969  8:0.46181  9:0.084868  10:0.012413  11:0.020521  12:0.071318  13:0.5568  14:0.30052  15:0.041672  16:0.015418  17:0.014274  18:0.035375  19:0.40363  20:0.52112  21:0.029364  22:0.0078672  23:0.0026413  24:0  25:0  26:0  27:0  28:0  29:0  30:0  31:0  32:0  33:0  34:0  35:0  36:0  37:0  38:0  39:0  40:0  41:0  42:0  43:0  44:0  45:0  46:0  47:0
9 0:0.083102  1:0.43591  2:0.43625  3:0.031587  4:0.0071215  5:0.0060286  6:0.10142  7:0.35638  8:0.40072  9:0.10178  10:0.017911  11:0.021797  12:0.18879  13:0.35331  14:0.35237  15:0.064581  16:0.022794  17:0.018167  18:0.039539  19:0.5001  20:0.3667  21:0.076823  22:0.009643  23:0.0071902  24:0  25:0  26:0  27:0  28:0  29:0  30:0  31:0  32:0  33:0  34:0  35:0  36:0  37:0  38:0  39:0  40:0  41:0  42:0  43:0  44:0  45:0  46:0  47:0
9 0:0.066764  1:0.48846  2:0.39813  3:0.037759  4:0.0053285  5:0.0035551  6:0.095861  7:0.49155  8:0.29189  9:0.089659  10:0.015385  11:0.015651  12:0.13503  13:0.32496  14:0.42962  15:0.065386  16:0.023798  17:0.021205  18:0.051522  19:0.47575  20:0.40503  21:0.054388  22:0.007766  23:0.005545  24:0  25:0  26:0  27:0  28:0  29:0  30:0  31:0  32:0  33:0  34:0  35:0  36:0  37:0  38:0  39:0  40:0  41:0  42:0  43:0  44:0  45:0  46:0  47:0
9 0:0.090906  1:0.24676  2:0.55144  3:0.089977  4:0.0094259  5:0.011486  6:0.077139  7:0.48005  8:0.30144  9:0.10232  10:0.022155  11:0.016895  12:0.057579  13:0.41371  14:0.42513  15:0.08224  16:0.010459  17:0.010878  18:0.14248  19:0.46477  20:0.32078  21:0.052355  22:0.0083619  23:0.011254  24:0  25:0  26:0  27:0  28:0  29:0  30:0  31:0  32:0  33:0  34:0  35:0  36:0  37:0  38:0  39:0  40:0  41:0  42:0  43:0  44:0  45:0  46:0  47:0
9 0:0.074046  1:0.6126  2:0.2196  3:0.077654  4:0.0096144  5:0.0064839  6:0.1397  7:0.35425  8:0.36767  9:0.083428  10:0.028391  11:0.026571  12:0.10535  13:0.56643  14:0.25676  15:0.044143  16:0.011104  17:0.016221  18:0.062369  19:0.46367  20:0.41963  21:0.033672  22:0.01438  23:0.0062782  24:0  25:0  26:0  27:0  28:0  29:0  30:0  31:0  32:0  33:0  34:0  35:0  36:0  37:0  38:0  39:0  40:0  41:0  42:0  43:0  44:0  45:0  46:0  47:0
9 0:0.052701  1:0.57039  2:0.28912  3:0.073235  4:0.0088856  5:0.0056723  6:0.11043  7:0.49075  8:0.27338  9:0.070564  10:0.024404  11:0.030473  12:0.10004  13:0.59878  14:0.20283  15:0.058663  16:0.022385  17:0.017301  18:0.03744  19:0.59834  20:0.29532  21:0.048397  22:0.013631  23:0.0068732  24:0  25:0  26:0  27:0  28:0  29:0  30:0  31:0  32:0  33:0  34:0  35:0  36:0  37:0  38:0  39:0  40:0  41:0  42:0  43:0  44:0  45:0  46:0  47:0
9 0:0.064158  1:0.54916  2:0.33623  3:0.041707  4:0.0052843  5:0.0034522  6:0.092095  7:0.59258  8:0.23132  9:0.04484  10:0.017593  11:0.021571  12:0.11922  13:0.60198  14:0.1517  15:0.076124  16:0.027198  17:0.023767  18:0.037963  19:0.6185  20:0.28419  21:0.046151  22:0.0079449  23:0.0052484  24:0  25:0  26:0  27:0  28:0  29:0  30:0  31:0  32:0  33:0  34:0  35:0  36:0  37:0  38:0  39:0  40:0  41:0  42:0  43:0  44:0  45:0  46:0  47:0
9 0:0.086098  1:0.54048  2:0.32542  3:0.040903  4:0.0045989  5:0.0024953  6:0.076132  7:0.40465  8:0.39266  9:0.09815  10:0.012365  11:0.01604  12:0.18195  13:0.47124  14:0.20551  15:0.10691  16:0.012774  17:0.021615  18:0.16623  19:0.5127  20:0.26242  21:0.04958  22:0.0047361  23:0.00433  24:0  25:0  26:0  27:0  28:0  29:0  30:0  31:0  32:0  33:0  34:0  35:0  36:0  37:0  38:0  39:0  40:0  41:0  42:0  43:0  44:0  45:0  46:0  47:0
9 0:0.11694  1:0.57666  2:0.25824  3:0.041814  4:0.0036493  5:0.0026877  6:0.12169  7:0.54438  8:0.22459  9:0.076877  10:0.018462  11:0.014006  12:0.15016  13:0.66243  14:0.098183  15:0.059597  16:0.0097427  17:0.019882  18:0.2246  19:0.60868  20:0.12826  21:0.031302  22:0.0042202  23:0.0029405  24:0  25:0  26:0  27:0  28:0  29:0  30:0  31:0  32:0  33:0  34:0  35:0  36:0  37:0  38:0  39:0  40:0  41:0  42:0  43:0  44:0  45:0  46:0  47:0
9 0:0.11972  1:0.50667  2:0.32308  3:0.042145  4:0.004518  5:0.0038683  6:0.089377  7:0.54162  8:0.24616  9:0.085065  10:0.021765  11:0.016018  12:0.1279  13:0.59921  14:0.18319  15:0.054298  16:0.016083  17:0.019317  18:0.1895  19:0.47945  20:0.27452  21:0.046538  22:0.0054428  23:0.0045513  24:0  25:0  26:0  27:0  28:0  29:0  30:0  31:0  32:0  33:0  34:0  35:0  36:0  37:0  38:0  39:0  40:0  41:0  42:0  43:0  44:0  45:0  46:0  47:0
9 0:0.072609  1:0.59987  2:0.24838  3:0.071847  4:0.0045274  5:0.0027688  6:0.10182  7:0.49868  8:0.32637  9:0.038856  10:0.019506  11:0.01477  12:0.049073  13:0.5348  14:0.27376  15:0.087042  16:0.024707  17:0.030612  18:0.092255  19:0.49568  20:0.34819  21:0.05058  22:0.0075502  23:0.0057421  24:0  25:0  26:0  27:0  28:0  29:0  30:0  31:0  32:0  33:0  34:0  35:0  36:0  37:0  38:0  39:0  40:0  41:0  42:0  43:0  44:0  45:0  46:0  47:0
9 0:0.057712  1:0.59034  2:0.28875  3:0.052757  4:0.0050479  5:0.005387  6:0.1411  7:0.30082  8:0.4324  9:0.083484  10:0.020158  11:0.022032  12:0.10745  13:0.42564  14:0.37606  15:0.049055  16:0.012144  17:0.029653  18:0.081313  19:0.50735  20:0.32922  21:0.066315  22:0.0096888  23:0.0061111  24:0  25:0  26:0  27:0  28:0  29:0  30:0  31:0  32:0  33:0  34:0  35:0  36:0  37:0  38:0  39:0  40:0  41:0  42:0  43:0  44:0  45:0  46:0  47:0
9 0:0.38372  1:0.5467  2:0.053095  3:0.0092624  4:0.0027265  5:0.0045016  6:0.28311  7:0.31205  8:0.24286  9:0.071704  10:0.017221  11:0.073051  12:0.25394  13:0.46425  14:0.14388  15:0.078721  16:0.023003  17:0.036208  18:0.36274  19:0.53939  20:0.08415  21:0.009114  22:0.0017172  23:0.0028824  24:0  25:0  26:0  27:0  28:0  29:0  30:0  31:0  32:0  33:0  34:0  35:0  36:0  37:0  38:0  39:0  40:0  41:0  42:0  43:0  44:0  45:0  46:0  47:0
9 0:0.4643  1:0.4263  2:0.084561  3:0.017439  4:0.003626  5:0.0037765  6:0.26391  7:0.34397  8:0.24463  9:0.071781  10:0.020584  11:0.055125  12:0.31266  13:0.45969  14:0.10979  15:0.077673  16:0.015488  17:0.024704  18:0.46974  19:0.43876  20:0.07911  21:0.0078411  22:0.0017583  23:0.0027871  24:0  25:0  26:0  27:0  28:0  29:0  30:0  31:0  32:0  33:0  34:0  35:0  36:0  37:0  38:0  39:0  40:0  41:0  42:0  43:0  44:0  45:0  46:0  47:0
9 0:0.16975  1:0.45097  2:0.30798  3:0.061219  4:0.0043473  5:0.0057307  6:0.1795  7:0.42493  8:0.30683  9:0.058966  10:0.011764  11:0.018011  12:0.13199  13:0.59601  14:0.20541  15:0.044005  16:0.0098985  17:0.012689  18:0.15836  19:0.61903  20:0.17593  21:0.03619  22:0.0042549  23:0.0062326  24:0  25:0  26:0  27:0  28:0  29:0  30:0  31:0  32:0  33:0  34:0  35:0  36:0  37:0  38:0  39:0  40:0  41:0  42:0  43:0  44:0  45:0  46:0  47:0
9 0:0.41136  1:0.48826  2:0.07067  3:0.026165  4:0.0014574  5:0.0020818  6:0.29255  7:0.34661  8:0.28765  9:0.041666  10:0.011779  11:0.01975  12:0.36244  13:0.27411  14:0.26453  15:0.05612  16:0.016834  17:0.025964  18:0.39059  19:0.51276  20:0.071336  21:0.021562  22:0.0016416  23:0.002113  24:0  25:0  26:0  27:0  28:0  29:0  30:0  31:0  32:0  33:0  34:0  35:0  36:0  37:0  38:0  39:0  40:0  41:0  42:0  43:0  44:0  45:0  46:0  47:0
-5.4913 0:0.24491  1:0.47825  2:0.22764  3:0.016465  4:0.015456  5:0.017273  6:0.34894  7:0.20676  8:0.14883  9:0.08098  10:0.1041  11:0.11039  12:0.45169  13:0.10335  14:0.12409  15:0.067302  16:0.1211  17:0.13247  18:0.24794  19:0.47331  20:0.22617  21:0.018831  22:0.016198  23:0.017547  24:0  25:0  26:0  27:0  28:0  29:0  30:0  31:0  32:0  33:0  34:0  35:0  36:0  37:0  38:0  39:0  40:0  41:0  42:0  43:0  44:0  45:0  46:0  47:0
-9 0:0.19563  1:0.57317  2:0.21932  3:0.010228  4:0.0009232  5:0.00073277  6:0.21663  7:0.352  8:0.29772  9:0.080772  10:0.023082  11:0.029804  12:0.36723  13:0.23465  14:0.26546  15:0.051894  16:0.02977  17:0.050999  18:0.20597  19:0.55179  20:0.22331  21:0.016823  22:0.0011902  23:0.00091316  24:0  25:0  26:0  27:0  28:0  29:0  30:0  31:0  32:0  33:0  34:0  35:0  36:0  37:0  38:0  39:0  40:0  41:0  42:0  43:0  44:0  45:0  46:0  47:0
-9 0:0.1316  1:0.62137  2:0.23261  3:0.012929  4:0.00083494  5:0.00064804  6:0.15114  7:0.42288  8:0.28683  9:0.059761  10:0.032428  11:0.046961  12:0.12304  13:0.48807  14:0.26354  15:0.076107  16:0.025548  17:0.023692  18:0.12847  19:0.64484  20:0.20878  21:0.016385  22:0.00062616  23:0.00090779  24:0  25:0  26:0  27:0  28:0  29:0  30:0  31:0  32:0  33:0  34:0  35:0  36:0  37:0  38:0  39:0  40:0  41:0  42:0  43:0  44:0  45:0  46:0  47:0
-9 0:0.1794  1:0.66814  2:0.14128  3:0.010469  4:0.00032624  5:0.00038332  6:0.14072  7:0.50617  8:0.24764  9:0.064929  10:0.015754  11:0.024798  12:0.15339  13:0.5763  14:0.20948  15:0.037615  16:0.011018  17:0.012195  18:0.17468  19:0.67616  20:0.14108  21:0.0072663  22:0.00044175  23:0.00037385  24:0  25:0  26:0  27:0  28:0  29:0  30:0  31:0  32:0  33:0  34:0  35:0  36:0  37:0  38:0  39:0  40:0  41:0  42:0  43:0  44:0  45:0  46:0  47:0
-9 0:0.13847  1:0.60891  2:0.22734  3:0.024173  4:0.00059104  5:0.00051327  6:0.092272  7:0.53045  8:0.25661  9:0.073314  10:0.018447  11:0.028906  12:0.13497  13:0.38537  14:0.34055  15:0.089187  16:0.019784  17:0.030134  18:0.12867  19:0.63981  20:0.2097  21:0.020453  22:0.00065614  23:0.00070816  24:0  25:0  26:0  27:0  28:0  29:0  30:0  31:0  32:0  33:0  34:0  35:0  36:0  37:0  38:0  39:0  40:0  41:0  42:0  43:0  44:0  45:0  46:0  47:0
-9 0:0.15513  1:0.51882  2:0.27405  3:0.04502  4:0.0032352  5:0.0037453  6:0.13566  7:0.52501  8:0.23075  9:0.049262  10:0.024476  11:0.03484  12:0.14933  13:0.53879  14:0.17798  15:0.083938  16:0.019108  17:0.03085  18:0.15485  19:0.4123  20:0.34407  21:0.07936  22:0.0040732  23:0.0053483  24:0  25:0  26:0  27:0  28:0  29:0  30:0  31:0  32:0  33:0  34:0  35:0  36:0  37:0  38:0  39:0  40:0  41:0  42:0  43:0  44:0  45:0  46:0  47:0
-9 0:0.14731  1:0.60401  2:0.22764  3:0.018685  4:0.0010839  5:0.0012795  6:0.21091  7:0.43238  8:0.23687  9:0.05508  10:0.031414  11:0.033346  12:0.22161  13:0.63447  14:0.065237  15:0.051492  16:0.011428  17:0.015761  18:0.13001  19:0.63642  20:0.21748  21:0.013879  22:0.00094706  23:0.0012568  24:0  25:0  26:0  27:0  28:0  29:0  30:0  31:0  32:0  33:0  34:0  35:0  36:0  37:0  38:0  39:0  40:0  41:0  42:0  43:0  44:0  45:0  46:0  47:0
-9 0:0.15509  1:0.59431  2:0.22641  3:0.021784  4:0.0012207  5:0.0011898  6:0.28017  7:0.39041  8:0.18054  9:0.082672  10:0.040088  11:0.02612  12:0.21883  13:0.6048  14:0.089363  15:0.042175  16:0.017992  17:0.026835  18:0.13918  19:0.63321  20:0.21218  21:0.013174  22:0.0010632  23:0.0011854  24:0  25:0  26:0  27:0  28:0  29:0  30:0  31:0  32:0  33:0  34:0  35:0  36:0  37:0  38:0  39:0  40:0  41:0  42:0  43:0  44:0  45:0  46:0  47:0
-9 0:0.15854  1:0.59973  2:0.22432  3:0.015401  4:0.0010603  5:0.0009574  6:0.25954  7:0.35464  8:0.27496  9:0.040733  10:0.025203  11:0.044927  12:0.12791  13:0.46066  14:0.18817  15:0.11355  16:0.040487  17:0.069225  18:0.13835  19:0.65061  20:0.1901  21:0.0187  22:0.0012565  23:0.0009908  24:0  25:0  26:0  27:0  28:0  29:0  30:0  31:0  32:0  33:0  34:0  35:0  36:0  37:0  38:0  39:0  40:0  41:0  42:0  43:0  44:0  45:0  46:0  47:0
-0.091164 0:0.17176  1:0.55592  2:0.25376  3:0.016885  4:0.00091375  5:0.0007607  6:0.2259  7:0.35304  8:0.29396  9:0.064155  10:0.026612  11:0.036331  12:0.081348  13:0.30219  14:0.48997  15:0.070695  16:0.02646  17:0.029337  18:0.1491  19:0.59548  20:0.22833  21:0.025351  22:0.00096899  23:0.00076781  24:0  25:0  26:0  27:0  28:0  29:0  30:0  31:0  32:0  33:0  34:0  35:0  36:0  37:0  38:0  39:0  40:0  41:0  42:0  43:0  44:0  45:0  46:0  47:0
-9 0:0.048547  1:0.30709  2:0.48267  3:0.14809  4:0.0072378  5:0.0063571  6:0.053154  7:0.30504  8:0.42819  9:0.10961  10:0.050333  11:0.053675  12:0.039244  13:0.17628  14:0.60667  15:0.1407  16:0.017276  17:0.019827  18:0.04261  19:0.28961  20:0.45712  21:0.19917  22:0.0059175  23:0.0055712  24:0  25:0  26:0  27:0  28:0  29:0  30:0  31:0  32:0  33:0  34:0  35:0  36:0  37:0  38:0  39:0  40:0  41:0  42:0  43:0  44:0  45:0  46:0  47:0
-9 0:0.27795  1:0.51102  2:0.20329  3:0.0062109  4:0.00051796  5:0.0010095  6:0.12023  7:0.51828  8:0.24186  9:0.069498  10:0.02021  11:0.02992  12:0.083156  13:0.44671  14:0.32297  15:0.10132  16:0.024652  17:0.021199  18:0.24892  19:0.50835  20:0.23528  21:0.0058572  22:0.00081522  23:0.00077994  24:0  25:0  26:0  27:0  28:0  29:0  30:0  31:0  32:0  33:0  34:0  35:0  36:0  37:0  38:0  39:0  40:0  41:0  42:0  43:0  44:0  45:0  46:0  47:0
-9 0:0.1127  1:0.41102  2:0.35598  3:0.084133  4:0.02031  5:0.015861  6:0.074019  7:0.31412  8:0.31373  9:0.14273  10:0.074432  11:0.080966  12:0.035706  13:0.67433  14:0.18674  15:0.048273  16:0.025779  17:0.029174  18:0.041992  19:0.39896  20:0.45048  21:0.081059  22:0.017156  23:0.010345  24:0  25:0  26:0  27:0  28:0  29:0  30:0  31:0  32:0  33:0  34:0  35:0  36:0  37:0  38:0  39:0  40:0  41:0  42:0  43:0  44:0  45:0  46:0  47:0
-6.7397 0:0.078362  1:0.5848  2:0.30695  3:0.026869  4:0.0014793  5:0.001534  6:0.051294  7:0.25192  8:0.5301  9:0.11615  10:0.024918  11:0.025615  12:0.10997  13:0.45781  14:0.37597  15:0.021739  16:0.019438  17:0.015074  18:0.10524  19:0.66251  20:0.21584  21:0.012672  22:0.0020802  23:0.0016519  24:0  25:0  26:0  27:0  28:0  29:0  30:0  31:0  32:0  33:0  34:0  35:0  36:0  37:0  38:0  39:0  40:0  41:0  42:0  43:0  44:0  45:0  46:0  47:0
-9 0:0.07956  1:0.70275  2:0.20065  3:0.01529  4:0.00088242  5:0.00086714  6:0.072516  7:0.51466  8:0.32155  9:0.046741  10:0.022946  11:0.021585  12:0.038201  13:0.64025  14:0.24297  15:0.041309  16:0.016892  17:0.020384  18:0.067804  19:0.6989  20:0.21411  21:0.017844  22:0.0005476  23:0.00078893  24:0  25:0  26:0  27:0  28:0  29:0  30:0  31:0  32:0  33:0  34:0  35:0  36:0  37:0  38:0  39:0  40:0  41:0  42:0  43:0  44:0  45:0  46:0  47:0
-9 0:0.079931  1:0.69494  2:0.20551  3:0.018054  4:0.00076135  5:0.00080469  6:0.073459  7:0.51729  8:0.29561  9:0.067899  10:0.024729  11:0.021006  12:0.046503  13:0.6452  14:0.19645  15:0.06501  16:0.021259  17:0.025578  18:0.070044  19:0.68838  20:0.21941  21:0.020781  22:0.00059279  23:0.00078672  24:0  25:0  26:0  27:0  28:0  29:0  30:0  31:0  32:0  33:0  34:0  35:0  36:0  37:0  38:0  39:0  40:0  41:0  42:0  43:0  44:0  45:0  46:0  47:0
-9 0:0.13555  1:0.62695  2:0.2181  3:0.017758  4:0.00093389  5:0.00070843  6:0.055505  7:0.62947  8:0.24084  9:0.043073  10:0.011307  11:0.019801  12:0.088395  13:0.51082  14:0.2567  15:0.099076  16:0.01556  17:0.029454  18:0.12753  19:0.64303  20:0.20691  21:0.020551  22:0.001016  23:0.00096268  24:0  25:0  26:0  27:0  28:0  29:0  30:0  31:0  32:0  33:0  34:0  35:0  36:0  37:0  38:0  39:0  40:0  41:0  42:0  43:0  44:0  45:0  46:0  47:0
-9 0:0.14116  1:0.57762  2:0.26084  3:0.018743  4:0.00091731  5:0.00072449  6:0.057678  7:0.62833  8:0.20189  9:0.057322  10:0.022624  11:0.032158  12:0.097705  13:0.5133  14:0.22817  15:0.11114  16:0.015927  17:0.033758  18:0.13434  19:0.6103  20:0.234  21:0.019483  22:0.00082483  23:0.0010617  24:0  25:0  26:0  27:0  28:0  29:0  30:0  31:0  32:0  33:0  34:0  35:0  36:0  37:0  38:0  39:0  40:0  41:0  42:0  43:0  44:0  45:0  46:0  47:0
-9 0:0.085271  1:0.38376  2:0.48087  3:0.040122  4:0.0050063  5:0.0049727  6:0.02362  7:0.39226  8:0.33847  9:0.1056  10:0.061254  11:0.078791  12:0.069954  13:0.52169  14:0.28784  15:0.074677  16:0.011729  17:0.034113  18:0.12055  19:0.34284  20:0.48301  21:0.042211  22:0.0042658  23:0.0071217  24:0  25:0  26:0  27:0  28:0  29:0  30:0  31:0  32:0  33:0  34:0  35:0  36:0  37:0  38:0  39:0  40:0  41:0  42:0  43:0  44:0  45:0  46:0  47:0
-4.0759 0:0.03356  1:0.57362  2:0.3176  3:0.061324  4:0.0076326  5:0.0062647  6:0.028309  7:0.39742  8:0.30576  9:0.16409  10:0.042321  11:0.062103  12:0.092025  13:0.49922  14:0.26294  15:0.096233  16:0.016776  17:0.032808  18:0.08898  19:0.55863  20:0.26549  21:0.068676  22:0.009065  23:0.0091574  24:0  25:0  26:0  27:0  28:0  29:0  30:0  31:0  32:0  33:0  34:0  35:0  36:0  37:0  38:0  39:0  40:0  41:0  42:0  43:0  44:0  45:0  46:0  47:0
-9 0:0.020074  1:0.66216  2:0.1975  3:0.1032  4:0.0072501  5:0.0098105  6:0.047478  7:0.55536  8:0.15939  9:0.12712  10:0.040187  11:0.07047  12:0.08373  13:0.45666  14:0.32501  15:0.091379  16:0.014888  17:0.028334  18:0.064121  19:0.50359  20:0.3013  21:0.10854  22:0.011075  23:0.011377  24:0  25:0  26:0  27:0  28:0  29:0  30:0  31:0  32:0  33:0  34:0  35:0  36:0  37:0  38:0  39:0  40:0  41:0  42:0  43:0  44:0  45:0  46:0  47:0
-4.4955 0:0.21608  1:0.62626  2:0.14336  3:0.012368  4:0.0010478  5:0.00088933  6:0.20468  7:0.53385  8:0.15628  9:0.044458  10:0.030508  11:0.030225  12:0.10626  13:0.50598  14:0.24628  15:0.088088  16:0.021338  17:0.032049  18:0.19965  19:0.60728  20:0.18074  21:0.010494  22:0.0011577  23:0.00067755  24:0  25:0  26:0  27:0  28:0  29:0  30:0  31:0  32:0  33:0  34:0  35:0  36:0  37:0  38:0  39:0  40:0  41:0  42:0  43:0  44:0  45:0  46:0  47:0
-9 0:0.21821  1:0.60843  2:0.16214  3:0.0096348  4:0.00094178  5:0.00063654  6:0.18841  7:0.50508  8:0.20272  9:0.046462  10:0.030333  11:0.026984  12:0.11805  13:0.58516  14:0.14637  15:0.086435  16:0.025356  17:0.038626  18:0.19788  19:0.60467  20:0.18562  21:0.010062  22:0.0011136  23:0.00064506  24:0  25:0  26:0  27:0  28:0  29:0  30:0  31:0  32:0  33:0  34:0  35:0  36:0  37:0  38:0  39:0  40:0  41:0  42:0  43:0  44:0  45:0  46:0  47:0
-5.1684 0:0.20104  1:0.67254  2:0.11875  3:0.006765  4:0.00044185  5:0.00045854  6:0.10611  7:0.67032  8:0.1523  9:0.0299  10:0.017868  11:0.023504  12:0.048622  13:0.78323  14:0.12697  15:0.022815  16:0.0081435  17:0.010228  18:0.20235  19:0.66974  20:0.12114  21:0.0057937  22:0.00052398  23:0.00045351  24:0  25:0  26:0  27:0  28:0  29:0  30:0  31:0  32:0  33:0  34:0  35:0  36:0  37:0  38:0  39:0  40:0  41:0  42:0  43:0  44:0  45:0  46:0  47:0
-9 0:0.20048  1:0.61756  2:0.17114  3:0.007578  4:0.0013114  5:0.0019286  6:0.094572  7:0.42016  8:0.36399  9:0.042298  10:0.027051  11:0.051928  12:0.10183  13:0.45974  14:0.29009  15:0.093662  16:0.026367  17:0.028312  18:0.21386  19:0.51985  20:0.25743  21:0.0057224  22:0.0016049  23:0.0015327  24:0  25:0  26:0  27:0  28:0  29:0  30:0  31:0  32:0  33:0  34:0  35:0  36:0  37:0  38:0  39:0  40:0  41:0  42:0  43:0  44:0  45:0  46:0  47:0
-9 0:0.24026  1:0.64048  2:0.11063  3:0.0079622  4:0.00026525  5:0.00040354  6:0.18929  7:0.52567  8:0.16329  9:0.077406  10:0.018314  11:0.02603  12:0.16733  13:0.55088  14:0.17422  15:0.064031  16:0.021926  17:0.021618  18:0.23538  19:0.62714  20:0.12739  21:0.0094655  22:0.00023694  23:0.00039027  24:0  25:0  26:0  27:0  28:0  29:0  30:0  31:0  32:0  33:0  34:0  35:0  36:0  37:0  38:0  39:0  40:0  41:0  42:0  43:0  44:0  45:0  46:0  47:0
-9 0:0.14341  1:0.59152  2:0.2512  3:0.012464  4:0.00081605  5:0.00059397  6:0.15937  7:0.53034  8:0.19794  9:0.055604  10:0.024683  11:0.032067  12:0.075591  13:0.44358  14:0.40055  15:0.038838  16:0.020219  17:0.021221  18:0.1235  19:0.66007  20:0.20266  21:0.012354  22:0.00087256  23:0.00054429  24:0  25:0  26:0  27:0  28:0  29:0  30:0  31:0  32:0  33:0  34:0  35:0  36:0  37:0  38:0  39:0  40:0  41:0  42:0  43:0  44:0  45:0  46:0  47:0
-9 0:0.14197  1:0.58229  2:0.258  3:0.016107  4:0.0010751  5:0.00055617  6:0.12662  7:0.48934  8:0.2566  9:0.066442  10:0.028408  11:0.032594  12:0.10542  13:0.51285  14:0.26968  15:0.050556  16:0.036354  17:0.025146  18:0.11962  19:0.65936  20:0.20681  21:0.012708  22:0.0010197  23:0.00048463  24:0  25:0  26:0  27:0  28:0  29:0  30:0  31:0  32:0  33:0  34:0  35:0  36:0  37:0  38:0  39:0  40:0  41:0  42:0  43:0  44:0  45:0  46:0  47:0
-9 0:0.066612  1:0.19247  2:0.67628  3:0.051935  4:0.0069879  5:0.0057119  6:0.03942  7:0.2907  8:0.42291  9:0.15546  10:0.037475  11:0.054033  12:0.085593  13:0.39676  14:0.40111  15:0.066967  16:0.030072  17:0.019489  18:0.069843  19:0.31696  20:0.54773  21:0.044375  22:0.011375  23:0.00971  24:0  25:0  26:0  27:0  28:0  29:0  30:0  31:0  32:0  33:0  34:0  35:0  36:0  37:0  38:0  39:0  40:0  41:0  42:0  43:0  44:0  45:0  46:0  47:0
-3.0985 0:0.042899  1:0.22802  2:0.68601  3:0.029198  4:0.0060674  5:0.0078042  6:0.038809  7:0.22916  8:0.4145  9:0.2138  10:0.037553  11:0.066174  12:0.078857  13:0.44782  14:0.36874  15:0.063191  16:0.02493  17:0.016461  18:0.093132  19:0.26238  20:0.55365  21:0.061068  22:0.014211  23:0.015563  24:0  25:0  26:0  27:0  28:0  29:0  30:0  31:0  32:0  33:0  34:0  35:0  36:0  37:0  38:0  39:0  40:0  41:0  42:0  43:0  44:0  45:0  46:0  47:0
-9 0:0.070585  1:0.54865  2:0.25338  3:0.10129  4:0.012347  5:0.013749  6:0.038899  7:0.42884  8:0.26312  9:0.18012  10:0.044128  11:0.044886  12:0.10152  13:0.49226  14:0.24516  15:0.07922  16:0.040205  17:0.041635  18:0.11105  19:0.36523  20:0.38588  21:0.10209  22:0.016155  23:0.019593  24:0  25:0  26:0  27:0  28:0  29:0  30:0  31:0  32:0  33:0  34:0  35:0  36:0  37:0  38:0  39:0  40:0  41:0  42:0  43:0  44:0  45:0  46:0  47:0
-9 0:0.11058  1:0.6324  2:0.23916  3:0.015524  4:0.0012364  5:0.0010946  6:0.069787  7:0.49204  8:0.27375  9:0.093935  10:0.03221  11:0.038275  12:0.13622  13:0.55376  14:0.16723  15:0.090261  16:0.0188  17:0.033721  18:0.1194  19:0.62733  20:0.24325  21:0.0075499  22:0.0012615  23:0.0012098  24:0  25:0  26:0  27:0  28:0  29:0  30:0  31:0  32:0  33:0  34:0  35:0  36:0  37:0  38:0  39:0  40:0  41:0  42:0  43:0  44:0  45:0  46:0  47:0
-9 0:0.1415  1:0.65553  2:0.19034  3:0.011361  4:0.00074847  5:0.00052643  6:0.07152  7:0.49726  8:0.31986  9:0.050833  10:0.027963  11:0.032562  12:0.15117  13:0.36139  14:0.36374  15:0.081934  16:0.020193  17:0.021578  18:0.13958  19:0.6207  20:0.2302  21:0.0082792  22:0.00072559  23:0.00050851  24:0  25:0  26:0  27:0  28:0  29:0  30:0  31:0  32:0  33:0  34:0  35:0  36:0  37:0  38:0  39:0  40:0  41:0  42:0  43:0  44:0  45:0  46:0  47:0
-9 0:0.09683  1:0.57693  2:0.27479  3:0.046366  4:0.0022095  5:0.002871  6:0.091368  7:0.34617  8:0.36097  9:0.12425  10:0.037486  11:0.039756  12:0.10633  13:0.4059  14:0.28758  15:0.12993  16:0.028167  17:0.042093  18:0.088388  19:0.55448  20:0.30487  21:0.0444  22:0.0033248  23:0.0045281  24:0  25:0  26:0  27:0  28:0  29:0  30:0  31:0  32:0  33:0  34:0  35:0  36:0  37:0  38:0  39:0  40:0  41:0  42:0  43:0  44:0  45:0  46:0  47:0
-4.0809 0:0.22734  1:0.5733  2:0.18318  3:0.015137  4:0.00051565  5:0.00053077  6:0.21453  7:0.39642  8:0.27288  9:0.070967  10:0.021499  11:0.023699  12:0.075307  13:0.55081  14:0.27149  15:0.061231  16:0.017856  17:0.023308  18:0.2121  19:0.61633  20:0.15248  21:0.017703  22:0.00083799  23:0.00054198  24:0  25:0  26:0  27:0  28:0  29:0  30:0  31:0  32:0  33:0  34:0  35:0  36:0  37:0  38:0  39:0  40:0  41:0  42:0  43:0  44:0  45:0  46:0  47:0
-5.9966 0:0.15532  1:0.71703  2:0.11552  3:0.011414  4:0.00038997  5:0.00032095  6:0.096453  7:0.65879  8:0.15212  9:0.061159  10:0.010288  11:0.021185  12:0.16284  13:0.57704  14:0.20549  15:0.036018  16:0.0099104  17:0.0087032  18:0.15475  19:0.71132  20:0.12195  21:0.011204  22:0.00040078  23:0.00037135  24:0  25:0  26:0  27:0  28:0  29:0  30:0  31:0  32:0  33:0  34:0  35:0  36:0  37:0  38:0  39:0  40:0  41:0  42:0  43:0  44:0  45:0  46:0  47:0
-9 0:0.11974  1:0.38349  2:0.46403  3:0.023093  4:0.0038032  5:0.0058478  6:0.019714  7:0.3187  8:0.43319  9:0.15352  10:0.027153  11:0.047721  12:0.13369  13:0.38546  14:0.32821  15:0.073599  16:0.028259  17:0.050777  18:0.16204  19:0.45213  20:0.34257  21:0.032419  22:0.0050384  23:0.0058109  24:0  25:0  26:0  27:0  28:0  29:0  30:0  31:0  32:0  33:0  34:0  35:0  36:0  37:0  38:0  39:0  40:0  41:0  42:0  43:0  44:0  45:0  46:0  47:0
-9 0:0.16531  1:0.68885  2:0.13903  3:0.0055882  4:0.00050125  5:0.00071895  6:0.30446  7:0.53795  8:0.10983  9:0.028037  10:0.0063778  11:0.013339  12:0.15815  13:0.60212  14:0.19432  15:0.03276  16:0.0045918  17:0.008056  18:0.16817  19:0.68886  20:0.13645  21:0.0052856  22:0.00051901  23:0.00071216  24:0  25:0  26:0  27:0  28:0  29:0  30:0  31:0  32:0  33:0  34:0  35:0  36:0  37:0  38:0  39:0  40:0  41:0  42:0  43:0  44:0  45:0  46:0  47:0
-6.7051 0:0.16914  1:0.70698  2:0.11601  3:0.0069209  4:0.00042546  5:0.00052044  6:0.2944  7:0.43431  8:0.1904  9:0.051366  10:0.010095  11:0.019438  12:0.12104  13:0.71669  14:0.1319  15:0.02013  16:0.0036819  17:0.0065575  18:0.15153  19:0.72705  20:0.11429  21:0.0060871  22:0.00043604  23:0.00060594  24:0  25:0  26:0  27:0  28:0  29:0  30:0  31:0  32:0  33:0  34:0  35:0  36:0  37:0  38:0  39:0  40:0  41:0  42:0  43:0  44:0  45:0  46:0  47:0
-9 0:0.069676  1:0.57812  2:0.31412  3:0.029801  4:0.0049573  5:0.0033304  6:0.042668  7:0.50057  8:0.24136  9:0.13439  10:0.03596  11:0.045049  12:0.079958  13:0.52013  14:0.25169  15:0.1242  16:0.0091439  17:0.014882  18:0.050551  19:0.59227  20:0.32059  21:0.027894  22:0.0038839  23:0.0048126  24:0  25:0  26:0  27:0  28:0  29:0  30:0  31:0  32:0  33:0  34:0  35:0  36:0  37:0  38:0  39:0  40:0  41:0  42:0  43:0  44:0  45:0  46:0  47:0
-8.9098 0:0.273  1:0.38937  2:0.31601  3:0.020027  4:0.00082839  5:0.00076486  6:0.16013  7:0.35494  8:0.32192  9:0.10741  10:0.02589  11:0.029711  12:0.14006  13:0.25822  14:0.40015  15:0.15462  16:0.023899  17:0.023053  18:0.2927  19:0.41227  20:0.26974  21:0.023239  22:0.0011685  23:0.00088031  24:0  25:0  26:0  27:0  28:0  29:0  30:0  31:0  32:0  33:0  34:0  35:0  36:0  37:0  38:0  39:0  40:0  41:0  42:0  43:0  44:0  45:0  46:0  47:0
-9 0:0.25552  1:0.39258  2:0.33226  3:0.017733  4:0.0010814  5:0.00082512  6:0.14131  7:0.34448  8:0.35244  9:0.11458  10:0.020396  11:0.026794  12:0.12429  13:0.48549  14:0.29083  15:0.049123  16:0.018998  17:0.031272  18:0.26791  19:0.4228  20:0.28971  21:0.017465  22:0.0010263  23:0.0010895  24:0  25:0  26:0  27:0  28:0  29:0  30:0  31:0  32:0  33:0  34:0  35:0  36:0  37:0  38:0  39:0  40:0  41:0  42:0  43:0  44:0  45:0  46:0  47:0
-9 0:0.07382  1:0.51868  2:0.37039  3:0.027317  4:0.0053516  5:0.0044409  6:0.020883  7:0.37476  8:0.40856  9:0.13717  10:0.025197  11:0.033427  12:0.13462  13:0.47366  14:0.31496  15:0.037541  16:0.012396  17:0.026817  18:0.083277  19:0.54522  20:0.34381  21:0.018164  22:0.0038909  23:0.0056394  24:0  25:0  26:0  27:0  28:0  29:0  30:0  31:0  32:0  33:0  34:0  35:0  36:0  37:0  38:0  39:0  40:0  41:0  42:0  43:0  44:0  45:0  46:0  47:0
-9 0:0.21986  1:0.49625  2:0.24566  3:0.035998  4:0.0012786  5:0.00095797  6:0.037152  7:0.49057  8:0.2699  9:0.1128  10:0.035545  11:0.054028  12:0.10014  13:0.52768  14:0.20082  15:0.14044  16:0.020134  17:0.010781  18:0.29336  19:0.45196  20:0.22338  21:0.028515  22:0.0014203  23:0.0013689  24:0  25:0  26:0  27:0  28:0  29:0  30:0  31:0  32:0  33:0  34:0  35:0  36:0  37:0  38:0  39:0  40:0  41:0  42:0  43:0  44:0  45:0  46:0  47:0
-9 0:0.15009  1:0.64682  2:0.18827  3:0.01277  4:0.00093623  5:0.0011168  6:0.072781  7:0.53171  8:0.27452  9:0.072788  10:0.021862  11:0.026334  12:0.073982  13:0.6208  14:0.23495  15:0.043299  16:0.010929  17:0.016034  18:0.1296  19:0.65264  20:0.19997  21:0.015743  22:0.001014  23:0.0010335  24:0  25:0  26:0  27:0  28:0  29:0  30:0  31:0  32:0  33:0  34:0  35:0  36:0  37:0  38:0  39:0  40:0  41:0  42:0  43:0  44:0  45:0  46:0  47:0
-9 0:0.098268  1:0.70459  2:0.17681  3:0.01878  4:0.00082895  5:0.00072626  6:0.13828  7:0.65205  8:0.13291  9:0.042889  10:0.016677  11:0.017192  12:0.090335  13:0.535  14:0.27395  15:0.048559  16:0.013845  17:0.03831  18:0.10201  19:0.69835  20:0.17289  21:0.025473  22:0.00056173  23:0.00071338  24:0  25:0  26:0  27:0  28:0  29:0  30:0  31:0  32:0  33:0  34:0  35:0  36:0  37:0  38:0  39:0  40:0  41:0  42:0  43:0  44:0  45:0  46:0  47:0
-9 0:0.047201  1:0.51628  2:0.35803  3:0.061578  4:0.0090011  5:0.007909  6:0.031712  7:0.41416  8:0.41574  9:0.088043  10:0.01947  11:0.030877  12:0.07517  13:0.58433  14:0.22458  15:0.076368  16:0.021738  17:0.017816  18:0.04221  19:0.43346  20:0.43213  21:0.074257  22:0.0097471  23:0.0081915  24:0  25:0  26:0  27:0  28:0  29:0  30:0  31:0  32:0  33:0  34:0  35:0  36:0  37:0  38:0  39:0  40:0  41:0  42:0  43:0  44:0  45:0  46:0  47:0
-9 0:0.24641  1:0.56182  2:0.18483  3:0.005853  4:0.00055527  5:0.00052498  6:0.17086  7:0.47974  8:0.22499  9:0.062545  10:0.023327  11:0.038543  12:0.1261  13:0.63292  14:0.18572  15:0.040852  16:0.0077386  17:0.0066662  18:0.2646  19:0.59773  20:0.13086  21:0.0059547  22:0.00048075  23:0.00037076  24:0  25:0  26:0  27:0  28:0  29:0  30:0  31:0  32:0  33:0  34:0  35:0  36:0  37:0  38:0  39:0  40:0  41:0  42:0  43:0  44:0  45:0  46:0  47:0
