svm_type c_svc
kernel_type rbf
degree 3
gamma 0.5
nr_class 2
total_sv 844
rho -0.6706
label 0 1
probA -2.1306
probB -0.025634
nr_sv 423 421
SV
9 0:0.36601  1:0.44406  2:0.12643  3:0.026223  4:0.017077  5:0.020209  6:0.46975  7:0.11774  8:0.10278  9:0.070275  10:0.11431  11:0.12516  12:0.46039  13:0.13521  14:0.064787  15:0.071847  16:0.12642  17:0.14134  18:0.36613  19:0.44416  20:0.11573  21:0.027445  22:0.022339  23:0.024205  24:0  25:0  26:0  27:0  28:0  29:0  30:0  31:0  32:0  33:0  34:0  35:0  36:0  37:0  38:0  39:0  40:0  41:0  42:0  43:0  44:0  45:0  46:0  47:0 
9 0:0.31019  1:0.42132  2:0.24923  3:0.017337  4:0.00087301  5:0.0010515  6:0.55665  7:0.22107  8:0.19878  9:0.018631  10:0.0023882  11:0.0024694  12:0.35469  13:0.33507  14:0.2715  15:0.031007  16:0.0042899  17:0.00345  18:0.30459  19:0.4362  20:0.24189  21:0.015581  22:0.001025  23:0.00071564  24:0  25:0  26:0  27:0  28:0  29:0  30:0  31:0  32:0  33:0  34:0  35:0  36:0  37:0  38:0  39:0  40:0  41:0  42:0  43:0  44:0  45:0  46:0  47:0 
9 0:0.1872  1:0.57254  2:0.22655  3:0.010074  4:0.0016023  5:0.002037  6:0.16633  7:0.63707  8:0.16457  9:0.028073  10:0.001857  11:0.0020907  12:0.1649  13:0.55924  14:0.26303  15:0.0099609  16:0.0016467  17:0.0012256  18:0.22153  19:0.50129  20:0.26414  21:0.011949  22:0.00057066  23:0.00051104  24:0  25:0  26:0  27:0  28:0  29:0  30:0  31:0  32:0  33:0  34:0  35:0  36:0  37:0  38:0  39:0  40:0  41:0  42:0  43:0  44:0  45:0  46:0  47:0 
9 0:0.3047  1:0.59288  2:0.090241  3:0.0099239  4:0.0012303  5:0.0010244  6:0.23762  7:0.47342  8:0.26455  9:0.019246  10:0.0031095  11:0.0020454  12:0.14795  13:0.62591  14:0.18603  15:0.032557  16:0.0044835  17:0.0030788  18:0.34624  19:0.48951  20:0.14733  21:0.015013  22:0.0011517  23:0.00074771  24:0  25:0  26:0  27:0  28:0  29:0  30:0  31:0  32:0  33:0  34:0  35:0  36:0  37:0  38:0  39:0  40:0  41:0  42:0  43:0  44:0  45:0  46:0  47:0 
6.3346 0:0.042741  1:0.63057  2:0.29706  3:0.027272  4:0.0014941  5:0.0008664  6:0.069453  7:0.69919  8:0.21273  9:0.013563  10:0.0023552  11:0.0027074  12:0.089924  13:0.57462  14:0.30893  15:0.019503  16:0.0035897  17:0.0034372  18:0.053222  19:0.58067  20:0.33213  21:0.031331  22:0.0015706  23:0.0010784  24:0  25:0  26:0  27:0  28:0  29:0  30:0  31:0  32:0  33:0  34:0  35:0  36:0  37:0  38:0  39:0  40:0  41:0  42:0  43:0  44:0  45:0  46:0  47:0 
9 0:0.094071  1:0.63195  2:0.25014  3:0.020078  4:0.0023648  5:0.0013977  6:0.20271  7:0.514  8:0.21229  9:0.055181  10:0.0088678  11:0.006948  12:0.14879  13:0.51107  14:0.27674  15:0.054028  16:0.0053784  17:0.0039965  18:0.11847  19:0.42657  20:0.37218  21:0.076576  22:0.0044409  23:0.0017622  24:0  25:0  26:0  27:0  28:0  29:0  30:0  31:0  32:0  33:0  34:0  35:0  36:0  37:0  38:0  39:0  40:0  41:0  42:0  43:0  44:0  45:0  46:0  47:0 
9 0:0.11421  1:0.54758  2:0.28951  3:0.042979  4:0.0036969  5:0.0020288  6:0.21903  7:0.29783  8:0.37519  9:0.091608  10:0.010274  11:0.0060651  12:0.083785  13:0.5947  14:0.27066  15:0.037891  16:0.0071796  17:0.0057852  18:0.1322  19:0.52381  20:0.28908  21:0.037667  22:0.011476  23:0.005766  24:0  25:0  26:0  27:0  28:0  29:0  30:0  31:0  32:0  33:0  34:0  35:0  36:0  37:0  38:0  39:0  40:0  41:0  42:0  43:0  44:0  45:0  46:0  47:0 
9 0:0.10799  1:0.60558  2:0.2528  3:0.029316  4:0.0025407  5:0.0017729  6:0.062103  7:0.48549  8:0.41738  9:0.029038  10:0.0038537  11:0.0021373  12:0.13252  13:0.60991  14:0.22143  15:0.030598  16:0.0036284  17:0.0019127  18:0.085997  19:0.54226  20:0.32892  21:0.038515  22:0.0027076  23:0.0015939  24:0  25:0  26:0  27:0  28:0  29:0  30:0  31:0  32:0  33:0  34:0  35:0  36:0  37:0  38:0  39:0  40:0  41:0  42:0  43:0  44:0  45:0  46:0  47:0 
9 0:0.11149  1:0.71792  2:0.14895  3:0.01662  4:0.0035505  5:0.0014715  6:0.064089  7:0.77127  8:0.13415  9:0.026387  10:0.0021214  11:0.0019851  12:0.13515  13:0.44482  14:0.38844  15:0.024483  16:0.004823  17:0.0022871  18:0.15173  19:0.49226  20:0.32006  21:0.02994  22:0.0037098  23:0.0023033  24:0  25:0  26:0  27:0  28:0  29:0  30:0  31:0  32:0  33:0  34:0  35:0  36:0  37:0  38:0  39:0  40:0  41:0  42:0  43:0  44:0  45:0  46:0  47:0 
9 0:0.0831  1:0.65194  2:0.23628  3:0.023032  4:0.0040886  5:0.0015632  6:0.037343  7:0.78694  8:0.14865  9:0.021017  10:0.0035347  11:0.002519  12:0.17533  13:0.46791  14:0.31458  15:0.030823  16:0.0074264  17:0.0039298  18:0.17278  19:0.44776  20:0.35699  21:0.017345  22:0.003129  23:0.0019987  24:0  25:0  26:0  27:0  28:0  29:0  30:0  31:0  32:0  33:0  34:0  35:0  36:0  37:0  38:0  39:0  40:0  41:0  42:0  43:0  44:0  45:0  46:0  47:0 
9 0:0.15116  1:0.64844  2:0.16894  3:0.024586  4:0.0039818  5:0.0028815  6:0.035392  7:0.71144  8:0.22578  9:0.01739  10:0.006358  11:0.0036418  12:0.16742  13:0.54132  14:0.20581  15:0.071023  16:0.0086909  17:0.0057358  18:0.22564  19:0.45786  20:0.25424  21:0.057347  22:0.0023205  23:0.0025899  24:0  25:0  26:0  27:0  28:0  29:0  30:0  31:0  32:0  33:0  34:0  35:0  36:0  37:0  38:0  39:0  40:0  41:0  42:0  43:0  44:0  45:0  46:0  47:0 
9 0:0.16368  1:0.56955  2:0.22256  3:0.035139  4:0.0060242  5:0.0030435  6:0.042092  7:0.75998  8:0.17173  9:0.015122  10:0.0059705  11:0.005106  12:0.068672  13:0.65648  14:0.15923  15:0.10141  16:0.0073046  17:0.0069029  18:0.12526  19:0.63248  20:0.16018  21:0.075471  22:0.0027885  23:0.0038158  24:0  25:0  26:0  27:0  28:0  29:0  30:0  31:0  32:0  33:0  34:0  35:0  36:0  37:0  38:0  39:0  40:0  41:0  42:0  43:0  44:0  45:0  46:0  47:0 
9 0:0.06541  1:0.58665  2:0.27408  3:0.068089  4:0.002977  5:0.0027944  6:0.058252  7:0.49851  8:0.36583  9:0.066902  10:0.0058165  11:0.0046832  12:0.12388  13:0.67468  14:0.15165  15:0.033713  16:0.0077272  17:0.0083548  18:0.018075  19:0.65447  20:0.28781  21:0.034495  22:0.0027547  23:0.0023927  24:0  25:0  26:0  27:0  28:0  29:0  30:0  31:0  32:0  33:0  34:0  35:0  36:0  37:0  38:0  39:0  40:0  41:0  42:0  43:0  44:0  45:0  46:0  47:0 
9 0:0.062647  1:0.66754  2:0.20978  3:0.054211  4:0.0035065  5:0.0023132  6:0.060452  7:0.51327  8:0.35432  9:0.059553  10:0.0069381  11:0.0054673  12:0.26842  13:0.36526  14:0.29624  15:0.051684  16:0.0093292  17:0.0090577  18:0.086255  19:0.48903  20:0.37243  21:0.044473  22:0.0044054  23:0.0034059  24:0  25:0  26:0  27:0  28:0  29:0  30:0  31:0  32:0  33:0  34:0  35:0  36:0  37:0  38:0  39:0  40:0  41:0  42:0  43:0  44:0  45:0  46:0  47:0 
9 0:0.051198  1:0.63653  2:0.2701  3:0.036996  4:0.0036353  5:0.0015388  6:0.052887  7:0.64935  8:0.22771  9:0.059009  10:0.0069034  11:0.0041459  12:0.16209  13:0.42091  14:0.37253  15:0.032308  16:0.0070427  17:0.0051122  18:0.10739  19:0.50701  20:0.34976  21:0.029759  22:0.0038373  23:0.0022456  24:0  25:0  26:0  27:0  28:0  29:0  30:0  31:0  32:0  33:0  34:0  35:0  36:0  37:0  38:0  39:0  40:0  41:0  42:0  43:0  44:0  45:0  46:0  47:0 
9 0:0.24983  1:0.4189  2:0.28574  3:0.040599  4:0.0029041  5:0.0020251  6:0.13002  7:0.50672  8:0.30771  9:0.043444  10:0.0069867  11:0.0051158  12:0.17995  13:0.5232  14:0.26399  15:0.023395  16:0.004509  17:0.0049574  18:0.28473  19:0.4284  20:0.21939  21:0.061817  22:0.0031547  23:0.0025216  24:0  25:0  26:0  27:0  28:0  29:0  30:0  31:0  32:0  33:0  34:0  35:0  36:0  37:0  38:0  39:0  40:0  41:0  42:0  43:0  44:0  45:0  46:0  47:0 
9 0:0.13216  1:0.59291  2:0.22618  3:0.042659  4:0.0036255  5:0.0024609  6:0.09634  7:0.52584  8:0.32305  9:0.040906  10:0.0084692  11:0.0053922  12:0.2  13:0.48818  14:0.28151  15:0.017795  16:0.0063176  17:0.006201  18:0.27831  19:0.43746  20:0.2364  21:0.04048  22:0.0044859  23:0.0028566  24:0  25:0  26:0  27:0  28:0  29:0  30:0  31:0  32:0  33:0  34:0  35:0  36:0  37:0  38:0  39:0  40:0  41:0  42:0  43:0  44:0  45:0  46:0  47:0 
9 0:0.10267  1:0.55337  2:0.28799  3:0.048549  4:0.0037431  5:0.0036818  6:0.11574  7:0.44108  8:0.36947  9:0.059735  10:0.0076186  11:0.0063632  12:0.17861  13:0.44678  14:0.32337  15:0.036143  16:0.0095076  17:0.0055977  18:0.21927  19:0.47132  20:0.27718  21:0.024911  22:0.0047934  23:0.0025198  24:0  25:0  26:0  27:0  28:0  29:0  30:0  31:0  32:0  33:0  34:0  35:0  36:0  37:0  38:0  39:0  40:0  41:0  42:0  43:0  44:0  45:0  46:0  47:0 
8.5925 0:0.16512  1:0.33024  2:0.41862  3:0.07906  4:0.0036506  5:0.0033085  6:0.0921  7:0.19938  8:0.58472  9:0.11613  10:0.0048849  11:0.002783  12:0.14432  13:0.48997  14:0.33368  15:0.024105  16:0.0057212  17:0.0022051  18:0.16552  19:0.44024  20:0.34673  21:0.0408  22:0.0038799  23:0.0028342  24:0  25:0  26:0  27:0  28:0  29:0  30:0  31:0  32:0  33:0  34:0  35:0  36:0  37:0  38:0  39:0  40:0  41:0  42:0  43:0  44:0  45:0  46:0  47:0 
9 0:0.11822  1:0.4612  2:0.40611  3:0.011952  4:0.0016048  5:0.00090752  6:0.068751  7:0.58368  8:0.26151  9:0.076775  10:0.0049575  11:0.0043316  12:0.10206  13:0.45632  14:0.39422  15:0.037356  16:0.0054307  17:0.0046106  18:0.17575  19:0.39298  20:0.38396  21:0.042268  22:0.0027602  23:0.0022831  24:0  25:0  26:0  27:0  28:0  29:0  30:0  31:0  32:0  33:0  34:0  35:0  36:0  37:0  38:0  39:0  40:0  41:0  42:0  43:0  44:0  45:0  46:0  47:0 
9 0:0.092275  1:0.54176  2:0.34935  3:0.013589  4:0.0021221  5:0.00089911  6:0.073708  7:0.62346  8:0.26112  9:0.034816  10:0.0036634  11:0.0032321  12:0.10429  13:0.47693  14:0.36675  15:0.041675  16:0.0055569  17:0.0048016  18:0.17913  19:0.58626  20:0.20248  21:0.026742  22:0.003841  23:0.001558  24:0  25:0  26:0  27:0  28:0  29:0  30:0  31:0  32:0  33:0  34:0  35:0  36:0  37:0  38:0  39:0  40:0  41:0  42:0  43:0  44:0  45:0  46:0  47:0 
9 0:0.071274  1:0.67102  2:0.2312  3:0.023104  4:0.0024584  5:0.00094214  6:0.060141  7:0.68706  8:0.2045  9:0.041034  10:0.0040972  11:0.0031662  12:0.12156  13:0.61768  14:0.22936  15:0.02487  16:0.0034663  17:0.0030642  18:0.12502  19:0.73568  20:0.1087  21:0.026445  22:0.0030937  23:0.0010588  24:0  25:0  26:0  27:0  28:0  29:0  30:0  31:0  32:0  33:0  34:0  35:0  36:0  37:0  38:0  39:0  40:0  41:0  42:0  43:0  44:0  45:0  46:0  47:0 
9 0:0.054826  1:0.7016  2:0.21634  3:0.02439  4:0.0017452  5:0.0010978  6:0.056286  7:0.76534  8:0.14288  9:0.029836  10:0.0032626  11:0.0023914  12:0.19967  13:0.57577  14:0.18682  15:0.031586  16:0.0029685  17:0.0031804  18:0.044728  19:0.72868  20:0.18563  21:0.035144  22:0.0036413  23:0.0021802  24:0  25:0  26:0  27:0  28:0  29:0  30:0  31:0  32:0  33:0  34:0  35:0  36:0  37:0  38:0  39:0  40:0  41:0  42:0  43:0  44:0  45:0  46:0  47:0 
9 0:0.067901  1:0.65075  2:0.22151  3:0.054408  4:0.0036309  5:0.0017964  6:0.084746  7:0.71137  8:0.16013  9:0.037983  10:0.0034314  11:0.0023311  12:0.30853  13:0.45203  14:0.18427  15:0.044171  16:0.0059549  17:0.005048  18:0.088312  19:0.56168  20:0.28199  21:0.058549  22:0.0057536  23:0.0037188  24:0  25:0  26:0  27:0  28:0  29:0  30:0  31:0  32:0  33:0  34:0  35:0  36:0  37:0  38:0  39:0  40:0  41:0  42:0  43:0  44:0  45:0  46:0  47:0 
9 0:0.1401  1:0.54089  2:0.2621  3:0.047952  4:0.0053706  5:0.0035789  6:0.11138  7:0.5783  8:0.25099  9:0.036613  10:0.011563  11:0.011155  12:0.054734  13:0.48893  14:0.39565  15:0.04106  16:0.011389  17:0.0082356  18:0.10729  19:0.52597  20:0.28038  21:0.074428  22:0.0076153  23:0.0043153  24:0  25:0  26:0  27:0  28:0  29:0  30:0  31:0  32:0  33:0  34:0  35:0  36:0  37:0  38:0  39:0  40:0  41:0  42:0  43:0  44:0  45:0  46:0  47:0 
9 0:0.18594  1:0.43484  2:0.33959  3:0.03481  4:0.0032762  5:0.001544  6:0.14592  7:0.53657  8:0.25304  9:0.054575  10:0.004589  11:0.0052977  12:0.072008  13:0.53102  14:0.34193  15:0.042669  16:0.0078849  17:0.00449  18:0.2198  19:0.49406  20:0.22596  21:0.053825  22:0.0028333  23:0.003518  24:0  25:0  26:0  27:0  28:0  29:0  30:0  31:0  32:0  33:0  34:0  35:0  36:0  37:0  38:0  39:0  40:0  41:0  42:0  43:0  44:0  45:0  46:0  47:0 
9 0:0.16882  1:0.51335  2:0.29361  3:0.018633  4:0.0038913  5:0.0017005  6:0.087377  7:0.62628  8:0.2385  9:0.039253  10:0.0041285  11:0.0044656  12:0.099782  13:0.53715  14:0.30516  15:0.044021  16:0.0092476  17:0.0046421  18:0.15616  19:0.46208  20:0.34814  21:0.02715  22:0.0041523  23:0.0023173  24:0  25:0  26:0  27:0  28:0  29:0  30:0  31:0  32:0  33:0  34:0  35:0  36:0  37:0  38:0  39:0  40:0  41:0  42:0  43:0  44:0  45:0  46:0  47:0 
9 0:0.1039  1:0.60935  2:0.26251  3:0.018229  4:0.0042263  5:0.0017745  6:0.10372  7:0.63619  8:0.21491  9:0.034546  10:0.0052754  11:0.0053585  12:0.12678  13:0.45932  14:0.34782  15:0.050338  16:0.010229  17:0.0055133  18:0.16262  19:0.46111  20:0.34984  21:0.018847  22:0.0052296  23:0.0023464  24:0  25:0  26:0  27:0  28:0  29:0  30:0  31:0  32:0  33:0  34:0  35:0  36:0  37:0  38:0  39:0  40:0  41:0  42:0  43:0  44:0  45:0  46:0  47:0 
9 0:0.060678  1:0.62331  2:0.2845  3:0.025701  4:0.0036538  5:0.0021518  6:0.11579  7:0.49804  8:0.33848  9:0.031631  10:0.0087957  11:0.0072598  12:0.21636  13:0.41231  14:0.30981  15:0.03627  16:0.012336  17:0.012921  18:0.16481  19:0.57786  20:0.21578  21:0.034575  22:0.0043139  23:0.0026587  24:0  25:0  26:0  27:0  28:0  29:0  30:0  31:0  32:0  33:0  34:0  35:0  36:0  37:0  38:0  39:0  40:0  41:0  42:0  43:0  44:0  45:0  46:0  47:0 
9 0:0.084633  1:0.53533  2:0.30772  3:0.063629  4:0.0056651  5:0.0030201  6:0.088381  7:0.46122  8:0.40561  9:0.028059  10:0.01109  11:0.0056438  12:0.28098  13:0.50208  14:0.16459  15:0.035722  16:0.0080798  17:0.0085592  18:0.18465  19:0.53404  20:0.22939  21:0.044091  22:0.006029  23:0.0017985  24:0  25:0  26:0  27:0  28:0  29:0  30:0  31:0  32:0  33:0  34:0  35:0  36:0  37:0  38:0  39:0  40:0  41:0  42:0  43:0  44:0  45:0  46:0  47:0 
9 0:0.049936  1:0.65605  2:0.23668  3:0.049215  4:0.0051716  5:0.0029445  6:0.054726  7:0.58008  8:0.30341  9:0.049992  10:0.0068176  11:0.0049722  12:0.087825  13:0.54022  14:0.30103  15:0.057204  16:0.0051253  17:0.0085964  18:0.04847  19:0.54093  20:0.34512  21:0.057361  22:0.0050354  23:0.0030816  24:0  25:0  26:0  27:0  28:0  29:0  30:0  31:0  32:0  33:0  34:0  35:0  36:0  37:0  38:0  39:0  40:0  41:0  42:0  43:0  44:0  45:0  46:0  47:0 
9 0:0.088355  1:0.66151  2:0.20016  3:0.040681  4:0.0065364  5:0.0027643  6:0.071867  7:0.34897  8:0.5035  9:0.058785  10:0.0076336  11:0.0092438  12:0.11582  13:0.52352  14:0.26344  15:0.083569  16:0.0062536  17:0.0074029  18:0.055707  19:0.48582  20:0.35574  21:0.089674  22:0.0081339  23:0.0049216  24:0  25:0  26:0  27:0  28:0  29:0  30:0  31:0  32:0  33:0  34:0  35:0  36:0  37:0  38:0  39:0  40:0  41:0  42:0  43:0  44:0  45:0  46:0  47:0 
9 0:0.07459  1:0.57057  2:0.31982  3:0.028712  4:0.0039857  5:0.0023227  6:0.067193  7:0.35279  8:0.50359  9:0.059947  10:0.0073563  11:0.009129  12:0.065305  13:0.60238  14:0.26483  15:0.054809  16:0.0058729  17:0.0068036  18:0.086774  19:0.57456  20:0.25274  21:0.074983  22:0.0066959  23:0.0042494  24:0  25:0  26:0  27:0  28:0  29:0  30:0  31:0  32:0  33:0  34:0  35:0  36:0  37:0  38:0  39:0  40:0  41:0  42:0  43:0  44:0  45:0  46:0  47:0 
9 0:0.18482  1:0.41824  2:0.36039  3:0.0303  4:0.0041775  5:0.0020741  6:0.085513  7:0.49996  8:0.3498  9:0.046882  10:0.011012  11:0.0068365  12:0.11118  13:0.58725  14:0.24603  15:0.048403  16:0.0032362  17:0.0039004  18:0.16796  19:0.51059  20:0.26845  21:0.048466  22:0.0030668  23:0.0014668  24:0  25:0  26:0  27:0  28:0  29:0  30:0  31:0  32:0  33:0  34:0  35:0  36:0  37:0  38:0  39:0  40:0  41:0  42:0  43:0  44:0  45:0  46:0  47:0 
9 0:0.12539  1:0.64194  2:0.18772  3:0.037257  4:0.0046372  5:0.0030594  6:0.097406  7:0.46013  8:0.35965  9:0.064719  10:0.010169  11:0.0079311  12:0.16969  13:0.38307  14:0.39365  15:0.039355  16:0.0056  17:0.0086409  18:0.16656  19:0.5347  20:0.23095  21:0.059811  22:0.0040862  23:0.0038869  24:0  25:0  26:0  27:0  28:0  29:0  30:0  31:0  32:0  33:0  34:0  35:0  36:0  37:0  38:0  39:0  40:0  41:0  42:0  43:0  44:0  45:0  46:0  47:0 
9 0:0.061163  1:0.68619  2:0.2099  3:0.036189  4:0.00422  5:0.0023392  6:0.11393  7:0.52272  8:0.31969  9:0.029291  10:0.0077961  11:0.0065768  12:0.13399  13:0.56451  14:0.26359  15:0.026357  16:0.0046934  17:0.0068587  18:0.12069  19:0.64324  20:0.20637  21:0.024704  22:0.0028707  23:0.0021306  24:0  25:0  26:0  27:0  28:0  29:0  30:0  31:0  32:0  33:0  34:0  35:0  36:0  37:0  38:0  39:0  40:0  41:0  42:0  43:0  44:0  45:0  46:0  47:0 
9 0:0.062526  1:0.59006  2:0.30176  3:0.037734  4:0.0061411  5:0.00177  6:0.23674  7:0.44683  8:0.26944  9:0.036151  10:0.0067759  11:0.0040647  12:0.23633  13:0.21426  14:0.49593  15:0.036548  16:0.010159  17:0.0067733  18:0.066658  19:0.61842  20:0.27719  21:0.031412  22:0.0044537  23:0.0018659  24:0  25:0  26:0  27:0  28:0  29:0  30:0  31:0  32:0  33:0  34:0  35:0  36:0  37:0  38:0  39:0  40:0  41:0  42:0  43:0  44:0  45:0  46:0  47:0 
9 0:0.070129  1:0.66657  2:0.21493  3:0.040911  4:0.0048921  5:0.0025673  6:0.15201  7:0.54723  8:0.26417  9:0.027148  10:0.0057889  11:0.0036608  12:0.23921  13:0.49639  14:0.18927  15:0.053956  16:0.0129  17:0.008277  18:0.086176  19:0.6014  20:0.26137  21:0.042708  22:0.005167  23:0.0031863  24:0  25:0  26:0  27:0  28:0  29:0  30:0  31:0  32:0  33:0  34:0  35:0  36:0  37:0  38:0  39:0  40:0  41:0  42:0  43:0  44:0  45:0  46:0  47:0 
9 0:0.06131  1:0.73506  2:0.16816  3:0.028092  4:0.0047659  5:0.0026179  6:0.13525  7:0.63332  8:0.18136  9:0.038508  10:0.0056688  11:0.0059001  12:0.15498  13:0.60632  14:0.17474  15:0.047069  16:0.009446  17:0.0074488  18:0.11539  19:0.62025  20:0.18893  21:0.064606  22:0.0066771  23:0.0041463  24:0  25:0  26:0  27:0  28:0  29:0  30:0  31:0  32:0  33:0  34:0  35:0  36:0  37:0  38:0  39:0  40:0  41:0  42:0  43:0  44:0  45:0  46:0  47:0 
9 0:0.13929  1:0.64418  2:0.11821  3:0.09309  4:0.0037615  5:0.0014663  6:0.11944  7:0.50801  8:0.31588  9:0.045796  10:0.0058809  11:0.0049917  12:0.078446  13:0.56707  14:0.19409  15:0.15167  16:0.0051849  17:0.0035319  18:0.25167  19:0.53087  20:0.10902  21:0.10338  22:0.0033782  23:0.001678  24:0  25:0  26:0  27:0  28:0  29:0  30:0  31:0  32:0  33:0  34:0  35:0  36:0  37:0  38:0  39:0  40:0  41:0  42:0  43:0  44:0  45:0  46:0  47:0 
9 0:0.098131  1:0.6609  2:0.16131  3:0.074927  4:0.0027766  5:0.0019567  6:0.075784  7:0.45513  8:0.41241  9:0.043081  10:0.0076432  11:0.0059469  12:0.1096  13:0.43938  14:0.38426  15:0.05698  16:0.0065469  17:0.0032356  18:0.12005  19:0.51815  20:0.28768  21:0.066181  22:0.00581  23:0.0021312  24:0  25:0  26:0  27:0  28:0  29:0  30:0  31:0  32:0  33:0  34:0  35:0  36:0  37:0  38:0  39:0  40:0  41:0  42:0  43:0  44:0  45:0  46:0  47:0 
9 0:0.096818  1:0.59611  2:0.23751  3:0.062863  4:0.0044626  5:0.0022382  6:0.087556  7:0.34635  8:0.51617  9:0.039214  10:0.007142  11:0.0035765  12:0.085728  13:0.63612  14:0.21851  15:0.047124  16:0.0080769  17:0.0044424  18:0.10157  19:0.57474  20:0.26389  21:0.050051  22:0.0063025  23:0.0034485  24:0  25:0  26:0  27:0  28:0  29:0  30:0  31:0  32:0  33:0  34:0  35:0  36:0  37:0  38:0  39:0  40:0  41:0  42:0  43:0  44:0  45:0  46:0  47:0 
9 0:0.073181  1:0.61131  2:0.24285  3:0.067653  4:0.0030883  5:0.0019135  6:0.16563  7:0.30808  8:0.46042  9:0.051394  10:0.0095561  11:0.0049138  12:0.23093  13:0.51554  14:0.20077  15:0.044107  16:0.0048871  17:0.0037763  18:0.17456  19:0.62661  20:0.17324  21:0.022407  22:0.0015153  23:0.0016708  24:0  25:0  26:0  27:0  28:0  29:0  30:0  31:0  32:0  33:0  34:0  35:0  36:0  37:0  38:0  39:0  40:0  41:0  42:0  43:0  44:0  45:0  46:0  47:0 
9 0:0.093215  1:0.58065  2:0.27451  3:0.047208  4:0.0024606  5:0.0019537  6:0.24494  7:0.40387  8:0.27911  9:0.056212  10:0.010501  11:0.0053669  12:0.20513  13:0.48361  14:0.23788  15:0.067373  16:0.0034819  17:0.0025261  18:0.16725  19:0.60174  20:0.21795  21:0.010621  22:0.0013553  23:0.0010834  24:0  25:0  26:0  27:0  28:0  29:0  30:0  31:0  32:0  33:0  34:0  35:0  36:0  37:0  38:0  39:0  40:0  41:0  42:0  43:0  44:0  45:0  46:0  47:0 
9 0:0.078271  1:0.76498  2:0.10755  3:0.044306  4:0.0034207  5:0.0014687  6:0.055592  7:0.64365  8:0.26304  9:0.030577  10:0.0043012  11:0.0028419  12:0.06096  13:0.49237  14:0.37908  15:0.056872  16:0.0064292  17:0.0042838  18:0.12666  19:0.64343  20:0.18138  21:0.042396  22:0.0031048  23:0.0030302  24:0  25:0  26:0  27:0  28:0  29:0  30:0  31:0  32:0  33:0  34:0  35:0  36:0  37:0  38:0  39:0  40:0  41:0  42:0  43:0  44:0  45:0  46:0  47:0 
9 0:0.098399  1:0.74481  2:0.11229  3:0.039418  4:0.0036899  5:0.0013901  6:0.040544  7:0.68332  8:0.2464  9:0.024376  10:0.0027948  11:0.0025572  12:0.077059  13:0.59883  14:0.26198  15:0.051803  16:0.0065909  17:0.0037412  18:0.1596  19:0.56968  20:0.20901  21:0.050732  22:0.0071917  23:0.003784  24:0  25:0  26:0  27:0  28:0  29:0  30:0  31:0  32:0  33:0  34:0  35:0  36:0  37:0  38:0  39:0  40:0  41:0  42:0  43:0  44:0  45:0  46:0  47:0 
9 0:0.058289  1:0.57413  2:0.31571  3:0.047418  4:0.0030583  5:0.0013899  6:0.11352  7:0.39168  8:0.40082  9:0.077515  10:0.010723  11:0.0057441  12:0.037706  13:0.56035  14:0.37226  15:0.020632  16:0.0053783  17:0.0036702  18:0.30261  19:0.46745  20:0.21469  21:0.013415  22:0.0012324  23:0.0006117  24:0  25:0  26:0  27:0  28:0  29:0  30:0  31:0  32:0  33:0  34:0  35:0  36:0  37:0  38:0  39:0  40:0  41:0  42:0  43:0  44:0  45:0  46:0  47:0 
9 0:0.07571  1:0.50946  2:0.33243  3:0.077117  4:0.0032575  5:0.0020253  6:0.14937  7:0.32727  8:0.38127  9:0.12771  10:0.0094573  11:0.0049168  12:0.039855  13:0.44114  14:0.47535  15:0.032779  16:0.0064396  17:0.0044351  18:0.31048  19:0.45779  20:0.2137  21:0.016343  22:0.0010934  23:0.00059975  24:0  25:0  26:0  27:0  28:0  29:0  30:0  31:0  32:0  33:0  34:0  35:0  36:0  37:0  38:0  39:0  40:0  41:0  42:0  43:0  44:0  45:0  46:0  47:0 
9 0:0.083736  1:0.61367  2:0.27745  3:0.020906  4:0.0023489  5:0.0018848  6:0.14645  7:0.49656  8:0.3034  9:0.039273  10:0.0088512  11:0.0054698  12:0.063023  13:0.68145  14:0.21534  15:0.025914  16:0.0069324  17:0.0073422  18:0.019763  19:0.7487  20:0.20403  21:0.02254  22:0.0028759  23:0.002085  24:0  25:0  26:0  27:0  28:0  29:0  30:0  31:0  32:0  33:0  34:0  35:0  36:0  37:0  38:0  39:0  40:0  41:0  42:0  43:0  44:0  45:0  46:0  47:0 
9 0:0.20763  1:0.47443  2:0.28006  3:0.032118  4:0.0031272  5:0.0026346  6:0.10111  7:0.56158  8:0.30524  9:0.023606  10:0.0047802  11:0.0036884  12:0.12742  13:0.67716  14:0.16325  15:0.023167  16:0.0055902  17:0.0034123  18:0.34935  19:0.37166  20:0.25649  21:0.019587  22:0.0017943  23:0.0011169  24:0  25:0  26:0  27:0  28:0  29:0  30:0  31:0  32:0  33:0  34:0  35:0  36:0  37:0  38:0  39:0  40:0  41:0  42:0  43:0  44:0  45:0  46:0  47:0 
9 0:0.23325  1:0.51161  2:0.20663  3:0.043815  4:0.0025451  5:0.0021502  6:0.032853  7:0.50669  8:0.39489  9:0.05683  10:0.0050536  11:0.0036828  12:0.14953  13:0.64872  14:0.15395  15:0.03881  16:0.0061073  17:0.0028908  18:0.31848  19:0.45218  20:0.20645  21:0.02126  22:0.001079  23:0.00055758  24:0  25:0  26:0  27:0  28:0  29:0  30:0  31:0  32:0  33:0  34:0  35:0  36:0  37:0  38:0  39:0  40:0  41:0  42:0  43:0  44:0  45:0  46:0  47:0 
9 0:0.17758  1:0.56059  2:0.21329  3:0.042743  4:0.0039527  5:0.0018425  6:0.079107  7:0.3857  8:0.43267  9:0.089233  10:0.0097627  11:0.0035311  12:0.13927  13:0.49013  14:0.25654  15:0.094103  16:0.012703  17:0.0072582  18:0.30309  19:0.49257  20:0.17954  21:0.023432  22:0.00088924  23:0.0004882  24:0  25:0  26:0  27:0  28:0  29:0  30:0  31:0  32:0  33:0  34:0  35:0  36:0  37:0  38:0  39:0  40:0  41:0  42:0  43:0  44:0  45:0  46:0  47:0 
9 0:0.073121  1:0.60726  2:0.2766  3:0.035375  4:0.0048936  5:0.0027493  6:0.09122  7:0.38159  8:0.42172  9:0.090771  10:0.0097647  11:0.0049326  12:0.060604  13:0.49313  14:0.361  15:0.065043  16:0.010146  17:0.010071  18:0.30737  19:0.47486  20:0.19158  21:0.023138  22:0.0018371  23:0.0012156  24:0  25:0  26:0  27:0  28:0  29:0  30:0  31:0  32:0  33:0  34:0  35:0  36:0  37:0  38:0  39:0  40:0  41:0  42:0  43:0  44:0  45:0  46:0  47:0 
0.97918 0:0.056857  1:0.54878  2:0.33533  3:0.051552  4:0.0046781  5:0.0028096  6:0.063219  7:0.52946  8:0.30164  9:0.096601  10:0.0048187  11:0.0042614  12:0.13947  13:0.44525  14:0.35088  15:0.048972  16:0.0078529  17:0.0075634  18:0.090725  19:0.59331  20:0.24878  21:0.057335  22:0.0069026  23:0.0029516  24:0  25:0  26:0  27:0  28:0  29:0  30:0  31:0  32:0  33:0  34:0  35:0  36:0  37:0  38:0  39:0  40:0  41:0  42:0  43:0  44:0  45:0  46:0  47:0 
9 0:0.080017  1:0.60398  2:0.27544  3:0.035556  4:0.003267  5:0.0017392  6:0.10026  7:0.5421  8:0.26501  9:0.082017  10:0.005815  11:0.0048022  12:0.16258  13:0.44424  14:0.32216  15:0.053235  16:0.011765  17:0.0060224  18:0.090567  19:0.52774  20:0.31081  21:0.059176  22:0.0088884  23:0.0028185  24:0  25:0  26:0  27:0  28:0  29:0  30:0  31:0  32:0  33:0  34:0  35:0  36:0  37:0  38:0  39:0  40:0  41:0  42:0  43:0  44:0  45:0  46:0  47:0 
9 0:0.078619  1:0.59744  2:0.28664  3:0.03205  4:0.0036511  5:0.0016042  6:0.13432  7:0.40657  8:0.37798  9:0.064644  10:0.010035  11:0.0064407  12:0.091312  13:0.54405  14:0.2921  15:0.05913  16:0.0084389  17:0.004967  18:0.067206  19:0.52881  20:0.34759  21:0.047746  22:0.0065491  23:0.0020912  24:0  25:0  26:0  27:0  28:0  29:0  30:0  31:0  32:0  33:0  34:0  35:0  36:0  37:0  38:0  39:0  40:0  41:0  42:0  43:0  44:0  45:0  46:0  47:0 
9 0:0.083725  1:0.58139  2:0.27289  3:0.055391  4:0.0040757  5:0.002532  6:0.03207  7:0.62684  8:0.27157  9:0.057578  10:0.0077894  11:0.004152  12:0.15122  13:0.59075  14:0.20231  15:0.046495  16:0.004785  17:0.0044412  18:0.071959  19:0.64576  20:0.221  21:0.053205  22:0.0049329  23:0.0031382  24:0  25:0  26:0  27:0  28:0  29:0  30:0  31:0  32:0  33:0  34:0  35:0  36:0  37:0  38:0  39:0  40:0  41:0  42:0  43:0  44:0  45:0  46:0  47:0 
9 0:0.14436  1:0.56591  2:0.23363  3:0.050939  4:0.0028625  5:0.0022857  6:0.031021  7:0.66752  8:0.24212  9:0.047116  10:0.0080083  11:0.0042114  12:0.18339  13:0.55072  14:0.21309  15:0.043017  16:0.00523  17:0.0045481  18:0.095489  19:0.6782  20:0.19009  21:0.029684  22:0.004275  23:0.0022696  24:0  25:0  26:0  27:0  28:0  29:0  30:0  31:0  32:0  33:0  34:0  35:0  36:0  37:0  38:0  39:0  40:0  41:0  42:0  43:0  44:0  45:0  46:0  47:0 
9 0:0.072876  1:0.59491  2:0.28585  3:0.03704  4:0.0073963  5:0.0019252  6:0.12415  7:0.59597  8:0.23898  9:0.030468  10:0.0076516  11:0.0027718  12:0.15549  13:0.50925  14:0.27591  15:0.044964  16:0.010435  17:0.0039474  18:0.10846  19:0.61906  20:0.24211  21:0.02318  22:0.0052592  23:0.0019241  24:0  25:0  26:0  27:0  28:0  29:0  30:0  31:0  32:0  33:0  34:0  35:0  36:0  37:0  38:0  39:0  40:0  41:0  42:0  43:0  44:0  45:0  46:0  47:0 
9 0:0.067697  1:0.56501  2:0.29178  3:0.066487  4:0.0064903  5:0.002538  6:0.14099  7:0.51191  8:0.20529  9:0.12995  10:0.009085  11:0.0027787  12:0.17536  13:0.32716  14:0.42615  15:0.055571  16:0.010787  17:0.004966  18:0.12873  19:0.54481  20:0.27165  21:0.047181  22:0.0059108  23:0.0017239  24:0  25:0  26:0  27:0  28:0  29:0  30:0  31:0  32:0  33:0  34:0  35:0  36:0  37:0  38:0  39:0  40:0  41:0  42:0  43:0  44:0  45:0  46:0  47:0 
9 0:0.04755  1:0.68709  2:0.22035  3:0.041387  4:0.0029635  5:0.00065919  6:0.052044  7:0.66105  8:0.22932  9:0.051646  10:0.0034909  11:0.0024413  12:0.069876  13:0.55264  14:0.33526  15:0.036682  16:0.0033084  17:0.0022332  18:0.057522  19:0.50994  20:0.38739  21:0.042998  22:0.0014168  23:0.00073077  24:0  25:0  26:0  27:0  28:0  29:0  30:0  31:0  32:0  33:0  34:0  35:0  36:0  37:0  38:0  39:0  40:0  41:0  42:0  43:0  44:0  45:0  46:0  47:0 
9 0:0.12912  1:0.53089  2:0.28194  3:0.052755  4:0.0035668  5:0.0017258  6:0.10045  7:0.47415  8:0.33443  9:0.08206  10:0.0044066  11:0.0045088  12:0.16192  13:0.47028  14:0.28558  15:0.071527  16:0.0062901  17:0.0043986  18:0.17945  19:0.45453  20:0.30669  21:0.055206  22:0.0027523  23:0.0013692  24:0  25:0  26:0  27:0  28:0  29:0  30:0  31:0  32:0  33:0  34:0  35:0  36:0  37:0  38:0  39:0  40:0  41:0  42:0  43:0  44:0  45:0  46:0  47:0 
9 0:0.12652  1:0.62558  2:0.20086  3:0.04124  4:0.0034664  5:0.0023368  6:0.11485  7:0.46501  8:0.3367  9:0.071049  10:0.0065181  11:0.0058682  12:0.21135  13:0.41285  14:0.27265  15:0.085118  16:0.0094553  17:0.0085825  18:0.14132  19:0.67792  20:0.14549  21:0.030972  22:0.0028726  23:0.001428  24:0  25:0  26:0  27:0  28:0  29:0  30:0  31:0  32:0  33:0  34:0  35:0  36:0  37:0  38:0  39:0  40:0  41:0  42:0  43:0  44:0  45:0  46:0  47:0 
9 0:0.041452  1:0.74419  2:0.17856  3:0.030237  4:0.0032025  5:0.0023544  6:0.1216  7:0.48469  8:0.33316  9:0.046336  10:0.0088144  11:0.0054013  12:0.097521  13:0.62033  14:0.24262  15:0.033538  16:0.0026709  17:0.0033197  18:0.047944  19:0.76967  20:0.14274  21:0.036491  22:0.0018693  23:0.0012856  24:0  25:0  26:0  27:0  28:0  29:0  30:0  31:0  32:0  33:0  34:0  35:0  36:0  37:0  38:0  39:0  40:0  41:0  42:0  43:0  44:0  45:0  46:0  47:0 
9 0:0.15862  1:0.5658  2:0.22026  3:0.046319  4:0.0058732  5:0.0031288  6:0.090567  7:0.39081  8:0.44647  9:0.055153  10:0.011802  11:0.0051937  12:0.24062  13:0.51473  14:0.18803  15:0.041027  16:0.010828  17:0.0047682  18:0.20854  19:0.54953  20:0.18246  21:0.050457  22:0.0051722  23:0.0038355  24:0  25:0  26:0  27:0  28:0  29:0  30:0  31:0  32:0  33:0  34:0  35:0  36:0  37:0  38:0  39:0  40:0  41:0  42:0  43:0  44:0  45:0  46:0  47:0 
2.0729 0:0.12881  1:0.49603  2:0.30111  3:0.064295  4:0.0071297  5:0.002622  6:0.042689  7:0.64769  8:0.21888  9:0.080569  10:0.0051733  11:0.0049987  12:0.29841  13:0.31755  14:0.28409  15:0.085071  16:0.010067  17:0.004811  18:0.027495  19:0.61804  20:0.30486  21:0.048728  22:0.00072095  23:0.00015527  24:0  25:0  26:0  27:0  28:0  29:0  30:0  31:0  32:0  33:0  34:0  35:0  36:0  37:0  38:0  39:0  40:0  41:0  42:0  43:0  44:0  45:0  46:0  47:0 
9 0:0.2209  1:0.52238  2:0.1961  3:0.053483  4:0.0043144  5:0.0028301  6:0.066627  7:0.53307  8:0.29251  9:0.091891  10:0.0083021  11:0.0075954  12:0.111  13:0.60599  14:0.21226  15:0.060521  16:0.0065362  17:0.0036959  18:0.11427  19:0.42029  20:0.42535  21:0.035181  22:0.003219  23:0.0016968  24:0  25:0  26:0  27:0  28:0  29:0  30:0  31:0  32:0  33:0  34:0  35:0  36:0  37:0  38:0  39:0  40:0  41:0  42:0  43:0  44:0  45:0  46:0  47:0 
9 0:0.10193  1:0.55893  2:0.29769  3:0.034069  4:0.0054668  5:0.001916  6:0.16272  7:0.67594  8:0.13107  9:0.019422  10:0.0059591  11:0.0048949  12:0.13548  13:0.58065  14:0.23574  15:0.033076  16:0.0084001  17:0.0066511  18:0.19728  19:0.52241  20:0.21796  21:0.051376  22:0.0083018  23:0.0026782  24:0  25:0  26:0  27:0  28:0  29:0  30:0  31:0  32:0  33:0  34:0  35:0  36:0  37:0  38:0  39:0  40:0  41:0  42:0  43:0  44:0  45:0  46:0  47:0 
9 0:0.14057  1:0.55849  2:0.24838  3:0.042937  4:0.0072531  5:0.0023679  6:0.18664  7:0.59132  8:0.17079  9:0.035859  10:0.0085115  11:0.0068797  12:0.14578  13:0.46163  14:0.33528  15:0.037125  16:0.012978  17:0.0072044  18:0.14237  19:0.50572  20:0.29182  21:0.050174  22:0.0076549  23:0.0022651  24:0  25:0  26:0  27:0  28:0  29:0  30:0  31:0  32:0  33:0  34:0  35:0  36:0  37:0  38:0  39:0  40:0  41:0  42:0  43:0  44:0  45:0  46:0  47:0 
9 0:0.18127  1:0.48983  2:0.28634  3:0.037625  4:0.0027065  5:0.0022209  6:0.15034  7:0.47923  8:0.32585  9:0.027843  10:0.0058803  11:0.010864  12:0.25739  13:0.38901  14:0.25189  15:0.058842  16:0.011984  17:0.030875  18:0.17766  19:0.51224  20:0.26901  21:0.033269  22:0.003716  23:0.004103  24:0  25:0  26:0  27:0  28:0  29:0  30:0  31:0  32:0  33:0  34:0  35:0  36:0  37:0  38:0  39:0  40:0  41:0  42:0  43:0  44:0  45:0  46:0  47:0 
9 0:0.097821  1:0.44744  2:0.39193  3:0.055871  4:0.0033337  5:0.003606  6:0.23623  7:0.44473  8:0.24669  9:0.038377  10:0.015897  11:0.018074  12:0.15335  13:0.38295  14:0.24495  15:0.14691  16:0.025503  17:0.046334  18:0.11742  19:0.51916  20:0.31373  21:0.037297  22:0.00464  23:0.0077507  24:0  25:0  26:0  27:0  28:0  29:0  30:0  31:0  32:0  33:0  34:0  35:0  36:0  37:0  38:0  39:0  40:0  41:0  42:0  43:0  44:0  45:0  46:0  47:0 
9 0:0.10851  1:0.49972  2:0.31323  3:0.065354  4:0.0054458  5:0.0077396  6:0.35261  7:0.40703  8:0.12158  9:0.072814  10:0.018689  11:0.027288  12:0.095818  13:0.48206  14:0.22585  15:0.12793  16:0.025603  17:0.042736  18:0.068171  19:0.64727  20:0.21091  21:0.047344  22:0.009277  23:0.017028  24:0  25:0  26:0  27:0  28:0  29:0  30:0  31:0  32:0  33:0  34:0  35:0  36:0  37:0  38:0  39:0  40:0  41:0  42:0  43:0  44:0  45:0  46:0  47:0 
9 0:0.21731  1:0.52682  2:0.20555  3:0.041648  4:0.0034663  5:0.0052109  6:0.32723  7:0.47708  8:0.11845  9:0.047896  10:0.010369  11:0.01898  12:0.094213  13:0.53661  14:0.22679  15:0.09302  16:0.013224  17:0.036138  18:0.15896  19:0.60863  20:0.19778  21:0.01973  22:0.0052024  23:0.0096944  24:0  25:0  26:0  27:0  28:0  29:0  30:0  31:0  32:0  33:0  34:0  35:0  36:0  37:0  38:0  39:0  40:0  41:0  42:0  43:0  44:0  45:0  46:0  47:0 
9 0:0.22944  1:0.46559  2:0.23896  3:0.057376  4:0.0037195  5:0.0049023  6:0.25361  7:0.50842  8:0.17519  9:0.041755  10:0.0076107  11:0.013416  12:0.083903  13:0.46811  14:0.30956  15:0.090658  16:0.014938  17:0.032832  18:0.21365  19:0.53917  20:0.21783  21:0.015206  22:0.0047011  23:0.0094465  24:0  25:0  26:0  27:0  28:0  29:0  30:0  31:0  32:0  33:0  34:0  35:0  36:0  37:0  38:0  39:0  40:0  41:0  42:0  43:0  44:0  45:0  46:0  47:0 
9 0:0.14893  1:0.33838  2:0.38288  3:0.11092  4:0.0084674  5:0.010416  6:0.11525  7:0.4618  8:0.2584  9:0.11154  10:0.013421  11:0.039581  12:0.052731  13:0.42438  14:0.36667  15:0.096748  16:0.021802  17:0.037665  18:0.20038  19:0.34203  20:0.34959  21:0.080775  22:0.010693  23:0.016535  24:0  25:0  26:0  27:0  28:0  29:0  30:0  31:0  32:0  33:0  34:0  35:0  36:0  37:0  38:0  39:0  40:0  41:0  42:0  43:0  44:0  45:0  46:0  47:0 
9 0:0.1444  1:0.41246  2:0.36267  3:0.068976  4:0.0055075  5:0.0059863  6:0.068696  7:0.68128  8:0.17899  9:0.047827  10:0.0076392  11:0.015569  12:0.056873  13:0.40297  14:0.34789  15:0.14169  16:0.019024  17:0.031557  18:0.1504  19:0.50003  20:0.26041  21:0.073942  22:0.008428  23:0.0067862  24:0  25:0  26:0  27:0  28:0  29:0  30:0  31:0  32:0  33:0  34:0  35:0  36:0  37:0  38:0  39:0  40:0  41:0  42:0  43:0  44:0  45:0  46:0  47:0 
9 0:0.073493  1:0.61203  2:0.26032  3:0.042998  4:0.0051434  5:0.0060194  6:0.32046  7:0.49985  8:0.14349  9:0.029046  10:0.0043723  11:0.0027842  12:0.10379  13:0.33718  14:0.33821  15:0.16102  16:0.026325  17:0.033462  18:0.064086  19:0.48496  20:0.31385  21:0.11407  22:0.012635  23:0.010406  24:0  25:0  26:0  27:0  28:0  29:0  30:0  31:0  32:0  33:0  34:0  35:0  36:0  37:0  38:0  39:0  40:0  41:0  42:0  43:0  44:0  45:0  46:0  47:0 
9 0:0.303  1:0.65354  2:0.032916  3:0.0093722  4:0.00067222  5:0.00050713  6:0.11745  7:0.63746  8:0.22737  9:0.017061  10:0.00042624  11:0.00023389  12:0.10788  13:0.4289  14:0.24862  15:0.14076  16:0.027972  17:0.045868  18:0.050059  19:0.29344  20:0.49946  21:0.13265  22:0.012086  23:0.012303  24:0  25:0  26:0  27:0  28:0  29:0  30:0  31:0  32:0  33:0  34:0  35:0  36:0  37:0  38:0  39:0  40:0  41:0  42:0  43:0  44:0  45:0  46:0  47:0 
9 0:0.43924  1:0.50671  2:0.044268  3:0.008954  4:0.00051867  5:0.00030426  6:0.13737  7:0.60503  8:0.23905  9:0.017999  10:0.00034123  11:0.0002173  12:0.11414  13:0.46811  14:0.23752  15:0.12927  16:0.016738  17:0.034221  18:0.098185  19:0.393  20:0.40984  21:0.081981  22:0.007072  23:0.0099228  24:0  25:0  26:0  27:0  28:0  29:0  30:0  31:0  32:0  33:0  34:0  35:0  36:0  37:0  38:0  39:0  40:0  41:0  42:0  43:0  44:0  45:0  46:0  47:0 
9 0:0.2638  1:0.40177  2:0.30642  3:0.021254  4:0.0029425  5:0.0038102  6:0.083535  7:0.60137  8:0.26862  9:0.027869  10:0.0076584  11:0.010943  12:0.045458  13:0.57474  14:0.29896  15:0.053816  16:0.011221  17:0.015803  18:0.10608  19:0.63638  20:0.16329  21:0.070482  22:0.011811  23:0.011956  24:0  25:0  26:0  27:0  28:0  29:0  30:0  31:0  32:0  33:0  34:0  35:0  36:0  37:0  38:0  39:0  40:0  41:0  42:0  43:0  44:0  45:0  46:0  47:0 
9 0:0.18852  1:0.46007  2:0.29822  3:0.03754  4:0.0080977  5:0.0075512  6:0.13495  7:0.52783  8:0.22892  9:0.065412  10:0.020609  11:0.022279  12:0.032381  13:0.61373  14:0.2762  15:0.054359  16:0.01097  17:0.012366  18:0.21732  19:0.67236  20:0.084126  21:0.018492  22:0.0038727  23:0.0038257  24:0  25:0  26:0  27:0  28:0  29:0  30:0  31:0  32:0  33:0  34:0  35:0  36:0  37:0  38:0  39:0  40:0  41:0  42:0  43:0  44:0  45:0  46:0  47:0 
9 0:0.10709  1:0.57687  2:0.22322  3:0.071869  4:0.010725  5:0.010225  6:0.11028  7:0.58298  8:0.24111  9:0.023352  10:0.025053  11:0.017233  12:0.10431  13:0.62039  14:0.22046  15:0.038218  16:0.0090546  17:0.007577  18:0.19354  19:0.53922  20:0.21094  21:0.038171  22:0.011641  23:0.006495  24:0  25:0  26:0  27:0  28:0  29:0  30:0  31:0  32:0  33:0  34:0  35:0  36:0  37:0  38:0  39:0  40:0  41:0  42:0  43:0  44:0  45:0  46:0  47:0 
9 0:0.079439  1:0.52935  2:0.31963  3:0.034956  4:0.014055  5:0.022573  6:0.26069  7:0.38511  8:0.25927  9:0.052255  10:0.02188  11:0.020785  12:0.10335  13:0.55584  14:0.27852  15:0.042811  16:0.011104  17:0.0083693  18:0.06932  19:0.67718  20:0.18845  21:0.047886  22:0.010241  23:0.0069269  24:0  25:0  26:0  27:0  28:0  29:0  30:0  31:0  32:0  33:0  34:0  35:0  36:0  37:0  38:0  39:0  40:0  41:0  42:0  43:0  44:0  45:0  46:0  47:0 
9 0:0.067537  1:0.54634  2:0.33304  3:0.026709  4:0.011128  5:0.015244  6:0.18854  7:0.44579  8:0.23346  9:0.091994  10:0.020133  11:0.020083  12:0.10085  13:0.57095  14:0.25305  15:0.059458  16:0.0089911  17:0.0066979  18:0.14816  19:0.61532  20:0.18864  21:0.033258  22:0.0097793  23:0.0048504  24:0  25:0  26:0  27:0  28:0  29:0  30:0  31:0  32:0  33:0  34:0  35:0  36:0  37:0  38:0  39:0  40:0  41:0  42:0  43:0  44:0  45:0  46:0  47:0 
9 0:0.12045  1:0.48098  2:0.34261  3:0.035826  4:0.0071472  5:0.012988  6:0.065335  7:0.46414  8:0.29011  9:0.1227  10:0.030552  11:0.027161  12:0.068847  13:0.4942  14:0.35931  15:0.063058  16:0.0073148  17:0.0072757  18:0.13463  19:0.56371  20:0.25905  21:0.02994  22:0.0067024  23:0.0059705  24:0  25:0  26:0  27:0  28:0  29:0  30:0  31:0  32:0  33:0  34:0  35:0  36:0  37:0  38:0  39:0  40:0  41:0  42:0  43:0  44:0  45:0  46:0  47:0 
9 0:0.13359  1:0.60076  2:0.21674  3:0.039479  4:0.0045424  5:0.0048896  6:0.26008  7:0.5724  8:0.15217  9:0.014988  10:0.00025513  11:0.00010971  12:0.10726  13:0.51667  14:0.2519  15:0.10351  16:0.0091634  17:0.011492  18:0.077433  19:0.47588  20:0.36941  21:0.058025  22:0.0067113  23:0.012537  24:0  25:0  26:0  27:0  28:0  29:0  30:0  31:0  32:0  33:0  34:0  35:0  36:0  37:0  38:0  39:0  40:0  41:0  42:0  43:0  44:0  45:0  46:0  47:0 
9 0:0.12442  1:0.70434  2:0.13622  3:0.029591  4:0.0020211  5:0.0034122  6:0.33376  7:0.56248  8:0.091332  9:0.0081268  10:0.0016568  11:0.0026463  12:0.24432  13:0.51755  14:0.18921  15:0.039185  16:0.0038989  17:0.0058361  18:0.039097  19:0.63748  20:0.23223  21:0.073752  22:0.0071487  23:0.0103  24:0  25:0  26:0  27:0  28:0  29:0  30:0  31:0  32:0  33:0  34:0  35:0  36:0  37:0  38:0  39:0  40:0  41:0  42:0  43:0  44:0  45:0  46:0  47:0 
9 0:0.11462  1:0.67576  2:0.17978  3:0.026238  4:0.0012802  5:0.002323  6:0.40962  7:0.51452  8:0.066149  9:0.0045167  10:0.0019695  11:0.0032184  12:0.31028  13:0.45762  14:0.19658  15:0.025893  16:0.0040127  17:0.0056103  18:0.06939  19:0.56037  20:0.25745  21:0.092355  22:0.010431  23:0.010011  24:0  25:0  26:0  27:0  28:0  29:0  30:0  31:0  32:0  33:0  34:0  35:0  36:0  37:0  38:0  39:0  40:0  41:0  42:0  43:0  44:0  45:0  46:0  47:0 
9 0:0.21792  1:0.5914  2:0.17291  3:0.01412  4:0.001478  5:0.0021694  6:0.45875  7:0.50342  8:0.03669  9:0.00093348  10:0.00012576  11:8.5115e-05  12:0.1826  13:0.60733  14:0.17772  15:0.019245  16:0.0054535  17:0.0076504  18:0.086341  19:0.35548  20:0.47352  21:0.063036  22:0.010935  23:0.010686  24:0  25:0  26:0  27:0  28:0  29:0  30:0  31:0  32:0  33:0  34:0  35:0  36:0  37:0  38:0  39:0  40:0  41:0  42:0  43:0  44:0  45:0  46:0  47:0 
9 0:0.26851  1:0.5948  2:0.11631  3:0.01792  4:0.0011141  5:0.0013508  6:0.43239  7:0.54313  8:0.02361  9:0.00054931  10:0.00018758  11:0.00012898  12:0.10627  13:0.67809  14:0.18754  15:0.015835  16:0.0063831  17:0.0058927  18:0.076792  19:0.3593  20:0.49394  21:0.049365  22:0.010645  23:0.0099647  24:0  25:0  26:0  27:0  28:0  29:0  30:0  31:0  32:0  33:0  34:0  35:0  36:0  37:0  38:0  39:0  40:0  41:0  42:0  43:0  44:0  45:0  46:0  47:0 
9 0:0.16109  1:0.65652  2:0.15215  3:0.027225  4:0.0019849  5:0.0010297  6:0.14347  7:0.70839  8:0.13729  9:0.0054775  10:0.0034736  11:0.0018912  12:0.13648  13:0.53782  14:0.27837  15:0.032676  16:0.0077151  17:0.0069473  18:0.11237  19:0.4645  20:0.35071  21:0.047866  22:0.013048  23:0.011504  24:0  25:0  26:0  27:0  28:0  29:0  30:0  31:0  32:0  33:0  34:0  35:0  36:0  37:0  38:0  39:0  40:0  41:0  42:0  43:0  44:0  45:0  46:0  47:0 
9 0:0.30661  1:0.57778  2:0.10045  3:0.013315  4:0.00079428  5:0.0010497  6:0.25089  7:0.68637  8:0.058394  9:0.0038957  10:0.00031101  11:0.00013546  12:0.10487  13:0.60244  14:0.18275  15:0.08967  16:0.0082685  17:0.011999  18:0.18342  19:0.38498  20:0.32232  21:0.085268  22:0.010491  23:0.013519  24:0  25:0  26:0  27:0  28:0  29:0  30:0  31:0  32:0  33:0  34:0  35:0  36:0  37:0  38:0  39:0  40:0  41:0  42:0  43:0  44:0  45:0  46:0  47:0 
9 0:0.31137  1:0.56731  2:0.10564  3:0.013632  4:0.0008723  5:0.0011853  6:0.27952  7:0.65834  8:0.057492  9:0.0042229  10:0.00029568  11:0.00012459  12:0.08317  13:0.67014  14:0.15428  15:0.071277  16:0.0083482  17:0.012783  18:0.18565  19:0.40082  20:0.30965  21:0.072086  22:0.012936  23:0.018863  24:0  25:0  26:0  27:0  28:0  29:0  30:0  31:0  32:0  33:0  34:0  35:0  36:0  37:0  38:0  39:0  40:0  41:0  42:0  43:0  44:0  45:0  46:0  47:0 
9 0:0.21306  1:0.34809  2:0.4085  3:0.024295  4:0.0026797  5:0.0033702  6:0.50421  7:0.43768  8:0.050505  9:0.0066912  10:0.00059083  11:0.00032487  12:0.13937  13:0.6327  14:0.1944  15:0.019449  16:0.0058764  17:0.0082044  18:0.22258  19:0.53718  20:0.17781  21:0.042974  22:0.0087847  23:0.010665  24:0  25:0  26:0  27:0  28:0  29:0  30:0  31:0  32:0  33:0  34:0  35:0  36:0  37:0  38:0  39:0  40:0  41:0  42:0  43:0  44:0  45:0  46:0  47:0 
9 0:0.17247  1:0.55343  2:0.24749  3:0.02337  4:0.0021129  5:0.0011308  6:0.258  7:0.61078  8:0.1225  9:0.0055636  10:0.0021486  11:0.00099949  12:0.084958  13:0.67826  14:0.20284  15:0.023681  16:0.0045635  17:0.005703  18:0.096808  19:0.5865  20:0.27859  21:0.028686  22:0.0044772  23:0.0049444  24:0  25:0  26:0  27:0  28:0  29:0  30:0  31:0  32:0  33:0  34:0  35:0  36:0  37:0  38:0  39:0  40:0  41:0  42:0  43:0  44:0  45:0  46:0  47:0 
9 0:0.18129  1:0.52421  2:0.26257  3:0.028475  4:0.0023729  5:0.0010767  6:0.37878  7:0.2808  8:0.30919  9:0.021253  10:0.006561  11:0.0034094  12:0.11143  13:0.57987  14:0.24763  15:0.047681  16:0.0065989  17:0.0067938  18:0.11993  19:0.55703  20:0.2769  21:0.036854  22:0.0036724  23:0.0056047  24:0  25:0  26:0  27:0  28:0  29:0  30:0  31:0  32:0  33:0  34:0  35:0  36:0  37:0  38:0  39:0  40:0  41:0  42:0  43:0  44:0  45:0  46:0  47:0 
9 0:0.15719  1:0.48846  2:0.27375  3:0.058242  4:0.012299  5:0.01006  6:0.1902  7:0.37448  8:0.23943  9:0.099443  10:0.049273  11:0.047171  12:0.10256  13:0.62121  14:0.22584  15:0.04106  16:0.0041783  17:0.0051539  18:0.083652  19:0.68438  20:0.20437  21:0.020777  22:0.0031325  23:0.0036806  24:0  25:0  26:0  27:0  28:0  29:0  30:0  31:0  32:0  33:0  34:0  35:0  36:0  37:0  38:0  39:0  40:0  41:0  42:0  43:0  44:0  45:0  46:0  47:0 
9 0:0.15969  1:0.45366  2:0.2458  3:0.088413  4:0.018091  5:0.03434  6:0.097303  7:0.51907  8:0.20327  9:0.078341  10:0.048053  11:0.053969  12:0.12026  13:0.55116  14:0.27262  15:0.03944  16:0.0063586  17:0.010172  18:0.17082  19:0.61019  20:0.13827  21:0.064479  22:0.00693  23:0.0093045  24:0  25:0  26:0  27:0  28:0  29:0  30:0  31:0  32:0  33:0  34:0  35:0  36:0  37:0  38:0  39:0  40:0  41:0  42:0  43:0  44:0  45:0  46:0  47:0 
9 0:0.17896  1:0.52541  2:0.13048  3:0.11295  4:0.021515  5:0.030687  6:0.10119  7:0.55206  8:0.22915  9:0.038836  10:0.042271  11:0.036484  12:0.1229  13:0.45597  14:0.32021  15:0.074953  16:0.010879  17:0.015087  18:0.16308  19:0.55807  20:0.22635  21:0.037585  22:0.0075806  23:0.0073346  24:0  25:0  26:0  27:0  28:0  29:0  30:0  31:0  32:0  33:0  34:0  35:0  36:0  37:0  38:0  39:0  40:0  41:0  42:0  43:0  44:0  45:0  46:0  47:0 
9 0:0.10577  1:0.5576  2:0.21897  3:0.07791  4:0.01259  5:0.027156  6:0.067361  7:0.46158  8:0.25411  9:0.10466  10:0.06802  11:0.044272  12:0.15778  13:0.47753  14:0.26456  15:0.073937  16:0.013022  17:0.013173  18:0.14692  19:0.60935  20:0.18295  21:0.053598  22:0.0034749  23:0.0037123  24:0  25:0  26:0  27:0  28:0  29:0  30:0  31:0  32:0  33:0  34:0  35:0  36:0  37:0  38:0  39:0  40:0  41:0  42:0  43:0  44:0  45:0  46:0  47:0 
9 0:0.14693  1:0.39892  2:0.3144  3:0.099684  4:0.014323  5:0.025747  6:0.068289  7:0.38203  8:0.39008  9:0.085314  10:0.050359  11:0.023919  12:0.1029  13:0.69072  14:0.13641  15:0.049637  16:0.011449  17:0.008882  18:0.15709  19:0.45812  20:0.30623  21:0.070267  22:0.0045864  23:0.0036989  24:0  25:0  26:0  27:0  28:0  29:0  30:0  31:0  32:0  33:0  34:0  35:0  36:0  37:0  38:0  39:0  40:0  41:0  42:0  43:0  44:0  45:0  46:0  47:0 
4.411 0:0.11274  1:0.39942  2:0.36435  3:0.084319  4:0.015289  5:0.023876  6:0.064195  7:0.26109  8:0.48911  9:0.1188  10:0.042034  11:0.024778  12:0.042055  13:0.7303  14:0.1843  15:0.028735  16:0.0085254  17:0.0060758  18:0.091769  19:0.36703  20:0.47397  21:0.055543  22:0.005944  23:0.0057417  24:0  25:0  26:0  27:0  28:0  29:0  30:0  31:0  32:0  33:0  34:0  35:0  36:0  37:0  38:0  39:0  40:0  41:0  42:0  43:0  44:0  45:0  46:0  47:0 
9 0:0.068207  1:0.37281  2:0.47052  3:0.057763  4:0.011295  5:0.019409  6:0.080184  7:0.27748  8:0.34627  9:0.20521  10:0.048216  11:0.042647  12:0.072297  13:0.60876  14:0.28047  15:0.026525  16:0.0070825  17:0.0048662  18:0.093244  19:0.43596  20:0.42096  21:0.037551  22:0.0057589  23:0.0065289  24:0  25:0  26:0  27:0  28:0  29:0  30:0  31:0  32:0  33:0  34:0  35:0  36:0  37:0  38:0  39:0  40:0  41:0  42:0  43:0  44:0  45:0  46:0  47:0 
9 0:0.10438  1:0.41456  2:0.4122  3:0.024052  4:0.017239  5:0.02757  6:0.10324  7:0.36915  8:0.33395  9:0.10553  10:0.056243  11:0.031884  12:0.16098  13:0.5701  14:0.22133  15:0.034694  16:0.0062172  17:0.0066722  18:0.13563  19:0.46939  20:0.34398  21:0.032737  22:0.0081078  23:0.010153  24:0  25:0  26:0  27:0  28:0  29:0  30:0  31:0  32:0  33:0  34:0  35:0  36:0  37:0  38:0  39:0  40:0  41:0  42:0  43:0  44:0  45:0  46:0  47:0 
9 0:0.041668  1:0.60051  2:0.25304  3:0.07994  4:0.0096365  5:0.015208  6:0.13132  7:0.42492  8:0.33395  9:0.041143  10:0.032499  11:0.036167  12:0.14249  13:0.58774  14:0.19657  15:0.060168  16:0.0058246  17:0.0071974  18:0.054498  19:0.72994  20:0.16167  21:0.045632  22:0.0038216  23:0.0044384  24:0  25:0  26:0  27:0  28:0  29:0  30:0  31:0  32:0  33:0  34:0  35:0  36:0  37:0  38:0  39:0  40:0  41:0  42:0  43:0  44:0  45:0  46:0  47:0 
9 0:0.036998  1:0.70222  2:0.15504  3:0.084103  4:0.0093193  5:0.01232  6:0.088024  7:0.41563  8:0.38856  9:0.032971  10:0.039609  11:0.035207  12:0.092402  13:0.53504  14:0.30988  15:0.045787  16:0.0088383  17:0.0080445  18:0.062434  19:0.78591  20:0.12512  21:0.019105  22:0.0038996  23:0.0035357  24:0  25:0  26:0  27:0  28:0  29:0  30:0  31:0  32:0  33:0  34:0  35:0  36:0  37:0  38:0  39:0  40:0  41:0  42:0  43:0  44:0  45:0  46:0  47:0 
0.88036 0:0.12673  1:0.496  2:0.27409  3:0.064074  4:0.01232  5:0.026789  6:0.085457  7:0.45204  8:0.31593  9:0.072179  10:0.045093  11:0.029303  12:0.1034  13:0.66063  14:0.19329  15:0.031727  16:0.005541  17:0.0054206  18:0.058634  19:0.73116  20:0.16032  21:0.036527  22:0.0073694  23:0.0059889  24:0  25:0  26:0  27:0  28:0  29:0  30:0  31:0  32:0  33:0  34:0  35:0  36:0  37:0  38:0  39:0  40:0  41:0  42:0  43:0  44:0  45:0  46:0  47:0 
9 0:0.084817  1:0.58286  2:0.23818  3:0.059455  4:0.012685  5:0.022006  6:0.085188  7:0.4701  8:0.3434  9:0.050249  10:0.029634  11:0.02143  12:0.11068  13:0.63146  14:0.20453  15:0.035167  16:0.0080009  17:0.010155  18:0.061379  19:0.72896  20:0.1453  21:0.050358  22:0.0069166  23:0.0070797  24:0  25:0  26:0  27:0  28:0  29:0  30:0  31:0  32:0  33:0  34:0  35:0  36:0  37:0  38:0  39:0  40:0  41:0  42:0  43:0  44:0  45:0  46:0  47:0 
9 0:0.48205  1:0.4305  2:0.070184  3:0.0077837  4:0.0038591  5:0.0056296  6:0.49249  7:0.38395  8:0.069907  9:0.032354  10:0.0079236  11:0.013372  12:0.19401  13:0.36103  14:0.32152  15:0.066235  16:0.024985  17:0.03222  18:0.030199  19:0.63179  20:0.21197  21:0.093215  22:0.015339  23:0.017488  24:0  25:0  26:0  27:0  28:0  29:0  30:0  31:0  32:0  33:0  34:0  35:0  36:0  37:0  38:0  39:0  40:0  41:0  42:0  43:0  44:0  45:0  46:0  47:0 
9 0:0.45017  1:0.41778  2:0.11211  3:0.015523  4:0.0020042  5:0.0024169  6:0.63627  7:0.24755  8:0.093636  9:0.017675  10:0.0021419  11:0.002722  12:0.13893  13:0.57209  14:0.21138  15:0.041394  16:0.016983  17:0.019225  18:0.047381  19:0.45092  20:0.42659  21:0.05813  22:0.0054293  23:0.011545  24:0  25:0  26:0  27:0  28:0  29:0  30:0  31:0  32:0  33:0  34:0  35:0  36:0  37:0  38:0  39:0  40:0  41:0  42:0  43:0  44:0  45:0  46:0  47:0 
5.4796 0:0.17344  1:0.37969  2:0.4095  3:0.033086  4:0.0016189  5:0.0026689  6:0.18505  7:0.72026  8:0.079211  9:0.0087222  10:0.0024691  11:0.0042914  12:0.19927  13:0.65119  14:0.1331  15:0.0066608  16:0.0045524  17:0.0052288  18:0.060393  19:0.54975  20:0.3093  21:0.063543  22:0.0091006  23:0.0079179  24:0  25:0  26:0  27:0  28:0  29:0  30:0  31:0  32:0  33:0  34:0  35:0  36:0  37:0  38:0  39:0  40:0  41:0  42:0  43:0  44:0  45:0  46:0  47:0 
9 0:0.26717  1:0.56515  2:0.16307  3:0.0045335  4:4.5441e-05  5:3.1403e-05  6:0.45462  7:0.49096  8:0.042835  9:0.0042432  10:0.0034083  11:0.0039343  12:0.050926  13:0.50506  14:0.31683  15:0.098927  16:0.014362  17:0.013895  18:0.048822  19:0.51793  20:0.34462  21:0.072172  22:0.0099907  23:0.0064661  24:0  25:0  26:0  27:0  28:0  29:0  30:0  31:0  32:0  33:0  34:0  35:0  36:0  37:0  38:0  39:0  40:0  41:0  42:0  43:0  44:0  45:0  46:0  47:0 
9 0:0.068594  1:0.68496  2:0.23236  3:0.012133  4:0.00094661  5:0.0010004  6:0.64155  7:0.25362  8:0.058496  9:0.023326  10:0.00992  11:0.013082  12:0.043934  13:0.55033  14:0.30564  15:0.074876  16:0.011605  17:0.013615  18:0.050021  19:0.65097  20:0.19146  21:0.091608  22:0.0091391  23:0.0068044  24:0  25:0  26:0  27:0  28:0  29:0  30:0  31:0  32:0  33:0  34:0  35:0  36:0  37:0  38:0  39:0  40:0  41:0  42:0  43:0  44:0  45:0  46:0  47:0 
9 0:0.10942  1:0.67263  2:0.18685  3:0.021667  4:0.0044571  5:0.0049712  6:0.47051  7:0.35668  8:0.088267  9:0.046482  10:0.022825  11:0.015241  12:0.047049  13:0.4191  14:0.43094  15:0.074306  16:0.014789  17:0.013821  18:0.030645  19:0.57783  20:0.32801  21:0.047576  22:0.0094613  23:0.0064718  24:0  25:0  26:0  27:0  28:0  29:0  30:0  31:0  32:0  33:0  34:0  35:0  36:0  37:0  38:0  39:0  40:0  41:0  42:0  43:0  44:0  45:0  46:0  47:0 
9 0:0.072944  1:0.62603  2:0.26296  3:0.030396  4:0.0048973  5:0.002773  6:0.18921  7:0.60236  8:0.18242  9:0.010138  10:0.0097413  11:0.0061301  12:0.039523  13:0.49251  14:0.40868  15:0.048815  16:0.004205  17:0.0062683  18:0.10682  19:0.69326  20:0.14123  21:0.05059  22:0.0043428  23:0.0037574  24:0  25:0  26:0  27:0  28:0  29:0  30:0  31:0  32:0  33:0  34:0  35:0  36:0  37:0  38:0  39:0  40:0  41:0  42:0  43:0  44:0  45:0  46:0  47:0 
9 0:0.076195  1:0.65447  2:0.21335  3:0.043462  4:0.0083523  5:0.0041702  6:0.2475  7:0.56373  8:0.16532  9:0.010342  10:0.0077521  11:0.0053548  12:0.060409  13:0.6006  14:0.2661  15:0.058014  16:0.0061151  17:0.0087608  18:0.080307  19:0.65755  20:0.20722  21:0.045005  22:0.0042018  23:0.0057209  24:0  25:0  26:0  27:0  28:0  29:0  30:0  31:0  32:0  33:0  34:0  35:0  36:0  37:0  38:0  39:0  40:0  41:0  42:0  43:0  44:0  45:0  46:0  47:0 
9 0:0.057118  1:0.6203  2:0.22464  3:0.069184  4:0.010184  5:0.018574  6:0.069032  7:0.49487  8:0.25128  9:0.072628  10:0.067426  11:0.044763  12:0.068631  13:0.43331  14:0.39606  15:0.084542  16:0.0076285  17:0.0098269  18:0.048942  19:0.61428  20:0.2327  21:0.094909  22:0.004938  23:0.0042252  24:0  25:0  26:0  27:0  28:0  29:0  30:0  31:0  32:0  33:0  34:0  35:0  36:0  37:0  38:0  39:0  40:0  41:0  42:0  43:0  44:0  45:0  46:0  47:0 
9 0:0.053252  1:0.60286  2:0.25935  3:0.056244  4:0.0099692  5:0.018319  6:0.053694  7:0.52707  8:0.23704  9:0.075665  10:0.06052  11:0.046008  12:0.095971  13:0.33601  14:0.47684  15:0.072785  16:0.0096553  17:0.0087411  18:0.034538  19:0.70956  20:0.16482  21:0.084256  22:0.0028172  23:0.004013  24:0  25:0  26:0  27:0  28:0  29:0  30:0  31:0  32:0  33:0  34:0  35:0  36:0  37:0  38:0  39:0  40:0  41:0  42:0  43:0  44:0  45:0  46:0  47:0 
9 0:0.057537  1:0.54561  2:0.30305  3:0.076323  4:0.0074626  5:0.010015  6:0.0735  7:0.4756  8:0.26898  9:0.070381  10:0.06216  11:0.049383  12:0.052065  13:0.5046  14:0.32399  15:0.10492  16:0.007277  17:0.0071454  18:0.15318  19:0.58301  20:0.22106  21:0.029833  22:0.0058445  23:0.0070766  24:0  25:0  26:0  27:0  28:0  29:0  30:0  31:0  32:0  33:0  34:0  35:0  36:0  37:0  38:0  39:0  40:0  41:0  42:0  43:0  44:0  45:0  46:0  47:0 
9 0:0.090447  1:0.54893  2:0.22974  3:0.10538  4:0.010381  5:0.015133  6:0.075609  7:0.47155  8:0.25756  9:0.064359  10:0.064315  11:0.066605  12:0.12777  13:0.39949  14:0.40223  15:0.051252  16:0.0080147  17:0.011244  18:0.082479  19:0.55326  20:0.30629  21:0.043429  22:0.0073172  23:0.0072281  24:0  25:0  26:0  27:0  28:0  29:0  30:0  31:0  32:0  33:0  34:0  35:0  36:0  37:0  38:0  39:0  40:0  41:0  42:0  43:0  44:0  45:0  46:0  47:0 
9 0:0.10306  1:0.55228  2:0.21026  3:0.10355  4:0.012553  5:0.018303  6:0.090559  7:0.38727  8:0.34615  9:0.066247  10:0.062897  11:0.046877  12:0.088266  13:0.49805  14:0.3536  15:0.034395  16:0.0093339  17:0.016358  18:0.12192  19:0.4694  20:0.34421  21:0.049476  22:0.0068605  23:0.0081283  24:0  25:0  26:0  27:0  28:0  29:0  30:0  31:0  32:0  33:0  34:0  35:0  36:0  37:0  38:0  39:0  40:0  41:0  42:0  43:0  44:0  45:0  46:0  47:0 
9 0:0.12806  1:0.52555  2:0.29416  3:0.03178  4:0.0095261  5:0.010919  6:0.091398  7:0.38544  8:0.33664  9:0.065011  10:0.068143  11:0.053374  12:0.048959  13:0.57166  14:0.29575  15:0.06772  16:0.0088936  17:0.0070218  18:0.12198  19:0.71771  20:0.11685  21:0.034459  22:0.0049697  23:0.004036  24:0  25:0  26:0  27:0  28:0  29:0  30:0  31:0  32:0  33:0  34:0  35:0  36:0  37:0  38:0  39:0  40:0  41:0  42:0  43:0  44:0  45:0  46:0  47:0 
9 0:0.17665  1:0.58975  2:0.18596  3:0.027287  4:0.0093116  5:0.011048  6:0.10609  7:0.3451  8:0.30192  9:0.11347  10:0.07995  11:0.053475  12:0.045667  13:0.64141  14:0.25563  15:0.045844  16:0.0062293  17:0.0052192  18:0.17451  19:0.68109  20:0.10437  21:0.031892  22:0.0047761  23:0.0033606  24:0  25:0  26:0  27:0  28:0  29:0  30:0  31:0  32:0  33:0  34:0  35:0  36:0  37:0  38:0  39:0  40:0  41:0  42:0  43:0  44:0  45:0  46:0  47:0 
9 0:0.12114  1:0.51661  2:0.2735  3:0.06686  4:0.011565  5:0.010319  6:0.19375  7:0.30414  8:0.27755  9:0.11539  10:0.070072  11:0.039086  12:0.068165  13:0.54282  14:0.29382  15:0.080188  16:0.0087263  17:0.0062833  18:0.14367  19:0.55223  20:0.22925  21:0.065901  22:0.004945  23:0.0039975  24:0  25:0  26:0  27:0  28:0  29:0  30:0  31:0  32:0  33:0  34:0  35:0  36:0  37:0  38:0  39:0  40:0  41:0  42:0  43:0  44:0  45:0  46:0  47:0 
9 0:0.17196  1:0.58998  2:0.19603  3:0.030273  4:0.0047236  5:0.007029  6:0.14339  7:0.35756  8:0.33726  9:0.055742  10:0.072692  11:0.033359  12:0.041045  13:0.48172  14:0.43713  15:0.028154  16:0.0051285  17:0.0068171  18:0.13108  19:0.54658  20:0.30283  21:0.013371  22:0.0028656  23:0.0032745  24:0  25:0  26:0  27:0  28:0  29:0  30:0  31:0  32:0  33:0  34:0  35:0  36:0  37:0  38:0  39:0  40:0  41:0  42:0  43:0  44:0  45:0  46:0  47:0 
9 0:0.1917  1:0.5673  2:0.16439  3:0.063471  4:0.0053639  5:0.0077761  6:0.09336  7:0.54325  8:0.22702  9:0.039876  10:0.061716  11:0.03478  12:0.069125  13:0.50906  14:0.3698  15:0.029879  16:0.0074986  17:0.014638  18:0.19685  19:0.53555  20:0.19706  21:0.061519  22:0.0037575  23:0.0052653  24:0  25:0  26:0  27:0  28:0  29:0  30:0  31:0  32:0  33:0  34:0  35:0  36:0  37:0  38:0  39:0  40:0  41:0  42:0  43:0  44:0  45:0  46:0  47:0 
7.9429 0:0.14179  1:0.30763  2:0.43041  3:0.10393  4:0.0072993  5:0.0089499  6:0.050067  7:0.62708  8:0.19165  9:0.042494  10:0.052386  11:0.036325  12:0.074851  13:0.46624  14:0.36637  15:0.060566  16:0.013562  17:0.018412  18:0.21234  19:0.30922  20:0.29383  21:0.16772  22:0.010115  23:0.0067718  24:0  25:0  26:0  27:0  28:0  29:0  30:0  31:0  32:0  33:0  34:0  35:0  36:0  37:0  38:0  39:0  40:0  41:0  42:0  43:0  44:0  45:0  46:0  47:0 
3.7753 0:0.046758  1:0.31122  2:0.50262  3:0.10075  4:0.015827  5:0.022831  6:0.12427  7:0.31262  8:0.2412  9:0.10311  10:0.12699  11:0.09181  12:0.12232  13:0.40362  14:0.3999  15:0.04311  16:0.017865  17:0.01319  18:0.046226  19:0.47334  20:0.36795  21:0.067504  22:0.021085  23:0.023898  24:0  25:0  26:0  27:0  28:0  29:0  30:0  31:0  32:0  33:0  34:0  35:0  36:0  37:0  38:0  39:0  40:0  41:0  42:0  43:0  44:0  45:0  46:0  47:0 
9 0:0.19591  1:0.28415  2:0.33324  3:0.10227  4:0.035641  5:0.04879  6:0.34753  7:0.49445  8:0.068448  9:0.031081  10:0.019798  11:0.038689  12:0.13048  13:0.18778  14:0.54266  15:0.044882  16:0.041027  17:0.053174  18:0.048881  19:0.29348  20:0.33278  21:0.13082  22:0.085302  23:0.10874  24:0  25:0  26:0  27:0  28:0  29:0  30:0  31:0  32:0  33:0  34:0  35:0  36:0  37:0  38:0  39:0  40:0  41:0  42:0  43:0  44:0  45:0  46:0  47:0 
9 0:0.23681  1:0.38599  2:0.22926  3:0.081899  4:0.028441  5:0.037605  6:0.39877  7:0.46042  8:0.073535  9:0.026695  10:0.011681  11:0.028894  12:0.11714  13:0.15857  14:0.57835  15:0.046875  16:0.041511  17:0.057552  18:0.059824  19:0.33582  20:0.30831  21:0.12157  22:0.076488  23:0.097985  24:0  25:0  26:0  27:0  28:0  29:0  30:0  31:0  32:0  33:0  34:0  35:0  36:0  37:0  38:0  39:0  40:0  41:0  42:0  43:0  44:0  45:0  46:0  47:0 
9 0:0.12843  1:0.59837  2:0.15527  3:0.096321  4:0.0092822  5:0.012326  6:0.067332  7:0.55596  8:0.24879  9:0.049456  10:0.046648  11:0.03181  12:0.076212  13:0.53979  14:0.29821  15:0.071855  16:0.0068885  17:0.0070472  18:0.082787  19:0.68643  20:0.15349  21:0.063981  22:0.0061088  23:0.0072044  24:0  25:0  26:0  27:0  28:0  29:0  30:0  31:0  32:0  33:0  34:0  35:0  36:0  37:0  38:0  39:0  40:0  41:0  42:0  43:0  44:0  45:0  46:0  47:0 
9 0:0.075371  1:0.61562  2:0.2151  3:0.076182  4:0.0065988  5:0.011121  6:0.1179  7:0.49885  8:0.27729  9:0.03966  10:0.041395  11:0.024909  12:0.08617  13:0.58718  14:0.23672  15:0.07735  16:0.0061606  17:0.0064213  18:0.05954  19:0.56127  20:0.28452  21:0.077376  22:0.010275  23:0.0070151  24:0  25:0  26:0  27:0  28:0  29:0  30:0  31:0  32:0  33:0  34:0  35:0  36:0  37:0  38:0  39:0  40:0  41:0  42:0  43:0  44:0  45:0  46:0  47:0 
9 0:0.12112  1:0.32272  2:0.47758  3:0.061036  4:0.0076143  5:0.0099248  6:0.083925  7:0.47859  8:0.24097  9:0.087134  10:0.072363  11:0.037023  12:0.048515  13:0.526  14:0.34233  15:0.062468  16:0.010144  17:0.010539  18:0.15408  19:0.27344  20:0.49236  21:0.069327  22:0.0060453  23:0.004757  24:0  25:0  26:0  27:0  28:0  29:0  30:0  31:0  32:0  33:0  34:0  35:0  36:0  37:0  38:0  39:0  40:0  41:0  42:0  43:0  44:0  45:0  46:0  47:0 
9 0:0.12623  1:0.50073  2:0.27542  3:0.080087  4:0.0086044  5:0.0089293  6:0.11878  7:0.38389  8:0.30527  9:0.10565  10:0.053514  11:0.03289  12:0.030681  13:0.53351  14:0.34517  15:0.066431  16:0.011628  17:0.012582  18:0.16231  19:0.52888  20:0.24469  21:0.053627  22:0.0060171  23:0.0044622  24:0  25:0  26:0  27:0  28:0  29:0  30:0  31:0  32:0  33:0  34:0  35:0  36:0  37:0  38:0  39:0  40:0  41:0  42:0  43:0  44:0  45:0  46:0  47:0 
9 0:0.072429  1:0.56255  2:0.26203  3:0.078999  4:0.012207  5:0.011792  6:0.12382  7:0.32818  8:0.30879  9:0.14373  10:0.053274  11:0.042207  12:0.09017  13:0.55542  14:0.25825  15:0.074948  16:0.010041  17:0.01117  18:0.088932  19:0.68002  20:0.18108  21:0.039029  22:0.006034  23:0.0049059  24:0  25:0  26:0  27:0  28:0  29:0  30:0  31:0  32:0  33:0  34:0  35:0  36:0  37:0  38:0  39:0  40:0  41:0  42:0  43:0  44:0  45:0  46:0  47:0 
9 0:0.037506  1:0.61763  2:0.26836  3:0.060985  4:0.0061141  5:0.0093999  6:0.1739  7:0.34352  8:0.202  9:0.15269  10:0.07388  11:0.05401  12:0.24093  13:0.41313  14:0.26456  15:0.057968  16:0.010105  17:0.013301  18:0.089694  19:0.39196  20:0.40442  21:0.1031  22:0.0063791  23:0.0044491  24:0  25:0  26:0  27:0  28:0  29:0  30:0  31:0  32:0  33:0  34:0  35:0  36:0  37:0  38:0  39:0  40:0  41:0  42:0  43:0  44:0  45:0  46:0  47:0 
9 0:0.060684  1:0.62458  2:0.24678  3:0.04269  4:0.014363  5:0.010903  6:0.071825  7:0.32625  8:0.35218  9:0.13509  10:0.069359  11:0.045286  12:0.11824  13:0.58597  14:0.20725  15:0.068845  16:0.0085536  17:0.011154  18:0.075561  19:0.38861  20:0.39416  21:0.13013  22:0.0068181  23:0.0047303  24:0  25:0  26:0  27:0  28:0  29:0  30:0  31:0  32:0  33:0  34:0  35:0  36:0  37:0  38:0  39:0  40:0  41:0  42:0  43:0  44:0  45:0  46:0  47:0 
9 0:0.065097  1:0.58703  2:0.29094  3:0.040864  4:0.0082363  5:0.0078382  6:0.083282  7:0.50008  8:0.28669  9:0.047641  10:0.05404  11:0.028266  12:0.11634  13:0.58456  14:0.24993  15:0.037004  16:0.0058379  17:0.0063243  18:0.074935  19:0.45195  20:0.33031  21:0.12639  22:0.0087938  23:0.0076165  24:0  25:0  26:0  27:0  28:0  29:0  30:0  31:0  32:0  33:0  34:0  35:0  36:0  37:0  38:0  39:0  40:0  41:0  42:0  43:0  44:0  45:0  46:0  47:0 
9 0:0.11825  1:0.5514  2:0.28537  3:0.033068  4:0.0063847  5:0.0055215  6:0.12958  7:0.35303  8:0.34673  9:0.073498  10:0.066999  11:0.030161  12:0.22787  13:0.35856  14:0.27206  15:0.1164  16:0.013451  17:0.011665  18:0.050139  19:0.4348  20:0.45331  21:0.05079  22:0.0062867  23:0.0046768  24:0  25:0  26:0  27:0  28:0  29:0  30:0  31:0  32:0  33:0  34:0  35:0  36:0  37:0  38:0  39:0  40:0  41:0  42:0  43:0  44:0  45:0  46:0  47:0 
9 0:0.15231  1:0.50746  2:0.29664  3:0.031789  4:0.0063849  5:0.0054204  6:0.097273  7:0.44235  8:0.31279  9:0.055207  10:0.047159  11:0.045213  12:0.16668  13:0.40496  14:0.33041  15:0.072315  16:0.0097414  17:0.015902  18:0.068246  19:0.28398  20:0.52168  21:0.11407  22:0.0067939  23:0.0052355  24:0  25:0  26:0  27:0  28:0  29:0  30:0  31:0  32:0  33:0  34:0  35:0  36:0  37:0  38:0  39:0  40:0  41:0  42:0  43:0  44:0  45:0  46:0  47:0 
9 0:0.14158  1:0.53759  2:0.26074  3:0.038741  4:0.011089  5:0.010261  6:0.17163  7:0.33787  8:0.29464  9:0.093471  10:0.060365  11:0.042026  12:0.063239  13:0.69719  14:0.17995  15:0.042104  16:0.0063348  17:0.01119  18:0.12307  19:0.47841  20:0.35895  21:0.027501  22:0.0060502  23:0.0060122  24:0  25:0  26:0  27:0  28:0  29:0  30:0  31:0  32:0  33:0  34:0  35:0  36:0  37:0  38:0  39:0  40:0  41:0  42:0  43:0  44:0  45:0  46:0  47:0 
9 0:0.1427  1:0.51179  2:0.30395  3:0.02491  4:0.0075146  5:0.0091328  6:0.081591  7:0.34583  8:0.39723  9:0.078278  10:0.057886  11:0.039193  12:0.077366  13:0.4956  14:0.35354  15:0.049005  16:0.010315  17:0.014168  18:0.10117  19:0.55518  20:0.30702  21:0.028392  22:0.0050253  23:0.003208  24:0  25:0  26:0  27:0  28:0  29:0  30:0  31:0  32:0  33:0  34:0  35:0  36:0  37:0  38:0  39:0  40:0  41:0  42:0  43:0  44:0  45:0  46:0  47:0 
9 0:0.10536  1:0.58855  2:0.27896  3:0.017096  4:0.0036591  5:0.006365  6:0.057327  7:0.42236  8:0.35023  9:0.067762  10:0.064369  11:0.037948  12:0.06186  13:0.47803  14:0.39854  15:0.044444  16:0.0098996  17:0.0072243  18:0.046333  19:0.61688  20:0.28506  21:0.044663  22:0.0051252  23:0.0019415  24:0  25:0  26:0  27:0  28:0  29:0  30:0  31:0  32:0  33:0  34:0  35:0  36:0  37:0  38:0  39:0  40:0  41:0  42:0  43:0  44:0  45:0  46:0  47:0 
9 0:0.19776  1:0.57749  2:0.18244  3:0.031098  4:0.0040889  5:0.0071259  6:0.16101  7:0.40269  8:0.26676  9:0.065797  10:0.060357  11:0.043391  12:0.077957  13:0.49418  14:0.35333  15:0.055455  16:0.012336  17:0.0067366  18:0.11952  19:0.50204  20:0.32566  21:0.044121  22:0.0060666  23:0.0025985  24:0  25:0  26:0  27:0  28:0  29:0  30:0  31:0  32:0  33:0  34:0  35:0  36:0  37:0  38:0  39:0  40:0  41:0  42:0  43:0  44:0  45:0  46:0  47:0 
9 0:0.22812  1:0.4601  2:0.26032  3:0.038792  4:0.0050257  5:0.0076381  6:0.1054  7:0.6161  8:0.18423  9:0.040431  10:0.03297  11:0.020873  12:0.09327  13:0.49149  14:0.34421  15:0.053168  16:0.011268  17:0.006596  18:0.10993  19:0.6245  20:0.22689  21:0.03185  22:0.0041307  23:0.0026963  24:0  25:0  26:0  27:0  28:0  29:0  30:0  31:0  32:0  33:0  34:0  35:0  36:0  37:0  38:0  39:0  40:0  41:0  42:0  43:0  44:0  45:0  46:0  47:0 
9 0:0.076484  1:0.64417  2:0.20892  3:0.046154  4:0.012583  5:0.011685  6:0.038707  7:0.3875  8:0.45624  9:0.032607  10:0.050917  11:0.034035  12:0.11915  13:0.66815  14:0.17826  15:0.024245  16:0.0047262  17:0.0054689  18:0.090586  19:0.59711  20:0.26776  21:0.030219  22:0.0085811  23:0.005749  24:0  25:0  26:0  27:0  28:0  29:0  30:0  31:0  32:0  33:0  34:0  35:0  36:0  37:0  38:0  39:0  40:0  41:0  42:0  43:0  44:0  45:0  46:0  47:0 
9 0:0.08939  1:0.69585  2:0.16323  3:0.033345  4:0.0086989  5:0.0094785  6:0.08266  7:0.4924  8:0.31199  9:0.048178  10:0.04122  11:0.023555  12:0.087834  13:0.57699  14:0.28806  15:0.032473  16:0.0070465  17:0.0075904  18:0.051929  19:0.70804  20:0.1975  21:0.03085  22:0.0081339  23:0.0035445  24:0  25:0  26:0  27:0  28:0  29:0  30:0  31:0  32:0  33:0  34:0  35:0  36:0  37:0  38:0  39:0  40:0  41:0  42:0  43:0  44:0  45:0  46:0  47:0 
9 0:0.062232  1:0.62091  2:0.26433  3:0.037472  4:0.006363  5:0.0086923  6:0.073202  7:0.59142  8:0.22385  9:0.048945  10:0.038942  11:0.023647  12:0.12235  13:0.37186  14:0.39063  15:0.09169  16:0.011472  17:0.011998  18:0.031917  19:0.65461  20:0.25616  21:0.050117  22:0.00465  23:0.0025502  24:0  25:0  26:0  27:0  28:0  29:0  30:0  31:0  32:0  33:0  34:0  35:0  36:0  37:0  38:0  39:0  40:0  41:0  42:0  43:0  44:0  45:0  46:0  47:0 
9 0:0.088491  1:0.65283  2:0.20189  3:0.048526  4:0.0038601  5:0.0044003  6:0.15138  7:0.53894  8:0.18299  9:0.048385  10:0.054148  11:0.024162  12:0.041  13:0.55111  14:0.36854  15:0.024312  16:0.0071597  17:0.0078766  18:0.082121  19:0.49131  20:0.26856  21:0.146  22:0.0072892  23:0.0047232  24:0  25:0  26:0  27:0  28:0  29:0  30:0  31:0  32:0  33:0  34:0  35:0  36:0  37:0  38:0  39:0  40:0  41:0  42:0  43:0  44:0  45:0  46:0  47:0 
9 0:0.10254  1:0.65283  2:0.20896  3:0.026192  4:0.005181  5:0.0043011  6:0.080619  7:0.54367  8:0.21181  9:0.066364  10:0.062914  11:0.03463  12:0.045135  13:0.53992  14:0.35131  15:0.045509  16:0.010269  17:0.0078556  18:0.064323  19:0.59074  20:0.21373  21:0.11316  22:0.010635  23:0.0074171  24:0  25:0  26:0  27:0  28:0  29:0  30:0  31:0  32:0  33:0  34:0  35:0  36:0  37:0  38:0  39:0  40:0  41:0  42:0  43:0  44:0  45:0  46:0  47:0 
9 0:0.15442  1:0.36348  2:0.4152  3:0.047431  4:0.0102  5:0.0092737  6:0.050303  7:0.51481  8:0.23154  9:0.092485  10:0.070699  11:0.040155  12:0.064713  13:0.53116  14:0.31897  15:0.066429  16:0.010702  17:0.0080247  18:0.10378  19:0.56822  20:0.25657  21:0.053824  22:0.010534  23:0.0070704  24:0  25:0  26:0  27:0  28:0  29:0  30:0  31:0  32:0  33:0  34:0  35:0  36:0  37:0  38:0  39:0  40:0  41:0  42:0  43:0  44:0  45:0  46:0  47:0 
9 0:0.10575  1:0.45303  2:0.33549  3:0.085198  4:0.010819  5:0.0097137  6:0.041925  7:0.51119  8:0.28049  9:0.081456  10:0.057892  11:0.027049  12:0.066954  13:0.58701  14:0.27881  15:0.053785  16:0.0071504  17:0.0062884  18:0.14963  19:0.50336  20:0.23894  21:0.074458  22:0.023635  23:0.0099658  24:0  25:0  26:0  27:0  28:0  29:0  30:0  31:0  32:0  33:0  34:0  35:0  36:0  37:0  38:0  39:0  40:0  41:0  42:0  43:0  44:0  45:0  46:0  47:0 
9 0:0.14841  1:0.49919  2:0.3105  3:0.03425  4:0.0038722  5:0.0037852  6:0.12897  7:0.53255  8:0.15417  9:0.10424  10:0.051711  11:0.028359  12:0.13451  13:0.41043  14:0.41249  15:0.02903  16:0.0057226  17:0.0078114  18:0.30084  19:0.41344  20:0.24837  21:0.031947  22:0.0031428  23:0.0022627  24:0  25:0  26:0  27:0  28:0  29:0  30:0  31:0  32:0  33:0  34:0  35:0  36:0  37:0  38:0  39:0  40:0  41:0  42:0  43:0  44:0  45:0  46:0  47:0 
9 0:0.19245  1:0.50647  2:0.25034  3:0.041723  4:0.0033391  5:0.0056812  6:0.12721  7:0.55666  8:0.16803  9:0.077654  10:0.041735  11:0.028704  12:0.093316  13:0.52971  14:0.34276  15:0.024732  16:0.0049505  17:0.0045313  18:0.40411  19:0.4066  20:0.15839  21:0.025475  22:0.0030647  23:0.0023605  24:0  25:0  26:0  27:0  28:0  29:0  30:0  31:0  32:0  33:0  34:0  35:0  36:0  37:0  38:0  39:0  40:0  41:0  42:0  43:0  44:0  45:0  46:0  47:0 
9 0:0.22133  1:0.53464  2:0.18673  3:0.047822  4:0.0040836  5:0.0053915  6:0.090123  7:0.4856  8:0.27039  9:0.061215  10:0.062944  11:0.029724  12:0.096265  13:0.67307  14:0.18397  15:0.037067  16:0.0052659  17:0.00436  18:0.35845  19:0.42516  20:0.19114  21:0.018952  22:0.0031904  23:0.0031032  24:0  25:0  26:0  27:0  28:0  29:0  30:0  31:0  32:0  33:0  34:0  35:0  36:0  37:0  38:0  39:0  40:0  41:0  42:0  43:0  44:0  45:0  46:0  47:0 
9 0:0.14111  1:0.54735  2:0.23688  3:0.066502  4:0.0045295  5:0.0036235  6:0.048913  7:0.46767  8:0.35146  9:0.04807  10:0.056951  11:0.02694  12:0.12432  13:0.52823  14:0.29317  15:0.038841  16:0.0069288  17:0.0085072  18:0.20446  19:0.45637  20:0.31376  21:0.020602  22:0.0016914  23:0.003118  24:0  25:0  26:0  27:0  28:0  29:0  30:0  31:0  32:0  33:0  34:0  35:0  36:0  37:0  38:0  39:0  40:0  41:0  42:0  43:0  44:0  45:0  46:0  47:0 
0.23893 0:0.069349  1:0.35197  2:0.52734  3:0.037123  4:0.0069129  5:0.0073096  6:0.83022  7:0.10532  8:0.059004  9:0.0035848  10:0.001119  11:0.00075194  12:0.11104  13:0.63744  14:0.21408  15:0.025099  16:0.0052575  17:0.0070776  18:0.14834  19:0.56581  20:0.22489  21:0.040144  22:0.0081461  23:0.012679  24:0  25:0  26:0  27:0  28:0  29:0  30:0  31:0  32:0  33:0  34:0  35:0  36:0  37:0  38:0  39:0  40:0  41:0  42:0  43:0  44:0  45:0  46:0  47:0 
9 0:0.15576  1:0.51446  2:0.27709  3:0.036921  4:0.0081666  5:0.0076025  6:0.12711  7:0.40156  8:0.34446  9:0.080325  10:0.027032  11:0.019501  12:0.042476  13:0.51431  14:0.39521  15:0.0328  16:0.0079996  17:0.0072028  18:0.054804  19:0.5079  20:0.34627  21:0.074477  22:0.0093707  23:0.007176  24:0  25:0  26:0  27:0  28:0  29:0  30:0  31:0  32:0  33:0  34:0  35:0  36:0  37:0  38:0  39:0  40:0  41:0  42:0  43:0  44:0  45:0  46:0  47:0 
9 0:0.13329  1:0.65121  2:0.15869  3:0.045011  4:0.0053075  5:0.0064963  6:0.12555  7:0.30916  8:0.42173  9:0.08835  10:0.031031  11:0.024175  12:0.17118  13:0.35504  14:0.36957  15:0.070067  16:0.01797  17:0.016172  18:0.0597  19:0.7043  20:0.16967  21:0.054637  22:0.0070677  23:0.0046157  24:0  25:0  26:0  27:0  28:0  29:0  30:0  31:0  32:0  33:0  34:0  35:0  36:0  37:0  38:0  39:0  40:0  41:0  42:0  43:0  44:0  45:0  46:0  47:0 
9 0:0.1691  1:0.62987  2:0.13784  3:0.050342  4:0.0046006  5:0.0082473  6:0.097472  7:0.49089  8:0.32668  9:0.046516  10:0.023658  11:0.014787  12:0.1827  13:0.5857  14:0.18803  15:0.029956  16:0.0084349  17:0.005185  18:0.088275  19:0.65471  20:0.1968  21:0.04697  22:0.0068104  23:0.0064341  24:0  25:0  26:0  27:0  28:0  29:0  30:0  31:0  32:0  33:0  34:0  35:0  36:0  37:0  38:0  39:0  40:0  41:0  42:0  43:0  44:0  45:0  46:0  47:0 
9 0:0.17208  1:0.52556  2:0.2403  3:0.047787  4:0.0052332  5:0.0090414  6:0.091648  7:0.49465  8:0.35074  9:0.035424  10:0.017653  11:0.009886  12:0.14495  13:0.59506  14:0.21745  15:0.031476  16:0.007408  17:0.0036559  18:0.08936  19:0.52676  20:0.33945  21:0.032969  22:0.0065317  23:0.004934  24:0  25:0  26:0  27:0  28:0  29:0  30:0  31:0  32:0  33:0  34:0  35:0  36:0  37:0  38:0  39:0  40:0  41:0  42:0  43:0  44:0  45:0  46:0  47:0 
9 0:0.13372  1:0.47896  2:0.34566  3:0.030225  4:0.0043061  5:0.0071243  6:0.16092  7:0.47461  8:0.30062  9:0.034304  10:0.016475  11:0.013073  12:0.14372  13:0.54752  14:0.20872  15:0.077276  16:0.012826  17:0.0099439  18:0.096389  19:0.58697  20:0.2938  21:0.015789  22:0.003053  23:0.0040068  24:0  25:0  26:0  27:0  28:0  29:0  30:0  31:0  32:0  33:0  34:0  35:0  36:0  37:0  38:0  39:0  40:0  41:0  42:0  43:0  44:0  45:0  46:0  47:0 
2.8026 0:0.11716  1:0.40715  2:0.43203  3:0.024  4:0.0097069  5:0.0099497  6:0.037571  7:0.53922  8:0.35944  9:0.036163  10:0.015489  11:0.01212  12:0.064499  13:0.77422  14:0.12886  15:0.023018  16:0.0058119  17:0.0035943  18:0.079854  19:0.56325  20:0.26428  21:0.077405  22:0.0067478  23:0.0084621  24:0  25:0  26:0  27:0  28:0  29:0  30:0  31:0  32:0  33:0  34:0  35:0  36:0  37:0  38:0  39:0  40:0  41:0  42:0  43:0  44:0  45:0  46:0  47:0 
9 0:0.098622  1:0.49984  2:0.3417  3:0.035586  4:0.0084809  5:0.015771  6:0.068189  7:0.4144  8:0.39809  9:0.068095  10:0.026703  11:0.024523  12:0.080044  13:0.48632  14:0.38098  15:0.040388  16:0.0048756  17:0.0073951  18:0.072979  19:0.59203  20:0.29216  21:0.0295  22:0.0080899  23:0.0052379  24:0  25:0  26:0  27:0  28:0  29:0  30:0  31:0  32:0  33:0  34:0  35:0  36:0  37:0  38:0  39:0  40:0  41:0  42:0  43:0  44:0  45:0  46:0  47:0 
9 0:0.090385  1:0.63926  2:0.20756  3:0.042592  4:0.0074223  5:0.012771  6:0.072869  7:0.4049  8:0.43217  9:0.05126  10:0.025587  11:0.013214  12:0.090846  13:0.67078  14:0.20248  15:0.02409  16:0.0049264  17:0.0068709  18:0.093431  19:0.47512  20:0.36593  21:0.051903  22:0.00759  23:0.0060216  24:0  25:0  26:0  27:0  28:0  29:0  30:0  31:0  32:0  33:0  34:0  35:0  36:0  37:0  38:0  39:0  40:0  41:0  42:0  43:0  44:0  45:0  46:0  47:0 
9 0:0.13386  1:0.58539  2:0.23036  3:0.043055  4:0.0034006  5:0.0039321  6:0.20016  7:0.53188  8:0.21059  9:0.042888  10:0.0065039  11:0.0079829  12:0.080872  13:0.59749  14:0.24749  15:0.052505  16:0.0081054  17:0.013542  18:0.13973  19:0.52335  20:0.30059  21:0.029886  22:0.0038252  23:0.0026232  24:0  25:0  26:0  27:0  28:0  29:0  30:0  31:0  32:0  33:0  34:0  35:0  36:0  37:0  38:0  39:0  40:0  41:0  42:0  43:0  44:0  45:0  46:0  47:0 
9 0:0.18943  1:0.63673  2:0.13531  3:0.03101  4:0.0025541  5:0.0049679  6:0.24557  7:0.47463  8:0.22705  9:0.038756  10:0.0079872  11:0.0060057  12:0.10809  13:0.65893  14:0.17335  15:0.043428  16:0.0060352  17:0.010161  18:0.18718  19:0.60968  20:0.18046  21:0.017741  22:0.0027529  23:0.0021829  24:0  25:0  26:0  27:0  28:0  29:0  30:0  31:0  32:0  33:0  34:0  35:0  36:0  37:0  38:0  39:0  40:0  41:0  42:0  43:0  44:0  45:0  46:0  47:0 
9 0:0.24433  1:0.44373  2:0.26738  3:0.02722  4:0.0050947  5:0.012238  6:0.1525  7:0.37818  8:0.42276  9:0.023536  10:0.012624  11:0.0104  12:0.14332  13:0.55367  14:0.23702  15:0.052429  16:0.0055977  17:0.0079666  18:0.17576  19:0.57968  20:0.16088  21:0.076796  22:0.0040804  23:0.0027996  24:0  25:0  26:0  27:0  28:0  29:0  30:0  31:0  32:0  33:0  34:0  35:0  36:0  37:0  38:0  39:0  40:0  41:0  42:0  43:0  44:0  45:0  46:0  47:0 
9 0:0.0546  1:0.6222  2:0.24014  3:0.071077  4:0.0055354  5:0.0064475  6:0.059696  7:0.56812  8:0.30387  9:0.040114  10:0.013705  11:0.014495  12:0.11094  13:0.64815  14:0.18987  15:0.030917  16:0.010445  17:0.0096741  18:0.065156  19:0.60088  20:0.25042  21:0.068856  22:0.0087543  23:0.0059288  24:0  25:0  26:0  27:0  28:0  29:0  30:0  31:0  32:0  33:0  34:0  35:0  36:0  37:0  38:0  39:0  40:0  41:0  42:0  43:0  44:0  45:0  46:0  47:0 
9 0:0.13989  1:0.53192  2:0.27526  3:0.041116  4:0.0054729  5:0.0063395  6:0.044955  7:0.48461  8:0.37393  9:0.06266  10:0.018891  11:0.014953  12:0.065515  13:0.61739  14:0.2723  15:0.030572  16:0.0071272  17:0.0070893  18:0.095955  19:0.54958  20:0.27644  21:0.066169  22:0.0075276  23:0.0043255  24:0  25:0  26:0  27:0  28:0  29:0  30:0  31:0  32:0  33:0  34:0  35:0  36:0  37:0  38:0  39:0  40:0  41:0  42:0  43:0  44:0  45:0  46:0  47:0 
9 0:0.20741  1:0.44053  2:0.28936  3:0.048507  4:0.006893  5:0.007303  6:0.11594  7:0.51525  8:0.27817  9:0.05196  10:0.024143  11:0.014543  12:0.10874  13:0.57557  14:0.21546  15:0.076808  16:0.015136  17:0.0082895  18:0.2363  19:0.52795  20:0.18725  21:0.036389  22:0.0073906  23:0.0047221  24:0  25:0  26:0  27:0  28:0  29:0  30:0  31:0  32:0  33:0  34:0  35:0  36:0  37:0  38:0  39:0  40:0  41:0  42:0  43:0  44:0  45:0  46:0  47:0 
9 0:0.20419  1:0.4544  2:0.30144  3:0.027476  4:0.0057776  5:0.0067107  6:0.13433  7:0.48569  8:0.25877  9:0.074186  10:0.030814  11:0.016204  12:0.21345  13:0.53885  14:0.16787  15:0.05063  16:0.020898  17:0.0083062  18:0.34976  19:0.42368  20:0.17333  21:0.042079  22:0.0059048  23:0.0052411  24:0  25:0  26:0  27:0  28:0  29:0  30:0  31:0  32:0  33:0  34:0  35:0  36:0  37:0  38:0  39:0  40:0  41:0  42:0  43:0  44:0  45:0  46:0  47:0 
9 0:0.13522  1:0.50861  2:0.31302  3:0.026688  4:0.0082794  5:0.008178  6:0.11839  7:0.55384  8:0.23963  9:0.059069  10:0.016817  11:0.012242  12:0.19206  13:0.5427  14:0.21499  15:0.026027  16:0.016233  17:0.0079948  18:0.26129  19:0.41029  20:0.24515  21:0.070875  22:0.0074593  23:0.0049376  24:0  25:0  26:0  27:0  28:0  29:0  30:0  31:0  32:0  33:0  34:0  35:0  36:0  37:0  38:0  39:0  40:0  41:0  42:0  43:0  44:0  45:0  46:0  47:0 
9 0:0.22909  1:0.46279  2:0.27599  3:0.021789  4:0.0050985  5:0.0052423  6:0.16217  7:0.52334  8:0.24163  9:0.049427  10:0.010632  11:0.012798  12:0.099474  13:0.57842  14:0.25628  15:0.044305  16:0.0090155  17:0.012506  18:0.18748  19:0.49988  20:0.26317  21:0.043174  22:0.003395  23:0.0028934  24:0  25:0  26:0  27:0  28:0  29:0  30:0  31:0  32:0  33:0  34:0  35:0  36:0  37:0  38:0  39:0  40:0  41:0  42:0  43:0  44:0  45:0  46:0  47:0 
9 0:0.26033  1:0.42454  2:0.28153  3:0.024101  4:0.005035  5:0.0044657  6:0.1186  7:0.49889  8:0.31772  9:0.037322  10:0.013372  11:0.01409  12:0.18224  13:0.5105  14:0.22252  15:0.065615  16:0.0081855  17:0.010948  18:0.24995  19:0.47335  20:0.22756  21:0.042103  22:0.0039763  23:0.0030596  24:0  25:0  26:0  27:0  28:0  29:0  30:0  31:0  32:0  33:0  34:0  35:0  36:0  37:0  38:0  39:0  40:0  41:0  42:0  43:0  44:0  45:0  46:0  47:0 
9 0:0.13215  1:0.49274  2:0.33031  3:0.033464  4:0.0062056  5:0.0051268  6:0.089859  7:0.56958  8:0.26871  9:0.042069  10:0.017837  11:0.011949  12:0.18787  13:0.61995  14:0.13495  15:0.045817  16:0.0055913  17:0.0058168  18:0.22073  19:0.48282  20:0.25753  21:0.029597  22:0.0043295  23:0.0049955  24:0  25:0  26:0  27:0  28:0  29:0  30:0  31:0  32:0  33:0  34:0  35:0  36:0  37:0  38:0  39:0  40:0  41:0  42:0  43:0  44:0  45:0  46:0  47:0 
9 0:0.068623  1:0.60541  2:0.29184  3:0.023636  4:0.0055216  5:0.0049678  6:0.030469  7:0.75916  8:0.15251  9:0.042239  10:0.0080547  11:0.0075684  12:0.14878  13:0.68768  14:0.12864  15:0.026432  16:0.0047506  17:0.0037109  18:0.15213  19:0.61328  20:0.21556  21:0.011792  22:0.0042375  23:0.0029898  24:0  25:0  26:0  27:0  28:0  29:0  30:0  31:0  32:0  33:0  34:0  35:0  36:0  37:0  38:0  39:0  40:0  41:0  42:0  43:0  44:0  45:0  46:0  47:0 
9 0:0.12343  1:0.63759  2:0.20513  3:0.027237  4:0.0035062  5:0.0031068  6:0.091544  7:0.7336  8:0.11993  9:0.042939  10:0.0059209  11:0.0060696  12:0.15318  13:0.64161  14:0.1519  15:0.040848  16:0.0068294  17:0.0056371  18:0.15628  19:0.7109  20:0.11356  21:0.014375  22:0.0029883  23:0.0019011  24:0  25:0  26:0  27:0  28:0  29:0  30:0  31:0  32:0  33:0  34:0  35:0  36:0  37:0  38:0  39:0  40:0  41:0  42:0  43:0  44:0  45:0  46:0  47:0 
9 0:0.30069  1:0.56913  2:0.10581  3:0.018942  4:0.0023291  5:0.003105  6:0.21036  7:0.52909  8:0.21243  9:0.029424  10:0.010262  11:0.0084316  12:0.13752  13:0.50938  14:0.29918  15:0.039654  16:0.0068571  17:0.007403  18:0.3519  19:0.51708  20:0.10884  21:0.015879  22:0.0034701  23:0.0028311  24:0  25:0  26:0  27:0  28:0  29:0  30:0  31:0  32:0  33:0  34:0  35:0  36:0  37:0  38:0  39:0  40:0  41:0  42:0  43:0  44:0  45:0  46:0  47:0 
9 0:0.32714  1:0.54127  2:0.10869  3:0.016392  4:0.0022488  5:0.0042635  6:0.13279  7:0.58203  8:0.19296  9:0.071345  10:0.010932  11:0.0099448  12:0.09569  13:0.41702  14:0.4394  15:0.034982  16:0.0055741  17:0.0073409  18:0.38674  19:0.38856  20:0.17787  21:0.030529  22:0.007368  23:0.0089403  24:0  25:0  26:0  27:0  28:0  29:0  30:0  31:0  32:0  33:0  34:0  35:0  36:0  37:0  38:0  39:0  40:0  41:0  42:0  43:0  44:0  45:0  46:0  47:0 
9 0:0.32678  1:0.59147  2:0.060937  3:0.018482  4:0.0014454  5:0.00088785  6:0.26315  7:0.57897  8:0.091916  9:0.050845  10:0.0077289  11:0.0073855  12:0.0429  13:0.52066  14:0.36606  15:0.053601  16:0.0067106  17:0.010072  18:0.29959  19:0.56123  20:0.10548  21:0.028167  22:0.0022137  23:0.0033138  24:0  25:0  26:0  27:0  28:0  29:0  30:0  31:0  32:0  33:0  34:0  35:0  36:0  37:0  38:0  39:0  40:0  41:0  42:0  43:0  44:0  45:0  46:0  47:0 
9 0:0.34054  1:0.5602  2:0.075435  3:0.021294  4:0.0014005  5:0.0011395  6:0.3034  7:0.48902  8:0.15524  9:0.03837  10:0.0068528  11:0.0071209  12:0.033565  13:0.58919  14:0.2943  15:0.063759  16:0.0092109  17:0.0099801  18:0.32582  19:0.53942  20:0.099169  21:0.028986  22:0.0025169  23:0.0040839  24:0  25:0  26:0  27:0  28:0  29:0  30:0  31:0  32:0  33:0  34:0  35:0  36:0  37:0  38:0  39:0  40:0  41:0  42:0  43:0  44:0  45:0  46:0  47:0 
9 0:0.26005  1:0.48375  2:0.20562  3:0.043926  4:0.0033446  5:0.0032984  6:0.15936  7:0.54435  8:0.25362  9:0.032914  10:0.0055952  11:0.0041728  12:0.071649  13:0.58337  14:0.27008  15:0.056778  16:0.010149  17:0.007981  18:0.26063  19:0.49857  20:0.1936  21:0.033451  22:0.0052513  23:0.0084942  24:0  25:0  26:0  27:0  28:0  29:0  30:0  31:0  32:0  33:0  34:0  35:0  36:0  37:0  38:0  39:0  40:0  41:0  42:0  43:0  44:0  45:0  46:0  47:0 
9 0:0.19498  1:0.6143  2:0.15771  3:0.027149  4:0.0036682  5:0.0022054  6:0.1483  7:0.64055  8:0.17681  9:0.02685  10:0.0042219  11:0.0032586  12:0.15629  13:0.50151  14:0.23726  15:0.074675  16:0.012582  17:0.017684  18:0.18025  19:0.65142  20:0.14904  21:0.012507  22:0.0024804  23:0.0043032  24:0  25:0  26:0  27:0  28:0  29:0  30:0  31:0  32:0  33:0  34:0  35:0  36:0  37:0  38:0  39:0  40:0  41:0  42:0  43:0  44:0  45:0  46:0  47:0 
9 0:0.286  1:0.60794  2:0.091671  3:0.010758  4:0.0022625  5:0.0013685  6:0.15966  7:0.51935  8:0.26969  9:0.036164  10:0.0087257  11:0.0064145  12:0.11519  13:0.32243  14:0.47477  15:0.057495  16:0.010268  17:0.019837  18:0.25895  19:0.63907  20:0.082548  21:0.011875  22:0.0025984  23:0.0049576  24:0  25:0  26:0  27:0  28:0  29:0  30:0  31:0  32:0  33:0  34:0  35:0  36:0  37:0  38:0  39:0  40:0  41:0  42:0  43:0  44:0  45:0  46:0  47:0 
9 0:0.23933  1:0.4678  2:0.19874  3:0.09041  4:0.0023871  5:0.0013363  6:0.067243  7:0.45555  8:0.35668  9:0.093818  10:0.012521  11:0.01418  12:0.13821  13:0.33536  14:0.43706  15:0.069098  16:0.0085164  17:0.011757  18:0.18177  19:0.54408  20:0.22046  21:0.043935  22:0.0040861  23:0.0056741  24:0  25:0  26:0  27:0  28:0  29:0  30:0  31:0  32:0  33:0  34:0  35:0  36:0  37:0  38:0  39:0  40:0  41:0  42:0  43:0  44:0  45:0  46:0  47:0 
9 0:0.40258  1:0.45432  2:0.098799  3:0.037831  4:0.0025025  5:0.0039743  6:0.078569  7:0.69994  8:0.18039  9:0.022399  10:0.010041  11:0.0086576  12:0.28115  13:0.43131  14:0.23472  15:0.037796  16:0.0060156  17:0.0090115  18:0.35981  19:0.46292  20:0.1405  21:0.027657  22:0.0031681  23:0.0059397  24:0  25:0  26:0  27:0  28:0  29:0  30:0  31:0  32:0  33:0  34:0  35:0  36:0  37:0  38:0  39:0  40:0  41:0  42:0  43:0  44:0  45:0  46:0  47:0 
9 0:0.53451  1:0.41971  2:0.03735  3:0.0071995  4:0.00066014  5:0.00056904  6:0.073599  7:0.72255  8:0.13617  9:0.046905  10:0.010056  11:0.010717  12:0.16784  13:0.55208  14:0.21545  15:0.049827  16:0.005698  17:0.0091061  18:0.19067  19:0.63342  20:0.13912  21:0.027655  22:0.0037032  23:0.0054343  24:0  25:0  26:0  27:0  28:0  29:0  30:0  31:0  32:0  33:0  34:0  35:0  36:0  37:0  38:0  39:0  40:0  41:0  42:0  43:0  44:0  45:0  46:0  47:0 
9 0:0.5208  1:0.42254  2:0.048836  3:0.0066272  4:0.00064418  5:0.00055367  6:0.089074  7:0.66364  8:0.19232  9:0.036332  10:0.0094744  11:0.0091648  12:0.13329  13:0.46578  14:0.3398  15:0.046747  16:0.0062765  17:0.0081103  18:0.088051  19:0.69877  20:0.17408  21:0.028886  22:0.0043992  23:0.0058168  24:0  25:0  26:0  27:0  28:0  29:0  30:0  31:0  32:0  33:0  34:0  35:0  36:0  37:0  38:0  39:0  40:0  41:0  42:0  43:0  44:0  45:0  46:0  47:0 
9 0:0.32877  1:0.53376  2:0.12041  3:0.014011  4:0.0014952  5:0.0015592  6:0.18927  7:0.56351  8:0.1971  9:0.031925  10:0.0095844  11:0.0086128  12:0.13834  13:0.42365  14:0.39359  15:0.027041  16:0.0074025  17:0.0099735  18:0.38211  19:0.52195  20:0.077839  21:0.011121  22:0.0025413  23:0.0044454  24:0  25:0  26:0  27:0  28:0  29:0  30:0  31:0  32:0  33:0  34:0  35:0  36:0  37:0  38:0  39:0  40:0  41:0  42:0  43:0  44:0  45:0  46:0  47:0 
9 0:0.30557  1:0.58764  2:0.089401  3:0.014944  4:0.001332  5:0.0011117  6:0.30247  7:0.3991  8:0.19851  9:0.076448  10:0.012703  11:0.010766  12:0.21493  13:0.4378  14:0.29617  15:0.035301  16:0.0071092  17:0.0086875  18:0.3264  19:0.58252  20:0.073838  21:0.013156  22:0.0016276  23:0.0024533  24:0  25:0  26:0  27:0  28:0  29:0  30:0  31:0  32:0  33:0  34:0  35:0  36:0  37:0  38:0  39:0  40:0  41:0  42:0  43:0  44:0  45:0  46:0  47:0 
9 0:0.10375  1:0.72197  2:0.15555  3:0.014009  4:0.0022023  5:0.0025138  6:0.13284  7:0.42681  8:0.33843  9:0.073949  10:0.018229  11:0.0097423  12:0.14402  13:0.59351  14:0.21443  15:0.036619  16:0.0050394  17:0.0063734  18:0.15421  19:0.70614  20:0.11255  21:0.020366  22:0.0027824  23:0.0039509  24:0  25:0  26:0  27:0  28:0  29:0  30:0  31:0  32:0  33:0  34:0  35:0  36:0  37:0  38:0  39:0  40:0  41:0  42:0  43:0  44:0  45:0  46:0  47:0 
9 0:0.12638  1:0.64528  2:0.17417  3:0.046506  4:0.0037304  5:0.0039333  6:0.048895  7:0.48826  8:0.40039  9:0.029274  10:0.020747  11:0.012432  12:0.084361  13:0.64564  14:0.21565  15:0.040609  16:0.0062585  17:0.007482  18:0.17287  19:0.60391  20:0.174  21:0.038221  22:0.0046622  23:0.0063355  24:0  25:0  26:0  27:0  28:0  29:0  30:0  31:0  32:0  33:0  34:0  35:0  36:0  37:0  38:0  39:0  40:0  41:0  42:0  43:0  44:0  45:0  46:0  47:0 
9 0:0.1528  1:0.61416  2:0.19566  3:0.033929  4:0.0019401  5:0.0015092  6:0.10515  7:0.58705  8:0.27768  9:0.014447  10:0.010602  11:0.0050697  12:0.084242  13:0.65889  14:0.19475  15:0.044596  16:0.0091063  17:0.0084235  18:0.19847  19:0.60103  20:0.15891  21:0.03383  22:0.0035478  23:0.0042111  24:0  25:0  26:0  27:0  28:0  29:0  30:0  31:0  32:0  33:0  34:0  35:0  36:0  37:0  38:0  39:0  40:0  41:0  42:0  43:0  44:0  45:0  46:0  47:0 
9 0:0.1347  1:0.65569  2:0.18621  3:0.020549  4:0.0016915  5:0.0011661  6:0.18254  7:0.52223  8:0.25587  9:0.028037  10:0.0076366  11:0.0036934  12:0.097991  13:0.73619  14:0.13568  15:0.02063  16:0.0048884  17:0.0046184  18:0.17181  19:0.6069  20:0.19044  21:0.022965  22:0.0052295  23:0.0026475  24:0  25:0  26:0  27:0  28:0  29:0  30:0  31:0  32:0  33:0  34:0  35:0  36:0  37:0  38:0  39:0  40:0  41:0  42:0  43:0  44:0  45:0  46:0  47:0 
9 0:0.12326  1:0.63786  2:0.19065  3:0.0448  4:0.0020385  5:0.0013956  6:0.21173  7:0.42983  8:0.26805  9:0.075094  10:0.0086686  11:0.0066238  12:0.10702  13:0.69149  14:0.15526  15:0.036101  16:0.0052365  17:0.00489  18:0.16892  19:0.53041  20:0.25137  21:0.036268  22:0.0093665  23:0.0036636  24:0  25:0  26:0  27:0  28:0  29:0  30:0  31:0  32:0  33:0  34:0  35:0  36:0  37:0  38:0  39:0  40:0  41:0  42:0  43:0  44:0  45:0  46:0  47:0 
9 0:0.30607  1:0.55879  2:0.098044  3:0.03437  4:0.0014423  5:0.0012799  6:0.11926  7:0.59939  8:0.20382  9:0.060956  10:0.010946  11:0.0056311  12:0.072383  13:0.76467  14:0.10375  15:0.047297  16:0.0045906  17:0.0073064  18:0.34207  19:0.55552  20:0.075313  21:0.022528  22:0.0023619  23:0.0021993  24:0  25:0  26:0  27:0  28:0  29:0  30:0  31:0  32:0  33:0  34:0  35:0  36:0  37:0  38:0  39:0  40:0  41:0  42:0  43:0  44:0  45:0  46:0  47:0 
9 0:0.44658  1:0.47896  2:0.049912  3:0.020676  4:0.0022509  5:0.001622  6:0.24171  7:0.53963  8:0.15322  9:0.049952  10:0.0079838  11:0.0074938  12:0.17518  13:0.72693  14:0.069146  15:0.020274  16:0.0028268  17:0.0056441  18:0.35249  19:0.55634  20:0.065349  21:0.021498  22:0.0017268  23:0.0025975  24:0  25:0  26:0  27:0  28:0  29:0  30:0  31:0  32:0  33:0  34:0  35:0  36:0  37:0  38:0  39:0  40:0  41:0  42:0  43:0  44:0  45:0  46:0  47:0 
9 0:0.38324  1:0.33071  2:0.25118  3:0.02623  4:0.0051315  5:0.0035065  6:0.27195  7:0.47538  8:0.18214  9:0.056953  10:0.0064648  11:0.0071173  12:0.17327  13:0.66001  14:0.13673  15:0.018638  16:0.0048524  17:0.0065049  18:0.24333  19:0.54572  20:0.16535  21:0.036777  22:0.0033066  23:0.0055138  24:0  25:0  26:0  27:0  28:0  29:0  30:0  31:0  32:0  33:0  34:0  35:0  36:0  37:0  38:0  39:0  40:0  41:0  42:0  43:0  44:0  45:0  46:0  47:0 
9 0:0.17285  1:0.40254  2:0.39623  3:0.02137  4:0.0037599  5:0.0032563  6:0.13305  7:0.55587  8:0.24692  9:0.049765  10:0.0087159  11:0.0056764  12:0.070383  13:0.61538  14:0.25709  15:0.042489  16:0.0074946  17:0.0071604  18:0.23599  19:0.44377  20:0.28015  21:0.031718  22:0.0040107  23:0.004356  24:0  25:0  26:0  27:0  28:0  29:0  30:0  31:0  32:0  33:0  34:0  35:0  36:0  37:0  38:0  39:0  40:0  41:0  42:0  43:0  44:0  45:0  46:0  47:0 
9 0:0.16715  1:0.4656  2:0.33307  3:0.026248  4:0.0039413  5:0.0039917  6:0.042111  7:0.57949  8:0.28576  9:0.058779  10:0.013197  11:0.020662  12:0.12308  13:0.55599  14:0.24502  15:0.057686  16:0.010454  17:0.0077773  18:0.23679  19:0.40399  20:0.321  21:0.028925  22:0.0047238  23:0.0045778  24:0  25:0  26:0  27:0  28:0  29:0  30:0  31:0  32:0  33:0  34:0  35:0  36:0  37:0  38:0  39:0  40:0  41:0  42:0  43:0  44:0  45:0  46:0  47:0 
9 0:0.095716  1:0.60613  2:0.2455  3:0.042251  4:0.0049071  5:0.0054898  6:0.041798  7:0.49627  8:0.36483  9:0.058684  10:0.015606  11:0.022815  12:0.11843  13:0.52907  14:0.24258  15:0.077542  16:0.016289  17:0.016095  18:0.07209  19:0.56054  20:0.30032  21:0.048259  22:0.011751  23:0.0070326  24:0  25:0  26:0  27:0  28:0  29:0  30:0  31:0  32:0  33:0  34:0  35:0  36:0  37:0  38:0  39:0  40:0  41:0  42:0  43:0  44:0  45:0  46:0  47:0 
9 0:0.14604  1:0.666  2:0.17414  3:0.010679  4:0.0018498  5:0.0012867  6:0.068075  7:0.537  8:0.33339  9:0.037708  10:0.014991  11:0.0088294  12:0.13841  13:0.4436  14:0.31898  15:0.073038  16:0.011033  17:0.014944  18:0.22555  19:0.57453  20:0.16744  21:0.026793  22:0.002929  23:0.0027614  24:0  25:0  26:0  27:0  28:0  29:0  30:0  31:0  32:0  33:0  34:0  35:0  36:0  37:0  38:0  39:0  40:0  41:0  42:0  43:0  44:0  45:0  46:0  47:0 
9 0:0.17708  1:0.63343  2:0.18142  3:0.0066942  4:0.00077409  5:0.00059659  6:0.095195  7:0.63749  8:0.21369  9:0.03697  10:0.0096324  11:0.007026  12:0.10825  13:0.46594  14:0.36532  15:0.041021  16:0.0067632  17:0.012704  18:0.2247  19:0.59298  20:0.17352  21:0.0072305  22:0.00071001  23:0.00086349  24:0  25:0  26:0  27:0  28:0  29:0  30:0  31:0  32:0  33:0  34:0  35:0  36:0  37:0  38:0  39:0  40:0  41:0  42:0  43:0  44:0  45:0  46:0  47:0 
9 0:0.17148  1:0.61964  2:0.19442  3:0.012571  4:0.0010211  5:0.00086067  6:0.095266  7:0.5656  8:0.21741  9:0.085999  10:0.012801  11:0.022917  12:0.051889  13:0.51275  14:0.32408  15:0.07138  16:0.013824  17:0.02607  18:0.21425  19:0.59899  20:0.17878  21:0.006198  22:0.0010109  23:0.00077498  24:0  25:0  26:0  27:0  28:0  29:0  30:0  31:0  32:0  33:0  34:0  35:0  36:0  37:0  38:0  39:0  40:0  41:0  42:0  43:0  44:0  45:0  46:0  47:0 
9 0:0.17697  1:0.60104  2:0.19154  3:0.026831  4:0.001873  5:0.00175  6:0.12951  7:0.33743  8:0.36397  9:0.11708  10:0.018631  11:0.033376  12:0.0693  13:0.46941  14:0.28374  15:0.12116  16:0.023183  17:0.033208  18:0.16497  19:0.64476  20:0.16797  21:0.019409  22:0.0016114  23:0.0012695  24:0  25:0  26:0  27:0  28:0  29:0  30:0  31:0  32:0  33:0  34:0  35:0  36:0  37:0  38:0  39:0  40:0  41:0  42:0  43:0  44:0  45:0  46:0  47:0 
9 0:0.1962  1:0.58646  2:0.19772  3:0.015857  4:0.0017769  5:0.0019851  6:0.089119  7:0.44446  8:0.3796  9:0.06405  10:0.010498  11:0.012266  12:0.13675  13:0.38661  14:0.30555  15:0.11961  16:0.023623  17:0.02787  18:0.16477  19:0.6267  20:0.19159  21:0.014499  22:0.00099558  23:0.0014432  24:0  25:0  26:0  27:0  28:0  29:0  30:0  31:0  32:0  33:0  34:0  35:0  36:0  37:0  38:0  39:0  40:0  41:0  42:0  43:0  44:0  45:0  46:0  47:0 
9 0:0.16488  1:0.55086  2:0.26241  3:0.017991  4:0.0019693  5:0.0018893  6:0.1048  7:0.55962  8:0.27401  9:0.047083  10:0.0071571  11:0.007334  12:0.11478  13:0.45938  14:0.28928  15:0.093726  16:0.020655  17:0.022172  18:0.16702  19:0.52051  20:0.29582  21:0.013124  22:0.0014054  23:0.0021143  24:0  25:0  26:0  27:0  28:0  29:0  30:0  31:0  32:0  33:0  34:0  35:0  36:0  37:0  38:0  39:0  40:0  41:0  42:0  43:0  44:0  45:0  46:0  47:0 
9 0:0.16889  1:0.53163  2:0.2738  3:0.022389  4:0.0016634  5:0.0016264  6:0.18726  7:0.53265  8:0.20815  9:0.054193  10:0.0082194  11:0.0095319  12:0.061794  13:0.60665  14:0.22684  15:0.069875  16:0.019026  17:0.015815  18:0.16032  19:0.53664  20:0.27077  21:0.028008  22:0.0023543  23:0.0019108  24:0  25:0  26:0  27:0  28:0  29:0  30:0  31:0  32:0  33:0  34:0  35:0  36:0  37:0  38:0  39:0  40:0  41:0  42:0  43:0  44:0  45:0  46:0  47:0 
9 0:0.21301  1:0.56838  2:0.19014  3:0.022014  4:0.0022721  5:0.004179  6:0.13895  7:0.52472  8:0.23181  9:0.072674  10:0.01408  11:0.017772  12:0.05739  13:0.57758  14:0.29456  15:0.038729  16:0.012812  17:0.018933  18:0.21773  19:0.54551  20:0.19374  21:0.037155  22:0.0034939  23:0.0023789  24:0  25:0  26:0  27:0  28:0  29:0  30:0  31:0  32:0  33:0  34:0  35:0  36:0  37:0  38:0  39:0  40:0  41:0  42:0  43:0  44:0  45:0  46:0  47:0 
9 0:0.1463  1:0.66758  2:0.16368  3:0.019075  4:0.0013245  5:0.0020465  6:0.086184  7:0.60659  8:0.19353  9:0.066192  10:0.017914  11:0.029589  12:0.065438  13:0.48987  14:0.39252  15:0.023756  16:0.010038  17:0.018381  18:0.20905  19:0.63466  20:0.14138  21:0.012292  22:0.0014906  23:0.0011275  24:0  25:0  26:0  27:0  28:0  29:0  30:0  31:0  32:0  33:0  34:0  35:0  36:0  37:0  38:0  39:0  40:0  41:0  42:0  43:0  44:0  45:0  46:0  47:0 
9 0:0.12036  1:0.67594  2:0.18477  3:0.016081  4:0.0012181  5:0.0016376  6:0.056454  7:0.58189  8:0.25104  9:0.057851  10:0.017328  11:0.035434  12:0.077681  13:0.4879  14:0.37237  15:0.029155  16:0.011829  17:0.021059  18:0.17537  19:0.66535  20:0.14514  21:0.011805  22:0.0013783  23:0.00095322  24:0  25:0  26:0  27:0  28:0  29:0  30:0  31:0  32:0  33:0  34:0  35:0  36:0  37:0  38:0  39:0  40:0  41:0  42:0  43:0  44:0  45:0  46:0  47:0 
9 0:0.20094  1:0.63037  2:0.14562  3:0.018054  4:0.0017118  5:0.0033066  6:0.111  7:0.6372  8:0.18577  9:0.033571  10:0.010418  11:0.02204  12:0.051671  13:0.71393  14:0.12622  15:0.055535  16:0.013243  17:0.039406  18:0.19917  19:0.58705  20:0.18913  21:0.019174  22:0.0029244  23:0.0025491  24:0  25:0  26:0  27:0  28:0  29:0  30:0  31:0  32:0  33:0  34:0  35:0  36:0  37:0  38:0  39:0  40:0  41:0  42:0  43:0  44:0  45:0  46:0  47:0 
9 0:0.071649  1:0.55593  2:0.32536  3:0.039757  4:0.0042942  5:0.0030132  6:0.11183  7:0.59223  8:0.20289  9:0.039058  10:0.016671  11:0.037323  12:0.24941  13:0.33511  14:0.15364  15:0.12589  16:0.039601  17:0.096355  18:0.3099  19:0.53962  20:0.11098  21:0.028394  22:0.0044477  23:0.0066679  24:0  25:0  26:0  27:0  28:0  29:0  30:0  31:0  32:0  33:0  34:0  35:0  36:0  37:0  38:0  39:0  40:0  41:0  42:0  43:0  44:0  45:0  46:0  47:0 
9 0:0.059012  1:0.54074  2:0.34867  3:0.044684  4:0.0038734  5:0.0030237  6:0.32626  7:0.4502  8:0.13912  9:0.029804  10:0.013699  11:0.040909  12:0.18413  13:0.24037  14:0.25218  15:0.10677  16:0.061946  17:0.1546  18:0.28655  19:0.56225  20:0.097089  21:0.038195  22:0.0057781  23:0.01014  24:0  25:0  26:0  27:0  28:0  29:0  30:0  31:0  32:0  33:0  34:0  35:0  36:0  37:0  38:0  39:0  40:0  41:0  42:0  43:0  44:0  45:0  46:0  47:0 
9 0:0.1988  1:0.46802  2:0.27644  3:0.050642  4:0.002153  5:0.0039403  6:0.48368  7:0.35245  8:0.080058  9:0.021988  10:0.014175  11:0.047647  12:0.10288  13:0.30314  14:0.23921  15:0.088936  16:0.083217  17:0.18262  18:0.26312  19:0.56896  20:0.12881  21:0.028087  22:0.003471  23:0.0075507  24:0  25:0  26:0  27:0  28:0  29:0  30:0  31:0  32:0  33:0  34:0  35:0  36:0  37:0  38:0  39:0  40:0  41:0  42:0  43:0  44:0  45:0  46:0  47:0 
9 0:0.31783  1:0.49332  2:0.15361  3:0.024893  4:0.0055409  5:0.0048113  6:0.61346  7:0.30262  8:0.061198  9:0.0065612  10:0.0047161  11:0.011447  12:0.40252  13:0.34305  14:0.084019  15:0.07099  16:0.036316  17:0.063097  18:0.23691  19:0.55981  20:0.14308  21:0.045566  22:0.0040146  23:0.01062  24:0  25:0  26:0  27:0  28:0  29:0  30:0  31:0  32:0  33:0  34:0  35:0  36:0  37:0  38:0  39:0  40:0  41:0  42:0  43:0  44:0  45:0  46:0  47:0 
9 0:0.14644  1:0.55428  2:0.28183  3:0.015235  4:0.0015302  5:0.00069589  6:0.41955  7:0.49827  8:0.076249  9:0.0039401  10:0.00091432  11:0.0010807  12:0.34724  13:0.51995  14:0.085778  15:0.038456  16:0.0035688  17:0.0050041  18:0.39428  19:0.40146  20:0.16981  21:0.023567  22:0.0044054  23:0.0064742  24:0  25:0  26:0  27:0  28:0  29:0  30:0  31:0  32:0  33:0  34:0  35:0  36:0  37:0  38:0  39:0  40:0  41:0  42:0  43:0  44:0  45:0  46:0  47:0 
9 0:0.18149  1:0.64678  2:0.15317  3:0.01421  4:0.001911  5:0.0024434  6:0.3563  7:0.55098  8:0.0862  9:0.0058678  10:0.00035908  11:0.00029347  12:0.2194  13:0.60818  14:0.13184  15:0.033223  16:0.0032405  17:0.0041103  18:0.43389  19:0.41093  20:0.13207  21:0.016395  22:0.0027945  23:0.0039127  24:0  25:0  26:0  27:0  28:0  29:0  30:0  31:0  32:0  33:0  34:0  35:0  36:0  37:0  38:0  39:0  40:0  41:0  42:0  43:0  44:0  45:0  46:0  47:0 
9 0:0.20342  1:0.67078  2:0.10028  3:0.020374  4:0.0021904  5:0.002954  6:0.32706  7:0.60041  8:0.065088  9:0.0062676  10:0.00063264  11:0.0005376  12:0.3035  13:0.37601  14:0.24103  15:0.047389  16:0.012368  17:0.019701  18:0.46952  19:0.44708  20:0.076338  21:0.0065345  22:0.00033085  23:0.00019882  24:0  25:0  26:0  27:0  28:0  29:0  30:0  31:0  32:0  33:0  34:0  35:0  36:0  37:0  38:0  39:0  40:0  41:0  42:0  43:0  44:0  45:0  46:0  47:0 
9 0:0.19385  1:0.61266  2:0.14333  3:0.047488  4:0.0018791  5:0.00079579  6:0.29576  7:0.55729  8:0.13536  9:0.010347  10:0.00076287  11:0.00048351  12:0.17101  13:0.37235  14:0.37681  15:0.036756  16:0.016677  17:0.02639  18:0.1792  19:0.68136  20:0.12507  21:0.012138  22:0.00088542  23:0.0013428  24:0  25:0  26:0  27:0  28:0  29:0  30:0  31:0  32:0  33:0  34:0  35:0  36:0  37:0  38:0  39:0  40:0  41:0  42:0  43:0  44:0  45:0  46:0  47:0 
9 0:0.11199  1:0.66632  2:0.20648  3:0.013898  4:0.00088501  5:0.00042734  6:0.31742  7:0.47904  8:0.18692  9:0.01461  10:0.00094476  11:0.0010628  12:0.15863  13:0.42108  14:0.3283  15:0.0537  16:0.013246  17:0.025043  18:0.14331  19:0.69275  20:0.1475  21:0.013057  22:0.0017343  23:0.0016473  24:0  25:0  26:0  27:0  28:0  29:0  30:0  31:0  32:0  33:0  34:0  35:0  36:0  37:0  38:0  39:0  40:0  41:0  42:0  43:0  44:0  45:0  46:0  47:0 
9 0:0.19197  1:0.53511  2:0.22602  3:0.037454  4:0.0046998  5:0.0047433  6:0.28839  7:0.3709  8:0.25701  9:0.057656  10:0.0059472  11:0.020108  12:0.12189  13:0.50201  14:0.23789  15:0.078985  16:0.019067  17:0.040165  18:0.086928  19:0.66519  20:0.2224  21:0.018996  22:0.0030906  23:0.003389  24:0  25:0  26:0  27:0  28:0  29:0  30:0  31:0  32:0  33:0  34:0  35:0  36:0  37:0  38:0  39:0  40:0  41:0  42:0  43:0  44:0  45:0  46:0  47:0 
9 0:0.21799  1:0.58263  2:0.17151  3:0.02233  4:0.002674  5:0.0028596  6:0.19593  7:0.42079  8:0.26391  9:0.08263  10:0.011446  11:0.025292  12:0.076029  13:0.46672  14:0.34392  15:0.055692  16:0.022138  17:0.035501  18:0.15403  19:0.65821  20:0.16193  21:0.021334  22:0.0022042  23:0.0022871  24:0  25:0  26:0  27:0  28:0  29:0  30:0  31:0  32:0  33:0  34:0  35:0  36:0  37:0  38:0  39:0  40:0  41:0  42:0  43:0  44:0  45:0  46:0  47:0 
9 0:0.23683  1:0.5355  2:0.19233  3:0.027195  4:0.0035554  5:0.0045896  6:0.15568  7:0.42538  8:0.32691  9:0.059975  10:0.017118  11:0.014939  12:0.051516  13:0.48697  14:0.38444  15:0.048809  16:0.013013  17:0.015256  18:0.27405  19:0.54031  20:0.15655  21:0.022527  22:0.0043293  23:0.0022347  24:0  25:0  26:0  27:0  28:0  29:0  30:0  31:0  32:0  33:0  34:0  35:0  36:0  37:0  38:0  39:0  40:0  41:0  42:0  43:0  44:0  45:0  46:0  47:0 
9 0:0.18961  1:0.62679  2:0.16611  3:0.014355  4:0.0013211  5:0.0018145  6:0.17638  7:0.40521  8:0.26569  9:0.09468  10:0.025246  11:0.032801  12:0.056923  13:0.60016  14:0.27885  15:0.034524  16:0.012433  17:0.017118  18:0.15667  19:0.67455  20:0.15388  21:0.012509  22:0.0011735  23:0.0012157  24:0  25:0  26:0  27:0  28:0  29:0  30:0  31:0  32:0  33:0  34:0  35:0  36:0  37:0  38:0  39:0  40:0  41:0  42:0  43:0  44:0  45:0  46:0  47:0 
