svm_type c_svc
kernel_type rbf
degree 3
gamma 0.5
nr_class 2
total_sv 650
rho -2.4099
label 0 1
probA -2.3647
probB 0.73456
nr_sv 330 320
SV
9 0:0.3405  1:0.37957  2:0.11643  3:0.035592  4:0.064351  5:0.06355  6:0.32185  7:0.071086  8:0.080641  9:0.075258  10:0.23394  11:0.21723  12:0.31946  13:0.089954  14:0.057236  15:0.075218  16:0.23411  17:0.22402  18:0.33876  19:0.37511  20:0.10629  21:0.038578  22:0.072381  23:0.068875  24:0  25:0  26:0  27:0  28:0  29:0  30:0  31:0  32:0  33:0  34:0  35:0  36:0  37:0  38:0  39:0  40:0  41:0  42:0  43:0  44:0  45:0  46:0  47:0 
9 0:0.35215  1:0.30006  2:0.14845  3:0.12886  4:0.043421  5:0.027067  6:0.3351  7:0.20858  8:0.14511  9:0.18983  10:0.075441  11:0.045927  12:0.33494  13:0.22252  14:0.13791  15:0.18287  16:0.074558  17:0.047206  18:0.349  19:0.29998  20:0.14859  21:0.12815  22:0.045846  23:0.028443  24:0  25:0  26:0  27:0  28:0  29:0  30:0  31:0  32:0  33:0  34:0  35:0  36:0  37:0  38:0  39:0  40:0  41:0  42:0  43:0  44:0  45:0  46:0  47:0 
9 0:0.33812  1:0.3384  2:0.20605  3:0.033744  4:0.042923  5:0.040758  6:0.34892  7:0.10342  8:0.071931  9:0.07426  10:0.20793  11:0.19355  12:0.25892  13:0.1075  14:0.097636  15:0.086394  16:0.23389  17:0.21566  18:0.3342  19:0.3307  20:0.19596  21:0.036731  22:0.052679  23:0.049732  24:0  25:0  26:0  27:0  28:0  29:0  30:0  31:0  32:0  33:0  34:0  35:0  36:0  37:0  38:0  39:0  40:0  41:0  42:0  43:0  44:0  45:0  46:0  47:0 
9 0:0.32772  1:0.24417  2:0.17138  3:0.14723  4:0.067076  5:0.042426  6:0.35556  7:0.20316  8:0.12791  9:0.18946  10:0.076476  11:0.047432  12:0.30427  13:0.22307  14:0.16423  15:0.1891  16:0.074405  17:0.044924  18:0.29607  19:0.24509  20:0.19074  21:0.15784  22:0.067693  23:0.042571  24:0  25:0  26:0  27:0  28:0  29:0  30:0  31:0  32:0  33:0  34:0  35:0  36:0  37:0  38:0  39:0  40:0  41:0  42:0  43:0  44:0  45:0  46:0  47:0 
9 0:0.28884  1:0.22166  2:0.15385  3:0.20921  4:0.078451  5:0.047983  6:0.32538  7:0.22181  8:0.14153  9:0.19112  10:0.072998  11:0.04717  12:0.33315  13:0.25315  14:0.14332  15:0.16521  16:0.06247  17:0.042702  18:0.31355  19:0.21824  20:0.18294  21:0.17556  22:0.065281  23:0.044427  24:0  25:0  26:0  27:0  28:0  29:0  30:0  31:0  32:0  33:0  34:0  35:0  36:0  37:0  38:0  39:0  40:0  41:0  42:0  43:0  44:0  45:0  46:0  47:0 
9 0:0.31593  1:0.23678  2:0.22261  3:0.12273  4:0.062762  5:0.039183  6:0.33588  7:0.21819  8:0.15326  9:0.17367  10:0.073467  11:0.045533  12:0.32391  13:0.23419  14:0.13559  15:0.18215  16:0.077057  17:0.047103  18:0.31631  19:0.26857  20:0.1467  21:0.1521  22:0.073216  23:0.043113  24:0  25:0  26:0  27:0  28:0  29:0  30:0  31:0  32:0  33:0  34:0  35:0  36:0  37:0  38:0  39:0  40:0  41:0  42:0  43:0  44:0  45:0  46:0  47:0 
9 0:0.13115  1:0.2834  2:0.37822  3:0.035471  4:0.084116  5:0.087638  6:0.29095  7:0.1141  8:0.07682  9:0.070592  10:0.23227  11:0.21526  12:0.27749  13:0.26252  14:0.1436  15:0.047228  16:0.13713  17:0.13203  18:0.14935  19:0.21994  20:0.38521  21:0.034069  22:0.1046  23:0.10683  24:0  25:0  26:0  27:0  28:0  29:0  30:0  31:0  32:0  33:0  34:0  35:0  36:0  37:0  38:0  39:0  40:0  41:0  42:0  43:0  44:0  45:0  46:0  47:0 
9 0:0.25564  1:0.28287  2:0.2493  3:0.12436  4:0.052035  5:0.035804  6:0.33879  7:0.21474  8:0.1346  9:0.18501  10:0.078511  11:0.048349  12:0.33448  13:0.28103  14:0.13449  15:0.14828  16:0.062177  17:0.039542  18:0.27816  19:0.26367  20:0.23759  21:0.13394  22:0.05078  23:0.035849  24:0  25:0  26:0  27:0  28:0  29:0  30:0  31:0  32:0  33:0  34:0  35:0  36:0  37:0  38:0  39:0  40:0  41:0  42:0  43:0  44:0  45:0  46:0  47:0 
9 0:0.32376  1:0.19761  2:0.17735  3:0.1759  4:0.079084  5:0.046307  6:0.3496  7:0.18989  8:0.16195  9:0.17847  10:0.073077  11:0.047021  12:0.35808  13:0.22627  14:0.1501  15:0.15365  16:0.070149  17:0.041751  18:0.31763  19:0.23752  20:0.13354  21:0.18251  22:0.082103  23:0.046709  24:0  25:0  26:0  27:0  28:0  29:0  30:0  31:0  32:0  33:0  34:0  35:0  36:0  37:0  38:0  39:0  40:0  41:0  42:0  43:0  44:0  45:0  46:0  47:0 
9 0:0.29532  1:0.23638  2:0.19305  3:0.16735  4:0.066587  5:0.0413  6:0.32917  7:0.21754  8:0.14077  9:0.19062  10:0.074628  11:0.04726  12:0.32817  13:0.22069  14:0.15163  15:0.17936  16:0.073513  17:0.046639  18:0.32714  19:0.22753  20:0.17155  21:0.16466  22:0.066173  23:0.042951  24:0  25:0  26:0  27:0  28:0  29:0  30:0  31:0  32:0  33:0  34:0  35:0  36:0  37:0  38:0  39:0  40:0  41:0  42:0  43:0  44:0  45:0  46:0  47:0 
9 0:0.2997  1:0.27448  2:0.17093  3:0.14831  4:0.069288  5:0.037288  6:0.33771  7:0.22063  8:0.12928  9:0.18601  10:0.078647  11:0.047722  12:0.34743  13:0.23634  14:0.12872  15:0.17314  16:0.069211  17:0.045155  18:0.31246  19:0.24734  20:0.18448  21:0.15228  22:0.066195  23:0.037256  24:0  25:0  26:0  27:0  28:0  29:0  30:0  31:0  32:0  33:0  34:0  35:0  36:0  37:0  38:0  39:0  40:0  41:0  42:0  43:0  44:0  45:0  46:0  47:0 
9 0:0.28473  1:0.27705  2:0.15145  3:0.17114  4:0.068969  5:0.046661  6:0.30889  7:0.26411  8:0.12506  9:0.18354  10:0.073354  11:0.045048  12:0.32662  13:0.21858  14:0.1352  15:0.19443  16:0.077647  17:0.047515  18:0.30124  19:0.24778  20:0.14773  21:0.17968  22:0.073122  23:0.050446  24:0  25:0  26:0  27:0  28:0  29:0  30:0  31:0  32:0  33:0  34:0  35:0  36:0  37:0  38:0  39:0  40:0  41:0  42:0  43:0  44:0  45:0  46:0  47:0 
9 0:0.23554  1:0.24477  2:0.23063  3:0.17495  4:0.073478  5:0.040629  6:0.30754  7:0.23898  8:0.14948  9:0.17843  10:0.077901  11:0.047672  12:0.29858  13:0.23434  14:0.15356  15:0.18782  16:0.078031  17:0.047678  18:0.22928  19:0.22353  20:0.24865  21:0.18393  22:0.07407  23:0.040544  24:0  25:0  26:0  27:0  28:0  29:0  30:0  31:0  32:0  33:0  34:0  35:0  36:0  37:0  38:0  39:0  40:0  41:0  42:0  43:0  44:0  45:0  46:0  47:0 
9 0:0.31895  1:0.26732  2:0.11361  3:0.18046  4:0.076892  5:0.042767  6:0.32889  7:0.22234  8:0.14406  9:0.18247  10:0.075679  11:0.046562  12:0.32786  13:0.23313  14:0.13273  15:0.18394  16:0.076005  17:0.046334  18:0.2998  19:0.25933  20:0.15544  21:0.17205  22:0.072921  23:0.040473  24:0  25:0  26:0  27:0  28:0  29:0  30:0  31:0  32:0  33:0  34:0  35:0  36:0  37:0  38:0  39:0  40:0  41:0  42:0  43:0  44:0  45:0  46:0  47:0 
9 0:0.33177  1:0.25785  2:0.12357  3:0.16835  4:0.076568  5:0.041886  6:0.34595  7:0.22288  8:0.13182  9:0.17686  10:0.076059  11:0.046429  12:0.32956  13:0.21084  14:0.15142  15:0.18348  16:0.077606  17:0.0471  18:0.31113  19:0.24358  20:0.15876  21:0.17465  22:0.070916  23:0.040963  24:0  25:0  26:0  27:0  28:0  29:0  30:0  31:0  32:0  33:0  34:0  35:0  36:0  37:0  38:0  39:0  40:0  41:0  42:0  43:0  44:0  45:0  46:0  47:0 
9 0:0.3311  1:0.24214  2:0.14284  3:0.1688  4:0.067116  5:0.048004  6:0.33766  7:0.2141  8:0.14503  9:0.17952  10:0.075673  11:0.048023  12:0.33823  13:0.21141  14:0.14644  15:0.18177  16:0.076382  17:0.04576  18:0.33354  19:0.23935  20:0.12737  21:0.17848  22:0.075327  23:0.045934  24:0  25:0  26:0  27:0  28:0  29:0  30:0  31:0  32:0  33:0  34:0  35:0  36:0  37:0  38:0  39:0  40:0  41:0  42:0  43:0  44:0  45:0  46:0  47:0 
9 0:0.33493  1:0.19666  2:0.15132  3:0.18365  4:0.083876  5:0.049565  6:0.34988  7:0.20258  8:0.14457  9:0.17853  10:0.077126  11:0.047312  12:0.32617  13:0.2205  14:0.14837  15:0.18044  16:0.077104  17:0.047413  18:0.3231  19:0.21771  20:0.13959  21:0.18488  22:0.083003  23:0.051722  24:0  25:0  26:0  27:0  28:0  29:0  30:0  31:0  32:0  33:0  34:0  35:0  36:0  37:0  38:0  39:0  40:0  41:0  42:0  43:0  44:0  45:0  46:0  47:0 
9 0:0.29741  1:0.25316  2:0.20036  3:0.14484  4:0.066505  5:0.037731  6:0.3344  7:0.2443  8:0.12503  9:0.17905  10:0.073444  11:0.043774  12:0.32245  13:0.23158  14:0.14723  15:0.18271  16:0.071165  17:0.04487  18:0.30797  19:0.23652  20:0.16711  21:0.17723  22:0.068233  23:0.04293  24:0  25:0  26:0  27:0  28:0  29:0  30:0  31:0  32:0  33:0  34:0  35:0  36:0  37:0  38:0  39:0  40:0  41:0  42:0  43:0  44:0  45:0  46:0  47:0 
9 0:0.29701  1:0.25218  2:0.14633  3:0.18831  4:0.074167  5:0.042007  6:0.33634  7:0.23949  8:0.13316  9:0.17544  10:0.070967  11:0.044593  12:0.32646  13:0.23926  14:0.13099  15:0.18013  16:0.07627  17:0.046896  18:0.31868  19:0.26052  20:0.13011  21:0.17222  22:0.075875  23:0.042598  24:0  25:0  26:0  27:0  28:0  29:0  30:0  31:0  32:0  33:0  34:0  35:0  36:0  37:0  38:0  39:0  40:0  41:0  42:0  43:0  44:0  45:0  46:0  47:0 
9 0:0.32029  1:0.22627  2:0.11688  3:0.20543  4:0.08219  5:0.048941  6:0.34827  7:0.20479  8:0.12744  9:0.1927  10:0.078793  11:0.048008  12:0.32192  13:0.22274  14:0.14898  15:0.18442  16:0.075178  17:0.04676  18:0.28587  19:0.21682  20:0.18541  21:0.19121  22:0.073515  23:0.047177  24:0  25:0  26:0  27:0  28:0  29:0  30:0  31:0  32:0  33:0  34:0  35:0  36:0  37:0  38:0  39:0  40:0  41:0  42:0  43:0  44:0  45:0  46:0  47:0 
9 0:0.29785  1:0.25231  2:0.19852  3:0.14867  4:0.062448  5:0.0402  6:0.3791  7:0.24069  8:0.12499  9:0.15653  10:0.05974  11:0.038942  12:0.3284  13:0.21307  14:0.15402  15:0.18173  16:0.075708  17:0.047078  18:0.30901  19:0.22696  20:0.21049  21:0.15102  22:0.063029  23:0.039483  24:0  25:0  26:0  27:0  28:0  29:0  30:0  31:0  32:0  33:0  34:0  35:0  36:0  37:0  38:0  39:0  40:0  41:0  42:0  43:0  44:0  45:0  46:0  47:0 
9 0:0.28228  1:0.23238  2:0.23677  3:0.14493  4:0.064244  5:0.039401  6:0.21527  7:0.29555  8:0.38969  9:0.070669  10:0.018848  11:0.0099707  12:0.33452  13:0.21573  14:0.143  15:0.18339  16:0.076038  17:0.047317  18:0.3134  19:0.25167  20:0.15994  21:0.16052  22:0.07112  23:0.043352  24:0  25:0  26:0  27:0  28:0  29:0  30:0  31:0  32:0  33:0  34:0  35:0  36:0  37:0  38:0  39:0  40:0  41:0  42:0  43:0  44:0  45:0  46:0  47:0 
9 0:0.3129  1:0.24527  2:0.17054  3:0.15987  4:0.06637  5:0.045054  6:0.33618  7:0.22134  8:0.14059  9:0.17997  10:0.075415  11:0.046508  12:0.32303  13:0.23733  14:0.13004  15:0.18768  16:0.074531  17:0.047391  18:0.29384  19:0.2752  20:0.14151  21:0.17768  22:0.066468  23:0.0453  24:0  25:0  26:0  27:0  28:0  29:0  30:0  31:0  32:0  33:0  34:0  35:0  36:0  37:0  38:0  39:0  40:0  41:0  42:0  43:0  44:0  45:0  46:0  47:0 
9 0:0.26929  1:0.26694  2:0.21544  3:0.15201  4:0.060243  5:0.036073  6:0.33971  7:0.22332  8:0.13092  9:0.18236  10:0.077581  11:0.046119  12:0.32738  13:0.22273  14:0.15791  15:0.17508  16:0.072151  17:0.044747  18:0.29034  19:0.24275  20:0.21564  21:0.15196  22:0.060977  23:0.038336  24:0  25:0  26:0  27:0  28:0  29:0  30:0  31:0  32:0  33:0  34:0  35:0  36:0  37:0  38:0  39:0  40:0  41:0  42:0  43:0  44:0  45:0  46:0  47:0 
9 0:0.18821  1:0.19113  2:0.27213  3:0.065195  4:0.14582  5:0.1375  6:0.26656  7:0.12116  8:0.087337  9:0.077812  10:0.23232  11:0.21482  12:0.25721  13:0.10161  14:0.13149  15:0.07679  16:0.22489  17:0.20801  18:0.19693  19:0.20973  20:0.20633  21:0.057726  22:0.16696  23:0.16233  24:0  25:0  26:0  27:0  28:0  29:0  30:0  31:0  32:0  33:0  34:0  35:0  36:0  37:0  38:0  39:0  40:0  41:0  42:0  43:0  44:0  45:0  46:0  47:0 
9 0:0.27428  1:0.23356  2:0.23076  3:0.15885  4:0.064134  5:0.038421  6:0.33879  7:0.22736  8:0.14283  9:0.1735  10:0.072325  11:0.045195  12:0.30456  13:0.25684  14:0.14907  15:0.17526  16:0.070715  17:0.043561  18:0.30115  19:0.23726  20:0.18922  21:0.16098  22:0.069301  23:0.042084  24:0  25:0  26:0  27:0  28:0  29:0  30:0  31:0  32:0  33:0  34:0  35:0  36:0  37:0  38:0  39:0  40:0  41:0  42:0  43:0  44:0  45:0  46:0  47:0 
9 0:0.29053  1:0.25263  2:0.19092  3:0.15954  4:0.06627  5:0.040122  6:0.32489  7:0.24163  8:0.12935  9:0.18468  10:0.073797  11:0.045645  12:0.33116  13:0.22343  14:0.14698  15:0.18335  16:0.070807  17:0.044274  18:0.31724  19:0.23677  20:0.16642  21:0.16715  22:0.068871  23:0.043542  24:0  25:0  26:0  27:0  28:0  29:0  30:0  31:0  32:0  33:0  34:0  35:0  36:0  37:0  38:0  39:0  40:0  41:0  42:0  43:0  44:0  45:0  46:0  47:0 
9 0:0.31909  1:0.22817  2:0.14406  3:0.1804  4:0.079624  5:0.048659  6:0.33468  7:0.21325  8:0.142  9:0.18416  10:0.078269  11:0.047648  12:0.32737  13:0.21448  14:0.14754  15:0.18598  16:0.077187  17:0.047446  18:0.31892  19:0.22363  20:0.12451  21:0.20096  22:0.082244  23:0.04973  24:0  25:0  26:0  27:0  28:0  29:0  30:0  31:0  32:0  33:0  34:0  35:0  36:0  37:0  38:0  39:0  40:0  41:0  42:0  43:0  44:0  45:0  46:0  47:0 
9 0:0.25954  1:0.16775  2:0.22768  3:0.069261  4:0.13932  5:0.13645  6:0.2707  7:0.17455  8:0.065875  9:0.068571  10:0.21536  11:0.20495  12:0.26615  13:0.1574  14:0.12553  15:0.061872  16:0.2023  17:0.18675  18:0.24779  19:0.2561  20:0.1822  21:0.047913  22:0.13698  23:0.12903  24:0  25:0  26:0  27:0  28:0  29:0  30:0  31:0  32:0  33:0  34:0  35:0  36:0  37:0  38:0  39:0  40:0  41:0  42:0  43:0  44:0  45:0  46:0  47:0 
9 0:0.30704  1:0.23495  2:0.18666  3:0.16762  4:0.063495  5:0.040232  6:0.29692  7:0.26959  8:0.13389  9:0.18287  10:0.071455  11:0.045273  12:0.35263  13:0.19189  14:0.17558  15:0.16451  16:0.072398  17:0.042988  18:0.31656  19:0.25906  20:0.18009  21:0.14568  22:0.061923  23:0.036691  24:0  25:0  26:0  27:0  28:0  29:0  30:0  31:0  32:0  33:0  34:0  35:0  36:0  37:0  38:0  39:0  40:0  41:0  42:0  43:0  44:0  45:0  46:0  47:0 
9 0:0.16591  1:0.26753  2:0.25558  3:0.058017  4:0.13199  5:0.12097  6:0.2667  7:0.16223  8:0.075906  9:0.067686  10:0.22059  11:0.2069  12:0.20134  13:0.26018  14:0.15343  15:0.056432  16:0.171  17:0.15762  18:0.15946  19:0.35744  20:0.22987  21:0.048151  22:0.10717  23:0.09791  24:0  25:0  26:0  27:0  28:0  29:0  30:0  31:0  32:0  33:0  34:0  35:0  36:0  37:0  38:0  39:0  40:0  41:0  42:0  43:0  44:0  45:0  46:0  47:0 
9 0:0.36714  1:0.23366  2:0.1534  3:0.14427  4:0.061513  5:0.040017  6:0.32615  7:0.23529  8:0.14581  9:0.17685  10:0.071604  11:0.04431  12:0.34307  13:0.21473  14:0.14951  15:0.17626  16:0.070854  17:0.045565  18:0.36301  19:0.24196  20:0.15335  21:0.14377  22:0.059716  23:0.038201  24:0  25:0  26:0  27:0  28:0  29:0  30:0  31:0  32:0  33:0  34:0  35:0  36:0  37:0  38:0  39:0  40:0  41:0  42:0  43:0  44:0  45:0  46:0  47:0 
9 0:0.23579  1:0.32459  2:0.137  3:0.042385  4:0.13396  5:0.12627  6:0.27248  7:0.1375  8:0.072403  9:0.078565  10:0.22664  11:0.21242  12:0.27269  13:0.14063  14:0.087227  15:0.065446  16:0.22584  17:0.20817  18:0.24429  19:0.28254  20:0.16231  21:0.046966  22:0.13601  23:0.12788  24:0  25:0  26:0  27:0  28:0  29:0  30:0  31:0  32:0  33:0  34:0  35:0  36:0  37:0  38:0  39:0  40:0  41:0  42:0  43:0  44:0  45:0  46:0  47:0 
9 0:0.30521  1:0.31435  2:0.10685  3:0.1603  4:0.071152  5:0.042133  6:0.34429  7:0.22423  8:0.11941  9:0.18777  10:0.077189  11:0.047106  12:0.3432  13:0.22053  14:0.13084  15:0.18326  16:0.07635  17:0.045828  18:0.32141  19:0.29238  20:0.11207  21:0.15986  22:0.070995  23:0.043289  24:0  25:0  26:0  27:0  28:0  29:0  30:0  31:0  32:0  33:0  34:0  35:0  36:0  37:0  38:0  39:0  40:0  41:0  42:0  43:0  44:0  45:0  46:0  47:0 
9 0:0.28969  1:0.43697  2:0.052229  3:0.037823  4:0.097234  5:0.086046  6:0.28697  7:0.11825  8:0.061461  9:0.078849  10:0.23756  11:0.21691  12:0.28036  13:0.12595  14:0.063713  15:0.075796  16:0.23264  17:0.22155  18:0.31269  19:0.35447  20:0.065356  21:0.046998  22:0.11467  23:0.10581  24:0  25:0  26:0  27:0  28:0  29:0  30:0  31:0  32:0  33:0  34:0  35:0  36:0  37:0  38:0  39:0  40:0  41:0  42:0  43:0  44:0  45:0  46:0  47:0 
9 0:0.3519  1:0.31551  2:0.062845  3:0.1733  4:0.060962  5:0.035485  6:0.33883  7:0.24254  8:0.11296  9:0.18453  10:0.075403  11:0.045737  12:0.33605  13:0.23271  14:0.11852  15:0.19023  16:0.075294  17:0.047199  18:0.35834  19:0.28772  20:0.069454  21:0.17914  22:0.066794  23:0.038553  24:0  25:0  26:0  27:0  28:0  29:0  30:0  31:0  32:0  33:0  34:0  35:0  36:0  37:0  38:0  39:0  40:0  41:0  42:0  43:0  44:0  45:0  46:0  47:0 
9 0:0.30779  1:0.21618  2:0.21749  3:0.14626  4:0.069052  5:0.043226  6:0.32523  7:0.22513  8:0.13285  9:0.18991  10:0.078236  11:0.04864  12:0.32647  13:0.21942  14:0.15229  15:0.17735  16:0.077059  17:0.047411  18:0.33111  19:0.2128  20:0.17804  21:0.15596  22:0.076922  23:0.045168  24:0  25:0  26:0  27:0  28:0  29:0  30:0  31:0  32:0  33:0  34:0  35:0  36:0  37:0  38:0  39:0  40:0  41:0  42:0  43:0  44:0  45:0  46:0  47:0 
9 0:0.30049  1:0.2218  2:0.2008  3:0.17033  4:0.063791  5:0.042788  6:0.33827  7:0.21536  8:0.12697  9:0.19202  10:0.079197  11:0.048176  12:0.32143  13:0.21918  14:0.1562  15:0.17889  16:0.07649  17:0.047802  18:0.30879  19:0.17246  20:0.22711  21:0.17864  22:0.068517  23:0.044476  24:0  25:0  26:0  27:0  28:0  29:0  30:0  31:0  32:0  33:0  34:0  35:0  36:0  37:0  38:0  39:0  40:0  41:0  42:0  43:0  44:0  45:0  46:0  47:0 
9 0:0.27868  1:0.23828  2:0.21727  3:0.16376  4:0.062993  5:0.039016  6:0.32564  7:0.20683  8:0.1608  9:0.1837  10:0.076216  11:0.046826  12:0.31379  13:0.23547  14:0.14002  15:0.18609  16:0.077773  17:0.046856  18:0.29714  19:0.23528  20:0.2012  21:0.15793  22:0.067566  23:0.040881  24:0  25:0  26:0  27:0  28:0  29:0  30:0  31:0  32:0  33:0  34:0  35:0  36:0  37:0  38:0  39:0  40:0  41:0  42:0  43:0  44:0  45:0  46:0  47:0 
9 0:0.25331  1:0.30583  2:0.21804  3:0.13255  4:0.055088  5:0.03517  6:0.30744  7:0.2634  8:0.14062  9:0.17563  10:0.069673  11:0.043236  12:0.3328  13:0.22785  14:0.13611  15:0.18088  16:0.075186  17:0.047179  18:0.31125  19:0.30018  20:0.12462  21:0.15226  22:0.068848  23:0.042847  24:0  25:0  26:0  27:0  28:0  29:0  30:0  31:0  32:0  33:0  34:0  35:0  36:0  37:0  38:0  39:0  40:0  41:0  42:0  43:0  44:0  45:0  46:0  47:0 
9 0:0.1437  1:0.36553  2:0.23487  3:0.038617  4:0.10807  5:0.1092  6:0.25168  7:0.17787  8:0.074249  9:0.072825  10:0.21839  11:0.20498  12:0.28205  13:0.12971  14:0.046102  15:0.076743  16:0.23816  17:0.22724  18:0.17976  19:0.26077  20:0.22818  21:0.049719  22:0.13951  23:0.14207  24:0  25:0  26:0  27:0  28:0  29:0  30:0  31:0  32:0  33:0  34:0  35:0  36:0  37:0  38:0  39:0  40:0  41:0  42:0  43:0  44:0  45:0  46:0  47:0 
9 0:0.33895  1:0.26216  2:0.12062  3:0.16259  4:0.069081  5:0.046591  6:0.34507  7:0.22728  8:0.12116  9:0.18136  10:0.077023  11:0.048112  12:0.32576  13:0.23292  14:0.13309  15:0.18567  16:0.07492  17:0.047634  18:0.31214  19:0.25818  20:0.14254  21:0.17786  22:0.063778  23:0.04551  24:0  25:0  26:0  27:0  28:0  29:0  30:0  31:0  32:0  33:0  34:0  35:0  36:0  37:0  38:0  39:0  40:0  41:0  42:0  43:0  44:0  45:0  46:0  47:0 
9 0:0.12099  1:0.16688  2:0.52302  3:0.023009  4:0.081938  5:0.084166  6:0.24386  7:0.13158  8:0.10055  9:0.071308  10:0.232  11:0.2207  12:0.11721  13:0.54658  14:0.13698  15:0.042706  16:0.082138  17:0.074387  18:0.17637  19:0.18447  20:0.39663  21:0.028738  22:0.10766  23:0.10612  24:0  25:0  26:0  27:0  28:0  29:0  30:0  31:0  32:0  33:0  34:0  35:0  36:0  37:0  38:0  39:0  40:0  41:0  42:0  43:0  44:0  45:0  46:0  47:0 
9 0:0.28214  1:0.14948  2:0.25206  3:0.19194  4:0.07511  5:0.049277  6:0.33033  7:0.19154  8:0.16048  9:0.19227  10:0.077356  11:0.048023  12:0.21474  13:0.41945  14:0.16373  15:0.12519  16:0.048439  17:0.02845  18:0.31116  19:0.21072  20:0.20304  21:0.15951  22:0.071426  23:0.044155  24:0  25:0  26:0  27:0  28:0  29:0  30:0  31:0  32:0  33:0  34:0  35:0  36:0  37:0  38:0  39:0  40:0  41:0  42:0  43:0  44:0  45:0  46:0  47:0 
9 0:0.11798  1:0.20373  2:0.46352  3:0.032923  4:0.091106  5:0.090744  6:0.2943  7:0.08618  8:0.080063  9:0.076693  10:0.23768  11:0.22508  12:0.11356  13:0.5672  14:0.16512  15:0.040893  16:0.058984  17:0.054245  18:0.19114  19:0.21463  20:0.24633  21:0.052571  22:0.15284  23:0.14249  24:0  25:0  26:0  27:0  28:0  29:0  30:0  31:0  32:0  33:0  34:0  35:0  36:0  37:0  38:0  39:0  40:0  41:0  42:0  43:0  44:0  45:0  46:0  47:0 
9 0:0.26984  1:0.30316  2:0.14002  3:0.19056  4:0.058743  5:0.03768  6:0.32773  7:0.22251  8:0.13823  9:0.19  10:0.07528  11:0.046248  12:0.32971  13:0.22701  14:0.13167  15:0.1888  16:0.074428  17:0.048371  18:0.28343  19:0.26445  20:0.16379  21:0.1857  22:0.061903  23:0.040721  24:0  25:0  26:0  27:0  28:0  29:0  30:0  31:0  32:0  33:0  34:0  35:0  36:0  37:0  38:0  39:0  40:0  41:0  42:0  43:0  44:0  45:0  46:0  47:0 
9 0:0.30825  1:0.23534  2:0.19837  3:0.15407  4:0.063944  5:0.040026  6:0.32047  7:0.21736  8:0.14233  9:0.19079  10:0.079  11:0.050056  12:0.34938  13:0.22188  14:0.14212  15:0.17156  16:0.071583  17:0.043489  18:0.32607  19:0.25628  20:0.15042  21:0.16086  22:0.066003  23:0.040382  24:0  25:0  26:0  27:0  28:0  29:0  30:0  31:0  32:0  33:0  34:0  35:0  36:0  37:0  38:0  39:0  40:0  41:0  42:0  43:0  44:0  45:0  46:0  47:0 
9 0:0.33785  1:0.19738  2:0.13941  3:0.19032  4:0.084249  5:0.050778  6:0.34759  7:0.20643  8:0.13869  9:0.18219  10:0.077224  11:0.047879  12:0.32304  13:0.22162  14:0.14887  15:0.18226  16:0.077093  17:0.047114  18:0.32776  19:0.19468  20:0.14881  21:0.19612  22:0.082711  23:0.049919  24:0  25:0  26:0  27:0  28:0  29:0  30:0  31:0  32:0  33:0  34:0  35:0  36:0  37:0  38:0  39:0  40:0  41:0  42:0  43:0  44:0  45:0  46:0  47:0 
1.7382 0:0.21044  1:0.24242  2:0.31923  3:0.14103  4:0.053396  5:0.033474  6:0.31739  7:0.24615  8:0.14785  9:0.17536  10:0.068651  11:0.044596  12:0.31507  13:0.24489  14:0.15708  15:0.1683  16:0.070928  17:0.043736  18:0.25943  19:0.26481  20:0.22094  21:0.15798  22:0.058664  23:0.038165  24:0  25:0  26:0  27:0  28:0  29:0  30:0  31:0  32:0  33:0  34:0  35:0  36:0  37:0  38:0  39:0  40:0  41:0  42:0  43:0  44:0  45:0  46:0  47:0 
9 0:0.091162  1:0.33459  2:0.39075  3:0.032473  4:0.077612  5:0.073419  6:0.25104  7:0.16874  8:0.076876  9:0.073276  10:0.22102  11:0.20905  12:0.23706  13:0.21574  14:0.10272  15:0.073067  16:0.19106  17:0.18035  18:0.14396  19:0.38506  20:0.21529  21:0.057392  22:0.10019  23:0.098101  24:0  25:0  26:0  27:0  28:0  29:0  30:0  31:0  32:0  33:0  34:0  35:0  36:0  37:0  38:0  39:0  40:0  41:0  42:0  43:0  44:0  45:0  46:0  47:0 
9 0:0.32162  1:0.23799  2:0.17082  3:0.15473  4:0.073386  5:0.041454  6:0.34763  7:0.20166  8:0.14277  9:0.18416  10:0.076691  11:0.047087  12:0.30982  13:0.22276  14:0.14984  15:0.18949  16:0.079919  17:0.048162  18:0.28416  19:0.25403  20:0.1989  21:0.14989  22:0.072626  23:0.040399  24:0  25:0  26:0  27:0  28:0  29:0  30:0  31:0  32:0  33:0  34:0  35:0  36:0  37:0  38:0  39:0  40:0  41:0  42:0  43:0  44:0  45:0  46:0  47:0 
9 0:0.31366  1:0.20403  2:0.18085  3:0.1781  4:0.074497  5:0.048852  6:0.33849  7:0.20394  8:0.14372  9:0.18581  10:0.079323  11:0.048717  12:0.33125  13:0.22536  14:0.14784  15:0.17381  16:0.075473  17:0.046269  18:0.31668  19:0.22717  20:0.18124  21:0.15618  22:0.073245  23:0.045483  24:0  25:0  26:0  27:0  28:0  29:0  30:0  31:0  32:0  33:0  34:0  35:0  36:0  37:0  38:0  39:0  40:0  41:0  42:0  43:0  44:0  45:0  46:0  47:0 
9 0:0.23173  1:0.21871  2:0.10125  3:0.072916  4:0.19134  5:0.18405  6:0.28196  7:0.075793  8:0.077768  9:0.077415  10:0.25199  11:0.23508  12:0.26934  13:0.14812  14:0.073848  15:0.066543  16:0.22713  17:0.21503  18:0.21861  19:0.2042  20:0.15081  21:0.063744  22:0.18611  23:0.17653  24:0  25:0  26:0  27:0  28:0  29:0  30:0  31:0  32:0  33:0  34:0  35:0  36:0  37:0  38:0  39:0  40:0  41:0  42:0  43:0  44:0  45:0  46:0  47:0 
9 0:0.29836  1:0.25404  2:0.1447  3:0.18232  4:0.07375  5:0.046824  6:0.30812  7:0.21382  8:0.15587  9:0.19365  10:0.079364  11:0.04918  12:0.32936  13:0.20605  14:0.14841  15:0.18794  16:0.078389  17:0.049852  18:0.30909  19:0.24118  20:0.16678  21:0.16592  22:0.070771  23:0.04626  24:0  25:0  26:0  27:0  28:0  29:0  30:0  31:0  32:0  33:0  34:0  35:0  36:0  37:0  38:0  39:0  40:0  41:0  42:0  43:0  44:0  45:0  46:0  47:0 
9 0:0.15107  1:0.36422  2:0.16163  3:0.059588  4:0.13768  5:0.12581  6:0.24961  7:0.1535  8:0.095221  9:0.074981  10:0.21937  11:0.20731  12:0.22717  13:0.12693  14:0.14052  15:0.090958  16:0.21713  17:0.19729  18:0.095747  19:0.17373  20:0.50517  21:0.05057  22:0.093233  23:0.081546  24:0  25:0  26:0  27:0  28:0  29:0  30:0  31:0  32:0  33:0  34:0  35:0  36:0  37:0  38:0  39:0  40:0  41:0  42:0  43:0  44:0  45:0  46:0  47:0 
9 0:0.29926  1:0.30523  2:0.11912  3:0.16028  4:0.072434  5:0.043685  6:0.31389  7:0.22541  8:0.15737  9:0.18144  10:0.074433  11:0.047453  12:0.30994  13:0.22641  14:0.14871  15:0.18683  16:0.08029  17:0.047819  18:0.23278  19:0.23538  20:0.29738  21:0.1418  22:0.058812  23:0.03385  24:0  25:0  26:0  27:0  28:0  29:0  30:0  31:0  32:0  33:0  34:0  35:0  36:0  37:0  38:0  39:0  40:0  41:0  42:0  43:0  44:0  45:0  46:0  47:0 
4.9266 0:0.16879  1:0.30528  2:0.21567  3:0.048097  4:0.13251  5:0.12964  6:0.24941  7:0.17442  8:0.1246  9:0.067782  10:0.1937  11:0.19008  12:0.22476  13:0.16308  14:0.11762  15:0.085704  16:0.2141  17:0.19474  18:0.11795  19:0.11138  20:0.52362  21:0.05755  22:0.099269  23:0.090222  24:0  25:0  26:0  27:0  28:0  29:0  30:0  31:0  32:0  33:0  34:0  35:0  36:0  37:0  38:0  39:0  40:0  41:0  42:0  43:0  44:0  45:0  46:0  47:0 
9 0:0.28144  1:0.26545  2:0.19463  3:0.15719  4:0.063025  5:0.038273  6:0.31524  7:0.24868  8:0.13117  9:0.1847  10:0.073769  11:0.046439  12:0.31984  13:0.23576  14:0.14458  15:0.18037  16:0.073544  17:0.045901  18:0.27028  19:0.23465  20:0.23317  21:0.16195  22:0.061893  23:0.038056  24:0  25:0  26:0  27:0  28:0  29:0  30:0  31:0  32:0  33:0  34:0  35:0  36:0  37:0  38:0  39:0  40:0  41:0  42:0  43:0  44:0  45:0  46:0  47:0 
9 0:0.30616  1:0.31836  2:0.12971  3:0.13861  4:0.068461  5:0.038709  6:0.35587  7:0.20544  8:0.13441  9:0.17667  10:0.079576  11:0.048041  12:0.31335  13:0.22211  14:0.14894  15:0.19202  16:0.076473  17:0.047114  18:0.26296  19:0.28437  20:0.20348  21:0.15256  22:0.060145  23:0.036485  24:0  25:0  26:0  27:0  28:0  29:0  30:0  31:0  32:0  33:0  34:0  35:0  36:0  37:0  38:0  39:0  40:0  41:0  42:0  43:0  44:0  45:0  46:0  47:0 
9 0:0.31531  1:0.21781  2:0.2258  3:0.14366  4:0.059927  5:0.037503  6:0.34298  7:0.23104  8:0.13247  9:0.17543  10:0.073375  11:0.0447  12:0.32442  13:0.22003  14:0.16131  15:0.17721  16:0.071608  17:0.045429  18:0.29764  19:0.19622  20:0.2557  21:0.15045  22:0.06187  23:0.038113  24:0  25:0  26:0  27:0  28:0  29:0  30:0  31:0  32:0  33:0  34:0  35:0  36:0  37:0  38:0  39:0  40:0  41:0  42:0  43:0  44:0  45:0  46:0  47:0 
9 0:0.32408  1:0.21509  2:0.17853  3:0.16179  4:0.074919  5:0.04559  6:0.334  7:0.21278  8:0.13857  9:0.18848  10:0.078663  11:0.047513  12:0.33237  13:0.20299  14:0.16802  15:0.17697  16:0.073531  17:0.046114  18:0.30161  19:0.18063  20:0.25116  21:0.15219  22:0.07091  23:0.043499  24:0  25:0  26:0  27:0  28:0  29:0  30:0  31:0  32:0  33:0  34:0  35:0  36:0  37:0  38:0  39:0  40:0  41:0  42:0  43:0  44:0  45:0  46:0  47:0 
9 0:0.28794  1:0.25243  2:0.19626  3:0.15711  4:0.066577  5:0.039686  6:0.33003  7:0.23426  8:0.12899  9:0.18369  10:0.075576  11:0.047456  12:0.33371  13:0.20486  14:0.15577  15:0.18202  16:0.076322  17:0.047307  18:0.31586  19:0.2249  20:0.17964  21:0.16931  22:0.068456  23:0.041839  24:0  25:0  26:0  27:0  28:0  29:0  30:0  31:0  32:0  33:0  34:0  35:0  36:0  37:0  38:0  39:0  40:0  41:0  42:0  43:0  44:0  45:0  46:0  47:0 
9 0:0.30694  1:0.26118  2:0.15978  3:0.16113  4:0.069409  5:0.041555  6:0.33125  7:0.21638  8:0.15828  9:0.17706  10:0.072602  11:0.044422  12:0.33471  13:0.22256  14:0.13085  15:0.18383  16:0.079955  17:0.0481  18:0.3085  19:0.26353  20:0.1363  21:0.17623  22:0.072633  23:0.04281  24:0  25:0  26:0  27:0  28:0  29:0  30:0  31:0  32:0  33:0  34:0  35:0  36:0  37:0  38:0  39:0  40:0  41:0  42:0  43:0  44:0  45:0  46:0  47:0 
9 0:0.26627  1:0.24875  2:0.23431  3:0.15833  4:0.053606  5:0.03873  6:0.32769  7:0.22318  8:0.15321  9:0.17695  10:0.072478  11:0.046488  12:0.32486  13:0.23644  14:0.14005  15:0.18211  16:0.07145  17:0.04509  18:0.29981  19:0.24853  20:0.17667  21:0.17041  22:0.061212  23:0.04337  24:0  25:0  26:0  27:0  28:0  29:0  30:0  31:0  32:0  33:0  34:0  35:0  36:0  37:0  38:0  39:0  40:0  41:0  42:0  43:0  44:0  45:0  46:0  47:0 
9 0:0.32849  1:0.24382  2:0.13632  3:0.17813  4:0.069946  5:0.043286  6:0.337  7:0.21135  8:0.14472  9:0.18635  10:0.073436  11:0.047149  12:0.33291  13:0.21843  14:0.1431  15:0.18149  16:0.076941  17:0.04712  18:0.31154  19:0.25334  20:0.13875  21:0.17793  22:0.072481  23:0.045956  24:0  25:0  26:0  27:0  28:0  29:0  30:0  31:0  32:0  33:0  34:0  35:0  36:0  37:0  38:0  39:0  40:0  41:0  42:0  43:0  44:0  45:0  46:0  47:0 
9 0:0.22628  1:0.22961  2:0.10009  3:0.06821  4:0.19373  5:0.18208  6:0.29694  7:0.097954  8:0.050883  9:0.076104  10:0.24574  11:0.23237  12:0.28515  13:0.11033  14:0.06933  15:0.079762  16:0.23543  17:0.21999  18:0.21442  19:0.22106  20:0.11791  21:0.065969  22:0.19582  23:0.18482  24:0  25:0  26:0  27:0  28:0  29:0  30:0  31:0  32:0  33:0  34:0  35:0  36:0  37:0  38:0  39:0  40:0  41:0  42:0  43:0  44:0  45:0  46:0  47:0 
9 0:0.33289  1:0.23711  2:0.16001  3:0.15504  4:0.07195  5:0.042995  6:0.34067  7:0.20449  8:0.13777  9:0.18668  10:0.081388  11:0.049011  12:0.33367  13:0.21613  14:0.14525  15:0.183  16:0.07487  17:0.047076  18:0.33633  19:0.22968  20:0.15906  21:0.16108  22:0.069745  23:0.044102  24:0  25:0  26:0  27:0  28:0  29:0  30:0  31:0  32:0  33:0  34:0  35:0  36:0  37:0  38:0  39:0  40:0  41:0  42:0  43:0  44:0  45:0  46:0  47:0 
9 0:0.21089  1:0.21748  2:0.1702  3:0.05982  4:0.17925  5:0.16235  6:0.27294  7:0.10654  8:0.065112  9:0.080428  10:0.24347  11:0.23151  12:0.27741  13:0.11414  14:0.055138  15:0.074334  16:0.25017  17:0.22881  18:0.24069  19:0.23915  20:0.077026  21:0.057781  22:0.20083  23:0.18452  24:0  25:0  26:0  27:0  28:0  29:0  30:0  31:0  32:0  33:0  34:0  35:0  36:0  37:0  38:0  39:0  40:0  41:0  42:0  43:0  44:0  45:0  46:0  47:0 
9 0:0.33763  1:0.18568  2:0.15935  3:0.18702  4:0.080966  5:0.049355  6:0.3267  7:0.20546  8:0.15177  9:0.18734  10:0.080366  11:0.048363  12:0.3251  13:0.22854  14:0.14122  15:0.18343  16:0.075342  17:0.046376  18:0.33772  19:0.21758  20:0.13945  21:0.18076  22:0.077735  23:0.046755  24:0  25:0  26:0  27:0  28:0  29:0  30:0  31:0  32:0  33:0  34:0  35:0  36:0  37:0  38:0  39:0  40:0  41:0  42:0  43:0  44:0  45:0  46:0  47:0 
9 0:0.29964  1:0.2264  2:0.19247  3:0.17507  4:0.064361  5:0.042053  6:0.32664  7:0.24566  8:0.12768  9:0.184  10:0.071445  11:0.044572  12:0.33612  13:0.20596  14:0.16635  15:0.17137  16:0.075082  17:0.045114  18:0.3029  19:0.25401  20:0.15937  21:0.17451  22:0.068478  23:0.040732  24:0  25:0  26:0  27:0  28:0  29:0  30:0  31:0  32:0  33:0  34:0  35:0  36:0  37:0  38:0  39:0  40:0  41:0  42:0  43:0  44:0  45:0  46:0  47:0 
9 0:0.32657  1:0.27585  2:0.14023  3:0.1527  4:0.065421  5:0.039235  6:0.34352  7:0.24271  8:0.1292  9:0.16994  10:0.070976  11:0.043657  12:0.33674  13:0.2368  14:0.12347  15:0.18038  16:0.076815  17:0.045797  18:0.32363  19:0.29751  20:0.11771  21:0.1527  22:0.067994  23:0.040463  24:0  25:0  26:0  27:0  28:0  29:0  30:0  31:0  32:0  33:0  34:0  35:0  36:0  37:0  38:0  39:0  40:0  41:0  42:0  43:0  44:0  45:0  46:0  47:0 
9 0:0.19039  1:0.32809  2:0.12882  3:0.050946  4:0.15822  5:0.14354  6:0.28793  7:0.15465  8:0.05941  9:0.061701  10:0.22398  11:0.21233  12:0.27485  13:0.074004  14:0.066827  15:0.083575  16:0.26179  17:0.23896  18:0.18387  19:0.26644  20:0.155  21:0.058458  22:0.17473  23:0.16149  24:0  25:0  26:0  27:0  28:0  29:0  30:0  31:0  32:0  33:0  34:0  35:0  36:0  37:0  38:0  39:0  40:0  41:0  42:0  43:0  44:0  45:0  46:0  47:0 
9 0:0.36188  1:0.21305  2:0.14374  3:0.16891  4:0.068977  5:0.043443  6:0.34742  7:0.20662  8:0.13956  9:0.18354  10:0.07559  11:0.047273  12:0.32522  13:0.22485  14:0.14491  15:0.18154  16:0.075686  17:0.04779  18:0.34803  19:0.20679  20:0.15504  21:0.17508  22:0.070862  23:0.044194  24:0  25:0  26:0  27:0  28:0  29:0  30:0  31:0  32:0  33:0  34:0  35:0  36:0  37:0  38:0  39:0  40:0  41:0  42:0  43:0  44:0  45:0  46:0  47:0 
9 0:0.32788  1:0.25425  2:0.11926  3:0.17974  4:0.074587  5:0.044291  6:0.33252  7:0.21734  8:0.14678  9:0.17985  10:0.075946  11:0.047556  12:0.3248  13:0.22259  14:0.13787  15:0.18806  16:0.078175  17:0.048499  18:0.33535  19:0.22766  20:0.13229  21:0.18109  22:0.077219  23:0.046404  24:0  25:0  26:0  27:0  28:0  29:0  30:0  31:0  32:0  33:0  34:0  35:0  36:0  37:0  38:0  39:0  40:0  41:0  42:0  43:0  44:0  45:0  46:0  47:0 
9 0:0.22877  1:0.20315  2:0.11159  3:0.082921  4:0.19588  5:0.17768  6:0.28415  7:0.10072  8:0.05107  9:0.081357  10:0.25272  11:0.22998  12:0.26171  13:0.11659  14:0.07364  15:0.076346  16:0.24092  17:0.2308  18:0.21955  19:0.18193  20:0.14012  21:0.091512  22:0.19056  23:0.17633  24:0  25:0  26:0  27:0  28:0  29:0  30:0  31:0  32:0  33:0  34:0  35:0  36:0  37:0  38:0  39:0  40:0  41:0  42:0  43:0  44:0  45:0  46:0  47:0 
9 0:0.32507  1:0.21387  2:0.16198  3:0.17838  4:0.07488  5:0.045816  6:0.3385  7:0.19493  8:0.15036  9:0.18942  10:0.078627  11:0.048165  12:0.33031  13:0.23146  14:0.14002  15:0.17803  16:0.074336  17:0.045837  18:0.30929  19:0.22863  20:0.15045  21:0.18673  22:0.078365  23:0.046535  24:0  25:0  26:0  27:0  28:0  29:0  30:0  31:0  32:0  33:0  34:0  35:0  36:0  37:0  38:0  39:0  40:0  41:0  42:0  43:0  44:0  45:0  46:0  47:0 
9 0:0.32697  1:0.25433  2:0.14671  3:0.16035  4:0.066999  5:0.044653  6:0.33147  7:0.22307  8:0.13883  9:0.18301  10:0.07654  11:0.047079  12:0.34761  13:0.21197  14:0.14179  15:0.1767  16:0.07371  17:0.048219  18:0.33862  19:0.23079  20:0.13718  21:0.17687  22:0.07007  23:0.046468  24:0  25:0  26:0  27:0  28:0  29:0  30:0  31:0  32:0  33:0  34:0  35:0  36:0  37:0  38:0  39:0  40:0  41:0  42:0  43:0  44:0  45:0  46:0  47:0 
9 0:0.31042  1:0.24808  2:0.13382  3:0.18544  4:0.074217  5:0.048016  6:0.31177  7:0.22052  8:0.14443  9:0.19679  10:0.077882  11:0.048613  12:0.32835  13:0.21318  14:0.14149  15:0.18954  16:0.079358  17:0.048093  18:0.3161  19:0.23174  20:0.14196  21:0.19274  22:0.072312  23:0.045147  24:0  25:0  26:0  27:0  28:0  29:0  30:0  31:0  32:0  33:0  34:0  35:0  36:0  37:0  38:0  39:0  40:0  41:0  42:0  43:0  44:0  45:0  46:0  47:0 
9 0:0.31591  1:0.25333  2:0.13071  3:0.17757  4:0.073189  5:0.049287  6:0.33007  7:0.21865  8:0.14581  9:0.18154  10:0.076  11:0.047924  12:0.33295  13:0.2449  14:0.12518  15:0.17849  16:0.072931  17:0.045544  18:0.32558  19:0.27975  20:0.12119  21:0.16421  22:0.066529  23:0.042748  24:0  25:0  26:0  27:0  28:0  29:0  30:0  31:0  32:0  33:0  34:0  35:0  36:0  37:0  38:0  39:0  40:0  41:0  42:0  43:0  44:0  45:0  46:0  47:0 
9 0:0.32008  1:0.22025  2:0.14919  3:0.19118  4:0.07276  5:0.046543  6:0.3419  7:0.2111  8:0.13518  9:0.18849  10:0.076454  11:0.046879  12:0.32366  13:0.22526  14:0.14807  15:0.18037  16:0.074854  17:0.047781  18:0.31693  19:0.22653  20:0.15388  21:0.18203  22:0.074481  23:0.046153  24:0  25:0  26:0  27:0  28:0  29:0  30:0  31:0  32:0  33:0  34:0  35:0  36:0  37:0  38:0  39:0  40:0  41:0  42:0  43:0  44:0  45:0  46:0  47:0 
9 0:0.34671  1:0.22366  2:0.13939  3:0.17264  4:0.072587  5:0.04501  6:0.35485  7:0.22136  8:0.12531  9:0.18019  10:0.072409  11:0.045874  12:0.31781  13:0.21882  14:0.14871  15:0.18874  16:0.078428  17:0.047503  18:0.31645  19:0.21372  20:0.16203  21:0.18305  22:0.077684  23:0.047059  24:0  25:0  26:0  27:0  28:0  29:0  30:0  31:0  32:0  33:0  34:0  35:0  36:0  37:0  38:0  39:0  40:0  41:0  42:0  43:0  44:0  45:0  46:0  47:0 
9 0:0.33079  1:0.24444  2:0.11551  3:0.18614  4:0.077272  5:0.045851  6:0.33585  7:0.21466  8:0.1389  9:0.18567  10:0.075959  11:0.048958  12:0.33221  13:0.21092  14:0.1526  15:0.18058  16:0.075852  17:0.047836  18:0.33891  19:0.22233  20:0.13619  21:0.18013  22:0.076054  23:0.046376  24:0  25:0  26:0  27:0  28:0  29:0  30:0  31:0  32:0  33:0  34:0  35:0  36:0  37:0  38:0  39:0  40:0  41:0  42:0  43:0  44:0  45:0  46:0  47:0 
9 0:0.29989  1:0.2697  2:0.18293  3:0.14397  4:0.065039  5:0.038473  6:0.33461  7:0.22586  8:0.14459  9:0.17585  10:0.073718  11:0.045385  12:0.33347  13:0.22084  14:0.14442  15:0.18066  16:0.074122  17:0.046492  18:0.31015  19:0.23773  20:0.18168  21:0.15793  22:0.070525  23:0.041983  24:0  25:0  26:0  27:0  28:0  29:0  30:0  31:0  32:0  33:0  34:0  35:0  36:0  37:0  38:0  39:0  40:0  41:0  42:0  43:0  44:0  45:0  46:0  47:0 
9 0:0.3159  1:0.22537  2:0.11995  3:0.19685  4:0.089687  5:0.05223  6:0.34035  7:0.20025  8:0.11241  9:0.2095  10:0.085482  11:0.052014  12:0.31373  13:0.22408  14:0.14602  15:0.19018  16:0.077269  17:0.048732  18:0.25664  19:0.21673  20:0.18542  21:0.20767  22:0.08436  23:0.049185  24:0  25:0  26:0  27:0  28:0  29:0  30:0  31:0  32:0  33:0  34:0  35:0  36:0  37:0  38:0  39:0  40:0  41:0  42:0  43:0  44:0  45:0  46:0  47:0 
9 0:0.30987  1:0.26755  2:0.10748  3:0.19567  4:0.075622  5:0.043807  6:0.32978  7:0.22088  8:0.13441  9:0.19021  10:0.078507  11:0.046221  12:0.33552  13:0.22258  14:0.13868  15:0.17962  16:0.07569  17:0.047908  18:0.31546  19:0.27559  20:0.14133  21:0.15277  22:0.072071  23:0.042789  24:0  25:0  26:0  27:0  28:0  29:0  30:0  31:0  32:0  33:0  34:0  35:0  36:0  37:0  38:0  39:0  40:0  41:0  42:0  43:0  44:0  45:0  46:0  47:0 
9 0:0.2206  1:0.19676  2:0.13721  3:0.091713  4:0.19367  5:0.16005  6:0.28189  7:0.094559  8:0.057183  9:0.084772  10:0.251  11:0.2306  12:0.25072  13:0.12414  14:0.10634  15:0.071321  16:0.23225  17:0.21524  18:0.21472  19:0.19048  20:0.16499  21:0.075488  22:0.18802  23:0.16631  24:0  25:0  26:0  27:0  28:0  29:0  30:0  31:0  32:0  33:0  34:0  35:0  36:0  37:0  38:0  39:0  40:0  41:0  42:0  43:0  44:0  45:0  46:0  47:0 
8.2694 0:0.32537  1:0.21879  2:0.17086  3:0.1697  4:0.072154  5:0.04312  6:0.33256  7:0.21601  8:0.14375  9:0.18468  10:0.075716  11:0.047288  12:0.32626  13:0.2371  14:0.13105  15:0.18368  16:0.075083  17:0.046832  18:0.33194  19:0.2338  20:0.13748  21:0.1792  22:0.073261  23:0.044323  24:0  25:0  26:0  27:0  28:0  29:0  30:0  31:0  32:0  33:0  34:0  35:0  36:0  37:0  38:0  39:0  40:0  41:0  42:0  43:0  44:0  45:0  46:0  47:0 
9 0:0.22178  1:0.27059  2:0.098306  3:0.058476  4:0.17904  5:0.17182  6:0.28516  7:0.095686  8:0.063132  9:0.074887  10:0.24803  11:0.23311  12:0.26918  13:0.096574  14:0.085148  15:0.083404  16:0.24066  17:0.22503  18:0.25071  19:0.14973  20:0.11077  21:0.090845  22:0.20759  23:0.19035  24:0  25:0  26:0  27:0  28:0  29:0  30:0  31:0  32:0  33:0  34:0  35:0  36:0  37:0  38:0  39:0  40:0  41:0  42:0  43:0  44:0  45:0  46:0  47:0 
7.5724 0:0.27663  1:0.1731  2:0.11044  3:0.055264  4:0.19387  5:0.19069  6:0.27629  7:0.098021  8:0.068728  9:0.074866  10:0.24747  11:0.23462  12:0.30057  13:0.07152  14:0.078971  15:0.079504  16:0.24254  17:0.22689  18:0.14618  19:0.5376  20:0.26411  21:0.038584  22:0.0074011  23:0.0061289  24:0  25:0  26:0  27:0  28:0  29:0  30:0  31:0  32:0  33:0  34:0  35:0  36:0  37:0  38:0  39:0  40:0  41:0  42:0  43:0  44:0  45:0  46:0  47:0 
9 0:0.34394  1:0.23771  2:0.13879  3:0.16687  4:0.068837  5:0.04384  6:0.35058  7:0.21552  8:0.1326  9:0.17728  10:0.076523  11:0.047496  12:0.32856  13:0.2175  14:0.14827  15:0.18509  16:0.074478  17:0.046113  18:0.15852  19:0.44796  20:0.22083  21:0.14124  22:0.025225  23:0.0062274  24:0  25:0  26:0  27:0  28:0  29:0  30:0  31:0  32:0  33:0  34:0  35:0  36:0  37:0  38:0  39:0  40:0  41:0  42:0  43:0  44:0  45:0  46:0  47:0 
9 0:0.34997  1:0.21478  2:0.13467  3:0.18127  4:0.073355  5:0.045951  6:0.34454  7:0.20725  8:0.14033  9:0.18248  10:0.077595  11:0.047808  12:0.32884  13:0.23  14:0.13146  15:0.18697  16:0.07537  17:0.047359  18:0.34441  19:0.24604  20:0.1175  21:0.17799  22:0.068945  23:0.045105  24:0  25:0  26:0  27:0  28:0  29:0  30:0  31:0  32:0  33:0  34:0  35:0  36:0  37:0  38:0  39:0  40:0  41:0  42:0  43:0  44:0  45:0  46:0  47:0 
9 0:0.32182  1:0.26078  2:0.12146  3:0.18086  4:0.070412  5:0.044661  6:0.32591  7:0.22227  8:0.14764  9:0.18293  10:0.074853  11:0.046401  12:0.33402  13:0.22134  14:0.13496  15:0.18695  16:0.074945  17:0.047784  18:0.33432  19:0.25252  20:0.12558  21:0.17531  22:0.067907  23:0.044353  24:0  25:0  26:0  27:0  28:0  29:0  30:0  31:0  32:0  33:0  34:0  35:0  36:0  37:0  38:0  39:0  40:0  41:0  42:0  43:0  44:0  45:0  46:0  47:0 
9 0:0.31889  1:0.23691  2:0.14726  3:0.17981  4:0.070331  5:0.046798  6:0.33147  7:0.21501  8:0.1403  9:0.18756  10:0.077125  11:0.048532  12:0.33336  13:0.22074  14:0.15068  15:0.17689  16:0.072445  17:0.045895  18:0.31972  19:0.24315  20:0.14656  21:0.17525  22:0.06956  23:0.045758  24:0  25:0  26:0  27:0  28:0  29:0  30:0  31:0  32:0  33:0  34:0  35:0  36:0  37:0  38:0  39:0  40:0  41:0  42:0  43:0  44:0  45:0  46:0  47:0 
9 0:0.24057  1:0.214  2:0.12337  3:0.072154  4:0.18196  5:0.16795  6:0.2822  7:0.1024  8:0.07649  9:0.07646  10:0.23962  11:0.22283  12:0.28822  13:0.093691  14:0.099433  15:0.074447  16:0.22661  17:0.2176  18:0.27307  19:0.14342  20:0.11118  21:0.087942  22:0.19719  23:0.1872  24:0  25:0  26:0  27:0  28:0  29:0  30:0  31:0  32:0  33:0  34:0  35:0  36:0  37:0  38:0  39:0  40:0  41:0  42:0  43:0  44:0  45:0  46:0  47:0 
9 0:0.31514  1:0.22396  2:0.17604  3:0.17318  4:0.068511  5:0.043167  6:0.33445  7:0.20973  8:0.15411  9:0.1792  10:0.075583  11:0.046928  12:0.32116  13:0.22971  14:0.1463  15:0.18153  16:0.074122  17:0.047184  18:0.31233  19:0.23079  20:0.17645  21:0.17051  22:0.06708  23:0.042843  24:0  25:0  26:0  27:0  28:0  29:0  30:0  31:0  32:0  33:0  34:0  35:0  36:0  37:0  38:0  39:0  40:0  41:0  42:0  43:0  44:0  45:0  46:0  47:0 
9 0:0.22075  1:0.24276  2:0.15544  3:0.065354  4:0.16253  5:0.15318  6:0.26952  7:0.13327  8:0.089519  9:0.068647  10:0.22749  11:0.21155  12:0.28035  13:0.1129  14:0.073757  15:0.072499  16:0.23651  17:0.22398  18:0.22515  19:0.2152  20:0.15172  21:0.069353  22:0.17477  23:0.1638  24:0  25:0  26:0  27:0  28:0  29:0  30:0  31:0  32:0  33:0  34:0  35:0  36:0  37:0  38:0  39:0  40:0  41:0  42:0  43:0  44:0  45:0  46:0  47:0 
9 0:0.22954  1:0.29006  2:0.07869  3:0.066247  4:0.17199  5:0.16347  6:0.2688  7:0.11354  8:0.074712  9:0.078  10:0.23984  11:0.22511  12:0.28215  13:0.099672  14:0.069807  15:0.077024  16:0.24394  17:0.2274  18:0.24415  19:0.24667  20:0.086137  21:0.067634  22:0.18166  23:0.17375  24:0  25:0  26:0  27:0  28:0  29:0  30:0  31:0  32:0  33:0  34:0  35:0  36:0  37:0  38:0  39:0  40:0  41:0  42:0  43:0  44:0  45:0  46:0  47:0 
9 0:0.22618  1:0.27567  2:0.081219  3:0.064397  4:0.18087  5:0.17166  6:0.26637  7:0.15644  8:0.064448  9:0.072669  10:0.22632  11:0.21376  12:0.28473  13:0.10445  14:0.054276  15:0.075945  16:0.2483  17:0.23231  18:0.24052  19:0.18224  20:0.11562  21:0.074429  22:0.20041  23:0.18678  24:0  25:0  26:0  27:0  28:0  29:0  30:0  31:0  32:0  33:0  34:0  35:0  36:0  37:0  38:0  39:0  40:0  41:0  42:0  43:0  44:0  45:0  46:0  47:0 
9 0:0.31856  1:0.23155  2:0.14553  3:0.18219  4:0.075265  5:0.046895  6:0.3232  7:0.22293  8:0.14394  9:0.18643  10:0.076204  11:0.047299  12:0.32221  13:0.22381  14:0.13944  15:0.1897  16:0.077542  17:0.047303  18:0.32422  19:0.2096  20:0.14084  21:0.19431  22:0.080766  23:0.050262  24:0  25:0  26:0  27:0  28:0  29:0  30:0  31:0  32:0  33:0  34:0  35:0  36:0  37:0  38:0  39:0  40:0  41:0  42:0  43:0  44:0  45:0  46:0  47:0 
9 0:0.33738  1:0.23108  2:0.14135  3:0.17106  4:0.074391  5:0.044738  6:0.33662  7:0.2244  8:0.14151  9:0.17636  10:0.074963  11:0.046155  12:0.33428  13:0.21439  14:0.1481  15:0.18015  16:0.075914  17:0.047159  18:0.33237  19:0.21532  20:0.15816  21:0.1744  22:0.07439  23:0.045353  24:0  25:0  26:0  27:0  28:0  29:0  30:0  31:0  32:0  33:0  34:0  35:0  36:0  37:0  38:0  39:0  40:0  41:0  42:0  43:0  44:0  45:0  46:0  47:0 
9 0:0.32834  1:0.25773  2:0.14518  3:0.16443  4:0.063897  5:0.040413  6:0.33916  7:0.2076  8:0.14961  9:0.18236  10:0.073808  11:0.047457  12:0.33698  13:0.22537  14:0.12919  15:0.18619  16:0.075494  17:0.046767  18:0.3304  19:0.26158  20:0.13823  21:0.16501  22:0.064154  23:0.040632  24:0  25:0  26:0  27:0  28:0  29:0  30:0  31:0  32:0  33:0  34:0  35:0  36:0  37:0  38:0  39:0  40:0  41:0  42:0  43:0  44:0  45:0  46:0  47:0 
9 0:0.33891  1:0.26006  2:0.11454  3:0.17002  4:0.07387  5:0.042594  6:0.32745  7:0.2275  8:0.13327  9:0.18539  10:0.078857  11:0.047536  12:0.32629  13:0.2361  14:0.13265  15:0.18278  16:0.074493  17:0.047693  18:0.32648  19:0.26433  20:0.12151  21:0.17438  22:0.071148  23:0.042145  24:0  25:0  26:0  27:0  28:0  29:0  30:0  31:0  32:0  33:0  34:0  35:0  36:0  37:0  38:0  39:0  40:0  41:0  42:0  43:0  44:0  45:0  46:0  47:0 
3.1491 0:0.22697  1:0.18731  2:0.15653  3:0.067664  4:0.18605  5:0.17548  6:0.27377  7:0.094408  8:0.065852  9:0.081809  10:0.24999  11:0.23418  12:0.25717  13:0.13204  14:0.062105  15:0.080276  16:0.2425  17:0.2259  18:0.23974  19:0.16321  20:0.10013  21:0.082801  22:0.21523  23:0.1989  24:0  25:0  26:0  27:0  28:0  29:0  30:0  31:0  32:0  33:0  34:0  35:0  36:0  37:0  38:0  39:0  40:0  41:0  42:0  43:0  44:0  45:0  46:0  47:0 
9 0:0.22559  1:0.24687  2:0.068423  3:0.063242  4:0.20496  5:0.19091  6:0.29038  7:0.096665  8:0.050441  9:0.072456  10:0.25285  11:0.23721  12:0.25798  13:0.11578  14:0.065821  15:0.081125  16:0.24814  17:0.23115  18:0.2473  19:0.18623  20:0.084532  21:0.07898  22:0.20745  23:0.1955  24:0  25:0  26:0  27:0  28:0  29:0  30:0  31:0  32:0  33:0  34:0  35:0  36:0  37:0  38:0  39:0  40:0  41:0  42:0  43:0  44:0  45:0  46:0  47:0 
9 0:0.32454  1:0.22545  2:0.15719  3:0.17422  4:0.071418  5:0.04719  6:0.34126  7:0.20458  8:0.1432  9:0.18562  10:0.07788  11:0.047458  12:0.3274  13:0.23715  14:0.13388  15:0.18142  16:0.073685  17:0.046454  18:0.32066  19:0.25153  20:0.14891  21:0.16339  22:0.070206  23:0.045297  24:0  25:0  26:0  27:0  28:0  29:0  30:0  31:0  32:0  33:0  34:0  35:0  36:0  37:0  38:0  39:0  40:0  41:0  42:0  43:0  44:0  45:0  46:0  47:0 
9 0:0.30881  1:0.23001  2:0.13643  3:0.19955  4:0.074921  5:0.050278  6:0.32704  7:0.20885  8:0.14028  9:0.19782  10:0.077441  11:0.048565  12:0.31851  13:0.22838  14:0.15084  15:0.18061  16:0.075916  17:0.04573  18:0.29757  19:0.26089  20:0.14991  21:0.17635  22:0.070057  23:0.04522  24:0  25:0  26:0  27:0  28:0  29:0  30:0  31:0  32:0  33:0  34:0  35:0  36:0  37:0  38:0  39:0  40:0  41:0  42:0  43:0  44:0  45:0  46:0  47:0 
9 0:0.2927  1:0.24262  2:0.17732  3:0.17147  4:0.070246  5:0.045646  6:0.33027  7:0.21272  8:0.14665  9:0.18608  10:0.07719  11:0.047081  12:0.33733  13:0.20834  14:0.15146  15:0.1808  16:0.074942  17:0.047134  18:0.30632  19:0.25014  20:0.15903  21:0.16901  22:0.071011  23:0.044498  24:0  25:0  26:0  27:0  28:0  29:0  30:0  31:0  32:0  33:0  34:0  35:0  36:0  37:0  38:0  39:0  40:0  41:0  42:0  43:0  44:0  45:0  46:0  47:0 
9 0:0.20271  1:0.27632  2:0.12187  3:0.060136  4:0.17079  5:0.16817  6:0.28117  7:0.12038  8:0.058861  9:0.082431  10:0.23794  11:0.21922  12:0.28597  13:0.087097  14:0.065227  15:0.077706  16:0.24857  17:0.23543  18:0.24924  19:0.22256  20:0.073369  21:0.073234  22:0.1929  23:0.1887  24:0  25:0  26:0  27:0  28:0  29:0  30:0  31:0  32:0  33:0  34:0  35:0  36:0  37:0  38:0  39:0  40:0  41:0  42:0  43:0  44:0  45:0  46:0  47:0 
9 0:0.23916  1:0.22951  2:0.10135  3:0.077949  4:0.18241  5:0.16963  6:0.2734  7:0.13483  8:0.061999  9:0.086603  10:0.23131  11:0.21186  12:0.26714  13:0.11634  14:0.071414  15:0.077559  16:0.24143  17:0.22611  18:0.24392  19:0.23892  20:0.095949  21:0.076  22:0.17874  23:0.16646  24:0  25:0  26:0  27:0  28:0  29:0  30:0  31:0  32:0  33:0  34:0  35:0  36:0  37:0  38:0  39:0  40:0  41:0  42:0  43:0  44:0  45:0  46:0  47:0 
9 0:0.35468  1:0.24798  2:0.13188  3:0.15742  4:0.065315  5:0.04273  6:0.34066  7:0.21361  8:0.14008  9:0.18183  10:0.076215  11:0.047601  12:0.33513  13:0.21802  14:0.13488  15:0.18522  16:0.078136  17:0.048616  18:0.33441  19:0.23751  20:0.13936  21:0.17248  22:0.070737  23:0.045512  24:0  25:0  26:0  27:0  28:0  29:0  30:0  31:0  32:0  33:0  34:0  35:0  36:0  37:0  38:0  39:0  40:0  41:0  42:0  43:0  44:0  45:0  46:0  47:0 
9 0:0.21547  1:0.27724  2:0.11665  3:0.054229  4:0.17235  5:0.16406  6:0.26263  7:0.15401  8:0.054161  9:0.07378  10:0.235  11:0.22042  12:0.27861  13:0.1064  14:0.059148  15:0.08442  16:0.24156  17:0.22986  18:0.24918  19:0.20345  20:0.072387  21:0.073902  22:0.2019  23:0.19918  24:0  25:0  26:0  27:0  28:0  29:0  30:0  31:0  32:0  33:0  34:0  35:0  36:0  37:0  38:0  39:0  40:0  41:0  42:0  43:0  44:0  45:0  46:0  47:0 
9 0:0.31151  1:0.2534  2:0.13186  3:0.17598  4:0.079382  5:0.047866  6:0.33217  7:0.22097  8:0.13882  9:0.18155  10:0.078707  11:0.047783  12:0.34156  13:0.23146  14:0.13707  15:0.17407  16:0.070831  17:0.045013  18:0.32643  19:0.26042  20:0.11447  21:0.17626  22:0.07538  23:0.047044  24:0  25:0  26:0  27:0  28:0  29:0  30:0  31:0  32:0  33:0  34:0  35:0  36:0  37:0  38:0  39:0  40:0  41:0  42:0  43:0  44:0  45:0  46:0  47:0 
9 0:0.25714  1:0.17865  2:0.058322  3:0.082539  4:0.21539  5:0.20796  6:0.2933  7:0.097909  8:0.05887  9:0.081588  10:0.2398  11:0.22852  12:0.27896  13:0.097757  14:0.085754  15:0.074596  16:0.23759  17:0.22535  18:0.25472  19:0.12987  20:0.12593  21:0.070988  22:0.21191  23:0.20658  24:0  25:0  26:0  27:0  28:0  29:0  30:0  31:0  32:0  33:0  34:0  35:0  36:0  37:0  38:0  39:0  40:0  41:0  42:0  43:0  44:0  45:0  46:0  47:0 
9 0:0.30689  1:0.23221  2:0.14586  3:0.18556  4:0.080688  5:0.048784  6:0.33623  7:0.20644  8:0.1518  9:0.18112  10:0.077485  11:0.046925  12:0.3319  13:0.22039  14:0.14589  15:0.18062  16:0.074728  17:0.046471  18:0.31568  19:0.22911  20:0.13665  21:0.19159  22:0.078942  23:0.048029  24:0  25:0  26:0  27:0  28:0  29:0  30:0  31:0  32:0  33:0  34:0  35:0  36:0  37:0  38:0  39:0  40:0  41:0  42:0  43:0  44:0  45:0  46:0  47:0 
8.0995 0:0.23073  1:0.16126  2:0.12914  3:0.11586  4:0.18598  5:0.17704  6:0.29123  7:0.081443  8:0.068632  9:0.076843  10:0.24779  11:0.23407  12:0.27634  13:0.082952  14:0.096369  15:0.081431  16:0.23901  17:0.2239  18:0.22649  19:0.16433  20:0.1168  21:0.1326  22:0.18051  23:0.17926  24:0  25:0  26:0  27:0  28:0  29:0  30:0  31:0  32:0  33:0  34:0  35:0  36:0  37:0  38:0  39:0  40:0  41:0  42:0  43:0  44:0  45:0  46:0  47:0 
9 0:0.20167  1:0.20851  2:0.16747  3:0.072792  4:0.18142  5:0.16814  6:0.28256  7:0.093655  8:0.063054  9:0.086845  10:0.24532  11:0.22857  12:0.25204  13:0.15533  14:0.089581  15:0.069916  16:0.22575  17:0.20739  18:0.1646  19:0.21693  20:0.26673  21:0.073674  22:0.14777  23:0.13029  24:0  25:0  26:0  27:0  28:0  29:0  30:0  31:0  32:0  33:0  34:0  35:0  36:0  37:0  38:0  39:0  40:0  41:0  42:0  43:0  44:0  45:0  46:0  47:0 
9 0:0.19877  1:0.23759  2:0.1724  3:0.068885  4:0.16559  5:0.15675  6:0.2764  7:0.11811  8:0.09167  9:0.06864  10:0.23072  11:0.21446  12:0.28312  13:0.10452  14:0.12242  15:0.079088  16:0.2118  17:0.19906  18:0.16022  19:0.17452  20:0.33065  21:0.097479  22:0.12307  23:0.11406  24:0  25:0  26:0  27:0  28:0  29:0  30:0  31:0  32:0  33:0  34:0  35:0  36:0  37:0  38:0  39:0  40:0  41:0  42:0  43:0  44:0  45:0  46:0  47:0 
9 0:0.2852  1:0.25589  2:0.12235  3:0.2146  4:0.074943  5:0.047018  6:0.33121  7:0.21909  8:0.13105  9:0.19206  10:0.078024  11:0.04856  12:0.315  13:0.20519  14:0.17758  15:0.18214  16:0.07374  17:0.046343  18:0.24288  19:0.25637  20:0.22  21:0.17652  22:0.064675  23:0.039555  24:0  25:0  26:0  27:0  28:0  29:0  30:0  31:0  32:0  33:0  34:0  35:0  36:0  37:0  38:0  39:0  40:0  41:0  42:0  43:0  44:0  45:0  46:0  47:0 
9 0:0.19058  1:0.22367  2:0.21277  3:0.069263  4:0.15871  5:0.14501  6:0.26176  7:0.095267  8:0.12633  9:0.081557  10:0.22478  11:0.2103  12:0.21875  13:0.24554  14:0.12248  15:0.058143  16:0.18074  17:0.17435  18:0.15726  19:0.32878  20:0.18723  21:0.06576  22:0.1389  23:0.12207  24:0  25:0  26:0  27:0  28:0  29:0  30:0  31:0  32:0  33:0  34:0  35:0  36:0  37:0  38:0  39:0  40:0  41:0  42:0  43:0  44:0  45:0  46:0  47:0 
9 0:0.30181  1:0.25735  2:0.15708  3:0.17296  4:0.067634  5:0.043163  6:0.33286  7:0.23072  8:0.13311  9:0.18099  10:0.07476  11:0.047566  12:0.28334  13:0.2915  14:0.13727  15:0.17218  16:0.071909  17:0.043802  18:0.29949  19:0.26569  20:0.13684  21:0.18361  22:0.07058  23:0.043794  24:0  25:0  26:0  27:0  28:0  29:0  30:0  31:0  32:0  33:0  34:0  35:0  36:0  37:0  38:0  39:0  40:0  41:0  42:0  43:0  44:0  45:0  46:0  47:0 
9 0:0.20567  1:0.22113  2:0.19993  3:0.058756  4:0.1622  5:0.15233  6:0.25947  7:0.11955  8:0.10119  9:0.069091  10:0.23227  11:0.21842  12:0.1996  13:0.17355  14:0.1851  15:0.06876  16:0.19664  17:0.17635  18:0.24146  19:0.18514  20:0.13955  21:0.073815  22:0.18706  23:0.17297  24:0  25:0  26:0  27:0  28:0  29:0  30:0  31:0  32:0  33:0  34:0  35:0  36:0  37:0  38:0  39:0  40:0  41:0  42:0  43:0  44:0  45:0  46:0  47:0 
9 0:0.32649  1:0.26523  2:0.13223  3:0.16157  4:0.070899  5:0.043573  6:0.33349  7:0.22388  8:0.13525  9:0.18202  10:0.077559  11:0.047796  12:0.34053  13:0.22645  14:0.13111  15:0.18147  16:0.074581  17:0.045861  18:0.32211  19:0.25401  20:0.13698  21:0.17154  22:0.070824  23:0.044537  24:0  25:0  26:0  27:0  28:0  29:0  30:0  31:0  32:0  33:0  34:0  35:0  36:0  37:0  38:0  39:0  40:0  41:0  42:0  43:0  44:0  45:0  46:0  47:0 
9 0:0.31516  1:0.18675  2:0.18762  3:0.18889  4:0.076263  5:0.045314  6:0.3372  7:0.20008  8:0.1449  9:0.19074  10:0.078905  11:0.048188  12:0.36822  13:0.18707  14:0.18765  15:0.14772  16:0.066527  17:0.042812  18:0.33105  19:0.21006  20:0.13051  21:0.19749  22:0.080146  23:0.050744  24:0  25:0  26:0  27:0  28:0  29:0  30:0  31:0  32:0  33:0  34:0  35:0  36:0  37:0  38:0  39:0  40:0  41:0  42:0  43:0  44:0  45:0  46:0  47:0 
9 0:0.27431  1:0.30572  2:0.13007  3:0.1774  4:0.068926  5:0.043565  6:0.32408  7:0.22851  8:0.13863  9:0.18757  10:0.074325  11:0.04688  12:0.32661  13:0.24245  14:0.12237  15:0.18488  16:0.076358  17:0.047328  18:0.27965  19:0.31082  20:0.1149  21:0.17391  22:0.074514  23:0.046213  24:0  25:0  26:0  27:0  28:0  29:0  30:0  31:0  32:0  33:0  34:0  35:0  36:0  37:0  38:0  39:0  40:0  41:0  42:0  43:0  44:0  45:0  46:0  47:0 
9 0:0.31901  1:0.22717  2:0.17293  3:0.16425  4:0.07262  5:0.044014  6:0.32423  7:0.21205  8:0.15443  9:0.18529  10:0.076075  11:0.047919  12:0.32747  13:0.22302  14:0.14789  15:0.18062  16:0.074489  17:0.0465  18:0.32048  19:0.2105  20:0.20572  21:0.15499  22:0.066541  23:0.041778  24:0  25:0  26:0  27:0  28:0  29:0  30:0  31:0  32:0  33:0  34:0  35:0  36:0  37:0  38:0  39:0  40:0  41:0  42:0  43:0  44:0  45:0  46:0  47:0 
9 0:0.29328  1:0.25488  2:0.14518  3:0.18449  4:0.075901  5:0.046272  6:0.33138  7:0.22598  8:0.14806  9:0.17657  10:0.072459  11:0.045554  12:0.32701  13:0.20717  14:0.14751  15:0.18821  16:0.081686  17:0.048413  18:0.32208  19:0.22041  20:0.18025  21:0.15982  22:0.072735  23:0.044716  24:0  25:0  26:0  27:0  28:0  29:0  30:0  31:0  32:0  33:0  34:0  35:0  36:0  37:0  38:0  39:0  40:0  41:0  42:0  43:0  44:0  45:0  46:0  47:0 
9 0:0.34554  1:0.24165  2:0.14716  3:0.14417  4:0.07708  5:0.044397  6:0.33959  7:0.22522  8:0.14245  9:0.17166  10:0.07514  11:0.045944  12:0.32998  13:0.2213  14:0.14005  15:0.18253  16:0.078397  17:0.047759  18:0.33964  19:0.21134  20:0.17794  21:0.15514  22:0.072682  23:0.04326  24:0  25:0  26:0  27:0  28:0  29:0  30:0  31:0  32:0  33:0  34:0  35:0  36:0  37:0  38:0  39:0  40:0  41:0  42:0  43:0  44:0  45:0  46:0  47:0 
9 0:0.31095  1:0.24895  2:0.12632  3:0.19141  4:0.075503  5:0.046862  6:0.32967  7:0.22891  8:0.13915  9:0.18136  10:0.074532  11:0.046385  12:0.33396  13:0.22502  14:0.14447  15:0.17593  16:0.074658  17:0.045963  18:0.30654  19:0.24275  20:0.15717  21:0.17842  22:0.071255  23:0.043862  24:0  25:0  26:0  27:0  28:0  29:0  30:0  31:0  32:0  33:0  34:0  35:0  36:0  37:0  38:0  39:0  40:0  41:0  42:0  43:0  44:0  45:0  46:0  47:0 
9 0:0.2697  1:0.22751  2:0.091537  3:0.061786  4:0.18029  5:0.16917  6:0.28519  7:0.1402  8:0.050836  9:0.075571  10:0.23076  11:0.21744  12:0.2907  13:0.090545  14:0.067929  15:0.079337  16:0.24214  17:0.22935  18:0.26081  19:0.18598  20:0.12267  21:0.062791  22:0.18947  23:0.17828  24:0  25:0  26:0  27:0  28:0  29:0  30:0  31:0  32:0  33:0  34:0  35:0  36:0  37:0  38:0  39:0  40:0  41:0  42:0  43:0  44:0  45:0  46:0  47:0 
9 0:0.34936  1:0.21544  2:0.1206  3:0.18646  4:0.079882  5:0.048268  6:0.33352  7:0.23229  8:0.13341  9:0.17992  10:0.074331  11:0.046532  12:0.34344  13:0.20276  14:0.15334  15:0.17694  16:0.075985  17:0.047537  18:0.35258  19:0.21919  20:0.12469  21:0.18019  22:0.076932  23:0.046422  24:0  25:0  26:0  27:0  28:0  29:0  30:0  31:0  32:0  33:0  34:0  35:0  36:0  37:0  38:0  39:0  40:0  41:0  42:0  43:0  44:0  45:0  46:0  47:0 
9 0:0.33488  1:0.22733  2:0.1424  3:0.17897  4:0.071853  5:0.044565  6:0.34024  7:0.20748  8:0.14401  9:0.18652  10:0.074846  11:0.046897  12:0.31612  13:0.23466  14:0.13357  15:0.19271  16:0.076831  17:0.046108  18:0.31184  19:0.24626  20:0.14296  21:0.18321  22:0.07209  23:0.043643  24:0  25:0  26:0  27:0  28:0  29:0  30:0  31:0  32:0  33:0  34:0  35:0  36:0  37:0  38:0  39:0  40:0  41:0  42:0  43:0  44:0  45:0  46:0  47:0 
9 0:0.25415  1:0.21944  2:0.070254  3:0.073975  4:0.19686  5:0.18532  6:0.2766  7:0.10892  8:0.065102  9:0.085104  10:0.24435  11:0.21992  12:0.28693  13:0.085448  14:0.07174  15:0.077774  16:0.24736  17:0.23075  18:0.26424  19:0.15442  20:0.09082  21:0.073988  22:0.21557  23:0.20097  24:0  25:0  26:0  27:0  28:0  29:0  30:0  31:0  32:0  33:0  34:0  35:0  36:0  37:0  38:0  39:0  40:0  41:0  42:0  43:0  44:0  45:0  46:0  47:0 
9 0:0.31976  1:0.24658  2:0.13343  3:0.18286  4:0.073231  5:0.044136  6:0.32989  7:0.22224  8:0.13571  9:0.18959  10:0.075593  11:0.046984  12:0.32485  13:0.22712  14:0.14268  15:0.1828  16:0.076007  17:0.046544  18:0.31083  19:0.25339  20:0.1322  21:0.18511  22:0.07439  23:0.044081  24:0  25:0  26:0  27:0  28:0  29:0  30:0  31:0  32:0  33:0  34:0  35:0  36:0  37:0  38:0  39:0  40:0  41:0  42:0  43:0  44:0  45:0  46:0  47:0 
9 0:0.32438  1:0.26019  2:0.12712  3:0.16721  4:0.076073  5:0.045029  6:0.3521  7:0.19885  8:0.12644  9:0.18775  10:0.084047  11:0.05082  12:0.32479  13:0.22971  14:0.14948  15:0.17988  16:0.07118  17:0.044966  18:0.31306  19:0.23354  20:0.1492  21:0.18538  22:0.072487  23:0.046333  24:0  25:0  26:0  27:0  28:0  29:0  30:0  31:0  32:0  33:0  34:0  35:0  36:0  37:0  38:0  39:0  40:0  41:0  42:0  43:0  44:0  45:0  46:0  47:0 
5.1687 0:0.3301  1:0.21985  2:0.14976  3:0.1823  4:0.07356  5:0.044434  6:0.32927  7:0.22006  8:0.14841  9:0.17913  10:0.076238  11:0.046893  12:0.34716  13:0.21109  14:0.14465  15:0.17353  16:0.07687  17:0.046698  18:0.3388  19:0.20558  20:0.20475  21:0.14046  22:0.069713  23:0.040693  24:0  25:0  26:0  27:0  28:0  29:0  30:0  31:0  32:0  33:0  34:0  35:0  36:0  37:0  38:0  39:0  40:0  41:0  42:0  43:0  44:0  45:0  46:0  47:0 
2.335 0:0.28264  1:0.22797  2:0.23471  3:0.1489  4:0.066263  5:0.039509  6:0.33351  7:0.21708  8:0.13183  9:0.18961  10:0.079257  11:0.048725  12:0.32968  13:0.21882  14:0.15055  15:0.17889  16:0.075404  17:0.04666  18:0.2508  19:0.33885  20:0.28936  21:0.072105  22:0.03066  23:0.018233  24:0  25:0  26:0  27:0  28:0  29:0  30:0  31:0  32:0  33:0  34:0  35:0  36:0  37:0  38:0  39:0  40:0  41:0  42:0  43:0  44:0  45:0  46:0  47:0 
9 0:0.28559  1:0.20539  2:0.23677  3:0.16785  4:0.063909  5:0.040492  6:0.32749  7:0.22605  8:0.1332  9:0.18866  10:0.077324  11:0.047283  12:0.32791  13:0.21301  14:0.15019  15:0.18644  16:0.075447  17:0.047001  18:0.23447  19:0.41514  20:0.19158  21:0.10804  22:0.030933  23:0.019827  24:0  25:0  26:0  27:0  28:0  29:0  30:0  31:0  32:0  33:0  34:0  35:0  36:0  37:0  38:0  39:0  40:0  41:0  42:0  43:0  44:0  45:0  46:0  47:0 
9 0:0.25902  1:0.18255  2:0.092016  3:0.0851  4:0.19546  5:0.18585  6:0.28331  7:0.15457  8:0.049409  9:0.070967  10:0.22605  11:0.21569  12:0.26187  13:0.11289  14:0.076931  15:0.08386  16:0.24203  17:0.22242  18:0.20992  19:0.17726  20:0.17133  21:0.088218  22:0.18407  23:0.1692  24:0  25:0  26:0  27:0  28:0  29:0  30:0  31:0  32:0  33:0  34:0  35:0  36:0  37:0  38:0  39:0  40:0  41:0  42:0  43:0  44:0  45:0  46:0  47:0 
9 0:0.28965  1:0.15325  2:0.08808  3:0.071176  4:0.20415  5:0.19369  6:0.3091  7:0.083724  8:0.055807  9:0.080267  10:0.24213  11:0.22897  12:0.27371  13:0.11475  14:0.073983  15:0.074929  16:0.24159  17:0.22103  18:0.25394  19:0.16962  20:0.078515  21:0.088751  22:0.21485  23:0.19432  24:0  25:0  26:0  27:0  28:0  29:0  30:0  31:0  32:0  33:0  34:0  35:0  36:0  37:0  38:0  39:0  40:0  41:0  42:0  43:0  44:0  45:0  46:0  47:0 
9 0:0.22075  1:0.21382  2:0.073242  3:0.071558  4:0.21833  5:0.2023  6:0.27405  7:0.091559  8:0.063459  9:0.077209  10:0.25835  11:0.23538  12:0.29089  13:0.10021  14:0.071363  15:0.077398  16:0.23757  17:0.22258  18:0.26309  19:0.19869  20:0.064043  21:0.08212  22:0.20062  23:0.19143  24:0  25:0  26:0  27:0  28:0  29:0  30:0  31:0  32:0  33:0  34:0  35:0  36:0  37:0  38:0  39:0  40:0  41:0  42:0  43:0  44:0  45:0  46:0  47:0 
9 0:0.32388  1:0.26215  2:0.12021  3:0.17726  4:0.071489  5:0.045003  6:0.33425  7:0.21492  8:0.12842  9:0.1924  10:0.080972  11:0.049046  12:0.33467  13:0.2097  14:0.14458  15:0.18801  16:0.075796  17:0.047241  18:0.30628  19:0.30489  20:0.13079  21:0.1542  22:0.062438  23:0.041398  24:0  25:0  26:0  27:0  28:0  29:0  30:0  31:0  32:0  33:0  34:0  35:0  36:0  37:0  38:0  39:0  40:0  41:0  42:0  43:0  44:0  45:0  46:0  47:0 
9 0:0.262  1:0.25019  2:0.054264  3:0.064166  4:0.18879  5:0.18059  6:0.28461  7:0.10569  8:0.048445  9:0.079662  10:0.24751  11:0.23408  12:0.29024  13:0.087251  14:0.077603  15:0.080246  16:0.23836  17:0.2263  18:0.29896  19:0.15298  20:0.078772  21:0.077429  22:0.20168  23:0.19018  24:0  25:0  26:0  27:0  28:0  29:0  30:0  31:0  32:0  33:0  34:0  35:0  36:0  37:0  38:0  39:0  40:0  41:0  42:0  43:0  44:0  45:0  46:0  47:0 
9 0:0.26857  1:0.26923  2:0.13535  3:0.20099  4:0.077799  5:0.04806  6:0.33746  7:0.2121  8:0.13637  9:0.18663  10:0.078752  11:0.048686  12:0.32034  13:0.21754  14:0.15434  15:0.18527  16:0.075047  17:0.047459  18:0.26514  19:0.24523  20:0.16237  21:0.20351  22:0.075404  23:0.048337  24:0  25:0  26:0  27:0  28:0  29:0  30:0  31:0  32:0  33:0  34:0  35:0  36:0  37:0  38:0  39:0  40:0  41:0  42:0  43:0  44:0  45:0  46:0  47:0 
9 0:0.2252  1:0.26944  2:0.09022  3:0.10706  4:0.15987  5:0.14821  6:0.27697  7:0.094924  8:0.084138  9:0.083505  10:0.24241  11:0.21806  12:0.28766  13:0.11909  14:0.053086  15:0.072087  16:0.23911  17:0.22897  18:0.27862  19:0.21642  20:0.077373  21:0.092007  22:0.17092  23:0.16467  24:0  25:0  26:0  27:0  28:0  29:0  30:0  31:0  32:0  33:0  34:0  35:0  36:0  37:0  38:0  39:0  40:0  41:0  42:0  43:0  44:0  45:0  46:0  47:0 
9 0:0.27869  1:0.16294  2:0.099564  3:0.10162  4:0.1802  5:0.17698  6:0.30089  7:0.07757  8:0.072229  9:0.074373  10:0.24494  11:0.23  12:0.27928  13:0.09521  14:0.08269  15:0.085045  16:0.23573  17:0.22204  18:0.25352  19:0.22916  20:0.10441  21:0.080688  22:0.16842  23:0.1638  24:0  25:0  26:0  27:0  28:0  29:0  30:0  31:0  32:0  33:0  34:0  35:0  36:0  37:0  38:0  39:0  40:0  41:0  42:0  43:0  44:0  45:0  46:0  47:0 
9 0:0.3563  1:0.19188  2:0.14268  3:0.17629  4:0.083724  5:0.049123  6:0.34809  7:0.19022  8:0.13466  9:0.19361  10:0.083476  11:0.049951  12:0.32407  13:0.22406  14:0.14882  15:0.1819  16:0.075421  17:0.045733  18:0.306  19:0.20953  20:0.1588  21:0.19285  22:0.083713  23:0.049107  24:0  25:0  26:0  27:0  28:0  29:0  30:0  31:0  32:0  33:0  34:0  35:0  36:0  37:0  38:0  39:0  40:0  41:0  42:0  43:0  44:0  45:0  46:0  47:0 
9 0:0.26538  1:0.183  2:0.089561  3:0.079265  4:0.19644  5:0.18636  6:0.31573  7:0.095056  8:0.050636  9:0.07077  10:0.23891  11:0.2289  12:0.24814  13:0.12253  14:0.082711  15:0.072209  16:0.2453  17:0.22911  18:0.23826  19:0.17158  20:0.1304  21:0.062201  22:0.20595  23:0.19161  24:0  25:0  26:0  27:0  28:0  29:0  30:0  31:0  32:0  33:0  34:0  35:0  36:0  37:0  38:0  39:0  40:0  41:0  42:0  43:0  44:0  45:0  46:0  47:0 
9 0:0.30362  1:0.24744  2:0.15203  3:0.18102  4:0.071305  5:0.044578  6:0.33199  7:0.21773  8:0.1345  9:0.19098  10:0.076103  11:0.048706  12:0.32739  13:0.21602  14:0.14991  15:0.18334  16:0.075796  17:0.047544  18:0.31301  19:0.21006  20:0.17489  21:0.18151  22:0.074921  23:0.045609  24:0  25:0  26:0  27:0  28:0  29:0  30:0  31:0  32:0  33:0  34:0  35:0  36:0  37:0  38:0  39:0  40:0  41:0  42:0  43:0  44:0  45:0  46:0  47:0 
9 0:0.31786  1:0.24265  2:0.13501  3:0.18464  4:0.074909  5:0.044927  6:0.33506  7:0.19401  8:0.14709  9:0.19298  10:0.080675  11:0.050188  12:0.33701  13:0.22305  14:0.14213  15:0.17689  16:0.075289  17:0.045646  18:0.31807  19:0.24148  20:0.1345  21:0.18654  22:0.07509  23:0.044324  24:0  25:0  26:0  27:0  28:0  29:0  30:0  31:0  32:0  33:0  34:0  35:0  36:0  37:0  38:0  39:0  40:0  41:0  42:0  43:0  44:0  45:0  46:0  47:0 
9 0:0.2639  1:0.20749  2:0.087772  3:0.061179  4:0.19799  5:0.18167  6:0.28775  7:0.10441  8:0.054046  9:0.072149  10:0.24789  11:0.23376  12:0.294  13:0.10759  14:0.069431  15:0.070196  16:0.23526  17:0.22352  18:0.27109  19:0.24696  20:0.084343  21:0.048449  22:0.1805  23:0.16866  24:0  25:0  26:0  27:0  28:0  29:0  30:0  31:0  32:0  33:0  34:0  35:0  36:0  37:0  38:0  39:0  40:0  41:0  42:0  43:0  44:0  45:0  46:0  47:0 
9 0:0.26973  1:0.20732  2:0.09198  3:0.049844  4:0.19145  5:0.18968  6:0.30287  7:0.10508  8:0.057816  9:0.069543  10:0.23605  11:0.22863  12:0.27309  13:0.1034  14:0.063518  15:0.083052  16:0.24629  17:0.23064  18:0.28307  19:0.18841  20:0.097097  21:0.053921  22:0.19099  23:0.18652  24:0  25:0  26:0  27:0  28:0  29:0  30:0  31:0  32:0  33:0  34:0  35:0  36:0  37:0  38:0  39:0  40:0  41:0  42:0  43:0  44:0  45:0  46:0  47:0 
9 0:0.31679  1:0.25388  2:0.14042  3:0.17725  4:0.068483  5:0.043169  6:0.33548  7:0.22811  8:0.13572  9:0.18149  10:0.072698  11:0.04651  12:0.32535  13:0.23701  14:0.12268  15:0.18852  16:0.078121  17:0.048315  18:0.31112  19:0.25663  20:0.13926  21:0.17697  22:0.071647  23:0.044376  24:0  25:0  26:0  27:0  28:0  29:0  30:0  31:0  32:0  33:0  34:0  35:0  36:0  37:0  38:0  39:0  40:0  41:0  42:0  43:0  44:0  45:0  46:0  47:0 
9 0:0.22711  1:0.19562  2:0.092124  3:0.091848  4:0.20859  5:0.1847  6:0.26078  7:0.12934  8:0.068504  9:0.085933  10:0.23211  11:0.22334  12:0.26362  13:0.10366  14:0.084904  15:0.084177  16:0.23796  17:0.22568  18:0.22729  19:0.14203  20:0.15444  21:0.076831  22:0.21118  23:0.18824  24:0  25:0  26:0  27:0  28:0  29:0  30:0  31:0  32:0  33:0  34:0  35:0  36:0  37:0  38:0  39:0  40:0  41:0  42:0  43:0  44:0  45:0  46:0  47:0 
9 0:0.37091  1:0.24613  2:0.093903  3:0.16533  4:0.077733  5:0.045997  6:0.33753  7:0.24982  8:0.11292  9:0.17924  10:0.073943  11:0.046538  12:0.3316  13:0.22117  14:0.14054  15:0.18335  16:0.076177  17:0.047168  18:0.35831  19:0.21955  20:0.11771  21:0.17624  22:0.081042  23:0.047141  24:0  25:0  26:0  27:0  28:0  29:0  30:0  31:0  32:0  33:0  34:0  35:0  36:0  37:0  38:0  39:0  40:0  41:0  42:0  43:0  44:0  45:0  46:0  47:0 
0.11365 0:0.33806  1:0.21291  2:0.13219  3:0.19026  4:0.079545  5:0.047043  6:0.32198  7:0.2153  8:0.1431  9:0.1907  10:0.079609  11:0.049319  12:0.34927  13:0.20388  14:0.14186  15:0.18309  16:0.07471  17:0.047187  18:0.068386  19:0.50372  20:0.23516  21:0.14512  22:0.025819  23:0.021799  24:0  25:0  26:0  27:0  28:0  29:0  30:0  31:0  32:0  33:0  34:0  35:0  36:0  37:0  38:0  39:0  40:0  41:0  42:0  43:0  44:0  45:0  46:0  47:0 
9 0:0.33539  1:0.21885  2:0.14968  3:0.17655  4:0.074353  5:0.045176  6:0.33494  7:0.20233  8:0.14251  9:0.19188  10:0.080059  11:0.048281  12:0.34271  13:0.22035  14:0.14151  15:0.17635  16:0.073246  17:0.045834  18:0.33367  19:0.26091  20:0.14049  21:0.15783  22:0.065525  23:0.041579  24:0  25:0  26:0  27:0  28:0  29:0  30:0  31:0  32:0  33:0  34:0  35:0  36:0  37:0  38:0  39:0  40:0  41:0  42:0  43:0  44:0  45:0  46:0  47:0 
9 0:0.24651  1:0.16143  2:0.075416  3:0.078061  4:0.23132  5:0.20727  6:0.27449  7:0.084111  8:0.071176  9:0.080455  10:0.25532  11:0.23445  12:0.27738  13:0.099922  14:0.079747  15:0.076462  16:0.24161  17:0.22488  18:0.27072  19:0.16244  20:0.089183  21:0.078409  22:0.20823  23:0.19101  24:0  25:0  26:0  27:0  28:0  29:0  30:0  31:0  32:0  33:0  34:0  35:0  36:0  37:0  38:0  39:0  40:0  41:0  42:0  43:0  44:0  45:0  46:0  47:0 
9 0:0.22944  1:0.17958  2:0.097554  3:0.073484  4:0.21807  5:0.20187  6:0.28935  7:0.092633  8:0.077576  9:0.076097  10:0.24016  11:0.22418  12:0.27921  13:0.099895  14:0.083029  15:0.070995  16:0.23882  17:0.22805  18:0.23288  19:0.18685  20:0.096038  21:0.071778  22:0.21074  23:0.20172  24:0  25:0  26:0  27:0  28:0  29:0  30:0  31:0  32:0  33:0  34:0  35:0  36:0  37:0  38:0  39:0  40:0  41:0  42:0  43:0  44:0  45:0  46:0  47:0 
9 0:0.32498  1:0.19832  2:0.1388  3:0.19986  4:0.086383  5:0.051662  6:0.32984  7:0.22589  8:0.14058  9:0.1811  10:0.075374  11:0.047214  12:0.32623  13:0.22201  14:0.14529  15:0.18446  16:0.075079  17:0.046927  18:0.30627  19:0.23288  20:0.14641  21:0.18554  22:0.080397  23:0.048503  24:0  25:0  26:0  27:0  28:0  29:0  30:0  31:0  32:0  33:0  34:0  35:0  36:0  37:0  38:0  39:0  40:0  41:0  42:0  43:0  44:0  45:0  46:0  47:0 
9 0:0.3073  1:0.24819  2:0.1418  3:0.18011  4:0.076886  5:0.045723  6:0.33075  7:0.21331  8:0.13631  9:0.18914  10:0.081376  11:0.049108  12:0.32769  13:0.22281  14:0.14794  15:0.17921  16:0.075703  17:0.04665  18:0.3151  19:0.24138  20:0.1596  21:0.16625  22:0.07292  23:0.044745  24:0  25:0  26:0  27:0  28:0  29:0  30:0  31:0  32:0  33:0  34:0  35:0  36:0  37:0  38:0  39:0  40:0  41:0  42:0  43:0  44:0  45:0  46:0  47:0 
9 0:0.26832  1:0.20339  2:0.078883  3:0.080904  4:0.19258  5:0.17593  6:0.28209  7:0.11055  8:0.073553  9:0.076119  10:0.23941  11:0.21828  12:0.27711  13:0.10821  14:0.070719  15:0.079683  16:0.23826  17:0.22602  18:0.29085  19:0.14701  20:0.097191  21:0.079473  22:0.19633  23:0.18915  24:0  25:0  26:0  27:0  28:0  29:0  30:0  31:0  32:0  33:0  34:0  35:0  36:0  37:0  38:0  39:0  40:0  41:0  42:0  43:0  44:0  45:0  46:0  47:0 
9 0:0.18977  1:0.23601  2:0.21796  3:0.057797  4:0.15658  5:0.14189  6:0.23435  7:0.16074  8:0.12445  9:0.073494  10:0.20944  11:0.19752  12:0.27062  13:0.13375  14:0.050147  15:0.076025  16:0.24832  17:0.22115  18:0.2052  19:0.2664  20:0.16277  21:0.049399  22:0.16116  23:0.15507  24:0  25:0  26:0  27:0  28:0  29:0  30:0  31:0  32:0  33:0  34:0  35:0  36:0  37:0  38:0  39:0  40:0  41:0  42:0  43:0  44:0  45:0  46:0  47:0 
9 0:0.31955  1:0.22127  2:0.18651  3:0.16263  4:0.068009  5:0.042035  6:0.32611  7:0.23125  8:0.14837  9:0.17375  10:0.073009  11:0.047525  12:0.32739  13:0.21984  14:0.14427  15:0.18391  16:0.077394  17:0.047196  18:0.29237  19:0.31866  20:0.15432  21:0.14082  22:0.05575  23:0.038085  24:0  25:0  26:0  27:0  28:0  29:0  30:0  31:0  32:0  33:0  34:0  35:0  36:0  37:0  38:0  39:0  40:0  41:0  42:0  43:0  44:0  45:0  46:0  47:0 
9 0:0.21981  1:0.17995  2:0.19549  3:0.077815  4:0.17122  5:0.15571  6:0.28708  7:0.10459  8:0.08298  9:0.076512  10:0.23066  11:0.21818  12:0.27633  13:0.13462  14:0.049053  15:0.074628  16:0.24019  17:0.22518  18:0.19821  19:0.43105  20:0.10918  21:0.038361  22:0.11712  23:0.10608  24:0  25:0  26:0  27:0  28:0  29:0  30:0  31:0  32:0  33:0  34:0  35:0  36:0  37:0  38:0  39:0  40:0  41:0  42:0  43:0  44:0  45:0  46:0  47:0 
9 0:0.21781  1:0.17851  2:0.18473  3:0.073029  4:0.18307  5:0.16287  6:0.28007  7:0.084389  8:0.057513  9:0.091074  10:0.25288  11:0.23407  12:0.23551  13:0.29591  14:0.13514  15:0.053663  16:0.14212  17:0.13765  18:0.18435  19:0.29908  20:0.20718  21:0.05208  22:0.13452  23:0.1228  24:0  25:0  26:0  27:0  28:0  29:0  30:0  31:0  32:0  33:0  34:0  35:0  36:0  37:0  38:0  39:0  40:0  41:0  42:0  43:0  44:0  45:0  46:0  47:0 
9 0:0.31213  1:0.18074  2:0.14784  3:0.22756  4:0.083537  5:0.0482  6:0.33817  7:0.20325  8:0.13911  9:0.19102  10:0.080641  11:0.047815  12:0.27418  13:0.28553  14:0.18824  15:0.14971  16:0.06247  17:0.039876  18:0.31432  19:0.18143  20:0.17396  21:0.20354  22:0.079922  23:0.046831  24:0  25:0  26:0  27:0  28:0  29:0  30:0  31:0  32:0  33:0  34:0  35:0  36:0  37:0  38:0  39:0  40:0  41:0  42:0  43:0  44:0  45:0  46:0  47:0 
9 0:0.2121  1:0.15685  2:0.23961  3:0.075781  4:0.16426  5:0.1514  6:0.29468  7:0.085261  8:0.072642  9:0.079935  10:0.24069  11:0.22679  12:0.20259  13:0.32469  14:0.14229  15:0.051049  16:0.14303  17:0.13635  18:0.13375  19:0.46293  20:0.31513  21:0.044576  22:0.023099  23:0.020514  24:0  25:0  26:0  27:0  28:0  29:0  30:0  31:0  32:0  33:0  34:0  35:0  36:0  37:0  38:0  39:0  40:0  41:0  42:0  43:0  44:0  45:0  46:0  47:0 
9 0:0.34144  1:0.23045  2:0.12611  3:0.18275  4:0.074253  5:0.044995  6:0.33958  7:0.20977  8:0.13408  9:0.19266  10:0.075954  11:0.047948  12:0.33111  13:0.21418  14:0.14497  15:0.18473  16:0.076006  17:0.049003  18:0.1861  19:0.44523  20:0.18885  21:0.14635  22:0.018841  23:0.014616  24:0  25:0  26:0  27:0  28:0  29:0  30:0  31:0  32:0  33:0  34:0  35:0  36:0  37:0  38:0  39:0  40:0  41:0  42:0  43:0  44:0  45:0  46:0  47:0 
9 0:0.33018  1:0.25066  2:0.15086  3:0.16023  4:0.065356  5:0.04272  6:0.33649  7:0.22508  8:0.13556  9:0.18326  10:0.072832  11:0.046775  12:0.34215  13:0.21788  14:0.14246  15:0.17744  16:0.073862  17:0.046204  18:0.33406  19:0.23668  20:0.174  21:0.1511  22:0.062433  23:0.041727  24:0  25:0  26:0  27:0  28:0  29:0  30:0  31:0  32:0  33:0  34:0  35:0  36:0  37:0  38:0  39:0  40:0  41:0  42:0  43:0  44:0  45:0  46:0  47:0 
9 0:0.22607  1:0.23803  2:0.12974  3:0.075903  4:0.1707  5:0.15956  6:0.28908  7:0.093451  8:0.067715  9:0.084017  10:0.24088  11:0.22485  12:0.2858  13:0.12885  14:0.061439  15:0.079916  16:0.22662  17:0.21737  18:0.22519  19:0.2221  20:0.13102  21:0.075845  22:0.1816  23:0.16425  24:0  25:0  26:0  27:0  28:0  29:0  30:0  31:0  32:0  33:0  34:0  35:0  36:0  37:0  38:0  39:0  40:0  41:0  42:0  43:0  44:0  45:0  46:0  47:0 
9 0:0.20584  1:0.27542  2:0.15499  3:0.043324  4:0.1624  5:0.15802  6:0.29146  7:0.098646  8:0.05275  9:0.074268  10:0.24706  11:0.23581  12:0.29294  13:0.089472  14:0.070636  15:0.083806  16:0.23868  17:0.22447  18:0.22345  19:0.20528  20:0.16842  21:0.052036  22:0.18251  23:0.1683  24:0  25:0  26:0  27:0  28:0  29:0  30:0  31:0  32:0  33:0  34:0  35:0  36:0  37:0  38:0  39:0  40:0  41:0  42:0  43:0  44:0  45:0  46:0  47:0 
9 0:0.31135  1:0.22482  2:0.15425  3:0.19017  4:0.072858  5:0.046556  6:0.33437  7:0.21162  8:0.13204  9:0.19653  10:0.077237  11:0.048199  12:0.32296  13:0.21633  14:0.14747  15:0.18855  16:0.076539  17:0.048161  18:0.29839  19:0.23519  20:0.16233  21:0.18622  22:0.072984  23:0.044878  24:0  25:0  26:0  27:0  28:0  29:0  30:0  31:0  32:0  33:0  34:0  35:0  36:0  37:0  38:0  39:0  40:0  41:0  42:0  43:0  44:0  45:0  46:0  47:0 
9 0:0.21601  1:0.25733  2:0.10425  3:0.079654  4:0.1808  5:0.16196  6:0.28129  7:0.083595  8:0.066282  9:0.085833  10:0.25057  11:0.23243  12:0.28231  13:0.11667  14:0.075854  15:0.073149  16:0.23249  17:0.21953  18:0.29753  19:0.29626  20:0.13893  21:0.043935  22:0.11842  23:0.10492  24:0  25:0  26:0  27:0  28:0  29:0  30:0  31:0  32:0  33:0  34:0  35:0  36:0  37:0  38:0  39:0  40:0  41:0  42:0  43:0  44:0  45:0  46:0  47:0 
9 0:0.31609  1:0.24314  2:0.13697  3:0.18776  4:0.071852  5:0.044185  6:0.32907  7:0.21497  8:0.14065  9:0.18901  10:0.077879  11:0.048429  12:0.32418  13:0.23778  14:0.12876  15:0.18721  16:0.075256  17:0.046816  18:0.26204  19:0.3626  20:0.12409  21:0.154  22:0.061154  23:0.036117  24:0  25:0  26:0  27:0  28:0  29:0  30:0  31:0  32:0  33:0  34:0  35:0  36:0  37:0  38:0  39:0  40:0  41:0  42:0  43:0  44:0  45:0  46:0  47:0 
9 0:0.23193  1:0.26929  2:0.11931  3:0.04732  4:0.16951  5:0.16265  6:0.29233  7:0.078233  8:0.067317  9:0.077396  10:0.25123  11:0.2335  12:0.29042  13:0.109  14:0.052369  15:0.073559  16:0.24703  17:0.22762  18:0.25451  19:0.2618  20:0.092979  21:0.045622  22:0.1751  23:0.16998  24:0  25:0  26:0  27:0  28:0  29:0  30:0  31:0  32:0  33:0  34:0  35:0  36:0  37:0  38:0  39:0  40:0  41:0  42:0  43:0  44:0  45:0  46:0  47:0 
9 0:0.33004  1:0.25774  2:0.13037  3:0.17036  4:0.068592  5:0.042893  6:0.33413  7:0.20962  8:0.14281  9:0.18705  10:0.078152  11:0.048235  12:0.32737  13:0.2302  14:0.13434  15:0.18516  16:0.075937  17:0.046985  18:0.3231  19:0.27374  20:0.12397  21:0.16798  22:0.068055  23:0.043156  24:0  25:0  26:0  27:0  28:0  29:0  30:0  31:0  32:0  33:0  34:0  35:0  36:0  37:0  38:0  39:0  40:0  41:0  42:0  43:0  44:0  45:0  46:0  47:0 
9 0:0.2587  1:0.23769  2:0.095128  3:0.064624  4:0.17834  5:0.16551  6:0.30943  7:0.087571  8:0.055312  9:0.082445  10:0.23949  11:0.22575  12:0.26344  13:0.098105  14:0.068538  15:0.082656  16:0.25222  17:0.23504  18:0.22716  19:0.24029  20:0.084573  21:0.068957  22:0.19549  23:0.18354  24:0  25:0  26:0  27:0  28:0  29:0  30:0  31:0  32:0  33:0  34:0  35:0  36:0  37:0  38:0  39:0  40:0  41:0  42:0  43:0  44:0  45:0  46:0  47:0 
9 0:0.31246  1:0.16199  2:0.079364  3:0.062656  4:0.19796  5:0.18556  6:0.29922  7:0.10758  8:0.058074  9:0.072665  10:0.23869  11:0.22377  12:0.26812  13:0.12566  14:0.085428  15:0.077324  16:0.23117  17:0.2123  18:0.31011  19:0.24274  20:0.17785  21:0.047335  22:0.11815  23:0.10382  24:0  25:0  26:0  27:0  28:0  29:0  30:0  31:0  32:0  33:0  34:0  35:0  36:0  37:0  38:0  39:0  40:0  41:0  42:0  43:0  44:0  45:0  46:0  47:0 
9 0:0.31281  1:0.2377  2:0.14364  3:0.18809  4:0.072885  5:0.04488  6:0.32304  7:0.23227  8:0.13232  9:0.19048  10:0.0756  11:0.046297  12:0.32935  13:0.21181  14:0.14718  15:0.18634  16:0.077933  17:0.047387  18:0.33942  19:0.28412  20:0.14007  21:0.1403  22:0.061206  23:0.034875  24:0  25:0  26:0  27:0  28:0  29:0  30:0  31:0  32:0  33:0  34:0  35:0  36:0  37:0  38:0  39:0  40:0  41:0  42:0  43:0  44:0  45:0  46:0  47:0 
9 0:0.29082  1:0.17168  2:0.11844  3:0.063714  4:0.18317  5:0.17218  6:0.27425  7:0.093089  8:0.096454  9:0.079857  10:0.2357  11:0.22065  12:0.28159  13:0.12338  14:0.048874  15:0.068364  16:0.24791  17:0.22989  18:0.32036  19:0.36798  20:0.16806  21:0.030323  22:0.058305  23:0.054959  24:0  25:0  26:0  27:0  28:0  29:0  30:0  31:0  32:0  33:0  34:0  35:0  36:0  37:0  38:0  39:0  40:0  41:0  42:0  43:0  44:0  45:0  46:0  47:0 
9 0:0.30832  1:0.2381  2:0.15859  3:0.17695  4:0.072308  5:0.045737  6:0.32469  7:0.21411  8:0.1543  9:0.1834  10:0.075663  11:0.047833  12:0.33592  13:0.19785  14:0.15005  15:0.18939  16:0.078708  17:0.048079  18:0.32788  19:0.30541  20:0.16542  21:0.12259  22:0.047731  23:0.030976  24:0  25:0  26:0  27:0  28:0  29:0  30:0  31:0  32:0  33:0  34:0  35:0  36:0  37:0  38:0  39:0  40:0  41:0  42:0  43:0  44:0  45:0  46:0  47:0 
9 0:0.23436  1:0.18445  2:0.091914  3:0.070524  4:0.21849  5:0.20026  6:0.27004  7:0.091792  8:0.066454  9:0.080378  10:0.25013  11:0.24121  12:0.2917  13:0.085496  14:0.06638  15:0.082248  16:0.24579  17:0.22838  18:0.30808  19:0.35849  20:0.12851  21:0.040205  22:0.084729  23:0.079976  24:0  25:0  26:0  27:0  28:0  29:0  30:0  31:0  32:0  33:0  34:0  35:0  36:0  37:0  38:0  39:0  40:0  41:0  42:0  43:0  44:0  45:0  46:0  47:0 
9 0:0.32315  1:0.23265  2:0.15257  3:0.17422  4:0.072008  5:0.045414  6:0.32525  7:0.22479  8:0.14157  9:0.18622  10:0.075703  11:0.046469  12:0.31643  13:0.25437  14:0.12647  15:0.18136  16:0.07418  17:0.047188  18:0.32506  19:0.22704  20:0.14288  21:0.18588  22:0.072149  23:0.04699  24:0  25:0  26:0  27:0  28:0  29:0  30:0  31:0  32:0  33:0  34:0  35:0  36:0  37:0  38:0  39:0  40:0  41:0  42:0  43:0  44:0  45:0  46:0  47:0 
9 0:0.24076  1:0.20101  2:0.13085  3:0.093016  4:0.1701  5:0.16426  6:0.27431  7:0.13119  8:0.068953  9:0.076865  10:0.22939  11:0.2193  12:0.26575  13:0.10646  14:0.0671  15:0.087642  16:0.24503  17:0.22802  18:0.22384  19:0.25778  20:0.10062  21:0.083149  22:0.16732  23:0.16729  24:0  25:0  26:0  27:0  28:0  29:0  30:0  31:0  32:0  33:0  34:0  35:0  36:0  37:0  38:0  39:0  40:0  41:0  42:0  43:0  44:0  45:0  46:0  47:0 
9 0:0.34179  1:0.23129  2:0.12946  3:0.17668  4:0.071646  5:0.049133  6:0.33721  7:0.22698  8:0.13863  9:0.17991  10:0.071387  11:0.045887  12:0.33086  13:0.2152  14:0.15451  15:0.17639  16:0.075449  17:0.047593  18:0.31409  19:0.24009  20:0.14546  21:0.17441  22:0.074123  23:0.051833  24:0  25:0  26:0  27:0  28:0  29:0  30:0  31:0  32:0  33:0  34:0  35:0  36:0  37:0  38:0  39:0  40:0  41:0  42:0  43:0  44:0  45:0  46:0  47:0 
9 0:0.21257  1:0.15952  2:0.22496  3:0.096908  4:0.15679  5:0.14926  6:0.29239  7:0.13313  8:0.075511  9:0.086622  10:0.21252  11:0.19983  12:0.24891  13:0.16936  14:0.084822  15:0.080872  16:0.21694  17:0.19909  18:0.20637  19:0.22209  20:0.15567  21:0.10213  22:0.16231  23:0.15142  24:0  25:0  26:0  27:0  28:0  29:0  30:0  31:0  32:0  33:0  34:0  35:0  36:0  37:0  38:0  39:0  40:0  41:0  42:0  43:0  44:0  45:0  46:0  47:0 
9 0:0.31495  1:0.19952  2:0.18469  3:0.18156  4:0.072952  5:0.046336  6:0.31625  7:0.25964  8:0.11936  9:0.18671  10:0.073404  11:0.044643  12:0.31601  13:0.20917  14:0.17163  15:0.17778  16:0.078224  17:0.047187  18:0.29062  19:0.2301  20:0.20359  21:0.16354  22:0.068967  23:0.043183  24:0  25:0  26:0  27:0  28:0  29:0  30:0  31:0  32:0  33:0  34:0  35:0  36:0  37:0  38:0  39:0  40:0  41:0  42:0  43:0  44:0  45:0  46:0  47:0 
9 0:0.18538  1:0.25896  2:0.20304  3:0.073993  4:0.13955  5:0.13907  6:0.27109  7:0.17475  8:0.06244  9:0.073138  10:0.21522  11:0.20337  12:0.23566  13:0.21389  14:0.085024  15:0.061884  16:0.20572  17:0.19781  18:0.14379  19:0.30506  20:0.25166  21:0.066229  22:0.11695  23:0.11631  24:0  25:0  26:0  27:0  28:0  29:0  30:0  31:0  32:0  33:0  34:0  35:0  36:0  37:0  38:0  39:0  40:0  41:0  42:0  43:0  44:0  45:0  46:0  47:0 
9 0:0.32131  1:0.22199  2:0.18644  3:0.15832  4:0.06643  5:0.045516  6:0.33493  7:0.21547  8:0.14224  9:0.18237  10:0.076818  11:0.048183  12:0.32738  13:0.22294  14:0.14823  15:0.18127  16:0.073661  17:0.046523  18:0.33746  19:0.22337  20:0.18025  21:0.15239  22:0.063789  23:0.04275  24:0  25:0  26:0  27:0  28:0  29:0  30:0  31:0  32:0  33:0  34:0  35:0  36:0  37:0  38:0  39:0  40:0  41:0  42:0  43:0  44:0  45:0  46:0  47:0 
9 0:0.23298  1:0.29698  2:0.076704  3:0.055692  4:0.17242  5:0.16522  6:0.27102  7:0.10866  8:0.074075  9:0.079156  10:0.24261  11:0.22447  12:0.27857  13:0.112  14:0.068017  15:0.078906  16:0.23788  17:0.22462  18:0.25314  19:0.24047  20:0.087772  21:0.067809  22:0.18039  23:0.17042  24:0  25:0  26:0  27:0  28:0  29:0  30:0  31:0  32:0  33:0  34:0  35:0  36:0  37:0  38:0  39:0  40:0  41:0  42:0  43:0  44:0  45:0  46:0  47:0 
9 0:0.2418  1:0.23883  2:0.085674  3:0.069133  4:0.18638  5:0.17818  6:0.27757  7:0.10572  8:0.068094  9:0.073879  10:0.24304  11:0.23169  12:0.28593  13:0.14388  14:0.078946  15:0.073024  16:0.21292  17:0.2053  18:0.22487  19:0.31657  20:0.08585  21:0.067362  22:0.15563  23:0.14972  24:0  25:0  26:0  27:0  28:0  29:0  30:0  31:0  32:0  33:0  34:0  35:0  36:0  37:0  38:0  39:0  40:0  41:0  42:0  43:0  44:0  45:0  46:0  47:0 
9 0:0.22488  1:0.21236  2:0.12978  3:0.070659  4:0.19033  5:0.17199  6:0.2669  7:0.10755  8:0.061743  9:0.080144  10:0.25084  11:0.23283  12:0.28179  13:0.16421  14:0.1078  15:0.070657  16:0.19466  17:0.18088  18:0.20389  19:0.23457  20:0.22069  21:0.054692  22:0.14757  23:0.13858  24:0  25:0  26:0  27:0  28:0  29:0  30:0  31:0  32:0  33:0  34:0  35:0  36:0  37:0  38:0  39:0  40:0  41:0  42:0  43:0  44:0  45:0  46:0  47:0 
9 0:0.32736  1:0.23874  2:0.12235  3:0.18846  4:0.077671  5:0.045415  6:0.32864  7:0.22056  8:0.13841  9:0.18808  10:0.077019  11:0.047287  12:0.34191  13:0.22297  14:0.13637  15:0.18037  16:0.072881  17:0.045509  18:0.302  19:0.24681  20:0.13306  21:0.19781  22:0.075659  23:0.04466  24:0  25:0  26:0  27:0  28:0  29:0  30:0  31:0  32:0  33:0  34:0  35:0  36:0  37:0  38:0  39:0  40:0  41:0  42:0  43:0  44:0  45:0  46:0  47:0 
9 0:0.26336  1:0.18886  2:0.050722  3:0.085911  4:0.21339  5:0.19776  6:0.28869  7:0.088233  8:0.058726  9:0.08889  10:0.24418  11:0.23128  12:0.29159  13:0.11043  14:0.091988  15:0.075087  16:0.22292  17:0.20799  18:0.24915  19:0.15558  20:0.082849  21:0.10349  22:0.21749  23:0.19144  24:0  25:0  26:0  27:0  28:0  29:0  30:0  31:0  32:0  33:0  34:0  35:0  36:0  37:0  38:0  39:0  40:0  41:0  42:0  43:0  44:0  45:0  46:0  47:0 
9 0:0.32845  1:0.2335  2:0.13235  3:0.18937  4:0.072695  5:0.043637  6:0.32952  7:0.21407  8:0.14354  9:0.19036  10:0.075013  11:0.047496  12:0.33394  13:0.21731  14:0.14329  15:0.18182  16:0.07605  17:0.047585  18:0.31927  19:0.23788  20:0.1417  21:0.18286  22:0.074138  23:0.044158  24:0  25:0  26:0  27:0  28:0  29:0  30:0  31:0  32:0  33:0  34:0  35:0  36:0  37:0  38:0  39:0  40:0  41:0  42:0  43:0  44:0  45:0  46:0  47:0 
9 0:0.25721  1:0.18594  2:0.096434  3:0.072668  4:0.20164  5:0.18611  6:0.30079  7:0.086799  8:0.074041  9:0.074657  10:0.23807  11:0.22565  12:0.27368  13:0.11716  14:0.052112  15:0.081203  16:0.24503  17:0.23082  18:0.057857  19:0.57036  20:0.11448  21:0.11615  22:0.070791  23:0.070365  24:0  25:0  26:0  27:0  28:0  29:0  30:0  31:0  32:0  33:0  34:0  35:0  36:0  37:0  38:0  39:0  40:0  41:0  42:0  43:0  44:0  45:0  46:0  47:0 
9 0:0.32727  1:0.23268  2:0.15685  3:0.16437  4:0.074118  5:0.044709  6:0.33471  7:0.2251  8:0.13612  9:0.18207  10:0.075601  11:0.046406  12:0.3342  13:0.22714  14:0.12766  15:0.18406  16:0.078295  17:0.048646  18:0.18771  19:0.43023  20:0.15407  21:0.17114  22:0.035427  23:0.021431  24:0  25:0  26:0  27:0  28:0  29:0  30:0  31:0  32:0  33:0  34:0  35:0  36:0  37:0  38:0  39:0  40:0  41:0  42:0  43:0  44:0  45:0  46:0  47:0 
5.4987 0:0.25612  1:0.19328  2:0.093314  3:0.053517  4:0.20307  5:0.2007  6:0.28967  7:0.095009  8:0.064567  9:0.075684  10:0.2432  11:0.23187  12:0.30647  13:0.058876  14:0.073416  15:0.080704  16:0.24873  17:0.2318  18:0.040052  19:0.62698  20:0.23058  21:0.066191  22:0.019642  23:0.016552  24:0  25:0  26:0  27:0  28:0  29:0  30:0  31:0  32:0  33:0  34:0  35:0  36:0  37:0  38:0  39:0  40:0  41:0  42:0  43:0  44:0  45:0  46:0  47:0 
9 0:0.32592  1:0.23091  2:0.14658  3:0.18216  4:0.07024  5:0.044186  6:0.33103  7:0.22499  8:0.13564  9:0.18659  10:0.07475  11:0.046992  12:0.3378  13:0.21223  14:0.14394  15:0.18179  16:0.076566  17:0.047664  18:0.35115  19:0.21552  20:0.15132  21:0.17243  22:0.066755  23:0.042827  24:0  25:0  26:0  27:0  28:0  29:0  30:0  31:0  32:0  33:0  34:0  35:0  36:0  37:0  38:0  39:0  40:0  41:0  42:0  43:0  44:0  45:0  46:0  47:0 
9 0:0.33819  1:0.24405  2:0.12962  3:0.17412  4:0.069968  5:0.044039  6:0.3275  7:0.22664  8:0.14038  9:0.18416  10:0.074658  11:0.046652  12:0.33567  13:0.22209  14:0.13137  15:0.18666  16:0.076246  17:0.047975  18:0.33092  19:0.23948  20:0.12618  21:0.18385  22:0.073877  23:0.045698  24:0  25:0  26:0  27:0  28:0  29:0  30:0  31:0  32:0  33:0  34:0  35:0  36:0  37:0  38:0  39:0  40:0  41:0  42:0  43:0  44:0  45:0  46:0  47:0 
9 0:0.34337  1:0.23921  2:0.11958  3:0.17728  4:0.074748  5:0.045807  6:0.34265  7:0.21484  8:0.13654  9:0.18387  10:0.075113  11:0.046983  12:0.32574  13:0.23754  14:0.13496  15:0.18019  16:0.075289  17:0.046287  18:0.33853  19:0.24396  20:0.13512  21:0.16663  22:0.071654  23:0.044099  24:0  25:0  26:0  27:0  28:0  29:0  30:0  31:0  32:0  33:0  34:0  35:0  36:0  37:0  38:0  39:0  40:0  41:0  42:0  43:0  44:0  45:0  46:0  47:0 
9 0:0.3303  1:0.23254  2:0.13796  3:0.17866  4:0.073849  5:0.046694  6:0.32153  7:0.22492  8:0.14067  9:0.18984  10:0.075446  11:0.047598  12:0.32306  13:0.22316  14:0.14624  15:0.18236  16:0.077154  17:0.048031  18:0.32173  19:0.23532  20:0.14621  21:0.17576  22:0.074469  23:0.046511  24:0  25:0  26:0  27:0  28:0  29:0  30:0  31:0  32:0  33:0  34:0  35:0  36:0  37:0  38:0  39:0  40:0  41:0  42:0  43:0  44:0  45:0  46:0  47:0 
9 0:0.33078  1:0.2261  2:0.15951  3:0.16855  4:0.069629  5:0.045439  6:0.34274  7:0.20282  8:0.14122  9:0.18471  10:0.079487  11:0.049026  12:0.32634  13:0.24005  14:0.13044  15:0.18204  16:0.075165  17:0.045961  18:0.30993  19:0.24453  20:0.14316  21:0.18516  22:0.071863  23:0.045355  24:0  25:0  26:0  27:0  28:0  29:0  30:0  31:0  32:0  33:0  34:0  35:0  36:0  37:0  38:0  39:0  40:0  41:0  42:0  43:0  44:0  45:0  46:0  47:0 
9 0:0.33575  1:0.26177  2:0.12521  3:0.15654  4:0.074546  5:0.04619  6:0.34375  7:0.22728  8:0.11931  9:0.18187  10:0.079747  11:0.048051  12:0.32638  13:0.20747  14:0.16503  15:0.17942  16:0.0752  17:0.046499  18:0.32388  19:0.20968  20:0.18774  21:0.16232  22:0.07087  23:0.045505  24:0  25:0  26:0  27:0  28:0  29:0  30:0  31:0  32:0  33:0  34:0  35:0  36:0  37:0  38:0  39:0  40:0  41:0  42:0  43:0  44:0  45:0  46:0  47:0 
9 0:0.21794  1:0.20785  2:0.068204  3:0.12982  4:0.19501  5:0.18118  6:0.2506  7:0.1276  8:0.11025  9:0.081016  10:0.22275  11:0.20779  12:0.27937  13:0.093094  14:0.099002  15:0.075797  16:0.23361  17:0.21913  18:0.23813  19:0.1688  20:0.14256  21:0.083841  22:0.18856  23:0.17811  24:0  25:0  26:0  27:0  28:0  29:0  30:0  31:0  32:0  33:0  34:0  35:0  36:0  37:0  38:0  39:0  40:0  41:0  42:0  43:0  44:0  45:0  46:0  47:0 
9 0:0.33728  1:0.24133  2:0.13119  3:0.15988  4:0.082785  5:0.047536  6:0.32822  7:0.22982  8:0.14456  9:0.17381  10:0.07713  11:0.046467  12:0.3519  13:0.21638  14:0.1341  15:0.17265  16:0.076875  17:0.048091  18:0.33603  19:0.23912  20:0.12935  21:0.16202  22:0.083969  23:0.049516  24:0  25:0  26:0  27:0  28:0  29:0  30:0  31:0  32:0  33:0  34:0  35:0  36:0  37:0  38:0  39:0  40:0  41:0  42:0  43:0  44:0  45:0  46:0  47:0 
9 0:0.33202  1:0.26039  2:0.14708  3:0.15452  4:0.065118  5:0.04088  6:0.34341  7:0.23408  8:0.13376  9:0.17188  10:0.071478  11:0.045395  12:0.32879  13:0.21568  14:0.15705  15:0.17857  16:0.072748  17:0.047155  18:0.32586  19:0.2526  20:0.14637  21:0.1653  22:0.066746  23:0.043135  24:0  25:0  26:0  27:0  28:0  29:0  30:0  31:0  32:0  33:0  34:0  35:0  36:0  37:0  38:0  39:0  40:0  41:0  42:0  43:0  44:0  45:0  46:0  47:0 
9 0:0.18973  1:0.44674  2:0.15423  3:0.035642  4:0.085561  5:0.0881  6:0.28264  7:0.21209  8:0.10501  9:0.061257  10:0.17346  11:0.16554  12:0.31762  13:0.17622  14:0.090825  15:0.058029  16:0.18816  17:0.16914  18:0.20865  19:0.3651  20:0.15095  21:0.037806  22:0.11468  23:0.1228  24:0  25:0  26:0  27:0  28:0  29:0  30:0  31:0  32:0  33:0  34:0  35:0  36:0  37:0  38:0  39:0  40:0  41:0  42:0  43:0  44:0  45:0  46:0  47:0 
9 0:0.32982  1:0.289  2:0.15057  3:0.13848  4:0.055532  5:0.036603  6:0.35692  7:0.21163  8:0.14666  9:0.16849  10:0.072409  11:0.043892  12:0.32593  13:0.22475  14:0.13709  15:0.18707  16:0.078143  17:0.047021  18:0.34046  19:0.2907  20:0.14671  21:0.13134  22:0.054337  23:0.036457  24:0  25:0  26:0  27:0  28:0  29:0  30:0  31:0  32:0  33:0  34:0  35:0  36:0  37:0  38:0  39:0  40:0  41:0  42:0  43:0  44:0  45:0  46:0  47:0 
9 0:0.17545  1:0.30743  2:0.23615  3:0.064018  4:0.11193  5:0.10502  6:0.26299  7:0.15197  8:0.1089  9:0.068677  10:0.21179  11:0.19567  12:0.28215  13:0.10034  14:0.078104  15:0.076685  16:0.23865  17:0.22407  18:0.19747  19:0.3298  20:0.18395  21:0.052715  22:0.12068  23:0.11539  24:0  25:0  26:0  27:0  28:0  29:0  30:0  31:0  32:0  33:0  34:0  35:0  36:0  37:0  38:0  39:0  40:0  41:0  42:0  43:0  44:0  45:0  46:0  47:0 
9 0:0.27019  1:0.29684  2:0.16607  3:0.15657  4:0.067034  5:0.043297  6:0.3036  7:0.24653  8:0.14587  9:0.18229  10:0.075861  11:0.045838  12:0.32445  13:0.22252  14:0.13459  15:0.18483  16:0.083189  17:0.050419  18:0.27314  19:0.31131  20:0.15391  21:0.15061  22:0.0679  23:0.043132  24:0  25:0  26:0  27:0  28:0  29:0  30:0  31:0  32:0  33:0  34:0  35:0  36:0  37:0  38:0  39:0  40:0  41:0  42:0  43:0  44:0  45:0  46:0  47:0 
9 0:0.18005  1:0.28787  2:0.24158  3:0.077924  4:0.10755  5:0.10503  6:0.26191  7:0.12789  8:0.09827  9:0.079517  10:0.22907  11:0.20335  12:0.27992  13:0.083825  14:0.055108  15:0.085653  16:0.26368  17:0.23182  18:0.20882  19:0.30322  20:0.15061  21:0.061831  22:0.13559  23:0.13994  24:0  25:0  26:0  27:0  28:0  29:0  30:0  31:0  32:0  33:0  34:0  35:0  36:0  37:0  38:0  39:0  40:0  41:0  42:0  43:0  44:0  45:0  46:0  47:0 
9 0:0.20637  1:0.38824  2:0.16062  3:0.040449  4:0.096237  5:0.10808  6:0.2824  7:0.21359  8:0.05841  9:0.071943  10:0.183  11:0.19066  12:0.30184  13:0.10219  14:0.062486  15:0.079723  16:0.22397  17:0.22979  18:0.20503  19:0.392  20:0.12443  21:0.052266  22:0.10965  23:0.11662  24:0  25:0  26:0  27:0  28:0  29:0  30:0  31:0  32:0  33:0  34:0  35:0  36:0  37:0  38:0  39:0  40:0  41:0  42:0  43:0  44:0  45:0  46:0  47:0 
9 0:0.1855  1:0.3878  2:0.18172  3:0.16295  4:0.046276  5:0.035751  6:0.3004  7:0.28783  8:0.13567  9:0.16708  10:0.065675  11:0.043347  12:0.32002  13:0.23937  14:0.13894  15:0.17976  16:0.072493  17:0.049419  18:0.15584  19:0.38959  20:0.22143  21:0.14559  22:0.046777  23:0.040776  24:0  25:0  26:0  27:0  28:0  29:0  30:0  31:0  32:0  33:0  34:0  35:0  36:0  37:0  38:0  39:0  40:0  41:0  42:0  43:0  44:0  45:0  46:0  47:0 
9 0:0.26604  1:0.34335  2:0.1341  3:0.053241  4:0.10779  5:0.095475  6:0.32907  7:0.24846  8:0.058706  9:0.056827  10:0.1611  11:0.14585  12:0.27865  13:0.098117  14:0.055417  15:0.08544  16:0.24359  17:0.23879  18:0.20883  19:0.40852  20:0.14469  21:0.038826  22:0.098221  23:0.10092  24:0  25:0  26:0  27:0  28:0  29:0  30:0  31:0  32:0  33:0  34:0  35:0  36:0  37:0  38:0  39:0  40:0  41:0  42:0  43:0  44:0  45:0  46:0  47:0 
9 0:0.32612  1:0.24666  2:0.16768  3:0.15537  4:0.063124  5:0.041037  6:0.32995  7:0.19193  8:0.17568  9:0.1793  10:0.073551  11:0.04959  12:0.33763  13:0.21276  14:0.14428  15:0.17981  16:0.077371  17:0.048166  18:0.29094  19:0.24912  20:0.16923  21:0.17841  22:0.069305  23:0.042999  24:0  25:0  26:0  27:0  28:0  29:0  30:0  31:0  32:0  33:0  34:0  35:0  36:0  37:0  38:0  39:0  40:0  41:0  42:0  43:0  44:0  45:0  46:0  47:0 
1.0874 0:0.283  1:0.57355  2:0.037298  3:0.022758  4:0.045361  5:0.038028  6:0.1297  7:0.61783  8:0.22602  9:0.017894  10:0.0042489  11:0.0043139  12:0.2665  13:0.099463  14:0.068035  15:0.09748  16:0.24212  17:0.2264  18:0.24059  19:0.12149  20:0.18868  21:0.093974  22:0.18226  23:0.17301  24:0  25:0  26:0  27:0  28:0  29:0  30:0  31:0  32:0  33:0  34:0  35:0  36:0  37:0  38:0  39:0  40:0  41:0  42:0  43:0  44:0  45:0  46:0  47:0 
9 0:0.29022  1:0.47236  2:0.083955  3:0.089199  4:0.043122  5:0.02115  6:0.12637  7:0.61017  8:0.23296  9:0.025589  10:0.0027707  11:0.002141  12:0.3319  13:0.21544  14:0.1431  15:0.18538  16:0.077156  17:0.047022  18:0.34892  19:0.20919  20:0.11369  21:0.20197  22:0.080077  23:0.046154  24:0  25:0  26:0  27:0  28:0  29:0  30:0  31:0  32:0  33:0  34:0  35:0  36:0  37:0  38:0  39:0  40:0  41:0  42:0  43:0  44:0  45:0  46:0  47:0 
6.8434 0:0.10294  1:0.42719  2:0.228  3:0.18238  4:0.041345  5:0.018141  6:0.32536  7:0.2303  8:0.15571  9:0.17039  10:0.074159  11:0.04407  12:0.33828  13:0.22626  14:0.13945  15:0.17765  16:0.072671  17:0.045688  18:0.3375  19:0.20313  20:0.14255  21:0.18897  22:0.079141  23:0.04872  24:0  25:0  26:0  27:0  28:0  29:0  30:0  31:0  32:0  33:0  34:0  35:0  36:0  37:0  38:0  39:0  40:0  41:0  42:0  43:0  44:0  45:0  46:0  47:0 
9 0:0.30119  1:0.26597  2:0.14946  3:0.16528  4:0.073247  5:0.044843  6:0.3389  7:0.20636  8:0.15734  9:0.17334  10:0.074382  11:0.049684  12:0.3242  13:0.23626  14:0.14253  15:0.17804  16:0.071976  17:0.047002  18:0.33438  19:0.25196  20:0.11139  21:0.17991  22:0.075024  23:0.047338  24:0  25:0  26:0  27:0  28:0  29:0  30:0  31:0  32:0  33:0  34:0  35:0  36:0  37:0  38:0  39:0  40:0  41:0  42:0  43:0  44:0  45:0  46:0  47:0 
9 0:0.2401  1:0.20282  2:0.16816  3:0.070741  4:0.16083  5:0.15736  6:0.23768  7:0.19733  8:0.087016  9:0.069049  10:0.21319  11:0.19574  12:0.26736  13:0.13113  14:0.076546  15:0.076602  16:0.23086  17:0.2175  18:0.27934  19:0.39445  20:0.12095  21:0.06559  22:0.068593  23:0.071077  24:0  25:0  26:0  27:0  28:0  29:0  30:0  31:0  32:0  33:0  34:0  35:0  36:0  37:0  38:0  39:0  40:0  41:0  42:0  43:0  44:0  45:0  46:0  47:0 
9 0:0.31265  1:0.23362  2:0.16811  3:0.17514  4:0.064452  5:0.04602  6:0.30118  7:0.28739  8:0.14901  9:0.15828  10:0.065752  11:0.038382  12:0.33249  13:0.21119  14:0.1448  15:0.18814  16:0.075352  17:0.048032  18:0.09483  19:0.55009  20:0.28737  21:0.051254  22:0.0070257  23:0.0094357  24:0  25:0  26:0  27:0  28:0  29:0  30:0  31:0  32:0  33:0  34:0  35:0  36:0  37:0  38:0  39:0  40:0  41:0  42:0  43:0  44:0  45:0  46:0  47:0 
2.4948 0:0.37425  1:0.16991  2:0.11662  3:0.056127  4:0.13438  5:0.14871  6:0.40978  7:0.32845  8:0.16776  9:0.022272  10:0.039295  11:0.032434  12:0.28319  13:0.11805  14:0.049591  15:0.080193  16:0.23987  17:0.22911  18:0.5267  19:0.39061  20:0.059684  21:0.0098557  22:0.0068834  23:0.0062638  24:0  25:0  26:0  27:0  28:0  29:0  30:0  31:0  32:0  33:0  34:0  35:0  36:0  37:0  38:0  39:0  40:0  41:0  42:0  43:0  44:0  45:0  46:0  47:0 
1.9733 0:0.36869  1:0.21129  2:0.11308  3:0.18747  4:0.069274  5:0.050198  6:0.3948  7:0.30953  8:0.1707  9:0.076972  10:0.031212  11:0.016781  12:0.33459  13:0.21561  14:0.136  15:0.19149  16:0.0747  17:0.047623  18:0.55045  19:0.2234  20:0.10348  21:0.072274  22:0.030241  23:0.020147  24:0  25:0  26:0  27:0  28:0  29:0  30:0  31:0  32:0  33:0  34:0  35:0  36:0  37:0  38:0  39:0  40:0  41:0  42:0  43:0  44:0  45:0  46:0  47:0 
9 0:0.33161  1:0.22257  2:0.13783  3:0.18538  4:0.074348  5:0.048253  6:0.29475  7:0.26919  8:0.13188  9:0.18658  10:0.075365  11:0.042227  12:0.33813  13:0.19504  14:0.15648  15:0.18406  16:0.078015  17:0.048267  18:0.32657  19:0.21648  20:0.14769  21:0.1833  22:0.077668  23:0.048294  24:0  25:0  26:0  27:0  28:0  29:0  30:0  31:0  32:0  33:0  34:0  35:0  36:0  37:0  38:0  39:0  40:0  41:0  42:0  43:0  44:0  45:0  46:0  47:0 
5.139 0:0.3288  1:0.25886  2:0.14306  3:0.16381  4:0.064403  5:0.041071  6:0.32943  7:0.20049  8:0.1399  9:0.19836  10:0.083067  11:0.048753  12:0.34167  13:0.22638  14:0.12527  15:0.18411  16:0.075619  17:0.046952  18:0.31776  19:0.26535  20:0.12639  21:0.17586  22:0.069495  23:0.045147  24:0  25:0  26:0  27:0  28:0  29:0  30:0  31:0  32:0  33:0  34:0  35:0  36:0  37:0  38:0  39:0  40:0  41:0  42:0  43:0  44:0  45:0  46:0  47:0 
9 0:0.37519  1:0.21558  2:0.12627  3:0.1652  4:0.071897  5:0.04586  6:0.32695  7:0.19205  8:0.1594  9:0.19111  10:0.082056  11:0.048436  12:0.34834  13:0.21769  14:0.13986  15:0.17493  16:0.073032  17:0.046147  18:0.37278  19:0.24677  20:0.10832  21:0.16267  22:0.067513  23:0.041955  24:0  25:0  26:0  27:0  28:0  29:0  30:0  31:0  32:0  33:0  34:0  35:0  36:0  37:0  38:0  39:0  40:0  41:0  42:0  43:0  44:0  45:0  46:0  47:0 
9 0:0.36499  1:0.21969  2:0.13091  3:0.16614  4:0.072932  5:0.045328  6:0.33754  7:0.21068  8:0.15884  9:0.17656  10:0.07246  11:0.043919  12:0.33471  13:0.20664  14:0.14434  15:0.1913  16:0.075327  17:0.047674  18:0.34955  19:0.22318  20:0.13343  21:0.17833  22:0.07138  23:0.044132  24:0  25:0  26:0  27:0  28:0  29:0  30:0  31:0  32:0  33:0  34:0  35:0  36:0  37:0  38:0  39:0  40:0  41:0  42:0  43:0  44:0  45:0  46:0  47:0 
9 0:0.32567  1:0.23158  2:0.13597  3:0.18797  4:0.072588  5:0.046225  6:0.31285  7:0.23052  8:0.12893  9:0.19357  10:0.082951  11:0.051186  12:0.33203  13:0.21834  14:0.13889  15:0.18584  16:0.077398  17:0.047498  18:0.33453  19:0.23174  20:0.12389  21:0.18539  22:0.076904  23:0.047544  24:0  25:0  26:0  27:0  28:0  29:0  30:0  31:0  32:0  33:0  34:0  35:0  36:0  37:0  38:0  39:0  40:0  41:0  42:0  43:0  44:0  45:0  46:0  47:0 
4.8085 0:0.34675  1:0.20825  2:0.13525  3:0.18392  4:0.079521  5:0.046311  6:0.32767  7:0.19408  8:0.16217  9:0.1925  10:0.075633  11:0.047955  12:0.3332  13:0.21542  14:0.14165  15:0.18578  16:0.07561  17:0.048336  18:0.33951  19:0.21613  20:0.13691  21:0.18497  22:0.076256  23:0.046221  24:0  25:0  26:0  27:0  28:0  29:0  30:0  31:0  32:0  33:0  34:0  35:0  36:0  37:0  38:0  39:0  40:0  41:0  42:0  43:0  44:0  45:0  46:0  47:0 
9 0:0.33645  1:0.24323  2:0.12844  3:0.17123  4:0.076261  5:0.044386  6:0.33182  7:0.21433  8:0.15343  9:0.18116  10:0.074015  11:0.045238  12:0.33769  13:0.20511  14:0.15048  15:0.18338  16:0.075805  17:0.047538  18:0.35275  19:0.22484  20:0.1249  21:0.18079  22:0.070886  23:0.045837  24:0  25:0  26:0  27:0  28:0  29:0  30:0  31:0  32:0  33:0  34:0  35:0  36:0  37:0  38:0  39:0  40:0  41:0  42:0  43:0  44:0  45:0  46:0  47:0 
9 0:0.10111  1:0.42752  2:0.16333  3:0.1113  4:0.10974  5:0.086983  6:0.26412  7:0.12588  8:0.15198  9:0.065784  10:0.20786  11:0.18437  12:0.28171  13:0.09578  14:0.074136  15:0.080156  16:0.23983  17:0.22839  18:0.27544  19:0.13891  20:0.090337  21:0.078515  22:0.21734  23:0.19946  24:0  25:0  26:0  27:0  28:0  29:0  30:0  31:0  32:0  33:0  34:0  35:0  36:0  37:0  38:0  39:0  40:0  41:0  42:0  43:0  44:0  45:0  46:0  47:0 
