svm_type c_svc
kernel_type rbf
degree 3
gamma 0.5
nr_class 2
total_sv 13
rho 0.45572
label 0 1
probA -1.9429
probB 0.061384
nr_sv 7 6
SV
9 0:0.22986  1:0.55714  2:0.18698  3:0.022274  4:0.002045  5:0.0016904  6:0.25377  7:0.44357  8:0.22897  9:0.05307  10:0.0088712  11:0.011753  12:0.21151  13:0.39259  14:0.32318  15:0.05363  16:0.0091868  17:0.0098999  18:0.18337  19:0.52982  20:0.25431  21:0.029143  22:0.0018431  23:0.0015183  24:0  25:0  26:0  27:0  28:0  29:0  30:0  31:0  32:0  33:0  34:0  35:0  36:0  37:0  38:0  39:0  40:0  41:0  42:0  43:0  44:0  45:0  46:0  47:0
4.1041 0:0.23369  1:0.65159  2:0.10454  3:0.008087  4:0.001121  5:0.00097594  6:0.25746  7:0.42177  8:0.22643  9:0.058368  10:0.019711  11:0.016259  12:0.16942  13:0.51858  14:0.25655  15:0.045992  16:0.0036017  17:0.0058521  18:0.22212  19:0.6443  20:0.12028  21:0.011152  22:0.00096072  23:0.0011816  24:0  25:0  26:0  27:0  28:0  29:0  30:0  31:0  32:0  33:0  34:0  35:0  36:0  37:0  38:0  39:0  40:0  41:0  42:0  43:0  44:0  45:0  46:0  47:0
7.8705 0:0.20874  1:0.6215  2:0.14992  3:0.016992  4:0.0014264  5:0.0014246  6:0.15315  7:0.51272  8:0.1865  9:0.092519  10:0.029605  11:0.025507  12:0.10336  13:0.54184  14:0.29333  15:0.044719  16:0.007176  17:0.0095783  18:0.19417  19:0.61047  20:0.1742  21:0.018075  22:0.0012707  23:0.001822  24:0  25:0  26:0  27:0  28:0  29:0  30:0  31:0  32:0  33:0  34:0  35:0  36:0  37:0  38:0  39:0  40:0  41:0  42:0  43:0  44:0  45:0  46:0  47:0
9 0:0.20597  1:0.58734  2:0.18556  3:0.017727  4:0.0014087  5:0.0019937  6:0.17214  7:0.60758  8:0.17126  9:0.032197  10:0.0066062  11:0.010216  12:0.10399  13:0.43433  14:0.39626  15:0.044292  16:0.010751  17:0.010374  18:0.15906  19:0.577  20:0.2337  21:0.02581  22:0.0015806  23:0.0028515  24:0  25:0  26:0  27:0  28:0  29:0  30:0  31:0  32:0  33:0  34:0  35:0  36:0  37:0  38:0  39:0  40:0  41:0  42:0  43:0  44:0  45:0  46:0  47:0
9 0:0.24144  1:0.60963  2:0.13446  3:0.012043  4:0.0014959  5:0.00092918  6:0.2786  7:0.59282  8:0.086658  9:0.033084  10:0.0037517  11:0.0050802  12:0.12792  13:0.40736  14:0.31054  15:0.10977  16:0.019105  17:0.025301  18:0.22775  19:0.54348  20:0.19901  21:0.024609  22:0.0024327  23:0.0027208  24:0  25:0  26:0  27:0  28:0  29:0  30:0  31:0  32:0  33:0  34:0  35:0  36:0  37:0  38:0  39:0  40:0  41:0  42:0  43:0  44:0  45:0  46:0  47:0
0.18731 0:0.46568  1:0.43867  2:0.081669  3:0.011875  4:0.0012288  5:0.00088126  6:0.22097  7:0.62749  8:0.12838  9:0.016206  10:0.0030336  11:0.0039104  12:0.35373  13:0.26612  14:0.24007  15:0.091524  16:0.013383  17:0.035175  18:0.48114  19:0.37703  20:0.13176  21:0.0078973  22:0.0011938  23:0.00097298  24:0  25:0  26:0  27:0  28:0  29:0  30:0  31:0  32:0  33:0  34:0  35:0  36:0  37:0  38:0  39:0  40:0  41:0  42:0  43:0  44:0  45:0  46:0  47:0
0.36473 0:0.26794  1:0.53566  2:0.17121  3:0.019076  4:0.00335  5:0.0027576  6:0.14378  7:0.57669  8:0.24124  9:0.026234  10:0.0066746  11:0.0053872  12:0.30189  13:0.39826  14:0.21761  15:0.046951  16:0.018393  17:0.0169  18:0.34382  19:0.53797  20:0.095393  21:0.016989  22:0.0027762  23:0.0030513  24:0  25:0  26:0  27:0  28:0  29:0  30:0  31:0  32:0  33:0  34:0  35:0  36:0  37:0  38:0  39:0  40:0  41:0  42:0  43:0  44:0  45:0  46:0  47:0
-3.8795 0:0.10027  1:0.57264  2:0.29219  3:0.029911  4:0.0025335  5:0.0024596  6:0.29583  7:0.35804  8:0.25387  9:0.038826  10:0.022398  11:0.031039  12:0.25971  13:0.21155  14:0.38328  15:0.078492  16:0.032968  17:0.034001  18:0.10862  19:0.61433  20:0.24814  21:0.024748  22:0.0023628  23:0.0017951  24:0  25:0  26:0  27:0  28:0  29:0  30:0  31:0  32:0  33:0  34:0  35:0  36:0  37:0  38:0  39:0  40:0  41:0  42:0  43:0  44:0  45:0  46:0  47:0
-1.1559 0:0.16524  1:0.55844  2:0.22288  3:0.047947  4:0.0021899  5:0.0033  6:0.1602  7:0.3585  8:0.30265  9:0.09062  10:0.047385  11:0.040652  12:0.071693  13:0.37462  14:0.26746  15:0.1597  16:0.060592  17:0.065941  18:0.17793  19:0.5865  20:0.20088  21:0.030118  22:0.0018517  23:0.00272  24:0  25:0  26:0  27:0  28:0  29:0  30:0  31:0  32:0  33:0  34:0  35:0  36:0  37:0  38:0  39:0  40:0  41:0  42:0  43:0  44:0  45:0  46:0  47:0
-9 0:0.14649  1:0.64316  2:0.17908  3:0.028221  4:0.0013297  5:0.0017116  6:0.19218  7:0.51207  8:0.20656  9:0.035322  10:0.026303  11:0.027565  12:0.037937  13:0.38613  14:0.33633  15:0.15386  16:0.045903  17:0.039842  18:0.15094  19:0.61135  20:0.21389  21:0.021138  22:0.00135  23:0.001331  24:0  25:0  26:0  27:0  28:0  29:0  30:0  31:0  32:0  33:0  34:0  35:0  36:0  37:0  38:0  39:0  40:0  41:0  42:0  43:0  44:0  45:0  46:0  47:0
-9 0:0.13054  1:0.67613  2:0.16947  3:0.018818  4:0.0022378  5:0.0027958  6:0.21357  7:0.52302  8:0.15174  9:0.046689  10:0.032317  11:0.032665  12:0.054111  13:0.31838  14:0.41473  15:0.11771  16:0.05475  17:0.040318  18:0.1261  19:0.61513  20:0.23674  21:0.01815  22:0.0019987  23:0.0018797  24:0  25:0  26:0  27:0  28:0  29:0  30:0  31:0  32:0  33:0  34:0  35:0  36:0  37:0  38:0  39:0  40:0  41:0  42:0  43:0  44:0  45:0  46:0  47:0
-7.4913 0:0.3244  1:0.38027  2:0.2298  3:0.049086  4:0.0067628  5:0.0096857  6:0.076434  7:0.43305  8:0.3358  9:0.11168  10:0.016177  11:0.026867  12:0.058778  13:0.36915  14:0.35922  15:0.12017  16:0.038372  17:0.054314  18:0.37939  19:0.47195  20:0.12164  21:0.015429  22:0.0072183  23:0.0043731  24:0  25:0  26:0  27:0  28:0  29:0  30:0  31:0  32:0  33:0  34:0  35:0  36:0  37:0  38:0  39:0  40:0  41:0  42:0  43:0  44:0  45:0  46:0  47:0
-9 0:0.22269  1:0.51579  2:0.23778  3:0.020279  4:0.0015672  5:0.0018934  6:0.30785  7:0.37699  8:0.22423  9:0.046221  10:0.025004  11:0.019707  12:0.10048  13:0.4343  14:0.29442  15:0.10767  16:0.032328  17:0.030803  18:0.22352  19:0.50525  20:0.25785  21:0.011135  22:0.0013613  23:0.00088239  24:0  25:0  26:0  27:0  28:0  29:0  30:0  31:0  32:0  33:0  34:0  35:0  36:0  37:0  38:0  39:0  40:0  41:0  42:0  43:0  44:0  45:0  46:0  47:0
