svm_type c_svc
kernel_type rbf
degree 3
gamma 0.5
nr_class 2
total_sv 636
rho 0.3995
label 0 1
probA -2.16
probB -0.099462
nr_sv 321 315
SV
9 0:0.21288  1:0.31523  2:0.28961  3:0.079017  4:0.048968  5:0.054294  6:0.36445  7:0.24857  8:0.12021  9:0.066647  10:0.095204  11:0.10492  12:0.39686  13:0.14716  14:0.096613  15:0.080878  16:0.1301  17:0.14839  18:0.25211  19:0.34463  20:0.20423  21:0.068754  22:0.065729  23:0.064553  24:0  25:0  26:0  27:0  28:0  29:0  30:0  31:0  32:0  33:0  34:0  35:0  36:0  37:0  38:0  39:0  40:0  41:0  42:0  43:0  44:0  45:0  46:0  47:0 
9 0:0.12296  1:0.46099  2:0.33259  3:0.07056  4:0.005238  5:0.0076621  6:0.3946  7:0.38012  8:0.1155  9:0.066702  10:0.017252  11:0.025828  12:0.4435  13:0.29175  14:0.14198  15:0.079336  16:0.016605  17:0.026834  18:0.10666  19:0.62737  20:0.18796  21:0.050671  22:0.0095369  23:0.017796  24:0  25:0  26:0  27:0  28:0  29:0  30:0  31:0  32:0  33:0  34:0  35:0  36:0  37:0  38:0  39:0  40:0  41:0  42:0  43:0  44:0  45:0  46:0  47:0 
9 0:0.23023  1:0.5155  2:0.20261  3:0.042298  4:0.0035397  5:0.0058254  6:0.35519  7:0.45718  8:0.10893  9:0.049007  10:0.010533  11:0.019158  12:0.23733  13:0.45149  14:0.19399  15:0.076583  16:0.011415  17:0.029191  18:0.17449  19:0.59766  20:0.19264  21:0.019831  22:0.0050674  23:0.010308  24:0  25:0  26:0  27:0  28:0  29:0  30:0  31:0  32:0  33:0  34:0  35:0  36:0  37:0  38:0  39:0  40:0  41:0  42:0  43:0  44:0  45:0  46:0  47:0 
9 0:0.23057  1:0.48432  2:0.22342  3:0.053785  4:0.003448  5:0.0044524  6:0.282  7:0.49207  8:0.16413  9:0.041452  10:0.0079329  11:0.012418  12:0.16618  13:0.41742  14:0.28411  15:0.087494  16:0.013723  17:0.031074  18:0.20599  19:0.55014  20:0.21675  21:0.014382  22:0.0044195  23:0.0083126  24:0  25:0  26:0  27:0  28:0  29:0  30:0  31:0  32:0  33:0  34:0  35:0  36:0  37:0  38:0  39:0  40:0  41:0  42:0  43:0  44:0  45:0  46:0  47:0 
9 0:0.12421  1:0.36628  2:0.37745  3:0.11285  4:0.0087141  5:0.010504  6:0.12211  7:0.47561  8:0.25786  9:0.096552  10:0.012216  11:0.035651  12:0.081235  13:0.40377  14:0.36269  15:0.094006  16:0.020696  17:0.037608  18:0.19611  19:0.36383  20:0.33434  21:0.077664  22:0.01097  23:0.017089  24:0  25:0  26:0  27:0  28:0  29:0  30:0  31:0  32:0  33:0  34:0  35:0  36:0  37:0  38:0  39:0  40:0  41:0  42:0  43:0  44:0  45:0  46:0  47:0 
9 0:0.14878  1:0.39719  2:0.37149  3:0.070734  4:0.0057345  5:0.0060749  6:0.078396  7:0.65083  8:0.19255  9:0.051398  10:0.0084332  11:0.018389  12:0.065157  13:0.41916  14:0.32934  15:0.1382  16:0.01808  17:0.030066  18:0.14854  19:0.49468  20:0.2703  21:0.070625  22:0.0082716  23:0.007591  24:0  25:0  26:0  27:0  28:0  29:0  30:0  31:0  32:0  33:0  34:0  35:0  36:0  37:0  38:0  39:0  40:0  41:0  42:0  43:0  44:0  45:0  46:0  47:0 
9 0:0.33464  1:0.61999  2:0.034884  3:0.0091534  4:0.00075326  5:0.00058497  6:0.11418  7:0.63617  8:0.23211  9:0.016877  10:0.00044356  11:0.0002227  12:0.10603  13:0.42275  14:0.25699  15:0.1395  16:0.028561  17:0.04617  18:0.049225  19:0.29075  20:0.49596  21:0.13902  22:0.012523  23:0.012519  24:0  25:0  26:0  27:0  28:0  29:0  30:0  31:0  32:0  33:0  34:0  35:0  36:0  37:0  38:0  39:0  40:0  41:0  42:0  43:0  44:0  45:0  46:0  47:0 
9 0:0.43948  1:0.50677  2:0.043984  3:0.0089407  4:0.0005257  5:0.00030586  6:0.13791  7:0.60451  8:0.23901  9:0.018014  10:0.00034075  11:0.00021737  12:0.1149  13:0.46139  14:0.23687  15:0.13382  16:0.016554  17:0.03648  18:0.10113  19:0.35723  20:0.43572  21:0.088948  22:0.0070321  23:0.0099385  24:0  25:0  26:0  27:0  28:0  29:0  30:0  31:0  32:0  33:0  34:0  35:0  36:0  37:0  38:0  39:0  40:0  41:0  42:0  43:0  44:0  45:0  46:0  47:0 
0.3344 0:0.24059  1:0.40445  2:0.32767  3:0.021166  4:0.0026555  5:0.0034581  6:0.082356  7:0.60335  8:0.26937  9:0.027303  10:0.0072698  11:0.010357  12:0.046628  13:0.5684  14:0.30501  15:0.053262  16:0.011297  17:0.015404  18:0.10003  19:0.64332  20:0.16584  21:0.067146  22:0.011767  23:0.011897  24:0  25:0  26:0  27:0  28:0  29:0  30:0  31:0  32:0  33:0  34:0  35:0  36:0  37:0  38:0  39:0  40:0  41:0  42:0  43:0  44:0  45:0  46:0  47:0 
9 0:0.19212  1:0.46784  2:0.28652  3:0.038188  4:0.0079107  5:0.0074306  6:0.12675  7:0.52473  8:0.24617  9:0.063574  10:0.017989  11:0.020782  12:0.033049  13:0.62383  14:0.26465  15:0.054127  16:0.011043  17:0.013305  18:0.21392  19:0.59265  20:0.13161  21:0.041933  22:0.0093151  23:0.010566  24:0  25:0  26:0  27:0  28:0  29:0  30:0  31:0  32:0  33:0  34:0  35:0  36:0  37:0  38:0  39:0  40:0  41:0  42:0  43:0  44:0  45:0  46:0  47:0 
9 0:0.11022  1:0.57049  2:0.22808  3:0.070583  4:0.010572  5:0.010062  6:0.1137  7:0.57913  8:0.24019  9:0.023543  10:0.025477  11:0.017961  12:0.098996  13:0.63963  14:0.20784  15:0.03723  16:0.008824  17:0.007482  18:0.19555  19:0.54287  20:0.20887  21:0.034685  22:0.011664  23:0.006352  24:0  25:0  26:0  27:0  28:0  29:0  30:0  31:0  32:0  33:0  34:0  35:0  36:0  37:0  38:0  39:0  40:0  41:0  42:0  43:0  44:0  45:0  46:0  47:0 
9 0:0.12431  1:0.38571  2:0.41381  3:0.050676  4:0.012326  5:0.013168  6:0.095216  7:0.43988  8:0.35796  9:0.048271  10:0.03134  11:0.027336  12:0.063441  13:0.4048  14:0.44891  15:0.06275  16:0.012204  17:0.0078985  18:0.20057  19:0.50374  20:0.24746  21:0.034331  22:0.0073249  23:0.0065697  24:0  25:0  26:0  27:0  28:0  29:0  30:0  31:0  32:0  33:0  34:0  35:0  36:0  37:0  38:0  39:0  40:0  41:0  42:0  43:0  44:0  45:0  46:0  47:0 
9 0:0.068831  1:0.53633  2:0.34383  3:0.025616  4:0.010959  5:0.014435  6:0.18721  7:0.442  8:0.23879  9:0.09216  10:0.0193  11:0.020537  12:0.10096  13:0.57051  14:0.25147  15:0.060881  16:0.0092087  17:0.0069676  18:0.1497  19:0.60918  20:0.19599  21:0.031364  22:0.0090205  23:0.004747  24:0  25:0  26:0  27:0  28:0  29:0  30:0  31:0  32:0  33:0  34:0  35:0  36:0  37:0  38:0  39:0  40:0  41:0  42:0  43:0  44:0  45:0  46:0  47:0 
9 0:0.1213  1:0.49077  2:0.33353  3:0.033736  4:0.0074469  5:0.01321  6:0.070694  7:0.44729  8:0.29672  9:0.12817  10:0.029853  11:0.02728  12:0.083021  13:0.48816  14:0.35172  15:0.062424  16:0.0073827  17:0.0072884  18:0.13357  19:0.56385  20:0.26012  21:0.029879  22:0.0066097  23:0.0059802  24:0  25:0  26:0  27:0  28:0  29:0  30:0  31:0  32:0  33:0  34:0  35:0  36:0  37:0  38:0  39:0  40:0  41:0  42:0  43:0  44:0  45:0  46:0  47:0 
0.20004 0:0.048408  1:0.44936  2:0.41394  3:0.05998  4:0.015254  5:0.013054  6:0.1145  7:0.33398  8:0.40418  9:0.084232  10:0.04238  11:0.020728  12:0.20236  13:0.38106  14:0.31087  15:0.08016  16:0.011714  17:0.013833  18:0.10832  19:0.53985  20:0.27964  21:0.054404  22:0.01006  23:0.0077187  24:0  25:0  26:0  27:0  28:0  29:0  30:0  31:0  32:0  33:0  34:0  35:0  36:0  37:0  38:0  39:0  40:0  41:0  42:0  43:0  44:0  45:0  46:0  47:0 
9 0:0.12509  1:0.68613  2:0.15209  3:0.031122  4:0.0020969  5:0.0034756  6:0.33427  7:0.56144  8:0.091769  9:0.0081992  10:0.0016648  11:0.0026571  12:0.24497  13:0.51836  14:0.18849  15:0.038107  16:0.003962  17:0.0061103  18:0.04457  19:0.63156  20:0.23272  21:0.073909  22:0.0070451  23:0.010192  24:0  25:0  26:0  27:0  28:0  29:0  30:0  31:0  32:0  33:0  34:0  35:0  36:0  37:0  38:0  39:0  40:0  41:0  42:0  43:0  44:0  45:0  46:0  47:0 
9 0:0.1142  1:0.70194  2:0.15751  3:0.023123  4:0.0011545  5:0.0020741  6:0.40605  7:0.51541  8:0.068636  9:0.0047475  10:0.0019561  11:0.0031966  12:0.30775  13:0.45677  14:0.19721  15:0.028361  16:0.004101  17:0.0058025  18:0.070922  19:0.56356  20:0.24778  21:0.096987  22:0.010017  23:0.010729  24:0  25:0  26:0  27:0  28:0  29:0  30:0  31:0  32:0  33:0  34:0  35:0  36:0  37:0  38:0  39:0  40:0  41:0  42:0  43:0  44:0  45:0  46:0  47:0 
1.959 0:0.20451  1:0.60753  2:0.17074  3:0.013736  4:0.0013961  5:0.0020955  6:0.45321  7:0.50864  8:0.036947  9:0.0009904  10:0.00012735  11:8.2609e-05  12:0.18283  13:0.6015  14:0.18127  15:0.021238  16:0.0055105  17:0.0076588  18:0.084742  19:0.36025  20:0.46539  21:0.06797  22:0.010983  23:0.010669  24:0  25:0  26:0  27:0  28:0  29:0  30:0  31:0  32:0  33:0  34:0  35:0  36:0  37:0  38:0  39:0  40:0  41:0  42:0  43:0  44:0  45:0  46:0  47:0 
9 0:0.15934  1:0.65269  2:0.15664  3:0.028193  4:0.0020384  5:0.0011011  6:0.14458  7:0.70586  8:0.13873  9:0.0055383  10:0.0034152  11:0.0018825  12:0.13634  13:0.54218  14:0.27747  15:0.029009  16:0.0079809  17:0.0070192  18:0.11341  19:0.46523  20:0.34758  21:0.048824  22:0.013333  23:0.011631  24:0  25:0  26:0  27:0  28:0  29:0  30:0  31:0  32:0  33:0  34:0  35:0  36:0  37:0  38:0  39:0  40:0  41:0  42:0  43:0  44:0  45:0  46:0  47:0 
9 0:0.30655  1:0.58101  2:0.097275  3:0.013456  4:0.00076197  5:0.00093992  6:0.24492  7:0.69235  8:0.058365  9:0.0039208  10:0.00031075  11:0.00013565  12:0.099425  13:0.61645  14:0.17473  15:0.090265  16:0.0077201  17:0.011419  18:0.17913  19:0.39426  20:0.32111  21:0.082209  22:0.009911  23:0.013373  24:0  25:0  26:0  27:0  28:0  29:0  30:0  31:0  32:0  33:0  34:0  35:0  36:0  37:0  38:0  39:0  40:0  41:0  42:0  43:0  44:0  45:0  46:0  47:0 
9 0:0.30779  1:0.56459  2:0.11191  3:0.013652  4:0.00088327  5:0.0011844  6:0.27929  7:0.65841  8:0.057667  9:0.0042164  10:0.00029497  11:0.00012766  12:0.084757  13:0.66791  14:0.15454  15:0.071377  16:0.0085562  17:0.012866  18:0.14325  19:0.41244  20:0.33779  21:0.074268  22:0.013155  23:0.019102  24:0  25:0  26:0  27:0  28:0  29:0  30:0  31:0  32:0  33:0  34:0  35:0  36:0  37:0  38:0  39:0  40:0  41:0  42:0  43:0  44:0  45:0  46:0  47:0 
9 0:0.23539  1:0.36158  2:0.37617  3:0.0201  4:0.0026326  5:0.0041253  6:0.53224  7:0.40929  8:0.051325  9:0.0062706  10:0.00056427  11:0.00030932  12:0.13697  13:0.63833  14:0.18941  15:0.020529  16:0.006259  17:0.0084947  18:0.22938  19:0.51647  20:0.19134  21:0.042985  22:0.0092868  23:0.010533  24:0  25:0  26:0  27:0  28:0  29:0  30:0  31:0  32:0  33:0  34:0  35:0  36:0  37:0  38:0  39:0  40:0  41:0  42:0  43:0  44:0  45:0  46:0  47:0 
9 0:0.16871  1:0.54837  2:0.25728  3:0.022448  4:0.0020808  5:0.0011172  6:0.25623  7:0.61326  8:0.12157  9:0.0057036  10:0.0022368  11:0.00099294  12:0.088218  13:0.67511  14:0.20264  15:0.023769  16:0.0045782  17:0.0056832  18:0.13101  19:0.54247  20:0.28741  21:0.029705  22:0.0046218  23:0.0047835  24:0  25:0  26:0  27:0  28:0  29:0  30:0  31:0  32:0  33:0  34:0  35:0  36:0  37:0  38:0  39:0  40:0  41:0  42:0  43:0  44:0  45:0  46:0  47:0 
9 0:0.18234  1:0.52256  2:0.2632  3:0.028434  4:0.0023674  5:0.0010961  6:0.36607  7:0.3097  8:0.29551  9:0.019375  10:0.0062285  11:0.0031186  12:0.11717  13:0.5764  14:0.25155  15:0.042241  16:0.0060399  17:0.0065958  18:0.11432  19:0.56591  20:0.273  21:0.037404  22:0.003558  23:0.0058078  24:0  25:0  26:0  27:0  28:0  29:0  30:0  31:0  32:0  33:0  34:0  35:0  36:0  37:0  38:0  39:0  40:0  41:0  42:0  43:0  44:0  45:0  46:0  47:0 
9 0:0.16681  1:0.49071  2:0.26488  3:0.055771  4:0.012133  5:0.0096838  6:0.18484  7:0.36229  8:0.24602  9:0.10149  10:0.053082  11:0.052282  12:0.1033  13:0.61026  14:0.23132  15:0.045166  16:0.004045  17:0.0059031  18:0.084088  19:0.68859  20:0.19985  21:0.02069  22:0.003103  23:0.0036765  24:0  25:0  26:0  27:0  28:0  29:0  30:0  31:0  32:0  33:0  34:0  35:0  36:0  37:0  38:0  39:0  40:0  41:0  42:0  43:0  44:0  45:0  46:0  47:0 
9 0:0.15626  1:0.44861  2:0.26082  3:0.083852  4:0.017844  5:0.032614  6:0.099195  7:0.52425  8:0.19178  9:0.079509  10:0.049603  11:0.055664  12:0.12078  13:0.53998  14:0.2849  15:0.038225  16:0.0062945  17:0.0098086  18:0.17843  19:0.60741  20:0.13287  21:0.064884  22:0.006852  23:0.0095514  24:0  25:0  26:0  27:0  28:0  29:0  30:0  31:0  32:0  33:0  34:0  35:0  36:0  37:0  38:0  39:0  40:0  41:0  42:0  43:0  44:0  45:0  46:0  47:0 
9 0:0.10169  1:0.57231  2:0.21199  3:0.074748  4:0.012695  5:0.026567  6:0.064413  7:0.47389  8:0.25637  9:0.094241  10:0.067899  11:0.043182  12:0.15277  13:0.49094  14:0.26156  15:0.069084  16:0.012632  17:0.013023  18:0.14597  19:0.62266  20:0.17224  21:0.051824  22:0.0036336  23:0.0036662  24:0  25:0  26:0  27:0  28:0  29:0  30:0  31:0  32:0  33:0  34:0  35:0  36:0  37:0  38:0  39:0  40:0  41:0  42:0  43:0  44:0  45:0  46:0  47:0 
9 0:0.15146  1:0.41909  2:0.30185  3:0.089119  4:0.013242  5:0.025232  6:0.07197  7:0.36849  8:0.39775  9:0.085818  10:0.05054  11:0.025428  12:0.10276  13:0.6879  14:0.1381  15:0.050472  16:0.011671  17:0.009091  18:0.16419  19:0.4835  20:0.282  21:0.062638  22:0.0041857  23:0.0034791  24:0  25:0  26:0  27:0  28:0  29:0  30:0  31:0  32:0  33:0  34:0  35:0  36:0  37:0  38:0  39:0  40:0  41:0  42:0  43:0  44:0  45:0  46:0  47:0 
9 0:0.066922  1:0.36572  2:0.4705  3:0.064943  4:0.012116  5:0.019803  6:0.059261  7:0.29314  8:0.35402  9:0.20204  10:0.048953  11:0.04259  12:0.071838  13:0.60809  14:0.28185  15:0.026402  16:0.0069209  17:0.0048942  18:0.093986  19:0.42825  20:0.42361  21:0.041833  22:0.0057984  23:0.0065199  24:0  25:0  26:0  27:0  28:0  29:0  30:0  31:0  32:0  33:0  34:0  35:0  36:0  37:0  38:0  39:0  40:0  41:0  42:0  43:0  44:0  45:0  46:0  47:0 
9 0:0.10658  1:0.42545  2:0.40266  3:0.019829  4:0.01766  5:0.027822  6:0.1136  7:0.3665  8:0.33079  9:0.10357  10:0.05465  11:0.030892  12:0.16055  13:0.57488  14:0.21717  15:0.035531  16:0.0057906  17:0.0060767  18:0.13528  19:0.46311  20:0.35167  21:0.032279  22:0.0079721  23:0.0096836  24:0  25:0  26:0  27:0  28:0  29:0  30:0  31:0  32:0  33:0  34:0  35:0  36:0  37:0  38:0  39:0  40:0  41:0  42:0  43:0  44:0  45:0  46:0  47:0 
6.5679 0:0.1567  1:0.23607  2:0.46532  3:0.088726  4:0.016214  5:0.036971  6:0.064201  7:0.40933  8:0.3304  9:0.097132  10:0.052706  11:0.046225  12:0.13543  13:0.69444  14:0.13785  15:0.020293  16:0.0065816  17:0.0054016  18:0.28883  19:0.47319  20:0.1742  21:0.048325  22:0.007455  23:0.0079903  24:0  25:0  26:0  27:0  28:0  29:0  30:0  31:0  32:0  33:0  34:0  35:0  36:0  37:0  38:0  39:0  40:0  41:0  42:0  43:0  44:0  45:0  46:0  47:0 
9 0:0.0407  1:0.58925  2:0.26658  3:0.079031  4:0.0096591  5:0.014781  6:0.1323  7:0.41683  8:0.33968  9:0.041817  10:0.031436  11:0.037935  12:0.14403  13:0.57662  14:0.20195  15:0.064092  16:0.0059416  17:0.007369  18:0.054385  19:0.72688  20:0.1641  21:0.046253  22:0.0038107  23:0.0045704  24:0  25:0  26:0  27:0  28:0  29:0  30:0  31:0  32:0  33:0  34:0  35:0  36:0  37:0  38:0  39:0  40:0  41:0  42:0  43:0  44:0  45:0  46:0  47:0 
9 0:0.038643  1:0.69832  2:0.15869  3:0.082147  4:0.0097594  5:0.012441  6:0.088537  7:0.42434  8:0.37543  9:0.033393  10:0.041782  11:0.036516  12:0.09263  13:0.54457  14:0.30279  15:0.043816  16:0.0083288  17:0.0078667  18:0.063715  19:0.78462  20:0.12523  21:0.01887  22:0.0038763  23:0.0036838  24:0  25:0  26:0  27:0  28:0  29:0  30:0  31:0  32:0  33:0  34:0  35:0  36:0  37:0  38:0  39:0  40:0  41:0  42:0  43:0  44:0  45:0  46:0  47:0 
9 0:0.088126  1:0.58449  2:0.23625  3:0.057224  4:0.012294  5:0.021619  6:0.085133  7:0.46714  8:0.34513  9:0.051175  10:0.029799  11:0.021625  12:0.11255  13:0.63258  14:0.20211  15:0.034855  16:0.0080469  17:0.009865  18:0.061013  19:0.72975  20:0.14367  21:0.051285  22:0.0070423  23:0.007234  24:0  25:0  26:0  27:0  28:0  29:0  30:0  31:0  32:0  33:0  34:0  35:0  36:0  37:0  38:0  39:0  40:0  41:0  42:0  43:0  44:0  45:0  46:0  47:0 
9 0:0.34243  1:0.55718  2:0.080427  3:0.0082995  4:0.0047326  5:0.0069332  6:0.45312  7:0.42293  8:0.06426  9:0.031261  10:0.010617  11:0.017809  12:0.19137  13:0.36302  14:0.32177  15:0.066523  16:0.025103  17:0.032221  18:0.030266  19:0.62949  20:0.20725  21:0.099296  22:0.016161  23:0.017543  24:0  25:0  26:0  27:0  28:0  29:0  30:0  31:0  32:0  33:0  34:0  35:0  36:0  37:0  38:0  39:0  40:0  41:0  42:0  43:0  44:0  45:0  46:0  47:0 
2.4943 0:0.45161  1:0.41927  2:0.10936  3:0.015336  4:0.0019956  5:0.0024274  6:0.63753  7:0.24377  8:0.095904  9:0.017813  10:0.0021848  11:0.0027914  12:0.13839  13:0.57007  14:0.21541  15:0.040663  16:0.017155  17:0.018315  18:0.046043  19:0.45874  20:0.42396  21:0.055252  22:0.0053955  23:0.010609  24:0  25:0  26:0  27:0  28:0  29:0  30:0  31:0  32:0  33:0  34:0  35:0  36:0  37:0  38:0  39:0  40:0  41:0  42:0  43:0  44:0  45:0  46:0  47:0 
0.082186 0:0.24878  1:0.58633  2:0.15933  3:0.0054721  4:5.4048e-05  5:2.9329e-05  6:0.45487  7:0.48619  8:0.047606  9:0.0041718  10:0.0033866  11:0.0037694  12:0.051807  13:0.5111  14:0.3095  15:0.099551  16:0.014484  17:0.013553  18:0.050196  19:0.52294  20:0.34738  21:0.062751  22:0.010161  23:0.0065743  24:0  25:0  26:0  27:0  28:0  29:0  30:0  31:0  32:0  33:0  34:0  35:0  36:0  37:0  38:0  39:0  40:0  41:0  42:0  43:0  44:0  45:0  46:0  47:0 
9 0:0.082849  1:0.64396  2:0.25967  3:0.011716  4:0.00088764  5:0.00091598  6:0.63663  7:0.25938  8:0.057936  9:0.023135  10:0.0099096  11:0.013007  12:0.043094  13:0.5524  14:0.30308  15:0.074844  16:0.012263  17:0.014324  18:0.047182  19:0.6705  20:0.17896  21:0.087868  22:0.0089027  23:0.0065835  24:0  25:0  26:0  27:0  28:0  29:0  30:0  31:0  32:0  33:0  34:0  35:0  36:0  37:0  38:0  39:0  40:0  41:0  42:0  43:0  44:0  45:0  46:0  47:0 
9 0:0.10686  1:0.67384  2:0.18702  3:0.023167  4:0.0043892  5:0.0047224  6:0.51053  7:0.32668  8:0.080967  9:0.04522  10:0.021665  11:0.01494  12:0.04611  13:0.41921  14:0.43283  15:0.07385  16:0.014256  17:0.013738  18:0.030447  19:0.57047  20:0.32783  21:0.055732  22:0.0093283  23:0.0061956  24:0  25:0  26:0  27:0  28:0  29:0  30:0  31:0  32:0  33:0  34:0  35:0  36:0  37:0  38:0  39:0  40:0  41:0  42:0  43:0  44:0  45:0  46:0  47:0 
9 0:0.07217  1:0.62249  2:0.26676  3:0.030798  4:0.0050167  5:0.0027595  6:0.21649  7:0.5582  8:0.19529  9:0.011396  10:0.011627  11:0.006995  12:0.039321  13:0.46597  14:0.43203  15:0.051926  16:0.0042441  17:0.0065094  18:0.10612  19:0.70084  20:0.13468  21:0.05008  22:0.0046086  23:0.0036697  24:0  25:0  26:0  27:0  28:0  29:0  30:0  31:0  32:0  33:0  34:0  35:0  36:0  37:0  38:0  39:0  40:0  41:0  42:0  43:0  44:0  45:0  46:0  47:0 
9 0:0.073801  1:0.66231  2:0.21004  3:0.042136  4:0.0079226  5:0.0037872  6:0.24846  7:0.563  8:0.16566  9:0.010304  10:0.0072804  11:0.0052988  12:0.059828  13:0.59172  14:0.279  15:0.054843  16:0.0060411  17:0.0085625  18:0.079689  19:0.66157  20:0.20383  21:0.045589  22:0.0040234  23:0.0053011  24:0  25:0  26:0  27:0  28:0  29:0  30:0  31:0  32:0  33:0  34:0  35:0  36:0  37:0  38:0  39:0  40:0  41:0  42:0  43:0  44:0  45:0  46:0  47:0 
9 0:0.057178  1:0.62279  2:0.2233  3:0.06923  4:0.0098874  5:0.01761  6:0.064614  7:0.50737  8:0.24058  9:0.076006  10:0.066734  11:0.044694  12:0.068636  13:0.43339  14:0.39454  15:0.085733  16:0.0078623  17:0.0098379  18:0.048397  19:0.613  20:0.2346  21:0.094434  22:0.0051649  23:0.0043987  24:0  25:0  26:0  27:0  28:0  29:0  30:0  31:0  32:0  33:0  34:0  35:0  36:0  37:0  38:0  39:0  40:0  41:0  42:0  43:0  44:0  45:0  46:0  47:0 
9 0:0.050279  1:0.60788  2:0.25997  3:0.055155  4:0.0097377  5:0.016984  6:0.05457  7:0.53707  8:0.2316  9:0.071808  10:0.059995  11:0.044955  12:0.1056  13:0.31113  14:0.49227  15:0.071671  16:0.010205  17:0.0091235  18:0.034746  19:0.69708  20:0.1813  21:0.080284  22:0.0027452  23:0.0038496  24:0  25:0  26:0  27:0  28:0  29:0  30:0  31:0  32:0  33:0  34:0  35:0  36:0  37:0  38:0  39:0  40:0  41:0  42:0  43:0  44:0  45:0  46:0  47:0 
9 0:0.078339  1:0.44167  2:0.41018  3:0.045808  4:0.011052  5:0.012948  6:0.10115  7:0.45729  8:0.26644  9:0.066691  10:0.060158  11:0.048267  12:0.1104  13:0.6222  14:0.19592  15:0.05002  16:0.010347  17:0.011111  18:0.090172  19:0.6621  20:0.18297  21:0.051885  22:0.0074935  23:0.005371  24:0  25:0  26:0  27:0  28:0  29:0  30:0  31:0  32:0  33:0  34:0  35:0  36:0  37:0  38:0  39:0  40:0  41:0  42:0  43:0  44:0  45:0  46:0  47:0 
8.6586 0:0.044838  1:0.56227  2:0.28853  3:0.086337  4:0.0065822  5:0.011446  6:0.065185  7:0.50517  8:0.20936  9:0.09671  10:0.077776  11:0.045796  12:0.058752  13:0.46353  14:0.41109  15:0.056901  16:0.0042549  17:0.0054734  18:0.047641  19:0.7564  20:0.15133  21:0.031333  22:0.0067791  23:0.0065256  24:0  25:0  26:0  27:0  28:0  29:0  30:0  31:0  32:0  33:0  34:0  35:0  36:0  37:0  38:0  39:0  40:0  41:0  42:0  43:0  44:0  45:0  46:0  47:0 
9 0:0.05414  1:0.55728  2:0.29265  3:0.078633  4:0.0074152  5:0.0098867  6:0.077679  7:0.46646  8:0.26585  9:0.072351  10:0.066329  11:0.051336  12:0.046989  13:0.5163  14:0.31818  15:0.10519  16:0.0066259  17:0.0067137  18:0.1456  19:0.59343  20:0.21917  21:0.028969  22:0.0056494  23:0.0071813  24:0  25:0  26:0  27:0  28:0  29:0  30:0  31:0  32:0  33:0  34:0  35:0  36:0  37:0  38:0  39:0  40:0  41:0  42:0  43:0  44:0  45:0  46:0  47:0 
9 0:0.14202  1:0.39326  2:0.34902  3:0.09124  4:0.010844  5:0.013619  6:0.089054  7:0.4298  8:0.30555  9:0.066292  10:0.066839  11:0.042465  12:0.072487  13:0.53211  14:0.27376  15:0.10358  16:0.0099651  17:0.0080996  18:0.1591  19:0.52775  20:0.27917  21:0.023586  22:0.0052492  23:0.0051405  24:0  25:0  26:0  27:0  28:0  29:0  30:0  31:0  32:0  33:0  34:0  35:0  36:0  37:0  38:0  39:0  40:0  41:0  42:0  43:0  44:0  45:0  46:0  47:0 
9 0:0.13071  1:0.4827  2:0.3083  3:0.058665  4:0.0094416  5:0.010189  6:0.11861  7:0.39736  8:0.33714  9:0.054509  10:0.053801  11:0.038581  12:0.062898  13:0.49774  14:0.35091  15:0.067347  16:0.0088201  17:0.012282  18:0.074502  19:0.62087  20:0.27789  21:0.017421  22:0.0047811  23:0.0045385  24:0  25:0  26:0  27:0  28:0  29:0  30:0  31:0  32:0  33:0  34:0  35:0  36:0  37:0  38:0  39:0  40:0  41:0  42:0  43:0  44:0  45:0  46:0  47:0 
9 0:0.089184  1:0.53928  2:0.241  3:0.10499  4:0.010544  5:0.015  6:0.075347  7:0.50098  8:0.2352  9:0.063297  10:0.059716  11:0.065461  12:0.12089  13:0.41297  14:0.39971  15:0.047712  16:0.0077175  17:0.011  18:0.082215  19:0.56228  20:0.2949  21:0.04499  22:0.0076472  23:0.007967  24:0  25:0  26:0  27:0  28:0  29:0  30:0  31:0  32:0  33:0  34:0  35:0  36:0  37:0  38:0  39:0  40:0  41:0  42:0  43:0  44:0  45:0  46:0  47:0 
9 0:0.10216  1:0.54628  2:0.21314  3:0.1072  4:0.012895  5:0.018321  6:0.096021  7:0.37002  8:0.35528  9:0.067203  10:0.06347  11:0.048003  12:0.080542  13:0.49715  14:0.36268  15:0.033851  16:0.0092251  17:0.016548  18:0.12487  19:0.45717  20:0.3506  21:0.051756  22:0.0070839  23:0.0085173  24:0  25:0  26:0  27:0  28:0  29:0  30:0  31:0  32:0  33:0  34:0  35:0  36:0  37:0  38:0  39:0  40:0  41:0  42:0  43:0  44:0  45:0  46:0  47:0 
9 0:0.12664  1:0.51644  2:0.30124  3:0.036316  4:0.0094149  5:0.0099491  6:0.088715  7:0.38262  8:0.34838  9:0.062664  10:0.067229  11:0.050385  12:0.05097  13:0.58371  14:0.27839  15:0.070313  16:0.009252  17:0.0073581  18:0.11694  19:0.72185  20:0.1191  21:0.033128  22:0.0050356  23:0.0039484  24:0  25:0  26:0  27:0  28:0  29:0  30:0  31:0  32:0  33:0  34:0  35:0  36:0  37:0  38:0  39:0  40:0  41:0  42:0  43:0  44:0  45:0  46:0  47:0 
9 0:0.1765  1:0.58268  2:0.19592  3:0.024737  4:0.009159  5:0.011  6:0.1064  7:0.35153  8:0.30407  9:0.10762  10:0.078358  11:0.052009  12:0.044773  13:0.643  14:0.2552  15:0.045979  16:0.0058152  17:0.0052326  18:0.17592  19:0.68108  20:0.10279  21:0.031889  22:0.0048489  23:0.0034722  24:0  25:0  26:0  27:0  28:0  29:0  30:0  31:0  32:0  33:0  34:0  35:0  36:0  37:0  38:0  39:0  40:0  41:0  42:0  43:0  44:0  45:0  46:0  47:0 
9 0:0.12587  1:0.53801  2:0.24801  3:0.064281  4:0.012185  5:0.01164  6:0.19129  7:0.31331  8:0.26396  9:0.11819  10:0.071924  11:0.041323  12:0.060794  13:0.53877  14:0.30683  15:0.078597  16:0.0089918  17:0.0060186  18:0.14934  19:0.55646  20:0.21773  21:0.067301  22:0.0050056  23:0.0041697  24:0  25:0  26:0  27:0  28:0  29:0  30:0  31:0  32:0  33:0  34:0  35:0  36:0  37:0  38:0  39:0  40:0  41:0  42:0  43:0  44:0  45:0  46:0  47:0 
9 0:0.17258  1:0.58153  2:0.20287  3:0.031027  4:0.0048035  5:0.0071937  6:0.14153  7:0.35727  8:0.33149  9:0.060703  10:0.074418  11:0.034582  12:0.039928  13:0.47534  14:0.44415  15:0.029312  16:0.0048292  17:0.0064402  18:0.13034  19:0.52672  20:0.32239  21:0.014148  22:0.0032751  23:0.0031197  24:0  25:0  26:0  27:0  28:0  29:0  30:0  31:0  32:0  33:0  34:0  35:0  36:0  37:0  38:0  39:0  40:0  41:0  42:0  43:0  44:0  45:0  46:0  47:0 
9 0:0.18725  1:0.57351  2:0.16331  3:0.063065  4:0.0052707  5:0.0075835  6:0.10026  7:0.52196  8:0.23704  9:0.042645  10:0.062485  11:0.035612  12:0.067125  13:0.51202  14:0.37117  15:0.028127  16:0.0075152  17:0.014044  18:0.19448  19:0.53819  20:0.19834  21:0.06004  22:0.0036731  23:0.0052739  24:0  25:0  26:0  27:0  28:0  29:0  30:0  31:0  32:0  33:0  34:0  35:0  36:0  37:0  38:0  39:0  40:0  41:0  42:0  43:0  44:0  45:0  46:0  47:0 
9 0:0.046661  1:0.31099  2:0.50577  3:0.098846  4:0.016153  5:0.021576  6:0.099863  7:0.28943  8:0.27053  9:0.10188  10:0.13846  11:0.099837  12:0.1266  13:0.41091  14:0.39852  15:0.040183  16:0.010729  17:0.013066  18:0.044878  19:0.46302  20:0.38262  21:0.06942  22:0.020742  23:0.019315  24:0  25:0  26:0  27:0  28:0  29:0  30:0  31:0  32:0  33:0  34:0  35:0  36:0  37:0  38:0  39:0  40:0  41:0  42:0  43:0  44:0  45:0  46:0  47:0 
8.1417 0:0.19239  1:0.28084  2:0.3332  3:0.10701  4:0.036617  5:0.04995  6:0.34523  7:0.49485  8:0.068939  9:0.031632  10:0.020039  11:0.039302  12:0.12753  13:0.18925  14:0.54308  15:0.04524  16:0.041348  17:0.053549  18:0.047213  19:0.29324  20:0.33438  21:0.13064  22:0.085551  23:0.10897  24:0  25:0  26:0  27:0  28:0  29:0  30:0  31:0  32:0  33:0  34:0  35:0  36:0  37:0  38:0  39:0  40:0  41:0  42:0  43:0  44:0  45:0  46:0  47:0 
9 0:0.23375  1:0.38552  2:0.23242  3:0.082538  4:0.027886  5:0.037881  6:0.39624  7:0.46106  8:0.073542  9:0.02754  10:0.012392  11:0.029223  12:0.1148  13:0.16013  14:0.57646  15:0.047942  16:0.043938  17:0.056734  18:0.060125  19:0.33828  20:0.30507  21:0.12103  22:0.076519  23:0.098984  24:0  25:0  26:0  27:0  28:0  29:0  30:0  31:0  32:0  33:0  34:0  35:0  36:0  37:0  38:0  39:0  40:0  41:0  42:0  43:0  44:0  45:0  46:0  47:0 
9 0:0.12924  1:0.60595  2:0.14399  3:0.099624  4:0.0085838  5:0.012607  6:0.068032  7:0.5367  8:0.26711  9:0.04746  10:0.048058  11:0.032641  12:0.076481  13:0.56138  14:0.27786  15:0.069894  16:0.0071151  17:0.0072714  18:0.077053  19:0.69118  20:0.15523  21:0.064009  22:0.0059676  23:0.0065614  24:0  25:0  26:0  27:0  28:0  29:0  30:0  31:0  32:0  33:0  34:0  35:0  36:0  37:0  38:0  39:0  40:0  41:0  42:0  43:0  44:0  45:0  46:0  47:0 
6.1553 0:0.072223  1:0.6259  2:0.20502  3:0.078679  4:0.0064426  5:0.011738  6:0.11484  7:0.50049  8:0.27887  9:0.040207  10:0.040765  11:0.024824  12:0.085105  13:0.5948  14:0.23078  15:0.077382  16:0.0059924  17:0.0059373  18:0.06019  19:0.5491  20:0.29044  21:0.083252  22:0.010043  23:0.0069749  24:0  25:0  26:0  27:0  28:0  29:0  30:0  31:0  32:0  33:0  34:0  35:0  36:0  37:0  38:0  39:0  40:0  41:0  42:0  43:0  44:0  45:0  46:0  47:0 
9 0:0.11976  1:0.32974  2:0.47911  3:0.054019  4:0.0075119  5:0.009858  6:0.079745  7:0.48134  8:0.24084  9:0.08767  10:0.074268  11:0.036137  12:0.047147  13:0.52271  14:0.35165  15:0.058749  16:0.0094831  17:0.010257  18:0.15006  19:0.28055  20:0.48775  21:0.070781  22:0.0058043  23:0.0050616  24:0  25:0  26:0  27:0  28:0  29:0  30:0  31:0  32:0  33:0  34:0  35:0  36:0  37:0  38:0  39:0  40:0  41:0  42:0  43:0  44:0  45:0  46:0  47:0 
9 0:0.12978  1:0.50102  2:0.26759  3:0.083608  4:0.0087775  5:0.0092281  6:0.11894  7:0.38975  8:0.2982  9:0.10571  10:0.055278  11:0.032114  12:0.033063  13:0.5342  14:0.34027  15:0.068062  16:0.011574  17:0.012839  18:0.16894  19:0.51204  20:0.25179  21:0.056262  22:0.0063198  23:0.0046508  24:0  25:0  26:0  27:0  28:0  29:0  30:0  31:0  32:0  33:0  34:0  35:0  36:0  37:0  38:0  39:0  40:0  41:0  42:0  43:0  44:0  45:0  46:0  47:0 
9 0:0.074348  1:0.56327  2:0.25359  3:0.085463  4:0.012047  5:0.011282  6:0.12512  7:0.33399  8:0.30334  9:0.14156  10:0.052106  11:0.043876  12:0.07837  13:0.53749  14:0.2795  15:0.081508  16:0.011267  17:0.011872  18:0.09012  19:0.68262  20:0.18038  21:0.035832  22:0.0060914  23:0.0049504  24:0  25:0  26:0  27:0  28:0  29:0  30:0  31:0  32:0  33:0  34:0  35:0  36:0  37:0  38:0  39:0  40:0  41:0  42:0  43:0  44:0  45:0  46:0  47:0 
9 0:0.036078  1:0.6062  2:0.28052  3:0.061931  4:0.0059731  5:0.0093003  6:0.17725  7:0.36313  8:0.17332  9:0.15597  10:0.078464  11:0.051866  12:0.23837  13:0.41532  14:0.26178  15:0.061348  16:0.010194  17:0.012984  18:0.090483  19:0.37472  20:0.41801  21:0.106  22:0.0063447  23:0.0044417  24:0  25:0  26:0  27:0  28:0  29:0  30:0  31:0  32:0  33:0  34:0  35:0  36:0  37:0  38:0  39:0  40:0  41:0  42:0  43:0  44:0  45:0  46:0  47:0 
9 0:0.056889  1:0.65603  2:0.21886  3:0.04461  4:0.013586  5:0.01003  6:0.076246  7:0.33018  8:0.35009  9:0.13231  10:0.067121  11:0.04405  12:0.13037  13:0.57152  14:0.20657  15:0.071607  16:0.008731  17:0.011206  18:0.075454  19:0.40122  20:0.38838  21:0.12356  22:0.0064784  23:0.0049087  24:0  25:0  26:0  27:0  28:0  29:0  30:0  31:0  32:0  33:0  34:0  35:0  36:0  37:0  38:0  39:0  40:0  41:0  42:0  43:0  44:0  45:0  46:0  47:0 
9 0:0.0758  1:0.47779  2:0.37321  3:0.052021  4:0.012257  5:0.0089213  6:0.074413  7:0.42886  8:0.32292  9:0.078354  10:0.05752  11:0.037932  12:0.03576  13:0.65537  14:0.23461  15:0.061706  16:0.0070072  17:0.0055474  18:0.089948  19:0.34756  20:0.41617  21:0.13331  22:0.0075367  23:0.0054741  24:0  25:0  26:0  27:0  28:0  29:0  30:0  31:0  32:0  33:0  34:0  35:0  36:0  37:0  38:0  39:0  40:0  41:0  42:0  43:0  44:0  45:0  46:0  47:0 
9 0:0.066648  1:0.58516  2:0.29274  3:0.039587  4:0.0083464  5:0.0075182  6:0.086884  7:0.50403  8:0.27299  9:0.051267  10:0.056287  11:0.028547  12:0.11029  13:0.58406  14:0.25515  15:0.0389  16:0.0056285  17:0.0059614  18:0.076154  19:0.4565  20:0.31728  21:0.13361  22:0.00886  23:0.0075936  24:0  25:0  26:0  27:0  28:0  29:0  30:0  31:0  32:0  33:0  34:0  35:0  36:0  37:0  38:0  39:0  40:0  41:0  42:0  43:0  44:0  45:0  46:0  47:0 
9 0:0.044774  1:0.57096  2:0.30862  3:0.058622  4:0.008483  5:0.0085452  6:0.083254  7:0.47604  8:0.2876  9:0.048013  10:0.064639  11:0.040454  12:0.073073  13:0.58214  14:0.2794  15:0.055327  16:0.0055201  17:0.0045393  18:0.086432  19:0.51572  20:0.26554  21:0.1176  22:0.0095554  23:0.005161  24:0  25:0  26:0  27:0  28:0  29:0  30:0  31:0  32:0  33:0  34:0  35:0  36:0  37:0  38:0  39:0  40:0  41:0  42:0  43:0  44:0  45:0  46:0  47:0 
9 0:0.11905  1:0.55485  2:0.28299  3:0.031487  4:0.0060656  5:0.0055507  6:0.14182  7:0.34753  8:0.34282  9:0.069722  10:0.068011  11:0.030094  12:0.22166  13:0.36087  14:0.27382  15:0.11791  16:0.013966  17:0.011772  18:0.060481  19:0.45854  20:0.41597  21:0.053282  22:0.006626  23:0.0051064  24:0  25:0  26:0  27:0  28:0  29:0  30:0  31:0  32:0  33:0  34:0  35:0  36:0  37:0  38:0  39:0  40:0  41:0  42:0  43:0  44:0  45:0  46:0  47:0 
9 0:0.15429  1:0.51423  2:0.28745  3:0.032018  4:0.0065624  5:0.0054577  6:0.096311  7:0.4431  8:0.31185  9:0.055925  10:0.047803  11:0.045014  12:0.17841  13:0.3857  14:0.33198  15:0.078035  16:0.0098741  17:0.015993  18:0.070809  19:0.29242  20:0.51128  21:0.11283  22:0.0074157  23:0.0052504  24:0  25:0  26:0  27:0  28:0  29:0  30:0  31:0  32:0  33:0  34:0  35:0  36:0  37:0  38:0  39:0  40:0  41:0  42:0  43:0  44:0  45:0  46:0  47:0 
9 0:0.14144  1:0.52561  2:0.2689  3:0.04214  4:0.011237  5:0.010675  6:0.17361  7:0.33676  8:0.29208  9:0.092144  10:0.062059  11:0.043342  12:0.059244  13:0.69347  14:0.18829  15:0.041747  16:0.0062872  17:0.010966  18:0.12395  19:0.46897  20:0.36614  21:0.02855  22:0.0061161  23:0.0062791  24:0  25:0  26:0  27:0  28:0  29:0  30:0  31:0  32:0  33:0  34:0  35:0  36:0  37:0  38:0  39:0  40:0  41:0  42:0  43:0  44:0  45:0  46:0  47:0 
9 0:0.14409  1:0.51573  2:0.29696  3:0.025783  4:0.0076172  5:0.0098212  6:0.082836  7:0.33107  8:0.40384  9:0.082212  10:0.05843  11:0.04161  12:0.07313  13:0.52359  14:0.33277  15:0.047247  16:0.0099095  17:0.013356  18:0.11079  19:0.55296  20:0.29986  21:0.028225  22:0.0049754  23:0.0031931  24:0  25:0  26:0  27:0  28:0  29:0  30:0  31:0  32:0  33:0  34:0  35:0  36:0  37:0  38:0  39:0  40:0  41:0  42:0  43:0  44:0  45:0  46:0  47:0 
9 0:0.1057  1:0.58869  2:0.27844  3:0.017204  4:0.0036581  5:0.006316  6:0.056397  7:0.41526  8:0.3616  9:0.070221  10:0.062836  11:0.033689  12:0.065819  13:0.47714  14:0.39523  15:0.045083  16:0.0096704  17:0.0070668  18:0.04489  19:0.62199  20:0.28217  21:0.043921  22:0.0051922  23:0.0018398  24:0  25:0  26:0  27:0  28:0  29:0  30:0  31:0  32:0  33:0  34:0  35:0  36:0  37:0  38:0  39:0  40:0  41:0  42:0  43:0  44:0  45:0  46:0  47:0 
9 0:0.19448  1:0.56761  2:0.19724  3:0.02947  4:0.0041171  5:0.0070854  6:0.15965  7:0.39336  8:0.28539  9:0.059635  10:0.058375  11:0.043591  12:0.080737  13:0.49193  14:0.35566  15:0.052359  16:0.012278  17:0.0070355  18:0.12237  19:0.4754  20:0.34802  21:0.04516  22:0.0063443  23:0.002707  24:0  25:0  26:0  27:0  28:0  29:0  30:0  31:0  32:0  33:0  34:0  35:0  36:0  37:0  38:0  39:0  40:0  41:0  42:0  43:0  44:0  45:0  46:0  47:0 
9 0:0.22621  1:0.47069  2:0.25143  3:0.038968  4:0.0049258  5:0.0077733  6:0.10605  7:0.62808  8:0.16804  9:0.040993  10:0.033181  11:0.023653  12:0.094561  13:0.4883  14:0.34491  15:0.053742  16:0.011489  17:0.0069984  18:0.1151  19:0.61265  20:0.23197  21:0.033205  22:0.0042116  23:0.002856  24:0  25:0  26:0  27:0  28:0  29:0  30:0  31:0  32:0  33:0  34:0  35:0  36:0  37:0  38:0  39:0  40:0  41:0  42:0  43:0  44:0  45:0  46:0  47:0 
9 0:0.12522  1:0.53033  2:0.30147  3:0.030742  4:0.0063664  5:0.0058769  6:0.069442  7:0.62902  8:0.21139  9:0.030277  10:0.040841  11:0.019034  12:0.077515  13:0.4867  14:0.38134  15:0.042105  16:0.0058307  17:0.0065076  18:0.082254  19:0.69727  20:0.171  21:0.041552  22:0.0044521  23:0.0034784  24:0  25:0  26:0  27:0  28:0  29:0  30:0  31:0  32:0  33:0  34:0  35:0  36:0  37:0  38:0  39:0  40:0  41:0  42:0  43:0  44:0  45:0  46:0  47:0 
9 0:0.076438  1:0.64105  2:0.20845  3:0.049919  4:0.012114  5:0.012031  6:0.043002  7:0.39785  8:0.44535  9:0.030482  10:0.050164  11:0.033146  12:0.12096  13:0.67265  14:0.17207  15:0.024157  16:0.0046612  17:0.0055094  18:0.088749  19:0.59869  20:0.26715  21:0.031956  22:0.0081231  23:0.0053316  24:0  25:0  26:0  27:0  28:0  29:0  30:0  31:0  32:0  33:0  34:0  35:0  36:0  37:0  38:0  39:0  40:0  41:0  42:0  43:0  44:0  45:0  46:0  47:0 
9 0:0.08738  1:0.69053  2:0.17369  3:0.03079  4:0.0084711  5:0.0091359  6:0.082743  7:0.48891  8:0.31288  9:0.049079  10:0.042506  11:0.023883  12:0.089236  13:0.57568  14:0.28853  15:0.031587  16:0.0069977  17:0.0079772  18:0.051702  19:0.70092  20:0.20641  21:0.02931  22:0.0081195  23:0.0035409  24:0  25:0  26:0  27:0  28:0  29:0  30:0  31:0  32:0  33:0  34:0  35:0  36:0  37:0  38:0  39:0  40:0  41:0  42:0  43:0  44:0  45:0  46:0  47:0 
9 0:0.060594  1:0.62109  2:0.26641  3:0.03638  4:0.0066327  5:0.0088872  6:0.075731  7:0.58955  8:0.22345  9:0.050322  10:0.038349  11:0.022601  12:0.1228  13:0.36415  14:0.39789  15:0.092002  16:0.011304  17:0.011852  18:0.032131  19:0.65761  20:0.2532  21:0.049341  22:0.004902  23:0.0028199  24:0  25:0  26:0  27:0  28:0  29:0  30:0  31:0  32:0  33:0  34:0  35:0  36:0  37:0  38:0  39:0  40:0  41:0  42:0  43:0  44:0  45:0  46:0  47:0 
9 0:0.10491  1:0.65757  2:0.19999  3:0.028063  4:0.0052098  5:0.0042615  6:0.080591  7:0.54356  8:0.21305  9:0.064483  10:0.063201  11:0.035114  12:0.044408  13:0.53465  14:0.35939  15:0.043646  16:0.010393  17:0.0075181  18:0.063698  19:0.58953  20:0.21374  21:0.11504  22:0.010538  23:0.0074471  24:0  25:0  26:0  27:0  28:0  29:0  30:0  31:0  32:0  33:0  34:0  35:0  36:0  37:0  38:0  39:0  40:0  41:0  42:0  43:0  44:0  45:0  46:0  47:0 
9 0:0.16188  1:0.36379  2:0.4124  3:0.042274  4:0.010351  5:0.0093119  6:0.053447  7:0.52374  8:0.22097  9:0.091995  10:0.070005  11:0.039844  12:0.05956  13:0.54005  14:0.31959  15:0.061905  16:0.010604  17:0.0082892  18:0.10507  19:0.56715  20:0.25748  21:0.052657  22:0.010474  23:0.0071649  24:0  25:0  26:0  27:0  28:0  29:0  30:0  31:0  32:0  33:0  34:0  35:0  36:0  37:0  38:0  39:0  40:0  41:0  42:0  43:0  44:0  45:0  46:0  47:0 
9 0:0.10531  1:0.44323  2:0.35349  3:0.078645  4:0.009895  5:0.0094313  6:0.041162  7:0.49092  8:0.29258  9:0.087465  10:0.060265  11:0.027604  12:0.064379  13:0.57928  14:0.28669  15:0.055687  16:0.0072013  17:0.0067603  18:0.14184  19:0.49421  20:0.25964  21:0.073031  22:0.021661  23:0.0096217  24:0  25:0  26:0  27:0  28:0  29:0  30:0  31:0  32:0  33:0  34:0  35:0  36:0  37:0  38:0  39:0  40:0  41:0  42:0  43:0  44:0  45:0  46:0  47:0 
9 0:0.14275  1:0.4962  2:0.32053  3:0.032903  4:0.0039367  5:0.0036821  6:0.12485  7:0.5311  8:0.16  9:0.10455  10:0.052508  11:0.026994  12:0.13446  13:0.41137  14:0.41166  15:0.028834  16:0.005932  17:0.0077428  18:0.28106  19:0.39614  20:0.28662  21:0.031078  22:0.0030276  23:0.0020748  24:0  25:0  26:0  27:0  28:0  29:0  30:0  31:0  32:0  33:0  34:0  35:0  36:0  37:0  38:0  39:0  40:0  41:0  42:0  43:0  44:0  45:0  46:0  47:0 
9 0:0.19344  1:0.50952  2:0.24786  3:0.040189  4:0.0032481  5:0.0057435  6:0.12694  7:0.56285  8:0.16595  9:0.075514  10:0.041025  11:0.027718  12:0.094453  13:0.51927  14:0.35228  15:0.024638  16:0.0048781  17:0.0044815  18:0.39153  19:0.41797  20:0.16017  21:0.024706  22:0.0032532  23:0.0023753  24:0  25:0  26:0  27:0  28:0  29:0  30:0  31:0  32:0  33:0  34:0  35:0  36:0  37:0  38:0  39:0  40:0  41:0  42:0  43:0  44:0  45:0  46:0  47:0 
9 0:0.23025  1:0.52871  2:0.18582  3:0.045486  4:0.0041615  5:0.005573  6:0.094427  7:0.48997  8:0.26161  9:0.061406  10:0.06188  11:0.030713  12:0.095832  13:0.67782  14:0.17955  15:0.037123  16:0.0053109  17:0.0043605  18:0.37387  19:0.42599  20:0.17445  21:0.019053  22:0.0033347  23:0.0032994  24:0  25:0  26:0  27:0  28:0  29:0  30:0  31:0  32:0  33:0  34:0  35:0  36:0  37:0  38:0  39:0  40:0  41:0  42:0  43:0  44:0  45:0  46:0  47:0 
9 0:0.14279  1:0.55456  2:0.22717  3:0.067344  4:0.0044432  5:0.0036953  6:0.045912  7:0.46951  8:0.35355  9:0.046945  10:0.056479  11:0.027604  12:0.11801  13:0.5447  14:0.285  15:0.037109  16:0.0066816  17:0.0084953  18:0.21092  19:0.46997  20:0.29522  21:0.018979  22:0.0016786  23:0.0032297  24:0  25:0  26:0  27:0  28:0  29:0  30:0  31:0  32:0  33:0  34:0  35:0  36:0  37:0  38:0  39:0  40:0  41:0  42:0  43:0  44:0  45:0  46:0  47:0 
2.0761 0:0.070495  1:0.35682  2:0.52051  3:0.038101  4:0.0066718  5:0.0074004  6:0.80377  7:0.14663  8:0.045157  9:0.0030169  10:0.00085077  11:0.00057284  12:0.11969  13:0.62664  14:0.21604  15:0.025165  16:0.0054459  17:0.0070093  18:0.15148  19:0.55931  20:0.22673  21:0.040402  22:0.0078061  23:0.014269  24:0  25:0  26:0  27:0  28:0  29:0  30:0  31:0  32:0  33:0  34:0  35:0  36:0  37:0  38:0  39:0  40:0  41:0  42:0  43:0  44:0  45:0  46:0  47:0 
9 0:0.13375  1:0.65415  2:0.1598  3:0.040579  4:0.0053009  5:0.0064111  6:0.12919  7:0.32282  8:0.39855  9:0.091601  10:0.032395  11:0.025438  12:0.17069  13:0.37808  14:0.35166  15:0.067453  16:0.016735  17:0.015373  18:0.055752  19:0.70613  20:0.17298  21:0.053572  22:0.0068729  23:0.004686  24:0  25:0  26:0  27:0  28:0  29:0  30:0  31:0  32:0  33:0  34:0  35:0  36:0  37:0  38:0  39:0  40:0  41:0  42:0  43:0  44:0  45:0  46:0  47:0 
9 0:0.17614  1:0.60908  2:0.14546  3:0.055606  4:0.0048943  5:0.0088211  6:0.097143  7:0.49696  8:0.32067  9:0.046359  10:0.024123  11:0.014749  12:0.17646  13:0.5803  14:0.1983  15:0.030863  16:0.0084324  17:0.005647  18:0.089217  19:0.64875  20:0.2003  21:0.048384  22:0.0067901  23:0.0065587  24:0  25:0  26:0  27:0  28:0  29:0  30:0  31:0  32:0  33:0  34:0  35:0  36:0  37:0  38:0  39:0  40:0  41:0  42:0  43:0  44:0  45:0  46:0  47:0 
9 0:0.17555  1:0.52664  2:0.2299  3:0.053258  4:0.0053821  5:0.0092676  6:0.092078  7:0.48042  8:0.36638  9:0.03371  10:0.017539  11:0.0098727  12:0.14703  13:0.6011  14:0.20855  15:0.032065  16:0.0075161  17:0.0037387  18:0.094201  19:0.52622  20:0.33384  21:0.034212  22:0.0067476  23:0.004785  24:0  25:0  26:0  27:0  28:0  29:0  30:0  31:0  32:0  33:0  34:0  35:0  36:0  37:0  38:0  39:0  40:0  41:0  42:0  43:0  44:0  45:0  46:0  47:0 
9 0:0.1359  1:0.48588  2:0.33614  3:0.030536  4:0.0044934  5:0.0070498  6:0.15906  7:0.48171  8:0.29395  9:0.03544  10:0.016844  11:0.012995  12:0.15445  13:0.50468  14:0.23558  15:0.082389  16:0.012839  17:0.010064  18:0.095706  19:0.58818  20:0.29316  21:0.015897  22:0.0028473  23:0.0042092  24:0  25:0  26:0  27:0  28:0  29:0  30:0  31:0  32:0  33:0  34:0  35:0  36:0  37:0  38:0  39:0  40:0  41:0  42:0  43:0  44:0  45:0  46:0  47:0 
9 0:0.13077  1:0.41709  2:0.40779  3:0.023523  4:0.0097948  5:0.011034  6:0.038557  7:0.52935  8:0.36925  9:0.034068  10:0.016347  11:0.01243  12:0.064006  13:0.77131  14:0.13186  15:0.023559  16:0.0057892  17:0.0034701  18:0.082441  19:0.5561  20:0.26891  21:0.0773  22:0.0068407  23:0.0084024  24:0  25:0  26:0  27:0  28:0  29:0  30:0  31:0  32:0  33:0  34:0  35:0  36:0  37:0  38:0  39:0  40:0  41:0  42:0  43:0  44:0  45:0  46:0  47:0 
9 0:0.097573  1:0.5071  2:0.3343  3:0.03641  4:0.0086725  5:0.015941  6:0.064359  7:0.42199  8:0.39286  9:0.069811  10:0.025715  11:0.025267  12:0.078705  13:0.47113  14:0.39738  15:0.04026  16:0.0049498  17:0.0075762  18:0.075192  19:0.58309  20:0.29781  21:0.030921  22:0.0075636  23:0.0054221  24:0  25:0  26:0  27:0  28:0  29:0  30:0  31:0  32:0  33:0  34:0  35:0  36:0  37:0  38:0  39:0  40:0  41:0  42:0  43:0  44:0  45:0  46:0  47:0 
9 0:0.088229  1:0.63695  2:0.21284  3:0.042388  4:0.0070671  5:0.012527  6:0.069183  7:0.39705  8:0.4399  9:0.055392  10:0.025813  11:0.012655  12:0.092078  13:0.67144  14:0.19938  15:0.025447  16:0.0049023  17:0.0067513  18:0.092908  19:0.47192  20:0.37044  21:0.050919  22:0.007877  23:0.005943  24:0  25:0  26:0  27:0  28:0  29:0  30:0  31:0  32:0  33:0  34:0  35:0  36:0  37:0  38:0  39:0  40:0  41:0  42:0  43:0  44:0  45:0  46:0  47:0 
9 0:0.13572  1:0.57979  2:0.23189  3:0.044889  4:0.0036384  5:0.0040741  6:0.19572  7:0.53313  8:0.21359  9:0.042889  10:0.0066866  11:0.0079891  12:0.079526  13:0.59433  14:0.2522  15:0.052894  16:0.0077826  17:0.013263  18:0.14128  19:0.52239  20:0.29852  21:0.031277  22:0.0038439  23:0.0026944  24:0  25:0  26:0  27:0  28:0  29:0  30:0  31:0  32:0  33:0  34:0  35:0  36:0  37:0  38:0  39:0  40:0  41:0  42:0  43:0  44:0  45:0  46:0  47:0 
9 0:0.18355  1:0.64521  2:0.1328  3:0.030746  4:0.0026117  5:0.00508  6:0.24974  7:0.48457  8:0.21309  9:0.03907  10:0.0079477  11:0.0055805  12:0.10828  13:0.65503  14:0.179  15:0.041648  16:0.0060824  17:0.0099547  18:0.17978  19:0.6126  20:0.18398  21:0.018483  22:0.002939  23:0.0022171  24:0  25:0  26:0  27:0  28:0  29:0  30:0  31:0  32:0  33:0  34:0  35:0  36:0  37:0  38:0  39:0  40:0  41:0  42:0  43:0  44:0  45:0  46:0  47:0 
9 0:0.23203  1:0.46712  2:0.25893  3:0.025769  4:0.0047659  5:0.011384  6:0.16165  7:0.38183  8:0.40953  9:0.024046  10:0.012381  11:0.01057  12:0.14405  13:0.55011  14:0.23586  15:0.055565  16:0.0058661  17:0.0085535  18:0.17198  19:0.58188  20:0.17179  21:0.067583  22:0.0040872  23:0.0026788  24:0  25:0  26:0  27:0  28:0  29:0  30:0  31:0  32:0  33:0  34:0  35:0  36:0  37:0  38:0  39:0  40:0  41:0  42:0  43:0  44:0  45:0  46:0  47:0 
9 0:0.05562  1:0.61425  2:0.24394  3:0.074034  4:0.0057512  5:0.0064073  6:0.06419  7:0.56143  8:0.30433  9:0.041279  10:0.013509  11:0.015259  12:0.11115  13:0.6299  14:0.20933  15:0.030215  16:0.010171  17:0.0092284  18:0.063145  19:0.58909  20:0.26012  21:0.072928  22:0.0088301  23:0.0058845  24:0  25:0  26:0  27:0  28:0  29:0  30:0  31:0  32:0  33:0  34:0  35:0  36:0  37:0  38:0  39:0  40:0  41:0  42:0  43:0  44:0  45:0  46:0  47:0 
9 0:0.14146  1:0.53696  2:0.26502  3:0.044772  4:0.00547  5:0.0063089  6:0.044527  7:0.49493  8:0.3668  9:0.059284  10:0.019549  11:0.014909  12:0.063394  13:0.62331  14:0.2708  15:0.028037  16:0.0070127  17:0.0074417  18:0.096175  19:0.55216  20:0.27415  21:0.065656  22:0.0075972  23:0.0042631  24:0  25:0  26:0  27:0  28:0  29:0  30:0  31:0  32:0  33:0  34:0  35:0  36:0  37:0  38:0  39:0  40:0  41:0  42:0  43:0  44:0  45:0  46:0  47:0 
9 0:0.21101  1:0.43807  2:0.288  3:0.048898  4:0.0071951  5:0.0068186  6:0.11561  7:0.51635  8:0.27955  9:0.050398  10:0.023585  11:0.014501  12:0.10815  13:0.57635  14:0.21349  15:0.078279  16:0.01545  17:0.0082806  18:0.23845  19:0.53438  20:0.17828  21:0.036493  22:0.0075299  23:0.0048603  24:0  25:0  26:0  27:0  28:0  29:0  30:0  31:0  32:0  33:0  34:0  35:0  36:0  37:0  38:0  39:0  40:0  41:0  42:0  43:0  44:0  45:0  46:0  47:0 
9 0:0.19086  1:0.45587  2:0.31269  3:0.028007  4:0.0058757  5:0.0066989  6:0.13179  7:0.48639  8:0.26158  9:0.073084  10:0.031049  11:0.016104  12:0.18647  13:0.55741  14:0.17564  15:0.051272  16:0.021467  17:0.0077358  18:0.32086  19:0.44526  20:0.17798  21:0.044486  22:0.0063103  23:0.0051095  24:0  25:0  26:0  27:0  28:0  29:0  30:0  31:0  32:0  33:0  34:0  35:0  36:0  37:0  38:0  39:0  40:0  41:0  42:0  43:0  44:0  45:0  46:0  47:0 
9 0:0.13623  1:0.51233  2:0.30807  3:0.027073  4:0.0079573  5:0.0083443  6:0.1228  7:0.54477  8:0.24164  9:0.059862  10:0.018263  11:0.012672  12:0.19425  13:0.55128  14:0.20434  15:0.025526  16:0.016319  17:0.0082835  18:0.25718  19:0.40909  20:0.25123  21:0.070373  22:0.0072111  23:0.0049055  24:0  25:0  26:0  27:0  28:0  29:0  30:0  31:0  32:0  33:0  34:0  35:0  36:0  37:0  38:0  39:0  40:0  41:0  42:0  43:0  44:0  45:0  46:0  47:0 
9 0:0.20219  1:0.46711  2:0.29641  3:0.023223  4:0.0053776  5:0.0056846  6:0.16113  7:0.53588  8:0.22844  9:0.052364  10:0.010721  11:0.011463  12:0.098747  13:0.58174  14:0.25061  15:0.047773  16:0.0089665  17:0.012166  18:0.16844  19:0.49004  20:0.28741  21:0.047243  22:0.0037468  23:0.0031156  24:0  25:0  26:0  27:0  28:0  29:0  30:0  31:0  32:0  33:0  34:0  35:0  36:0  37:0  38:0  39:0  40:0  41:0  42:0  43:0  44:0  45:0  46:0  47:0 
9 0:0.26213  1:0.4236  2:0.2832  3:0.021558  4:0.0051178  5:0.004401  6:0.11707  7:0.49662  8:0.32174  9:0.036848  10:0.013411  11:0.01431  12:0.17007  13:0.51303  14:0.23005  15:0.067705  16:0.0078707  17:0.011274  18:0.24953  19:0.4684  20:0.23013  21:0.04488  22:0.0039192  23:0.0031471  24:0  25:0  26:0  27:0  28:0  29:0  30:0  31:0  32:0  33:0  34:0  35:0  36:0  37:0  38:0  39:0  40:0  41:0  42:0  43:0  44:0  45:0  46:0  47:0 
9 0:0.16812  1:0.48533  2:0.3057  3:0.030597  4:0.0056178  5:0.0046391  6:0.090785  7:0.56172  8:0.27581  9:0.040999  10:0.017636  11:0.013053  12:0.18951  13:0.61289  14:0.13914  15:0.046432  16:0.005701  17:0.0063279  18:0.23397  19:0.49744  20:0.2297  21:0.030243  22:0.0038875  23:0.0047561  24:0  25:0  26:0  27:0  28:0  29:0  30:0  31:0  32:0  33:0  34:0  35:0  36:0  37:0  38:0  39:0  40:0  41:0  42:0  43:0  44:0  45:0  46:0  47:0 
9 0:0.06823  1:0.60268  2:0.29135  3:0.027173  4:0.0053948  5:0.0051669  6:0.035892  7:0.7562  8:0.15359  9:0.038585  10:0.0082678  11:0.0074629  12:0.1562  13:0.68023  14:0.1282  15:0.026674  16:0.0050775  17:0.003624  18:0.15167  19:0.61443  20:0.2147  21:0.011983  22:0.0042852  23:0.0029334  24:0  25:0  26:0  27:0  28:0  29:0  30:0  31:0  32:0  33:0  34:0  35:0  36:0  37:0  38:0  39:0  40:0  41:0  42:0  43:0  44:0  45:0  46:0  47:0 
9 0:0.12663  1:0.63829  2:0.20373  3:0.02445  4:0.003872  5:0.0030232  6:0.084803  7:0.73304  8:0.12687  9:0.043383  10:0.0060624  11:0.0058483  12:0.15159  13:0.64646  14:0.14973  15:0.04082  16:0.0069166  17:0.0044819  18:0.16585  19:0.70473  20:0.10947  21:0.014894  22:0.003112  23:0.0019384  24:0  25:0  26:0  27:0  28:0  29:0  30:0  31:0  32:0  33:0  34:0  35:0  36:0  37:0  38:0  39:0  40:0  41:0  42:0  43:0  44:0  45:0  46:0  47:0 
9 0:0.31313  1:0.55309  2:0.10851  3:0.019599  4:0.0024589  5:0.0031999  6:0.20971  7:0.53214  8:0.20547  9:0.034829  10:0.01009  11:0.007769  12:0.13952  13:0.50996  14:0.29636  15:0.04037  16:0.0068562  17:0.0069421  18:0.35953  19:0.50896  20:0.10902  21:0.01628  22:0.0034082  23:0.0028012  24:0  25:0  26:0  27:0  28:0  29:0  30:0  31:0  32:0  33:0  34:0  35:0  36:0  37:0  38:0  39:0  40:0  41:0  42:0  43:0  44:0  45:0  46:0  47:0 
9 0:0.31604  1:0.54568  2:0.11391  3:0.018022  4:0.0021249  5:0.0042229  6:0.13688  7:0.58331  8:0.19021  9:0.069055  10:0.0106  11:0.0099476  12:0.09153  13:0.43061  14:0.43229  15:0.032073  16:0.0055017  17:0.0079991  18:0.37776  19:0.4073  20:0.17156  21:0.027868  22:0.0068474  23:0.0086591  24:0  25:0  26:0  27:0  28:0  29:0  30:0  31:0  32:0  33:0  34:0  35:0  36:0  37:0  38:0  39:0  40:0  41:0  42:0  43:0  44:0  45:0  46:0  47:0 
9 0:0.33044  1:0.58553  2:0.063694  3:0.01792  4:0.0014391  5:0.00097852  6:0.27533  7:0.55335  8:0.10238  9:0.052103  10:0.0084256  11:0.0084162  12:0.044305  13:0.49603  14:0.38535  15:0.056443  16:0.0067205  17:0.011144  18:0.30317  19:0.55507  20:0.1088  21:0.02702  22:0.0024161  23:0.003526  24:0  25:0  26:0  27:0  28:0  29:0  30:0  31:0  32:0  33:0  34:0  35:0  36:0  37:0  38:0  39:0  40:0  41:0  42:0  43:0  44:0  45:0  46:0  47:0 
9 0:0.34123  1:0.56113  2:0.073884  3:0.021266  4:0.0014119  5:0.0010856  6:0.30906  7:0.49196  8:0.14595  9:0.038853  10:0.0069247  11:0.0072428  12:0.037173  13:0.57268  14:0.30414  15:0.066955  16:0.008816  17:0.010233  18:0.32508  19:0.53881  20:0.10096  21:0.028641  22:0.0025722  23:0.0039497  24:0  25:0  26:0  27:0  28:0  29:0  30:0  31:0  32:0  33:0  34:0  35:0  36:0  37:0  38:0  39:0  40:0  41:0  42:0  43:0  44:0  45:0  46:0  47:0 
9 0:0.25803  1:0.51441  2:0.18053  3:0.041103  4:0.0030776  5:0.0028553  6:0.15834  7:0.57532  8:0.22445  9:0.033192  10:0.0051202  11:0.0035754  12:0.06851  13:0.59929  14:0.26207  15:0.053097  16:0.0095372  17:0.0075027  18:0.26196  19:0.51485  20:0.17659  21:0.034688  22:0.0045535  23:0.0073556  24:0  25:0  26:0  27:0  28:0  29:0  30:0  31:0  32:0  33:0  34:0  35:0  36:0  37:0  38:0  39:0  40:0  41:0  42:0  43:0  44:0  45:0  46:0  47:0 
9 0:0.19249  1:0.6109  2:0.16297  3:0.027635  4:0.0035943  5:0.0024153  6:0.14395  7:0.63612  8:0.18596  9:0.026519  10:0.0042106  11:0.0032366  12:0.15047  13:0.52327  14:0.22401  15:0.072075  16:0.013024  17:0.017154  18:0.17879  19:0.65148  20:0.14871  21:0.014098  22:0.0023866  23:0.0045282  24:0  25:0  26:0  27:0  28:0  29:0  30:0  31:0  32:0  33:0  34:0  35:0  36:0  37:0  38:0  39:0  40:0  41:0  42:0  43:0  44:0  45:0  46:0  47:0 
9 0:0.25737  1:0.63  2:0.097442  3:0.011439  4:0.0023097  5:0.0014398  6:0.16172  7:0.52105  8:0.26656  9:0.035163  10:0.0086906  11:0.0068153  12:0.11425  13:0.32341  14:0.47304  15:0.058701  16:0.010699  17:0.019894  18:0.23702  19:0.65688  20:0.086433  21:0.011838  22:0.0026685  23:0.0051633  24:0  25:0  26:0  27:0  28:0  29:0  30:0  31:0  32:0  33:0  34:0  35:0  36:0  37:0  38:0  39:0  40:0  41:0  42:0  43:0  44:0  45:0  46:0  47:0 
9 0:0.24545  1:0.47876  2:0.18063  3:0.091305  4:0.0025489  5:0.0013129  6:0.068707  7:0.45422  8:0.35512  9:0.095077  10:0.01256  11:0.014316  12:0.14144  13:0.33624  14:0.43516  15:0.066665  16:0.0085685  17:0.011929  18:0.18582  19:0.55213  20:0.20671  21:0.045119  22:0.0042579  23:0.0059619  24:0  25:0  26:0  27:0  28:0  29:0  30:0  31:0  32:0  33:0  34:0  35:0  36:0  37:0  38:0  39:0  40:0  41:0  42:0  43:0  44:0  45:0  46:0  47:0 
9 0:0.4106  1:0.44012  2:0.1028  3:0.040307  4:0.0023154  5:0.0038548  6:0.080579  7:0.70169  8:0.17946  9:0.019696  10:0.0099459  11:0.0086336  12:0.28256  13:0.4273  14:0.23888  15:0.036382  16:0.0065297  17:0.008349  18:0.37231  19:0.45414  20:0.13815  21:0.026308  22:0.0030805  23:0.006014  24:0  25:0  26:0  27:0  28:0  29:0  30:0  31:0  32:0  33:0  34:0  35:0  36:0  37:0  38:0  39:0  40:0  41:0  42:0  43:0  44:0  45:0  46:0  47:0 
9 0:0.53479  1:0.42198  2:0.034864  3:0.007127  4:0.00066388  5:0.00056734  6:0.07908  7:0.70896  8:0.14011  9:0.049348  10:0.010796  11:0.011709  12:0.17882  13:0.53587  14:0.22052  15:0.049322  16:0.0060039  17:0.0094623  18:0.19988  19:0.63026  20:0.13403  21:0.026919  22:0.0035643  23:0.0053458  24:0  25:0  26:0  27:0  28:0  29:0  30:0  31:0  32:0  33:0  34:0  35:0  36:0  37:0  38:0  39:0  40:0  41:0  42:0  43:0  44:0  45:0  46:0  47:0 
9 0:0.52063  1:0.42307  2:0.048316  3:0.0067385  4:0.00066831  5:0.00057461  6:0.087283  7:0.66481  8:0.19162  9:0.038184  10:0.0095009  11:0.008604  12:0.13587  13:0.46805  14:0.3328  15:0.048452  16:0.006271  17:0.00856  18:0.085608  19:0.69954  20:0.17434  21:0.030469  22:0.0045118  23:0.0055317  24:0  25:0  26:0  27:0  28:0  29:0  30:0  31:0  32:0  33:0  34:0  35:0  36:0  37:0  38:0  39:0  40:0  41:0  42:0  43:0  44:0  45:0  46:0  47:0 
9 0:0.32158  1:0.5267  2:0.134  3:0.014737  4:0.001445  5:0.0015413  6:0.18198  7:0.57867  8:0.19318  9:0.028872  10:0.009131  11:0.0081584  12:0.13292  13:0.44478  14:0.37719  15:0.02889  16:0.0069922  17:0.0092273  18:0.37348  19:0.53086  20:0.077983  21:0.010916  22:0.0024107  23:0.004349  24:0  25:0  26:0  27:0  28:0  29:0  30:0  31:0  32:0  33:0  34:0  35:0  36:0  37:0  38:0  39:0  40:0  41:0  42:0  43:0  44:0  45:0  46:0  47:0 
9 0:0.30406  1:0.58942  2:0.089491  3:0.014642  4:0.0012465  5:0.0011438  6:0.30413  7:0.39475  8:0.20261  9:0.074097  10:0.012369  11:0.012035  12:0.20424  13:0.44572  14:0.29881  15:0.035238  16:0.0071371  17:0.0088569  18:0.32616  19:0.58286  20:0.073737  21:0.012936  22:0.0015725  23:0.0027307  24:0  25:0  26:0  27:0  28:0  29:0  30:0  31:0  32:0  33:0  34:0  35:0  36:0  37:0  38:0  39:0  40:0  41:0  42:0  43:0  44:0  45:0  46:0  47:0 
9 0:0.11611  1:0.71229  2:0.15289  3:0.014019  4:0.0021902  5:0.0024997  6:0.13173  7:0.44119  8:0.32098  9:0.078606  10:0.01776  11:0.0097305  12:0.14532  13:0.59382  14:0.21345  15:0.035572  16:0.0051546  17:0.0066885  18:0.16513  19:0.69314  20:0.11456  21:0.020185  22:0.0029313  23:0.0040498  24:0  25:0  26:0  27:0  28:0  29:0  30:0  31:0  32:0  33:0  34:0  35:0  36:0  37:0  38:0  39:0  40:0  41:0  42:0  43:0  44:0  45:0  46:0  47:0 
9 0:0.12243  1:0.65194  2:0.17315  3:0.044718  4:0.003896  5:0.003857  6:0.053369  7:0.48632  8:0.39071  9:0.034525  10:0.021937  11:0.01314  12:0.092347  13:0.63435  14:0.21985  15:0.040076  16:0.0061398  17:0.0072366  18:0.17141  19:0.6018  20:0.17714  21:0.038456  22:0.0048599  23:0.0063367  24:0  25:0  26:0  27:0  28:0  29:0  30:0  31:0  32:0  33:0  34:0  35:0  36:0  37:0  38:0  39:0  40:0  41:0  42:0  43:0  44:0  45:0  46:0  47:0 
9 0:0.15019  1:0.61606  2:0.19801  3:0.032335  4:0.0019414  5:0.0014649  6:0.10419  7:0.58815  8:0.2785  9:0.013155  10:0.01072  11:0.0052908  12:0.087718  13:0.6274  14:0.21807  15:0.04851  16:0.0095258  17:0.0087718  18:0.20037  19:0.60136  20:0.15747  21:0.033245  22:0.0034404  23:0.0041205  24:0  25:0  26:0  27:0  28:0  29:0  30:0  31:0  32:0  33:0  34:0  35:0  36:0  37:0  38:0  39:0  40:0  41:0  42:0  43:0  44:0  45:0  46:0  47:0 
9 0:0.13719  1:0.65212  2:0.18661  3:0.021241  4:0.0016839  5:0.0011604  6:0.1748  7:0.52725  8:0.26038  9:0.026289  10:0.0077592  11:0.0035252  12:0.098747  13:0.72927  14:0.14072  15:0.021435  16:0.0050221  17:0.0048003  18:0.17391  19:0.60646  20:0.18866  21:0.023107  22:0.0051811  23:0.0026751  24:0  25:0  26:0  27:0  28:0  29:0  30:0  31:0  32:0  33:0  34:0  35:0  36:0  37:0  38:0  39:0  40:0  41:0  42:0  43:0  44:0  45:0  46:0  47:0 
9 0:0.12671  1:0.6334  2:0.18985  3:0.046537  4:0.0020335  5:0.0014681  6:0.20898  7:0.4304  8:0.27151  9:0.073986  10:0.0088191  11:0.0062996  12:0.1029  13:0.70707  14:0.14828  15:0.032092  16:0.0050209  17:0.0046314  18:0.15336  19:0.53918  20:0.25501  21:0.037928  22:0.010324  23:0.0042008  24:0  25:0  26:0  27:0  28:0  29:0  30:0  31:0  32:0  33:0  34:0  35:0  36:0  37:0  38:0  39:0  40:0  41:0  42:0  43:0  44:0  45:0  46:0  47:0 
9 0:0.30175  1:0.56353  2:0.098202  3:0.033912  4:0.0013699  5:0.0012328  6:0.13051  7:0.58781  8:0.20233  9:0.062775  10:0.010821  11:0.0057563  12:0.070364  13:0.77452  14:0.098559  15:0.045235  16:0.0042886  17:0.0070358  18:0.34198  19:0.55422  20:0.076811  21:0.022464  22:0.0023539  23:0.002172  24:0  25:0  26:0  27:0  28:0  29:0  30:0  31:0  32:0  33:0  34:0  35:0  36:0  37:0  38:0  39:0  40:0  41:0  42:0  43:0  44:0  45:0  46:0  47:0 
9 0:0.44119  1:0.4832  2:0.051371  3:0.020375  4:0.0022562  5:0.0016095  6:0.24451  7:0.53954  8:0.14873  9:0.051402  10:0.0079979  11:0.0078205  12:0.1739  13:0.72779  14:0.06748  15:0.022671  16:0.0026971  17:0.0054659  18:0.35211  19:0.55313  20:0.068637  21:0.021829  22:0.001776  23:0.0025147  24:0  25:0  26:0  27:0  28:0  29:0  30:0  31:0  32:0  33:0  34:0  35:0  36:0  37:0  38:0  39:0  40:0  41:0  42:0  43:0  44:0  45:0  46:0  47:0 
9 0:0.38499  1:0.33682  2:0.24306  3:0.026274  4:0.0053506  5:0.0035021  6:0.27419  7:0.47189  8:0.18359  9:0.056703  10:0.0064067  11:0.0072219  12:0.1736  13:0.66161  14:0.13522  15:0.018293  16:0.00479  17:0.0064748  18:0.25071  19:0.5556  20:0.14852  21:0.036433  22:0.0032801  23:0.0054568  24:0  25:0  26:0  27:0  28:0  29:0  30:0  31:0  32:0  33:0  34:0  35:0  36:0  37:0  38:0  39:0  40:0  41:0  42:0  43:0  44:0  45:0  46:0  47:0 
9 0:0.16649  1:0.46133  2:0.3385  3:0.025982  4:0.0037047  5:0.0039867  6:0.043094  7:0.59087  8:0.27548  9:0.058183  10:0.012784  11:0.019589  12:0.12358  13:0.55194  14:0.24887  15:0.057282  16:0.010519  17:0.0078073  18:0.23471  19:0.39676  20:0.33188  21:0.027402  22:0.0047406  23:0.0045004  24:0  25:0  26:0  27:0  28:0  29:0  30:0  31:0  32:0  33:0  34:0  35:0  36:0  37:0  38:0  39:0  40:0  41:0  42:0  43:0  44:0  45:0  46:0  47:0 
9 0:0.090144  1:0.61238  2:0.24741  3:0.040225  4:0.0048695  5:0.0049678  6:0.042391  7:0.48585  8:0.37565  9:0.057804  10:0.015314  11:0.022988  12:0.12417  13:0.52456  14:0.24853  15:0.071604  16:0.015718  17:0.01541  18:0.069901  19:0.53727  20:0.32982  21:0.0453  22:0.011146  23:0.0065619  24:0  25:0  26:0  27:0  28:0  29:0  30:0  31:0  32:0  33:0  34:0  35:0  36:0  37:0  38:0  39:0  40:0  41:0  42:0  43:0  44:0  45:0  46:0  47:0 
9 0:0.14139  1:0.70395  2:0.13966  3:0.011628  4:0.0020015  5:0.0013744  6:0.068917  7:0.53972  8:0.32723  9:0.039631  10:0.014881  11:0.0096205  12:0.13629  13:0.44283  14:0.31773  15:0.076084  16:0.011811  17:0.015255  18:0.22163  19:0.59745  20:0.1443  21:0.030147  22:0.0034342  23:0.0030416  24:0  25:0  26:0  27:0  28:0  29:0  30:0  31:0  32:0  33:0  34:0  35:0  36:0  37:0  38:0  39:0  40:0  41:0  42:0  43:0  44:0  45:0  46:0  47:0 
9 0:0.17677  1:0.63342  2:0.18181  3:0.0066866  4:0.00070211  5:0.00061309  6:0.094338  7:0.64277  8:0.20923  9:0.036816  10:0.0098193  11:0.0070301  12:0.1088  13:0.47335  14:0.36024  15:0.041865  16:0.0062765  17:0.0094754  18:0.22398  19:0.5942  20:0.17297  21:0.0072817  22:0.00070224  23:0.00086197  24:0  25:0  26:0  27:0  28:0  29:0  30:0  31:0  32:0  33:0  34:0  35:0  36:0  37:0  38:0  39:0  40:0  41:0  42:0  43:0  44:0  45:0  46:0  47:0 
9 0:0.17324  1:0.6072  2:0.20574  3:0.011968  4:0.0010195  5:0.00083934  6:0.095313  7:0.568  8:0.22364  9:0.076943  10:0.013184  11:0.022922  12:0.052356  13:0.52059  14:0.32231  15:0.068101  16:0.013381  17:0.023263  18:0.21614  19:0.59307  20:0.18264  21:0.0063791  22:0.00097817  23:0.00079305  24:0  25:0  26:0  27:0  28:0  29:0  30:0  31:0  32:0  33:0  34:0  35:0  36:0  37:0  38:0  39:0  40:0  41:0  42:0  43:0  44:0  45:0  46:0  47:0 
9 0:0.17118  1:0.60921  2:0.18874  3:0.027037  4:0.0020709  5:0.0017711  6:0.12881  7:0.33612  8:0.36784  9:0.11494  10:0.018811  11:0.033491  12:0.068255  13:0.46196  14:0.28743  15:0.12396  16:0.021647  17:0.036748  18:0.16633  19:0.64507  20:0.1666  21:0.019148  22:0.0016161  23:0.0012423  24:0  25:0  26:0  27:0  28:0  29:0  30:0  31:0  32:0  33:0  34:0  35:0  36:0  37:0  38:0  39:0  40:0  41:0  42:0  43:0  44:0  45:0  46:0  47:0 
9 0:0.19459  1:0.59241  2:0.19276  3:0.016601  4:0.001776  5:0.0018621  6:0.087837  7:0.44061  8:0.38132  9:0.06758  10:0.010384  11:0.012272  12:0.13326  13:0.38397  14:0.30966  15:0.11952  16:0.023348  17:0.030248  18:0.16374  19:0.62818  20:0.19126  21:0.014362  22:0.0010196  23:0.0014458  24:0  25:0  26:0  27:0  28:0  29:0  30:0  31:0  32:0  33:0  34:0  35:0  36:0  37:0  38:0  39:0  40:0  41:0  42:0  43:0  44:0  45:0  46:0  47:0 
9 0:0.16622  1:0.54803  2:0.26355  3:0.018323  4:0.0020076  5:0.0018738  6:0.10344  7:0.55436  8:0.27788  9:0.04991  10:0.0071006  11:0.0073139  12:0.11089  13:0.4664  14:0.2883  15:0.090849  16:0.021267  17:0.022288  18:0.16263  19:0.52734  20:0.29303  21:0.01331  22:0.0014906  23:0.0021952  24:0  25:0  26:0  27:0  28:0  29:0  30:0  31:0  32:0  33:0  34:0  35:0  36:0  37:0  38:0  39:0  40:0  41:0  42:0  43:0  44:0  45:0  46:0  47:0 
9 0:0.17324  1:0.51948  2:0.28115  3:0.022533  4:0.0017539  5:0.0018372  6:0.18395  7:0.53153  8:0.21138  9:0.055582  10:0.0081205  11:0.009425  12:0.073116  13:0.58316  14:0.23239  15:0.074285  16:0.019976  17:0.017074  18:0.1602  19:0.53311  20:0.27535  21:0.026809  22:0.0025292  23:0.0019946  24:0  25:0  26:0  27:0  28:0  29:0  30:0  31:0  32:0  33:0  34:0  35:0  36:0  37:0  38:0  39:0  40:0  41:0  42:0  43:0  44:0  45:0  46:0  47:0 
9 0:0.21543  1:0.56423  2:0.19319  3:0.020993  4:0.0020884  5:0.0040622  6:0.15239  7:0.49812  8:0.24058  9:0.075335  10:0.015059  11:0.01852  12:0.059537  13:0.58597  14:0.28292  15:0.039036  16:0.013123  17:0.019415  18:0.21763  19:0.54151  20:0.19832  21:0.036728  22:0.0034339  23:0.0023758  24:0  25:0  26:0  27:0  28:0  29:0  30:0  31:0  32:0  33:0  34:0  35:0  36:0  37:0  38:0  39:0  40:0  41:0  42:0  43:0  44:0  45:0  46:0  47:0 
9 0:0.14532  1:0.66733  2:0.16512  3:0.018942  4:0.0012727  5:0.0020105  6:0.087913  7:0.6055  8:0.19037  9:0.068228  10:0.017978  11:0.030013  12:0.064457  13:0.49764  14:0.38625  15:0.023778  16:0.0099109  17:0.017956  18:0.20768  19:0.63445  20:0.1422  21:0.013159  22:0.0014192  23:0.0011009  24:0  25:0  26:0  27:0  28:0  29:0  30:0  31:0  32:0  33:0  34:0  35:0  36:0  37:0  38:0  39:0  40:0  41:0  42:0  43:0  44:0  45:0  46:0  47:0 
9 0:0.11845  1:0.66425  2:0.19599  3:0.01806  4:0.0013962  5:0.0018502  6:0.051266  7:0.59417  8:0.24593  9:0.057403  10:0.016731  11:0.034495  12:0.07621  13:0.47369  14:0.38753  15:0.029869  16:0.012345  17:0.020361  18:0.17751  19:0.65523  20:0.15235  21:0.012427  22:0.0014601  23:0.0010159  24:0  25:0  26:0  27:0  28:0  29:0  30:0  31:0  32:0  33:0  34:0  35:0  36:0  37:0  38:0  39:0  40:0  41:0  42:0  43:0  44:0  45:0  46:0  47:0 
9 0:0.19771  1:0.63137  2:0.14859  3:0.017631  4:0.0016498  5:0.0030477  6:0.11245  7:0.6221  8:0.19665  9:0.035292  10:0.010772  11:0.022742  12:0.053487  13:0.70415  14:0.13095  15:0.057961  16:0.013438  17:0.040009  18:0.19857  19:0.58381  20:0.19297  21:0.019348  22:0.0028803  23:0.0024168  24:0  25:0  26:0  27:0  28:0  29:0  30:0  31:0  32:0  33:0  34:0  35:0  36:0  37:0  38:0  39:0  40:0  41:0  42:0  43:0  44:0  45:0  46:0  47:0 
9 0:0.074264  1:0.5682  2:0.31634  3:0.034166  4:0.0042177  5:0.002806  6:0.090064  7:0.60863  8:0.21053  9:0.035615  10:0.017112  11:0.038043  12:0.25152  13:0.35318  14:0.15763  15:0.12538  16:0.035346  17:0.076939  18:0.29919  19:0.55819  20:0.1078  21:0.024994  22:0.0039702  23:0.0058587  24:0  25:0  26:0  27:0  28:0  29:0  30:0  31:0  32:0  33:0  34:0  35:0  36:0  37:0  38:0  39:0  40:0  41:0  42:0  43:0  44:0  45:0  46:0  47:0 
9 0:0.059333  1:0.54068  2:0.34832  3:0.044747  4:0.0038785  5:0.0030452  6:0.31944  7:0.45683  8:0.14017  9:0.029776  10:0.013502  11:0.040286  12:0.18378  13:0.2468  14:0.24819  15:0.10549  16:0.061431  17:0.15431  18:0.2868  19:0.56248  20:0.097632  21:0.037159  22:0.0058145  23:0.010114  24:0  25:0  26:0  27:0  28:0  29:0  30:0  31:0  32:0  33:0  34:0  35:0  36:0  37:0  38:0  39:0  40:0  41:0  42:0  43:0  44:0  45:0  46:0  47:0 
9 0:0.15296  1:0.47402  2:0.30159  3:0.0645  4:0.0023874  5:0.00454  6:0.49004  7:0.34264  8:0.080315  9:0.023668  10:0.014332  11:0.049003  12:0.079516  13:0.2953  14:0.24655  15:0.087458  16:0.088571  17:0.20261  18:0.21869  19:0.60614  20:0.12944  21:0.032984  22:0.0040226  23:0.0087313  24:0  25:0  26:0  27:0  28:0  29:0  30:0  31:0  32:0  33:0  34:0  35:0  36:0  37:0  38:0  39:0  40:0  41:0  42:0  43:0  44:0  45:0  46:0  47:0 
9 0:0.33821  1:0.46883  2:0.16334  3:0.023917  4:0.0021259  5:0.0035767  6:0.61942  7:0.29585  8:0.0617  9:0.0062254  10:0.0048978  11:0.011906  12:0.40134  13:0.33856  14:0.086838  15:0.07265  16:0.036902  17:0.063714  18:0.30466  19:0.55859  20:0.11092  21:0.015202  22:0.0040312  23:0.0065957  24:0  25:0  26:0  27:0  28:0  29:0  30:0  31:0  32:0  33:0  34:0  35:0  36:0  37:0  38:0  39:0  40:0  41:0  42:0  43:0  44:0  45:0  46:0  47:0 
9 0:0.14785  1:0.55155  2:0.28361  3:0.01475  4:0.0015433  5:0.00070329  6:0.42009  7:0.49828  8:0.075165  9:0.0044003  10:0.00097487  11:0.0010911  12:0.36035  13:0.50895  14:0.079391  15:0.042511  16:0.0038086  17:0.0049959  18:0.39751  19:0.39734  20:0.17074  21:0.023477  22:0.0044019  23:0.0065218  24:0  25:0  26:0  27:0  28:0  29:0  30:0  31:0  32:0  33:0  34:0  35:0  36:0  37:0  38:0  39:0  40:0  41:0  42:0  43:0  44:0  45:0  46:0  47:0 
9 0:0.18116  1:0.6493  2:0.15121  3:0.01392  4:0.0019351  5:0.0024762  6:0.34516  7:0.55924  8:0.089007  9:0.0058996  10:0.00038145  11:0.00031601  12:0.21597  13:0.61122  14:0.1328  15:0.032428  16:0.0033661  17:0.0042145  18:0.43249  19:0.4109  20:0.13289  21:0.016907  22:0.0028083  23:0.0039981  24:0  25:0  26:0  27:0  28:0  29:0  30:0  31:0  32:0  33:0  34:0  35:0  36:0  37:0  38:0  39:0  40:0  41:0  42:0  43:0  44:0  45:0  46:0  47:0 
9 0:0.20405  1:0.66988  2:0.10046  3:0.020531  4:0.0021375  5:0.0029433  6:0.36197  7:0.55457  8:0.075417  9:0.0068219  10:0.00063829  11:0.00057987  12:0.28987  13:0.39036  14:0.2461  15:0.044431  16:0.011319  17:0.017917  18:0.46434  19:0.45204  20:0.076169  21:0.0068572  22:0.00038406  23:0.00020114  24:0  25:0  26:0  27:0  28:0  29:0  30:0  31:0  32:0  33:0  34:0  35:0  36:0  37:0  38:0  39:0  40:0  41:0  42:0  43:0  44:0  45:0  46:0  47:0 
9 0:0.19498  1:0.59934  2:0.15492  3:0.047883  4:0.0020774  5:0.00080714  6:0.30006  7:0.55626  8:0.13226  9:0.010222  10:0.00075164  11:0.00044892  12:0.18116  13:0.36889  14:0.37019  15:0.037577  16:0.016301  17:0.025877  18:0.1958  19:0.67498  20:0.11567  21:0.011513  22:0.00080906  23:0.001232  24:0  25:0  26:0  27:0  28:0  29:0  30:0  31:0  32:0  33:0  34:0  35:0  36:0  37:0  38:0  39:0  40:0  41:0  42:0  43:0  44:0  45:0  46:0  47:0 
9 0:0.10986  1:0.67539  2:0.19817  3:0.014437  4:0.0015434  5:0.00059657  6:0.29609  7:0.52174  8:0.16709  9:0.013264  10:0.00090091  11:0.00091169  12:0.16523  13:0.39174  14:0.34314  15:0.05832  16:0.014404  17:0.027171  18:0.15993  19:0.68415  20:0.13955  21:0.013012  22:0.0016423  23:0.0017234  24:0  25:0  26:0  27:0  28:0  29:0  30:0  31:0  32:0  33:0  34:0  35:0  36:0  37:0  38:0  39:0  40:0  41:0  42:0  43:0  44:0  45:0  46:0  47:0 
9 0:0.2063  1:0.48706  2:0.24873  3:0.047001  4:0.0053363  5:0.0055646  6:0.27326  7:0.35837  8:0.28638  9:0.056505  10:0.0057172  11:0.01976  12:0.12526  13:0.50375  14:0.23281  15:0.079028  16:0.018595  17:0.040561  18:0.10606  19:0.62947  20:0.23564  21:0.021162  22:0.0035367  23:0.0041222  24:0  25:0  26:0  27:0  28:0  29:0  30:0  31:0  32:0  33:0  34:0  35:0  36:0  37:0  38:0  39:0  40:0  41:0  42:0  43:0  44:0  45:0  46:0  47:0 
9 0:0.22456  1:0.5731  2:0.17345  3:0.02303  4:0.0028486  5:0.0030093  6:0.18176  7:0.45206  8:0.24839  9:0.080663  10:0.011053  11:0.026079  12:0.073858  13:0.50903  14:0.3125  15:0.051354  16:0.020327  17:0.032932  18:0.15691  19:0.64845  20:0.16835  21:0.021664  22:0.0023332  23:0.0023002  24:0  25:0  26:0  27:0  28:0  29:0  30:0  31:0  32:0  33:0  34:0  35:0  36:0  37:0  38:0  39:0  40:0  41:0  42:0  43:0  44:0  45:0  46:0  47:0 
9 0:0.22653  1:0.57558  2:0.16803  3:0.02318  4:0.0029139  5:0.0037774  6:0.15998  7:0.42313  8:0.32055  9:0.064878  10:0.016834  11:0.014628  12:0.052821  13:0.49058  14:0.37914  15:0.048005  16:0.014132  17:0.015327  18:0.23073  19:0.60365  20:0.14366  21:0.016941  22:0.0032115  23:0.0018113  24:0  25:0  26:0  27:0  28:0  29:0  30:0  31:0  32:0  33:0  34:0  35:0  36:0  37:0  38:0  39:0  40:0  41:0  42:0  43:0  44:0  45:0  46:0  47:0 
9 0:0.041068  1:0.56987  2:0.35516  3:0.022504  4:0.0047915  5:0.0066113  6:0.12738  7:0.45463  8:0.30363  9:0.075625  10:0.018791  11:0.019951  12:0.039895  13:0.49292  14:0.39718  15:0.047055  16:0.0099211  17:0.013032  18:0.063267  19:0.67839  20:0.22553  21:0.025729  22:0.0045331  23:0.0025507  24:0  25:0  26:0  27:0  28:0  29:0  30:0  31:0  32:0  33:0  34:0  35:0  36:0  37:0  38:0  39:0  40:0  41:0  42:0  43:0  44:0  45:0  46:0  47:0 
9 0:0.18781  1:0.62748  2:0.16711  3:0.014476  4:0.0013501  5:0.0017749  6:0.16725  7:0.42593  8:0.2573  9:0.092737  10:0.024511  11:0.032273  12:0.056434  13:0.60815  14:0.2705  15:0.034459  16:0.012676  17:0.017781  18:0.15618  19:0.67713  20:0.15226  21:0.011957  22:0.0012302  23:0.0012443  24:0  25:0  26:0  27:0  28:0  29:0  30:0  31:0  32:0  33:0  34:0  35:0  36:0  37:0  38:0  39:0  40:0  41:0  42:0  43:0  44:0  45:0  46:0  47:0 
9 0:0.20286  1:0.64509  2:0.13914  3:0.010173  4:0.0010537  5:0.001685  6:0.18379  7:0.40463  8:0.27015  9:0.089902  10:0.026667  11:0.024856  12:0.083198  13:0.54007  14:0.30942  15:0.040767  16:0.0081612  17:0.018383  18:0.16445  19:0.67325  20:0.14723  21:0.013213  22:0.00097369  23:0.00088209  24:0  25:0  26:0  27:0  28:0  29:0  30:0  31:0  32:0  33:0  34:0  35:0  36:0  37:0  38:0  39:0  40:0  41:0  42:0  43:0  44:0  45:0  46:0  47:0 
9 0:0.24318  1:0.59061  2:0.12326  3:0.036861  4:0.0027585  5:0.0033336  6:0.091778  7:0.68961  8:0.15135  9:0.033435  10:0.014128  11:0.019696  12:0.092181  13:0.49644  14:0.34163  15:0.040401  16:0.011666  17:0.017676  18:0.28785  19:0.55881  20:0.12731  21:0.017396  22:0.0044455  23:0.0041833  24:0  25:0  26:0  27:0  28:0  29:0  30:0  31:0  32:0  33:0  34:0  35:0  36:0  37:0  38:0  39:0  40:0  41:0  42:0  43:0  44:0  45:0  46:0  47:0 
9 0:0.19399  1:0.60805  2:0.17312  3:0.023562  4:0.00094735  5:0.00033306  6:0.094128  7:0.85709  8:0.021826  9:0.013322  10:0.0056295  11:0.0080083  12:0.038136  13:0.47473  14:0.3191  15:0.10827  16:0.02084  17:0.038919  18:0.27154  19:0.63375  20:0.076896  21:0.012541  22:0.0023977  23:0.0028775  24:0  25:0  26:0  27:0  28:0  29:0  30:0  31:0  32:0  33:0  34:0  35:0  36:0  37:0  38:0  39:0  40:0  41:0  42:0  43:0  44:0  45:0  46:0  47:0 
9 0:0.27151  1:0.48781  2:0.20926  3:0.027873  4:0.0016963  5:0.0018519  6:0.3773  7:0.48213  8:0.11836  9:0.017693  10:0.0012234  11:0.0032973  12:0.078789  13:0.17014  14:0.36287  15:0.2043  16:0.062953  17:0.12096  18:0.26776  19:0.56813  20:0.12427  21:0.028002  22:0.0043707  23:0.0074684  24:0  25:0  26:0  27:0  28:0  29:0  30:0  31:0  32:0  33:0  34:0  35:0  36:0  37:0  38:0  39:0  40:0  41:0  42:0  43:0  44:0  45:0  46:0  47:0 
9 0:0.32655  1:0.43312  2:0.21604  3:0.021773  4:0.0012458  5:0.0012749  6:0.38512  7:0.49278  8:0.10648  9:0.012709  10:0.0007759  11:0.0021364  12:0.15016  13:0.17051  14:0.32346  15:0.17571  16:0.065186  17:0.11498  18:0.26291  19:0.52992  20:0.15187  21:0.036859  22:0.0065768  23:0.011865  24:0  25:0  26:0  27:0  28:0  29:0  30:0  31:0  32:0  33:0  34:0  35:0  36:0  37:0  38:0  39:0  40:0  41:0  42:0  43:0  44:0  45:0  46:0  47:0 
9 0:0.28539  1:0.53492  2:0.16761  3:0.011387  4:0.000461  5:0.00023629  6:0.38425  7:0.53267  8:0.073163  9:0.0091635  10:0.00043311  11:0.00031934  12:0.25124  13:0.30927  14:0.28345  15:0.084172  16:0.02617  17:0.045695  18:0.28071  19:0.58387  20:0.11093  21:0.015325  22:0.003661  23:0.0054954  24:0  25:0  26:0  27:0  28:0  29:0  30:0  31:0  32:0  33:0  34:0  35:0  36:0  37:0  38:0  39:0  40:0  41:0  42:0  43:0  44:0  45:0  46:0  47:0 
9 0:0.15778  1:0.75666  2:0.077341  3:0.0071753  4:0.00049853  5:0.00055162  6:0.37932  7:0.52369  8:0.082542  9:0.013358  10:0.00076256  11:0.00032932  12:0.18066  13:0.36324  14:0.30961  15:0.091871  16:0.013397  17:0.041217  18:0.26995  19:0.56486  20:0.14883  21:0.010115  22:0.0028248  23:0.0034286  24:0  25:0  26:0  27:0  28:0  29:0  30:0  31:0  32:0  33:0  34:0  35:0  36:0  37:0  38:0  39:0  40:0  41:0  42:0  43:0  44:0  45:0  46:0  47:0 
9 0:0.29168  1:0.59964  2:0.10052  3:0.007211  4:0.00063586  5:0.00031014  6:0.34733  7:0.53418  8:0.10905  9:0.008058  10:0.0010371  11:0.00034643  12:0.14238  13:0.39684  14:0.32797  15:0.091035  16:0.012806  17:0.028969  18:0.25816  19:0.59081  20:0.1367  21:0.0096652  22:0.0023573  23:0.002304  24:0  25:0  26:0  27:0  28:0  29:0  30:0  31:0  32:0  33:0  34:0  35:0  36:0  37:0  38:0  39:0  40:0  41:0  42:0  43:0  44:0  45:0  46:0  47:0 
9 0:0.38877  1:0.45425  2:0.14145  3:0.013107  4:0.001506  5:0.00092327  6:0.10768  7:0.66097  8:0.19368  9:0.021767  10:0.0056312  11:0.010264  12:0.099706  13:0.47341  14:0.29322  15:0.082927  16:0.015738  17:0.035002  18:0.27466  19:0.57316  20:0.12256  21:0.019677  22:0.0043127  23:0.0056269  24:0  25:0  26:0  27:0  28:0  29:0  30:0  31:0  32:0  33:0  34:0  35:0  36:0  37:0  38:0  39:0  40:0  41:0  42:0  43:0  44:0  45:0  46:0  47:0 
9 0:0.33383  1:0.48357  2:0.1471  3:0.030882  4:0.0022542  5:0.002363  6:0.17349  7:0.56326  8:0.1714  9:0.059418  10:0.0121  11:0.020339  12:0.12279  13:0.46948  14:0.27927  15:0.072856  16:0.020449  17:0.035151  18:0.22086  19:0.55698  20:0.17753  21:0.027389  22:0.0070386  23:0.010207  24:0  25:0  26:0  27:0  28:0  29:0  30:0  31:0  32:0  33:0  34:0  35:0  36:0  37:0  38:0  39:0  40:0  41:0  42:0  43:0  44:0  45:0  46:0  47:0 
9 0:0.40926  1:0.36226  2:0.17088  3:0.044916  4:0.0052349  5:0.0074454  6:0.20991  7:0.48235  8:0.18812  9:0.066017  10:0.0185  11:0.035116  12:0.14401  13:0.32732  14:0.43042  15:0.049715  16:0.017851  17:0.03069  18:0.39317  19:0.4116  20:0.13514  21:0.035952  22:0.0087381  23:0.015408  24:0  25:0  26:0  27:0  28:0  29:0  30:0  31:0  32:0  33:0  34:0  35:0  36:0  37:0  38:0  39:0  40:0  41:0  42:0  43:0  44:0  45:0  46:0  47:0 
6.9948 0:0.089672  1:0.51489  2:0.33617  3:0.042081  4:0.0066976  5:0.010489  6:0.069757  7:0.66234  8:0.184  9:0.051307  10:0.017111  11:0.015484  12:0.15645  13:0.38662  14:0.36699  15:0.071118  16:0.0094674  17:0.0093537  18:0.11325  19:0.49498  20:0.3481  21:0.027797  22:0.0083349  23:0.0075403  24:0  25:0  26:0  27:0  28:0  29:0  30:0  31:0  32:0  33:0  34:0  35:0  36:0  37:0  38:0  39:0  40:0  41:0  42:0  43:0  44:0  45:0  46:0  47:0 
9 0:0.16716  1:0.52581  2:0.25481  3:0.036234  4:0.0071208  5:0.0088693  6:0.10118  7:0.41111  8:0.40291  9:0.053784  10:0.016433  11:0.014582  12:0.16627  13:0.5142  14:0.27386  15:0.024547  16:0.0092572  17:0.011877  18:0.1677  19:0.49591  20:0.29127  21:0.024935  22:0.012175  23:0.0080064  24:0  25:0  26:0  27:0  28:0  29:0  30:0  31:0  32:0  33:0  34:0  35:0  36:0  37:0  38:0  39:0  40:0  41:0  42:0  43:0  44:0  45:0  46:0  47:0 
9 0:0.21911  1:0.48805  2:0.21938  3:0.054719  4:0.0080853  5:0.010657  6:0.15337  7:0.43457  8:0.32598  9:0.063608  10:0.012654  11:0.0098189  12:0.14629  13:0.5705  14:0.20847  15:0.044357  16:0.011343  17:0.019034  18:0.15998  19:0.54151  20:0.26528  21:0.017277  22:0.0089689  23:0.0069826  24:0  25:0  26:0  27:0  28:0  29:0  30:0  31:0  32:0  33:0  34:0  35:0  36:0  37:0  38:0  39:0  40:0  41:0  42:0  43:0  44:0  45:0  46:0  47:0 
9 0:0.065677  1:0.72676  2:0.11041  3:0.073653  4:0.0078748  5:0.015619  6:0.13192  7:0.46277  8:0.31482  9:0.069134  10:0.012482  11:0.0088743  12:0.10919  13:0.59476  14:0.21777  15:0.055869  16:0.010471  17:0.01195  18:0.080527  19:0.61486  20:0.25413  21:0.039694  22:0.0055837  23:0.0052048  24:0  25:0  26:0  27:0  28:0  29:0  30:0  31:0  32:0  33:0  34:0  35:0  36:0  37:0  38:0  39:0  40:0  41:0  42:0  43:0  44:0  45:0  46:0  47:0 
9 0:0.085179  1:0.56612  2:0.24402  3:0.076211  4:0.010675  5:0.017798  6:0.042579  7:0.49738  8:0.40264  9:0.038706  10:0.0096009  11:0.0090992  12:0.08818  13:0.62699  14:0.22474  15:0.042007  16:0.0088339  17:0.0092451  18:0.082717  19:0.64762  20:0.20032  21:0.056617  22:0.0069407  23:0.0057801  24:0  25:0  26:0  27:0  28:0  29:0  30:0  31:0  32:0  33:0  34:0  35:0  36:0  37:0  38:0  39:0  40:0  41:0  42:0  43:0  44:0  45:0  46:0  47:0 
9 0:0.13652  1:0.46312  2:0.34393  3:0.042443  4:0.0056927  5:0.0083012  6:0.037152  7:0.55353  8:0.28484  9:0.089216  10:0.017133  11:0.018124  12:0.069241  13:0.62546  14:0.21011  15:0.060592  16:0.011147  17:0.023449  18:0.073528  19:0.35221  20:0.50468  21:0.053183  22:0.0082119  23:0.0081943  24:0  25:0  26:0  27:0  28:0  29:0  30:0  31:0  32:0  33:0  34:0  35:0  36:0  37:0  38:0  39:0  40:0  41:0  42:0  43:0  44:0  45:0  46:0  47:0 
2.6096 0:0.25455  1:0.36891  2:0.30766  3:0.05587  4:0.0058568  5:0.0071562  6:0.054474  7:0.61556  8:0.26608  9:0.041199  10:0.01029  11:0.012395  12:0.093652  13:0.477  14:0.38586  15:0.025545  16:0.0087538  17:0.0091895  18:0.28054  19:0.33953  20:0.32904  21:0.039014  22:0.0061192  23:0.0057477  24:0  25:0  26:0  27:0  28:0  29:0  30:0  31:0  32:0  33:0  34:0  35:0  36:0  37:0  38:0  39:0  40:0  41:0  42:0  43:0  44:0  45:0  46:0  47:0 
9 0:0.23656  1:0.46954  2:0.25103  3:0.0335  4:0.0043085  5:0.0050586  6:0.042537  7:0.61369  8:0.29087  9:0.036069  10:0.010279  11:0.0065568  12:0.11852  13:0.5937  14:0.23646  15:0.03882  16:0.0069399  17:0.0055554  18:0.30274  19:0.42571  20:0.23411  21:0.02994  22:0.0032994  23:0.0042049  24:0  25:0  26:0  27:0  28:0  29:0  30:0  31:0  32:0  33:0  34:0  35:0  36:0  37:0  38:0  39:0  40:0  41:0  42:0  43:0  44:0  45:0  46:0  47:0 
9 0:0.39643  1:0.49214  2:0.088635  3:0.017505  4:0.0028887  5:0.002398  6:0.075729  7:0.60596  8:0.25791  9:0.039613  10:0.010691  11:0.010096  12:0.16986  13:0.61475  14:0.1626  15:0.043326  16:0.0043639  17:0.005092  18:0.44864  19:0.40751  20:0.1277  21:0.012535  22:0.0020378  23:0.0015863  24:0  25:0  26:0  27:0  28:0  29:0  30:0  31:0  32:0  33:0  34:0  35:0  36:0  37:0  38:0  39:0  40:0  41:0  42:0  43:0  44:0  45:0  46:0  47:0 
5.666 0:0.42544  1:0.45074  2:0.087464  3:0.030175  4:0.0038754  5:0.0022988  6:0.08741  7:0.65182  8:0.20653  9:0.031754  10:0.011172  11:0.011316  12:0.13929  13:0.47382  14:0.32002  15:0.050559  16:0.0059301  17:0.010381  18:0.4787  19:0.36592  20:0.12836  21:0.022351  22:0.0029779  23:0.0016952  24:0  25:0  26:0  27:0  28:0  29:0  30:0  31:0  32:0  33:0  34:0  35:0  36:0  37:0  38:0  39:0  40:0  41:0  42:0  43:0  44:0  45:0  46:0  47:0 
9 0:0.06562  1:0.57137  2:0.28245  3:0.06469  4:0.0082003  5:0.0076706  6:0.086952  7:0.52865  8:0.22303  9:0.13519  10:0.015127  11:0.01105  12:0.11131  13:0.55618  14:0.2635  15:0.050414  16:0.0096669  17:0.0089297  18:0.069536  19:0.62035  20:0.27507  21:0.021562  22:0.0082734  23:0.0052078  24:0  25:0  26:0  27:0  28:0  29:0  30:0  31:0  32:0  33:0  34:0  35:0  36:0  37:0  38:0  39:0  40:0  41:0  42:0  43:0  44:0  45:0  46:0  47:0 
9 0:0.060856  1:0.6178  2:0.26842  3:0.039728  4:0.0075822  5:0.0056075  6:0.092685  7:0.46014  8:0.28562  9:0.13594  10:0.012838  11:0.012782  12:0.10346  13:0.58236  14:0.24636  15:0.045847  16:0.010644  17:0.011332  18:0.084564  19:0.74583  20:0.13009  21:0.029744  22:0.0063083  23:0.0034648  24:0  25:0  26:0  27:0  28:0  29:0  30:0  31:0  32:0  33:0  34:0  35:0  36:0  37:0  38:0  39:0  40:0  41:0  42:0  43:0  44:0  45:0  46:0  47:0 
9 0:0.039728  1:0.32386  2:0.40461  3:0.065676  4:0.069194  5:0.096931  6:0.087302  7:0.33195  8:0.3589  9:0.063093  10:0.063873  11:0.094884  12:0.069069  13:0.62981  14:0.20439  15:0.059769  16:0.010458  17:0.026498  18:0.06065  19:0.31817  20:0.41316  21:0.059385  22:0.067575  23:0.081055  24:0  25:0  26:0  27:0  28:0  29:0  30:0  31:0  32:0  33:0  34:0  35:0  36:0  37:0  38:0  39:0  40:0  41:0  42:0  43:0  44:0  45:0  46:0  47:0 
9 0:0.055456  1:0.1849  2:0.30126  3:0.17062  4:0.11187  5:0.1759  6:0.14117  7:0.3413  8:0.28045  9:0.099745  10:0.053062  11:0.084268  12:0.10877  13:0.35522  14:0.25156  15:0.073959  16:0.048665  17:0.16183  18:0.11767  19:0.12284  20:0.34419  21:0.18079  22:0.09603  23:0.13848  24:0  25:0  26:0  27:0  28:0  29:0  30:0  31:0  32:0  33:0  34:0  35:0  36:0  37:0  38:0  39:0  40:0  41:0  42:0  43:0  44:0  45:0  46:0  47:0 
9 0:0.08165  1:0.15498  2:0.28268  3:0.20657  4:0.10413  5:0.16999  6:0.1505  7:0.37114  8:0.28075  9:0.09602  10:0.038636  11:0.062952  12:0.096375  13:0.3106  14:0.28794  15:0.075184  16:0.050469  17:0.17943  18:0.13611  19:0.10575  20:0.34665  21:0.19697  22:0.084598  23:0.12991  24:0  25:0  26:0  27:0  28:0  29:0  30:0  31:0  32:0  33:0  34:0  35:0  36:0  37:0  38:0  39:0  40:0  41:0  42:0  43:0  44:0  45:0  46:0  47:0 
9 0:0.19163  1:0.4156  2:0.28912  3:0.095256  4:0.0047092  5:0.0036881  6:0.13844  7:0.52283  8:0.21403  9:0.090228  10:0.020341  11:0.014126  12:0.10706  13:0.47477  14:0.25838  15:0.12678  16:0.020744  17:0.012274  18:0.29633  19:0.49421  20:0.14486  21:0.053986  22:0.005363  23:0.005251  24:0  25:0  26:0  27:0  28:0  29:0  30:0  31:0  32:0  33:0  34:0  35:0  36:0  37:0  38:0  39:0  40:0  41:0  42:0  43:0  44:0  45:0  46:0  47:0 
9 0:0.15782  1:0.73197  2:0.076241  3:0.02393  4:0.0031176  5:0.0069164  6:0.19953  7:0.56076  8:0.20962  9:0.026535  10:0.0021956  11:0.0013562  12:0.14832  13:0.52393  14:0.18171  15:0.12111  16:0.014239  17:0.010698  18:0.088557  19:0.70315  20:0.16832  21:0.033494  22:0.0036205  23:0.0028639  24:0  25:0  26:0  27:0  28:0  29:0  30:0  31:0  32:0  33:0  34:0  35:0  36:0  37:0  38:0  39:0  40:0  41:0  42:0  43:0  44:0  45:0  46:0  47:0 
9 0:0.16161  1:0.70707  2:0.10091  3:0.015688  4:0.0052472  5:0.0094804  6:0.20546  7:0.54809  8:0.21702  9:0.026305  10:0.0019416  11:0.001187  12:0.096134  13:0.51771  14:0.3187  15:0.054812  16:0.0065941  17:0.0060568  18:0.13208  19:0.63127  20:0.18979  21:0.038914  22:0.0033428  23:0.0046  24:0  25:0  26:0  27:0  28:0  29:0  30:0  31:0  32:0  33:0  34:0  35:0  36:0  37:0  38:0  39:0  40:0  41:0  42:0  43:0  44:0  45:0  46:0  47:0 
9 0:0.2225  1:0.42536  2:0.30217  3:0.0411  4:0.0043971  5:0.0044685  6:0.29722  7:0.45904  8:0.2269  9:0.013752  10:0.001293  11:0.0017992  12:0.36826  13:0.5094  14:0.09068  15:0.027658  16:0.0020259  17:0.0019713  18:0.2937  19:0.32138  20:0.29252  21:0.076024  22:0.0057606  23:0.010614  24:0  25:0  26:0  27:0  28:0  29:0  30:0  31:0  32:0  33:0  34:0  35:0  36:0  37:0  38:0  39:0  40:0  41:0  42:0  43:0  44:0  45:0  46:0  47:0 
9 0:0.047327  1:0.54358  2:0.36868  3:0.033431  4:0.0040432  5:0.0029404  6:0.11923  7:0.59639  8:0.2499  9:0.026997  10:0.0025077  11:0.0049816  12:0.4063  13:0.49994  14:0.064542  15:0.025226  16:0.0014583  17:0.0025362  18:0.24432  19:0.49334  20:0.21493  21:0.038438  22:0.0037941  23:0.0051747  24:0  25:0  26:0  27:0  28:0  29:0  30:0  31:0  32:0  33:0  34:0  35:0  36:0  37:0  38:0  39:0  40:0  41:0  42:0  43:0  44:0  45:0  46:0  47:0 
9 0:0.045443  1:0.53908  2:0.37747  3:0.030384  4:0.0034107  5:0.0042098  6:0.13317  7:0.63552  8:0.17318  9:0.047246  10:0.0037879  11:0.0070948  12:0.18561  13:0.61719  14:0.14245  15:0.046006  16:0.0027249  17:0.0060115  18:0.24425  19:0.5393  20:0.19108  21:0.019549  22:0.0021779  23:0.0036483  24:0  25:0  26:0  27:0  28:0  29:0  30:0  31:0  32:0  33:0  34:0  35:0  36:0  37:0  38:0  39:0  40:0  41:0  42:0  43:0  44:0  45:0  46:0  47:0 
9 0:0.13842  1:0.45722  2:0.36982  3:0.023776  4:0.0052785  5:0.0054833  6:0.10187  7:0.48478  8:0.31061  9:0.082923  10:0.010541  11:0.0092675  12:0.086708  13:0.59147  14:0.22336  15:0.064015  16:0.011198  17:0.02325  18:0.16823  19:0.35505  20:0.3834  21:0.076989  22:0.010105  23:0.0062225  24:0  25:0  26:0  27:0  28:0  29:0  30:0  31:0  32:0  33:0  34:0  35:0  36:0  37:0  38:0  39:0  40:0  41:0  42:0  43:0  44:0  45:0  46:0  47:0 
9 0:0.10146  1:0.55121  2:0.24457  3:0.086325  4:0.009504  5:0.0069285  6:0.047772  7:0.60259  8:0.2906  9:0.044597  10:0.0054474  11:0.0089931  12:0.18786  13:0.55703  14:0.18968  15:0.045086  16:0.0063136  17:0.014037  18:0.11437  19:0.66539  20:0.16796  21:0.041462  22:0.0074649  23:0.0033536  24:0  25:0  26:0  27:0  28:0  29:0  30:0  31:0  32:0  33:0  34:0  35:0  36:0  37:0  38:0  39:0  40:0  41:0  42:0  43:0  44:0  45:0  46:0  47:0 
9 0:0.18595  1:0.35162  2:0.44402  3:0.013778  4:0.0024342  5:0.0021892  6:0.11235  7:0.47122  8:0.36565  9:0.036813  10:0.0078163  11:0.0061605  12:0.032039  13:0.68792  14:0.17904  15:0.067458  16:0.014123  17:0.019419  18:0.14651  19:0.2428  20:0.38219  21:0.21504  22:0.0065162  23:0.0069471  24:0  25:0  26:0  27:0  28:0  29:0  30:0  31:0  32:0  33:0  34:0  35:0  36:0  37:0  38:0  39:0  40:0  41:0  42:0  43:0  44:0  45:0  46:0  47:0 
9 0:0.15181  1:0.59424  2:0.21427  3:0.035052  4:0.0023941  5:0.0022338  6:0.070999  7:0.5307  8:0.32635  9:0.053854  10:0.0085694  11:0.0095218  12:0.19013  13:0.47486  14:0.24879  15:0.050481  16:0.014969  17:0.020776  18:0.071796  19:0.33561  20:0.50935  21:0.07406  22:0.0046139  23:0.0045692  24:0  25:0  26:0  27:0  28:0  29:0  30:0  31:0  32:0  33:0  34:0  35:0  36:0  37:0  38:0  39:0  40:0  41:0  42:0  43:0  44:0  45:0  46:0  47:0 
9 0:0.062623  1:0.60124  2:0.2688  3:0.060339  4:0.0035468  5:0.0034508  6:0.078995  7:0.56924  8:0.26263  9:0.060234  10:0.014377  11:0.014523  12:0.17745  13:0.3036  14:0.4226  15:0.057956  16:0.012834  17:0.02557  18:0.068209  19:0.50514  20:0.36046  21:0.060193  22:0.0027156  23:0.0032796  24:0  25:0  26:0  27:0  28:0  29:0  30:0  31:0  32:0  33:0  34:0  35:0  36:0  37:0  38:0  39:0  40:0  41:0  42:0  43:0  44:0  45:0  46:0  47:0 
9 0:0.20206  1:0.43751  2:0.28384  3:0.063403  4:0.0075789  5:0.005619  6:0.073427  7:0.41852  8:0.38316  9:0.10296  10:0.013942  11:0.0079876  12:0.084773  13:0.43702  14:0.36277  15:0.078926  16:0.0099148  17:0.026599  18:0.067912  19:0.52248  20:0.32565  21:0.073568  22:0.0057592  23:0.0046387  24:0  25:0  26:0  27:0  28:0  29:0  30:0  31:0  32:0  33:0  34:0  35:0  36:0  37:0  38:0  39:0  40:0  41:0  42:0  43:0  44:0  45:0  46:0  47:0 
9 0:0.082972  1:0.60556  2:0.25251  3:0.048928  4:0.0064252  5:0.0036064  6:0.077352  7:0.55883  8:0.31852  9:0.034425  10:0.0056671  11:0.0052069  12:0.15847  13:0.5086  14:0.27026  15:0.049575  16:0.0036817  17:0.0094169  18:0.27711  19:0.43082  20:0.25354  21:0.031218  22:0.0042122  23:0.003101  24:0  25:0  26:0  27:0  28:0  29:0  30:0  31:0  32:0  33:0  34:0  35:0  36:0  37:0  38:0  39:0  40:0  41:0  42:0  43:0  44:0  45:0  46:0  47:0 
9 0:0.099258  1:0.582  2:0.27828  3:0.03076  4:0.005591  5:0.004109  6:0.11145  7:0.50203  8:0.34727  9:0.024499  10:0.007371  11:0.007367  12:0.091227  13:0.58338  14:0.24772  15:0.058644  16:0.0075579  17:0.011476  18:0.20705  19:0.49634  20:0.26416  21:0.026117  22:0.0034712  23:0.0028685  24:0  25:0  26:0  27:0  28:0  29:0  30:0  31:0  32:0  33:0  34:0  35:0  36:0  37:0  38:0  39:0  40:0  41:0  42:0  43:0  44:0  45:0  46:0  47:0 
9 0:0.033713  1:0.7545  2:0.15469  3:0.052556  4:0.0025616  5:0.0019841  6:0.31715  7:0.39522  8:0.24117  9:0.028494  10:0.0085237  11:0.00944  12:0.1524  13:0.56117  14:0.24195  15:0.036895  16:0.003044  17:0.0045412  18:0.029639  19:0.72901  20:0.21207  21:0.024312  22:0.0027758  23:0.0021906  24:0  25:0  26:0  27:0  28:0  29:0  30:0  31:0  32:0  33:0  34:0  35:0  36:0  37:0  38:0  39:0  40:0  41:0  42:0  43:0  44:0  45:0  46:0  47:0 
9 0:0.023776  1:0.72928  2:0.14863  3:0.093752  4:0.0026948  5:0.0018621  6:0.24655  7:0.41853  8:0.26348  9:0.055239  10:0.0071748  11:0.0090211  12:0.17097  13:0.53976  14:0.24983  15:0.034215  16:0.001659  17:0.0035722  18:0.041298  19:0.67201  20:0.23079  21:0.050153  22:0.0030484  23:0.002705  24:0  25:0  26:0  27:0  28:0  29:0  30:0  31:0  32:0  33:0  34:0  35:0  36:0  37:0  38:0  39:0  40:0  41:0  42:0  43:0  44:0  45:0  46:0  47:0 
9 0:0.058392  1:0.52621  2:0.37747  3:0.028248  4:0.0055755  5:0.0041041  6:0.045915  7:0.45542  8:0.40544  9:0.068479  10:0.012744  11:0.012002  12:0.032775  13:0.35022  14:0.47774  15:0.09754  16:0.0098838  17:0.031841  18:0.092476  19:0.55117  20:0.29502  21:0.054974  22:0.0033805  23:0.0029803  24:0  25:0  26:0  27:0  28:0  29:0  30:0  31:0  32:0  33:0  34:0  35:0  36:0  37:0  38:0  39:0  40:0  41:0  42:0  43:0  44:0  45:0  46:0  47:0 
9 0:0.1462  1:0.50341  2:0.27354  3:0.065492  4:0.0053481  5:0.0060079  6:0.066653  7:0.54297  8:0.30902  9:0.071454  10:0.0058765  11:0.0040227  12:0.041602  13:0.22689  14:0.62926  15:0.060869  16:0.0074452  17:0.033934  18:0.033799  19:0.69124  20:0.23357  21:0.036397  22:0.0025903  23:0.0024046  24:0  25:0  26:0  27:0  28:0  29:0  30:0  31:0  32:0  33:0  34:0  35:0  36:0  37:0  38:0  39:0  40:0  41:0  42:0  43:0  44:0  45:0  46:0  47:0 
9 0:0.10919  1:0.54682  2:0.25109  3:0.083192  4:0.0053354  5:0.0043737  6:0.08143  7:0.32276  8:0.40133  9:0.17997  10:0.010411  11:0.0041047  12:0.071487  13:0.386  14:0.31187  15:0.17349  16:0.010342  17:0.046801  18:0.037068  19:0.73417  20:0.1815  21:0.042528  22:0.0024136  23:0.0023256  24:0  25:0  26:0  27:0  28:0  29:0  30:0  31:0  32:0  33:0  34:0  35:0  36:0  37:0  38:0  39:0  40:0  41:0  42:0  43:0  44:0  45:0  46:0  47:0 
9 0:0.15838  1:0.4724  2:0.32797  3:0.036628  4:0.003275  5:0.0013487  6:0.10674  7:0.61164  8:0.18804  9:0.052824  10:0.016423  11:0.024334  12:0.32139  13:0.45786  14:0.1868  15:0.02773  16:0.0040453  17:0.0021844  18:0.10794  19:0.53249  20:0.31949  21:0.030801  22:0.0037975  23:0.0054739  24:0  25:0  26:0  27:0  28:0  29:0  30:0  31:0  32:0  33:0  34:0  35:0  36:0  37:0  38:0  39:0  40:0  41:0  42:0  43:0  44:0  45:0  46:0  47:0 
9 0:0.25279  1:0.59845  2:0.14049  3:0.0070702  4:0.00071613  5:0.00047887  6:0.13065  7:0.46687  8:0.33576  9:0.049054  10:0.0078748  11:0.0098015  12:0.18011  13:0.61096  14:0.19015  15:0.014425  16:0.0024478  17:0.0019132  18:0.20645  19:0.60856  20:0.17269  21:0.010179  22:0.0010947  23:0.0010233  24:0  25:0  26:0  27:0  28:0  29:0  30:0  31:0  32:0  33:0  34:0  35:0  36:0  37:0  38:0  39:0  40:0  41:0  42:0  43:0  44:0  45:0  46:0  47:0 
9 0:0.39777  1:0.52315  2:0.074644  3:0.0036481  4:0.00035564  5:0.00043924  6:0.20056  7:0.4322  8:0.30949  9:0.046845  10:0.0059289  11:0.0049821  12:0.29491  13:0.57774  14:0.1157  15:0.0085701  16:0.0016418  17:0.0014464  18:0.37209  19:0.52423  20:0.096015  21:0.0064935  22:0.0005932  23:0.00057147  24:0  25:0  26:0  27:0  28:0  29:0  30:0  31:0  32:0  33:0  34:0  35:0  36:0  37:0  38:0  39:0  40:0  41:0  42:0  43:0  44:0  45:0  46:0  47:0 
9 0:0.47502  1:0.45473  2:0.052721  3:0.016344  4:0.00062044  5:0.00056268  6:0.26037  7:0.46199  8:0.2061  9:0.047227  10:0.010682  11:0.013634  12:0.34593  13:0.5419  14:0.096276  15:0.01001  16:0.0023251  17:0.0035642  18:0.4654  19:0.42327  20:0.087465  21:0.021906  22:0.0012717  23:0.0006858  24:0  25:0  26:0  27:0  28:0  29:0  30:0  31:0  32:0  33:0  34:0  35:0  36:0  37:0  38:0  39:0  40:0  41:0  42:0  43:0  44:0  45:0  46:0  47:0 
9 0:0.25997  1:0.4149  2:0.25464  3:0.067514  4:0.0017031  5:0.0012702  6:0.11182  7:0.56741  8:0.19629  9:0.072758  10:0.022622  11:0.029098  12:0.14201  13:0.51644  14:0.28874  15:0.034444  16:0.0057434  17:0.012628  18:0.24558  19:0.34261  20:0.32252  21:0.084632  22:0.0031251  23:0.0015356  24:0  25:0  26:0  27:0  28:0  29:0  30:0  31:0  32:0  33:0  34:0  35:0  36:0  37:0  38:0  39:0  40:0  41:0  42:0  43:0  44:0  45:0  46:0  47:0 
9 0:0.089928  1:0.73752  2:0.15786  3:0.013772  4:0.00060439  5:0.00032055  6:0.066747  7:0.53524  8:0.30032  9:0.07483  10:0.011013  11:0.011853  12:0.13891  13:0.54418  14:0.25046  15:0.051961  16:0.0097658  17:0.0047268  18:0.063482  19:0.29979  20:0.58618  21:0.044758  22:0.0038657  23:0.0019332  24:0  25:0  26:0  27:0  28:0  29:0  30:0  31:0  32:0  33:0  34:0  35:0  36:0  37:0  38:0  39:0  40:0  41:0  42:0  43:0  44:0  45:0  46:0  47:0 
6.2657 0:0.026813  1:0.23456  2:0.71259  3:0.021205  4:0.0037778  5:0.0010607  6:0.030654  7:0.71518  8:0.15777  9:0.066071  10:0.013473  11:0.016854  12:0.037391  13:0.72463  14:0.16665  15:0.052114  16:0.012789  17:0.0064244  18:0.019708  19:0.19587  20:0.74994  21:0.029305  22:0.003106  23:0.0020771  24:0  25:0  26:0  27:0  28:0  29:0  30:0  31:0  32:0  33:0  34:0  35:0  36:0  37:0  38:0  39:0  40:0  41:0  42:0  43:0  44:0  45:0  46:0  47:0 
1.1185 0:0.081241  1:0.22568  2:0.55616  3:0.1336  4:0.0021611  5:0.0011638  6:0.041923  7:0.31885  8:0.48905  9:0.12378  10:0.012998  11:0.013398  12:0.13519  13:0.45904  14:0.26102  15:0.12029  16:0.01432  17:0.010137  18:0.12503  19:0.26629  20:0.47609  21:0.12057  22:0.0063425  23:0.0056742  24:0  25:0  26:0  27:0  28:0  29:0  30:0  31:0  32:0  33:0  34:0  35:0  36:0  37:0  38:0  39:0  40:0  41:0  42:0  43:0  44:0  45:0  46:0  47:0 
9 0:0.17581  1:0.32845  2:0.43278  3:0.059246  4:0.0019626  5:0.001744  6:0.072694  7:0.41672  8:0.3483  9:0.12295  10:0.015161  11:0.024179  12:0.14857  13:0.50918  14:0.22531  15:0.087305  16:0.016854  17:0.012788  18:0.23861  19:0.36434  20:0.31829  21:0.063085  22:0.0069824  23:0.008694  24:0  25:0  26:0  27:0  28:0  29:0  30:0  31:0  32:0  33:0  34:0  35:0  36:0  37:0  38:0  39:0  40:0  41:0  42:0  43:0  44:0  45:0  46:0  47:0 
9 0:0.1198  1:0.4961  2:0.35014  3:0.031334  4:0.0019114  5:0.00071768  6:0.071587  7:0.63628  8:0.22621  9:0.049246  10:0.0067787  11:0.0098962  12:0.033605  13:0.67014  14:0.22854  15:0.054106  16:0.0090197  17:0.0045912  18:0.091259  19:0.61594  20:0.26869  21:0.018784  22:0.0030607  23:0.0022703  24:0  25:0  26:0  27:0  28:0  29:0  30:0  31:0  32:0  33:0  34:0  35:0  36:0  37:0  38:0  39:0  40:0  41:0  42:0  43:0  44:0  45:0  46:0  47:0 
9 0:0.10343  1:0.58684  2:0.27069  3:0.034747  4:0.0033448  5:0.00095057  6:0.036876  7:0.73454  8:0.14909  9:0.065573  10:0.0059898  11:0.0079291  12:0.070013  13:0.70993  14:0.16756  15:0.039513  16:0.0085728  17:0.0044143  18:0.069  19:0.68045  20:0.18814  21:0.055468  22:0.0039725  23:0.0029736  24:0  25:0  26:0  27:0  28:0  29:0  30:0  31:0  32:0  33:0  34:0  35:0  36:0  37:0  38:0  39:0  40:0  41:0  42:0  43:0  44:0  45:0  46:0  47:0 
9 0:0.048386  1:0.62818  2:0.24608  3:0.07366  4:0.0025226  5:0.0011768  6:0.044319  7:0.7153  8:0.15434  9:0.071543  10:0.007226  11:0.0072738  12:0.030088  13:0.78765  14:0.15578  15:0.018712  16:0.0050386  17:0.002734  18:0.0228  19:0.55567  20:0.33995  21:0.076633  22:0.0030726  23:0.0018707  24:0  25:0  26:0  27:0  28:0  29:0  30:0  31:0  32:0  33:0  34:0  35:0  36:0  37:0  38:0  39:0  40:0  41:0  42:0  43:0  44:0  45:0  46:0  47:0 
9 0:0.026496  1:0.65038  2:0.278  3:0.042851  4:0.0015457  5:0.00072079  6:0.029912  7:0.81295  8:0.11377  9:0.033703  10:0.0049588  11:0.0047043  12:0.030497  13:0.76951  14:0.17264  15:0.02024  16:0.0045676  17:0.0025475  18:0.021464  19:0.66747  20:0.26321  21:0.04413  22:0.0015607  23:0.0021627  24:0  25:0  26:0  27:0  28:0  29:0  30:0  31:0  32:0  33:0  34:0  35:0  36:0  37:0  38:0  39:0  40:0  41:0  42:0  43:0  44:0  45:0  46:0  47:0 
9 0:0.07752  1:0.46259  2:0.43517  3:0.020694  4:0.0027298  5:0.0012991  6:0.14118  7:0.27099  8:0.38583  9:0.14891  10:0.020873  11:0.032215  12:0.14306  13:0.41504  14:0.3508  15:0.065922  16:0.016131  17:0.009046  18:0.078  19:0.50584  20:0.34371  21:0.055837  22:0.0065457  23:0.010066  24:0  25:0  26:0  27:0  28:0  29:0  30:0  31:0  32:0  33:0  34:0  35:0  36:0  37:0  38:0  39:0  40:0  41:0  42:0  43:0  44:0  45:0  46:0  47:0 
9 0:0.089306  1:0.45624  2:0.40967  3:0.038808  4:0.00435  5:0.0016275  6:0.10756  7:0.34995  8:0.40926  9:0.089868  10:0.022079  11:0.021287  12:0.052305  13:0.29077  14:0.53172  15:0.10486  16:0.012603  17:0.0077422  18:0.048546  19:0.49245  20:0.36755  21:0.077324  22:0.0069731  23:0.0071522  24:0  25:0  26:0  27:0  28:0  29:0  30:0  31:0  32:0  33:0  34:0  35:0  36:0  37:0  38:0  39:0  40:0  41:0  42:0  43:0  44:0  45:0  46:0  47:0 
9 0:0.12448  1:0.40185  2:0.43517  3:0.033421  4:0.0035699  5:0.0015087  6:0.063757  7:0.52218  8:0.31355  9:0.05816  10:0.020123  11:0.022224  12:0.063946  13:0.48913  14:0.34391  15:0.073913  16:0.019059  17:0.010038  18:0.25438  19:0.34367  20:0.3456  21:0.04394  22:0.0070149  23:0.0053998  24:0  25:0  26:0  27:0  28:0  29:0  30:0  31:0  32:0  33:0  34:0  35:0  36:0  37:0  38:0  39:0  40:0  41:0  42:0  43:0  44:0  45:0  46:0  47:0 
9 0:0.14425  1:0.51411  2:0.30092  3:0.036388  4:0.0031996  5:0.0011292  6:0.16473  7:0.57507  8:0.20365  9:0.040421  10:0.0072275  11:0.008892  12:0.10396  13:0.59668  14:0.18557  15:0.088848  16:0.016339  17:0.0086067  18:0.23259  19:0.4124  20:0.29583  21:0.049557  22:0.0056832  23:0.0039429  24:0  25:0  26:0  27:0  28:0  29:0  30:0  31:0  32:0  33:0  34:0  35:0  36:0  37:0  38:0  39:0  40:0  41:0  42:0  43:0  44:0  45:0  46:0  47:0 
9 0:0.039843  1:0.71372  2:0.20139  3:0.039021  4:0.00418  5:0.0018448  6:0.051896  7:0.69263  8:0.1454  9:0.076983  10:0.01376  11:0.019333  12:0.063785  13:0.41885  14:0.37311  15:0.11057  16:0.019918  17:0.013774  18:0.047295  19:0.64761  20:0.22862  21:0.065434  22:0.0068346  23:0.0042036  24:0  25:0  26:0  27:0  28:0  29:0  30:0  31:0  32:0  33:0  34:0  35:0  36:0  37:0  38:0  39:0  40:0  41:0  42:0  43:0  44:0  45:0  46:0  47:0 
9 0:0.084336  1:0.67642  2:0.19521  3:0.03858  4:0.0032687  5:0.0021836  6:0.20675  7:0.5648  8:0.13739  9:0.078079  10:0.0059074  11:0.0070687  12:0.081657  13:0.52949  14:0.29185  15:0.072482  16:0.01477  17:0.0097547  18:0.076803  19:0.57524  20:0.26111  21:0.078212  22:0.0057464  23:0.0028813  24:0  25:0  26:0  27:0  28:0  29:0  30:0  31:0  32:0  33:0  34:0  35:0  36:0  37:0  38:0  39:0  40:0  41:0  42:0  43:0  44:0  45:0  46:0  47:0 
9 0:0.12193  1:0.63931  2:0.19857  3:0.034074  4:0.0037584  5:0.00235  6:0.20952  7:0.57047  8:0.13983  9:0.067489  10:0.0051422  11:0.007544  12:0.040499  13:0.78155  14:0.13563  15:0.029223  16:0.009184  17:0.0039143  18:0.082853  19:0.51139  20:0.3499  21:0.04373  22:0.0068885  23:0.0052394  24:0  25:0  26:0  27:0  28:0  29:0  30:0  31:0  32:0  33:0  34:0  35:0  36:0  37:0  38:0  39:0  40:0  41:0  42:0  43:0  44:0  45:0  46:0  47:0 
9 0:0.098285  1:0.66297  2:0.17478  3:0.05607  4:0.0054214  5:0.0024767  6:0.054139  7:0.61513  8:0.24417  9:0.067092  10:0.0082516  11:0.011216  12:0.029833  13:0.75633  14:0.17766  15:0.025432  16:0.0067374  17:0.0040074  18:0.07387  19:0.5267  20:0.33117  21:0.049756  22:0.0091857  23:0.0093153  24:0  25:0  26:0  27:0  28:0  29:0  30:0  31:0  32:0  33:0  34:0  35:0  36:0  37:0  38:0  39:0  40:0  41:0  42:0  43:0  44:0  45:0  46:0  47:0 
9 0:0.16137  1:0.51972  2:0.24218  3:0.067446  4:0.0057388  5:0.0035359  6:0.045506  7:0.43908  8:0.40518  9:0.08244  10:0.013145  11:0.014644  12:0.075099  13:0.69913  14:0.18035  15:0.028067  16:0.0095532  17:0.0077983  18:0.10237  19:0.48906  20:0.33712  21:0.058165  22:0.0059808  23:0.0073008  24:0  25:0  26:0  27:0  28:0  29:0  30:0  31:0  32:0  33:0  34:0  35:0  36:0  37:0  38:0  39:0  40:0  41:0  42:0  43:0  44:0  45:0  46:0  47:0 
9 0:0.16681  1:0.45675  2:0.28645  3:0.083787  4:0.0036682  5:0.0025386  6:0.103  7:0.44194  8:0.34398  9:0.082169  10:0.017023  11:0.011891  12:0.1493  13:0.66659  14:0.1132  15:0.042295  16:0.016707  17:0.011905  18:0.13597  19:0.5349  20:0.25661  21:0.060707  22:0.0058611  23:0.0059427  24:0  25:0  26:0  27:0  28:0  29:0  30:0  31:0  32:0  33:0  34:0  35:0  36:0  37:0  38:0  39:0  40:0  41:0  42:0  43:0  44:0  45:0  46:0  47:0 
9 0:0.091387  1:0.59076  2:0.26519  3:0.048018  4:0.0031143  5:0.0015306  6:0.086499  7:0.66913  8:0.17227  9:0.050838  10:0.0078617  11:0.013407  12:0.12758  13:0.55016  14:0.23852  15:0.064409  16:0.00983  17:0.0094999  18:0.070682  19:0.59137  20:0.26852  21:0.058313  22:0.0043321  23:0.006784  24:0  25:0  26:0  27:0  28:0  29:0  30:0  31:0  32:0  33:0  34:0  35:0  36:0  37:0  38:0  39:0  40:0  41:0  42:0  43:0  44:0  45:0  46:0  47:0 
9 0:0.062389  1:0.58999  2:0.29374  3:0.047853  4:0.0039499  5:0.0020811  6:0.10647  7:0.65532  8:0.17336  9:0.037787  10:0.0099283  11:0.017128  12:0.09305  13:0.55408  14:0.29631  15:0.040492  16:0.008806  17:0.007258  18:0.029102  19:0.71485  20:0.18713  21:0.049607  22:0.0089278  23:0.010379  24:0  25:0  26:0  27:0  28:0  29:0  30:0  31:0  32:0  33:0  34:0  35:0  36:0  37:0  38:0  39:0  40:0  41:0  42:0  43:0  44:0  45:0  46:0  47:0 
9 0:0.095167  1:0.50432  2:0.34748  3:0.047773  4:0.0034073  5:0.0018505  6:0.10039  7:0.49402  8:0.29561  9:0.089954  10:0.0091921  11:0.010838  12:0.12644  13:0.45766  14:0.30467  15:0.086731  16:0.012705  17:0.011791  18:0.12849  19:0.43033  20:0.34915  21:0.082026  22:0.005612  23:0.004398  24:0  25:0  26:0  27:0  28:0  29:0  30:0  31:0  32:0  33:0  34:0  35:0  36:0  37:0  38:0  39:0  40:0  41:0  42:0  43:0  44:0  45:0  46:0  47:0 
