svm_type c_svc
kernel_type rbf
degree 3
gamma 0.5
nr_class 2
total_sv 25
rho -0.43211
label 0 1
probA -2.6633
probB -0.23326
nr_sv 12 13
SV
9 0:0.31981  1:0.4509  2:0.10068  3:0.040642  4:0.045439  5:0.042526  6:0.60015  7:0.17098  8:0.095405  9:0.052698  10:0.04859  11:0.032185  12:0.37378  13:0.19656  14:0.14322  15:0.059777  16:0.10786  17:0.11881  18:0.27074  19:0.36403  20:0.2082  21:0.054826  22:0.044639  23:0.057572  24:0  25:0  26:0  27:0  28:0  29:0  30:0  31:0  32:0  33:0  34:0  35:0  36:0  37:0  38:0  39:0  40:0  41:0  42:0  43:0  44:0  45:0  46:0  47:0
9 0:0.17341  1:0.42742  2:0.33526  3:0.052337  4:0.006328  5:0.0052494  6:0.20413  7:0.51733  8:0.2395  9:0.032577  10:0.0025123  11:0.003955  12:0.31586  13:0.59049  14:0.064617  15:0.027113  16:0.0010767  17:0.00085029  18:0.34175  19:0.31508  20:0.2754  21:0.056149  22:0.0055167  23:0.0061013  24:0  25:0  26:0  27:0  28:0  29:0  30:0  31:0  32:0  33:0  34:0  35:0  36:0  37:0  38:0  39:0  40:0  41:0  42:0  43:0  44:0  45:0  46:0  47:0
9 0:0.051578  1:0.56073  2:0.35105  3:0.029219  4:0.0034797  5:0.0039368  6:0.14661  7:0.57717  8:0.2393  9:0.02875  10:0.0026756  11:0.0054896  12:0.21501  13:0.65911  14:0.089814  15:0.028974  16:0.0023779  17:0.0047187  18:0.25325  19:0.54252  20:0.17823  21:0.021046  22:0.0021134  23:0.0028428  24:0  25:0  26:0  27:0  28:0  29:0  30:0  31:0  32:0  33:0  34:0  35:0  36:0  37:0  38:0  39:0  40:0  41:0  42:0  43:0  44:0  45:0  46:0  47:0
9 0:0.042758  1:0.51666  2:0.39852  3:0.033309  4:0.0034317  5:0.0053265  6:0.16516  7:0.53232  8:0.22755  9:0.060087  10:0.0049944  11:0.0098804  12:0.25698  13:0.51972  14:0.15525  15:0.056057  16:0.004142  17:0.0078555  18:0.21699  19:0.56891  20:0.19001  21:0.017385  22:0.0022059  23:0.0045066  24:0  25:0  26:0  27:0  28:0  29:0  30:0  31:0  32:0  33:0  34:0  35:0  36:0  37:0  38:0  39:0  40:0  41:0  42:0  43:0  44:0  45:0  46:0  47:0
9 0:0.11878  1:0.51234  2:0.32162  3:0.033497  4:0.008423  5:0.0053363  6:0.046429  7:0.5626  8:0.32326  9:0.053447  10:0.0075298  11:0.0067308  12:0.11518  13:0.56292  14:0.2231  15:0.068068  16:0.0099862  17:0.020744  18:0.14638  19:0.55908  20:0.22303  21:0.057195  22:0.0096868  23:0.0046196  24:0  25:0  26:0  27:0  28:0  29:0  30:0  31:0  32:0  33:0  34:0  35:0  36:0  37:0  38:0  39:0  40:0  41:0  42:0  43:0  44:0  45:0  46:0  47:0
9 0:0.094399  1:0.54921  2:0.26551  3:0.07902  4:0.0071149  5:0.0047523  6:0.076888  7:0.55739  8:0.31277  9:0.039146  10:0.0046008  11:0.0092051  12:0.24694  13:0.46606  14:0.22485  15:0.043662  16:0.0063144  17:0.012181  18:0.10064  19:0.67411  20:0.17579  21:0.041208  22:0.0057898  23:0.0024589  24:0  25:0  26:0  27:0  28:0  29:0  30:0  31:0  32:0  33:0  34:0  35:0  36:0  37:0  38:0  39:0  40:0  41:0  42:0  43:0  44:0  45:0  46:0  47:0
9 0:0.065178  1:0.6176  2:0.24829  3:0.062435  4:0.0030709  5:0.0034294  6:0.12572  7:0.60983  8:0.21795  9:0.037965  10:0.0029589  11:0.0055715  12:0.2161  13:0.54932  14:0.1847  15:0.034367  16:0.0051784  17:0.010333  18:0.043768  19:0.50918  20:0.40752  21:0.034005  22:0.0030609  23:0.0024579  24:0  25:0  26:0  27:0  28:0  29:0  30:0  31:0  32:0  33:0  34:0  35:0  36:0  37:0  38:0  39:0  40:0  41:0  42:0  43:0  44:0  45:0  46:0  47:0
4.0987 0:0.069635  1:0.63788  2:0.23932  3:0.046222  4:0.0039054  5:0.0030419  6:0.15651  7:0.63651  8:0.1705  9:0.027525  10:0.0038353  11:0.0051239  12:0.11194  13:0.57668  14:0.23369  15:0.049935  16:0.0081637  17:0.019592  18:0.03913  19:0.30873  20:0.59442  21:0.052709  22:0.0021236  23:0.0028872  24:0  25:0  26:0  27:0  28:0  29:0  30:0  31:0  32:0  33:0  34:0  35:0  36:0  37:0  38:0  39:0  40:0  41:0  42:0  43:0  44:0  45:0  46:0  47:0
9 0:0.08371  1:0.47111  2:0.33071  3:0.10878  4:0.0031104  5:0.0025795  6:0.25359  7:0.56404  8:0.13647  9:0.042834  10:0.002011  11:0.0010488  12:0.1346  13:0.5471  14:0.27081  15:0.038264  16:0.004762  17:0.0044627  18:0.12547  19:0.44822  20:0.30313  21:0.11381  22:0.0060592  23:0.0033078  24:0  25:0  26:0  27:0  28:0  29:0  30:0  31:0  32:0  33:0  34:0  35:0  36:0  37:0  38:0  39:0  40:0  41:0  42:0  43:0  44:0  45:0  46:0  47:0
3.9025 0:0.14782  1:0.63226  2:0.2013  3:0.014233  4:0.0023359  5:0.0020567  6:0.19957  7:0.41385  8:0.31721  9:0.056908  10:0.0060311  11:0.0064307  12:0.2962  13:0.50648  14:0.17632  15:0.014156  16:0.003193  17:0.0036468  18:0.25151  19:0.2788  20:0.43029  21:0.033039  22:0.0031691  23:0.0031943  24:0  25:0  26:0  27:0  28:0  29:0  30:0  31:0  32:0  33:0  34:0  35:0  36:0  37:0  38:0  39:0  40:0  41:0  42:0  43:0  44:0  45:0  46:0  47:0
9 0:0.25063  1:0.36782  2:0.32214  3:0.053636  4:0.0028876  5:0.0028799  6:0.1332  7:0.49798  8:0.31252  9:0.043138  10:0.0077536  11:0.005413  12:0.1479  13:0.49758  14:0.29993  15:0.032621  16:0.0088223  17:0.013149  18:0.042096  19:0.52017  20:0.32902  21:0.10224  22:0.0029305  23:0.0035429  24:0  25:0  26:0  27:0  28:0  29:0  30:0  31:0  32:0  33:0  34:0  35:0  36:0  37:0  38:0  39:0  40:0  41:0  42:0  43:0  44:0  45:0  46:0  47:0
0.99572 0:0.20823  1:0.52596  2:0.24257  3:0.020199  4:0.0012686  5:0.0017657  6:0.075256  7:0.42455  8:0.43841  9:0.043701  10:0.0092381  11:0.0088498  12:0.04568  13:0.49125  14:0.41206  15:0.029873  16:0.008892  17:0.012243  18:0.023425  19:0.42325  20:0.49311  21:0.054248  22:0.0032239  23:0.0027367  24:0  25:0  26:0  27:0  28:0  29:0  30:0  31:0  32:0  33:0  34:0  35:0  36:0  37:0  38:0  39:0  40:0  41:0  42:0  43:0  44:0  45:0  46:0  47:0
-4.3799 0:0.32871  1:0.44131  2:0.11919  3:0.047684  4:0.029557  5:0.033556  6:0.3292  7:0.49168  8:0.13915  9:0.01136  10:0.012465  11:0.016136  12:0.29061  13:0.4992  14:0.12384  15:0.01905  16:0.031472  17:0.035823  18:0.32379  19:0.37094  20:0.19352  21:0.039601  22:0.031119  23:0.041035  24:0  25:0  26:0  27:0  28:0  29:0  30:0  31:0  32:0  33:0  34:0  35:0  36:0  37:0  38:0  39:0  40:0  41:0  42:0  43:0  44:0  45:0  46:0  47:0
-0.13987 0:0.089327  1:0.64896  2:0.2321  3:0.018508  4:0.0054289  5:0.0056735  6:0.51676  7:0.33673  8:0.12975  9:0.015657  10:0.00059771  11:0.00050949  12:0.25964  13:0.56757  14:0.16514  15:0.0057076  16:0.0012284  17:0.00070867  18:0.21529  19:0.58797  20:0.18043  21:0.009438  22:0.0038507  23:0.0030214  24:0  25:0  26:0  27:0  28:0  29:0  30:0  31:0  32:0  33:0  34:0  35:0  36:0  37:0  38:0  39:0  40:0  41:0  42:0  43:0  44:0  45:0  46:0  47:0
-5.2935 0:0.15678  1:0.63198  2:0.18982  3:0.017022  4:0.0019355  5:0.0024521  6:0.053619  7:0.47958  8:0.3918  9:0.069325  10:0.0023342  11:0.0033384  12:0.15767  13:0.72941  14:0.098552  15:0.013924  16:0.00028851  17:0.0001546  18:0.17564  19:0.64835  20:0.1583  21:0.014082  22:0.0015559  23:0.0020774  24:0  25:0  26:0  27:0  28:0  29:0  30:0  31:0  32:0  33:0  34:0  35:0  36:0  37:0  38:0  39:0  40:0  41:0  42:0  43:0  44:0  45:0  46:0  47:0
-9 0:0.331  1:0.31054  2:0.30764  3:0.024088  4:0.009403  5:0.017328  6:0.1591  7:0.71628  8:0.11794  9:0.0062754  10:0.00029319  11:0.00011625  12:0.46372  13:0.45634  14:0.066827  15:0.0088177  16:0.0022195  17:0.002077  18:0.28752  19:0.34372  20:0.31999  21:0.028816  22:0.0085523  23:0.011399  24:0  25:0  26:0  27:0  28:0  29:0  30:0  31:0  32:0  33:0  34:0  35:0  36:0  37:0  38:0  39:0  40:0  41:0  42:0  43:0  44:0  45:0  46:0  47:0
-9 0:0.1716  1:0.50977  2:0.30289  3:0.0070936  4:0.0041303  5:0.0045127  6:0.10056  7:0.77499  8:0.11589  9:0.0063061  10:0.0010689  11:0.0011886  12:0.18065  13:0.49346  14:0.29003  15:0.032856  16:0.0018378  17:0.0011615  18:0.18733  19:0.50428  20:0.28819  21:0.0095791  22:0.0043833  23:0.0062416  24:0  25:0  26:0  27:0  28:0  29:0  30:0  31:0  32:0  33:0  34:0  35:0  36:0  37:0  38:0  39:0  40:0  41:0  42:0  43:0  44:0  45:0  46:0  47:0
-9 0:0.087266  1:0.70082  2:0.18879  3:0.017788  4:0.0026781  5:0.0026524  6:0.051975  7:0.53995  8:0.38786  9:0.018328  10:0.0012146  11:0.00067182  12:0.31934  13:0.51587  14:0.14411  15:0.016713  16:0.0015687  17:0.0023954  18:0.10899  19:0.67121  20:0.19913  21:0.016516  22:0.0023117  23:0.0018375  24:0  25:0  26:0  27:0  28:0  29:0  30:0  31:0  32:0  33:0  34:0  35:0  36:0  37:0  38:0  39:0  40:0  41:0  42:0  43:0  44:0  45:0  46:0  47:0
-9 0:0.14761  1:0.55881  2:0.24584  3:0.02854  4:0.0080009  5:0.011191  6:0.36694  7:0.41206  8:0.16972  9:0.0326  10:0.011836  11:0.0068518  12:0.18506  13:0.64599  14:0.12204  15:0.027758  16:0.0057143  17:0.013442  18:0.13778  19:0.5514  20:0.26471  21:0.03593  22:0.0046744  23:0.0055057  24:0  25:0  26:0  27:0  28:0  29:0  30:0  31:0  32:0  33:0  34:0  35:0  36:0  37:0  38:0  39:0  40:0  41:0  42:0  43:0  44:0  45:0  46:0  47:0
-9 0:0.11735  1:0.60426  2:0.2492  3:0.016537  4:0.0063779  5:0.006271  6:0.28907  7:0.51623  8:0.16773  9:0.024634  10:0.0012886  11:0.0010511  12:0.13689  13:0.41981  14:0.3344  15:0.076925  16:0.011553  17:0.020414  18:0.099672  19:0.58478  20:0.28814  21:0.020739  22:0.0027995  23:0.0038683  24:0  25:0  26:0  27:0  28:0  29:0  30:0  31:0  32:0  33:0  34:0  35:0  36:0  37:0  38:0  39:0  40:0  41:0  42:0  43:0  44:0  45:0  46:0  47:0
-8.4233 0:0.23091  1:0.57837  2:0.18109  3:0.0067247  4:0.0010808  5:0.0018127  6:0.078252  7:0.47814  8:0.41869  9:0.023923  10:0.00061749  11:0.00038448  12:0.10495  13:0.48559  14:0.26293  15:0.086021  16:0.020446  17:0.040066  18:0.20738  19:0.59999  20:0.18461  21:0.0062934  22:0.00096148  23:0.00076543  24:0  25:0  26:0  27:0  28:0  29:0  30:0  31:0  32:0  33:0  34:0  35:0  36:0  37:0  38:0  39:0  40:0  41:0  42:0  43:0  44:0  45:0  46:0  47:0
-5.6826 0:0.11678  1:0.56406  2:0.27832  3:0.034733  4:0.0029607  5:0.0031484  6:0.17818  7:0.69689  8:0.10232  9:0.02072  10:0.0012743  11:0.00060364  12:0.29363  13:0.3676  14:0.21177  15:0.044238  16:0.051429  17:0.031329  18:0.12956  19:0.6116  20:0.22329  21:0.030617  22:0.002035  23:0.0028987  24:0  25:0  26:0  27:0  28:0  29:0  30:0  31:0  32:0  33:0  34:0  35:0  36:0  37:0  38:0  39:0  40:0  41:0  42:0  43:0  44:0  45:0  46:0  47:0
-3.0777 0:0.19094  1:0.60162  2:0.18666  3:0.0139  4:0.0041285  5:0.0027574  6:0.25453  7:0.39832  8:0.30394  9:0.024947  10:0.0053497  11:0.012911  12:0.27508  13:0.55792  14:0.13842  15:0.022572  16:0.0018498  17:0.0041641  18:0.14219  19:0.60772  20:0.23407  21:0.013592  22:0.0012799  23:0.0011393  24:0  25:0  26:0  27:0  28:0  29:0  30:0  31:0  32:0  33:0  34:0  35:0  36:0  37:0  38:0  39:0  40:0  41:0  42:0  43:0  44:0  45:0  46:0  47:0
-9 0:0.15212  1:0.52475  2:0.29458  3:0.021216  4:0.0035301  5:0.0037978  6:0.30395  7:0.51996  8:0.13677  9:0.020747  10:0.012436  11:0.0061315  12:0.12201  13:0.62152  14:0.2097  15:0.036144  16:0.0044158  17:0.0062056  18:0.13878  19:0.55507  20:0.28756  21:0.014144  22:0.0016367  23:0.0028061  24:0  25:0  26:0  27:0  28:0  29:0  30:0  31:0  32:0  33:0  34:0  35:0  36:0  37:0  38:0  39:0  40:0  41:0  42:0  43:0  44:0  45:0  46:0  47:0
-9 0:0.21304  1:0.39564  2:0.36817  3:0.015241  4:0.0045279  5:0.0033754  6:0.25663  7:0.44836  8:0.20336  9:0.058292  10:0.01608  11:0.017284  12:0.11387  13:0.59492  14:0.20686  15:0.049872  16:0.013009  17:0.021458  18:0.20466  19:0.38306  20:0.3965  21:0.011366  22:0.0017925  23:0.0026201  24:0  25:0  26:0  27:0  28:0  29:0  30:0  31:0  32:0  33:0  34:0  35:0  36:0  37:0  38:0  39:0  40:0  41:0  42:0  43:0  44:0  45:0  46:0  47:0
