svm_type c_svc
kernel_type rbf
degree 3
gamma 0.5
nr_class 2
total_sv 117
rho 1.334
label 0 1
probA -2.5298
probB -0.11056
nr_sv 59 58
SV
9 0:0.2353  1:0.46174  2:0.20489  3:0.039767  4:0.027706  5:0.030597  6:0.32866  7:0.26805  8:0.15089  9:0.074079  10:0.079381  11:0.098933  12:0.34738  13:0.21192  14:0.12811  15:0.075016  16:0.11585  17:0.12172  18:0.225  19:0.45254  20:0.23578  21:0.036736  22:0.023421  23:0.026526  24:0  25:0  26:0  27:0  28:0  29:0  30:0  31:0  32:0  33:0  34:0  35:0  36:0  37:0  38:0  39:0  40:0  41:0  42:0  43:0  44:0  45:0  46:0  47:0
9 0:0.22986  1:0.55714  2:0.18698  3:0.022274  4:0.002045  5:0.0016904  6:0.25377  7:0.44357  8:0.22897  9:0.05307  10:0.0088712  11:0.011753  12:0.21151  13:0.39259  14:0.32318  15:0.05363  16:0.0091868  17:0.0098999  18:0.18337  19:0.52982  20:0.25431  21:0.029143  22:0.0018431  23:0.0015183  24:0  25:0  26:0  27:0  28:0  29:0  30:0  31:0  32:0  33:0  34:0  35:0  36:0  37:0  38:0  39:0  40:0  41:0  42:0  43:0  44:0  45:0  46:0  47:0
9 0:0.23369  1:0.65159  2:0.10454  3:0.008087  4:0.001121  5:0.00097594  6:0.25746  7:0.42177  8:0.22643  9:0.058368  10:0.019711  11:0.016259  12:0.16942  13:0.51858  14:0.25655  15:0.045992  16:0.0036017  17:0.0058521  18:0.22212  19:0.6443  20:0.12028  21:0.011152  22:0.00096072  23:0.0011816  24:0  25:0  26:0  27:0  28:0  29:0  30:0  31:0  32:0  33:0  34:0  35:0  36:0  37:0  38:0  39:0  40:0  41:0  42:0  43:0  44:0  45:0  46:0  47:0
9 0:0.20874  1:0.6215  2:0.14992  3:0.016992  4:0.0014264  5:0.0014246  6:0.15315  7:0.51272  8:0.1865  9:0.092519  10:0.029605  11:0.025507  12:0.10336  13:0.54184  14:0.29333  15:0.044719  16:0.007176  17:0.0095783  18:0.19417  19:0.61047  20:0.1742  21:0.018075  22:0.0012707  23:0.001822  24:0  25:0  26:0  27:0  28:0  29:0  30:0  31:0  32:0  33:0  34:0  35:0  36:0  37:0  38:0  39:0  40:0  41:0  42:0  43:0  44:0  45:0  46:0  47:0
9 0:0.20597  1:0.58734  2:0.18556  3:0.017727  4:0.0014087  5:0.0019937  6:0.17214  7:0.60758  8:0.17126  9:0.032197  10:0.0066062  11:0.010216  12:0.10399  13:0.43433  14:0.39626  15:0.044292  16:0.010751  17:0.010374  18:0.15906  19:0.577  20:0.2337  21:0.02581  22:0.0015806  23:0.0028515  24:0  25:0  26:0  27:0  28:0  29:0  30:0  31:0  32:0  33:0  34:0  35:0  36:0  37:0  38:0  39:0  40:0  41:0  42:0  43:0  44:0  45:0  46:0  47:0
9 0:0.2563  1:0.62063  2:0.11343  3:0.0075844  4:0.0010597  5:0.00099357  6:0.20266  7:0.65697  8:0.11016  9:0.020934  10:0.0038216  11:0.0054532  12:0.14849  13:0.45854  14:0.30871  15:0.05649  16:0.011829  17:0.015939  18:0.23418  19:0.59629  20:0.14647  21:0.018994  22:0.0016395  23:0.0024293  24:0  25:0  26:0  27:0  28:0  29:0  30:0  31:0  32:0  33:0  34:0  35:0  36:0  37:0  38:0  39:0  40:0  41:0  42:0  43:0  44:0  45:0  46:0  47:0
9 0:0.24144  1:0.60963  2:0.13446  3:0.012043  4:0.0014959  5:0.00092918  6:0.2786  7:0.59282  8:0.086658  9:0.033084  10:0.0037517  11:0.0050802  12:0.12792  13:0.40736  14:0.31054  15:0.10977  16:0.019105  17:0.025301  18:0.22775  19:0.54348  20:0.19901  21:0.024609  22:0.0024327  23:0.0027208  24:0  25:0  26:0  27:0  28:0  29:0  30:0  31:0  32:0  33:0  34:0  35:0  36:0  37:0  38:0  39:0  40:0  41:0  42:0  43:0  44:0  45:0  46:0  47:0
9 0:0.26837  1:0.53602  2:0.17188  3:0.01858  4:0.0025134  5:0.0026279  6:0.14616  7:0.57843  8:0.24191  9:0.025942  10:0.0033385  11:0.0042206  12:0.30068  13:0.4038  14:0.22051  15:0.045766  16:0.014596  17:0.014645  18:0.34419  19:0.54021  20:0.095426  21:0.016522  22:0.0015312  23:0.0021209  24:0  25:0  26:0  27:0  28:0  29:0  30:0  31:0  32:0  33:0  34:0  35:0  36:0  37:0  38:0  39:0  40:0  41:0  42:0  43:0  44:0  45:0  46:0  47:0
9 0:0.38401  1:0.40053  2:0.18369  3:0.027374  4:0.0018835  5:0.00252  6:0.28058  7:0.46961  8:0.19065  9:0.048193  10:0.0049423  11:0.0060219  12:0.28268  13:0.46602  14:0.19725  15:0.033033  16:0.011979  17:0.0090345  18:0.44081  19:0.44998  20:0.091524  21:0.014579  22:0.0010777  23:0.0020231  24:0  25:0  26:0  27:0  28:0  29:0  30:0  31:0  32:0  33:0  34:0  35:0  36:0  37:0  38:0  39:0  40:0  41:0  42:0  43:0  44:0  45:0  46:0  47:0
9 0:0.5186  1:0.33042  2:0.11713  3:0.029677  4:0.0022364  5:0.0019389  6:0.33387  7:0.49726  8:0.14055  9:0.023693  10:0.0021252  11:0.0024978  12:0.38487  13:0.41023  14:0.16923  15:0.025477  16:0.0062725  17:0.0039201  18:0.54191  19:0.36155  20:0.085313  21:0.0089535  22:0.0010202  23:0.0012573  24:0  25:0  26:0  27:0  28:0  29:0  30:0  31:0  32:0  33:0  34:0  35:0  36:0  37:0  38:0  39:0  40:0  41:0  42:0  43:0  44:0  45:0  46:0  47:0
9 0:0.11453  1:0.55677  2:0.27354  3:0.050978  4:0.0025633  5:0.0016248  6:0.10982  7:0.55074  8:0.28355  9:0.050201  10:0.0030292  11:0.0026594  12:0.071863  13:0.73465  14:0.1508  15:0.038037  16:0.0024189  17:0.002238  18:0.12564  19:0.58859  20:0.24234  21:0.038671  22:0.0030731  23:0.0016821  24:0  25:0  26:0  27:0  28:0  29:0  30:0  31:0  32:0  33:0  34:0  35:0  36:0  37:0  38:0  39:0  40:0  41:0  42:0  43:0  44:0  45:0  46:0  47:0
9 0:0.17339  1:0.54377  2:0.24513  3:0.029309  4:0.0044309  5:0.0039734  6:0.26099  7:0.57364  8:0.13377  9:0.025859  10:0.002456  11:0.0032846  12:0.15834  13:0.62154  14:0.13301  15:0.065508  16:0.012879  17:0.0087269  18:0.15354  19:0.54311  20:0.24877  21:0.042829  22:0.0051108  23:0.0066305  24:0  25:0  26:0  27:0  28:0  29:0  30:0  31:0  32:0  33:0  34:0  35:0  36:0  37:0  38:0  39:0  40:0  41:0  42:0  43:0  44:0  45:0  46:0  47:0
1.8126 0:0.059914  1:0.48464  2:0.3912  3:0.053771  4:0.0057051  5:0.0047649  6:0.45177  7:0.35622  8:0.11289  9:0.056895  10:0.010337  11:0.011895  12:0.080076  13:0.5284  14:0.2261  15:0.11792  16:0.024786  17:0.022712  18:0.059663  19:0.33861  20:0.52304  21:0.068945  22:0.0048762  23:0.0048708  24:0  25:0  26:0  27:0  28:0  29:0  30:0  31:0  32:0  33:0  34:0  35:0  36:0  37:0  38:0  39:0  40:0  41:0  42:0  43:0  44:0  45:0  46:0  47:0
9 0:0.10214  1:0.38855  2:0.41301  3:0.086468  4:0.0052416  5:0.0045838  6:0.20027  7:0.40831  8:0.29304  9:0.080262  10:0.0096827  11:0.0084423  12:0.084382  13:0.35179  14:0.41857  15:0.090612  16:0.028687  17:0.025954  18:0.16528  19:0.45523  20:0.29258  21:0.071284  22:0.0097408  23:0.0058798  24:0  25:0  26:0  27:0  28:0  29:0  30:0  31:0  32:0  33:0  34:0  35:0  36:0  37:0  38:0  39:0  40:0  41:0  42:0  43:0  44:0  45:0  46:0  47:0
9 0:0.12809  1:0.40395  2:0.39649  3:0.058294  4:0.0071392  5:0.0060382  6:0.25804  7:0.42416  8:0.25374  9:0.032622  10:0.012229  11:0.019204  12:0.23874  13:0.429  14:0.16895  15:0.093869  16:0.029061  17:0.040383  18:0.048308  19:0.61841  20:0.26955  21:0.052651  22:0.0070021  23:0.0040788  24:0  25:0  26:0  27:0  28:0  29:0  30:0  31:0  32:0  33:0  34:0  35:0  36:0  37:0  38:0  39:0  40:0  41:0  42:0  43:0  44:0  45:0  46:0  47:0
5.8052 0:0.10571  1:0.37431  2:0.46394  3:0.039377  4:0.011833  5:0.004828  6:0.20918  7:0.33839  8:0.36106  9:0.054486  10:0.013681  11:0.023203  12:0.20683  13:0.39989  14:0.25111  15:0.051744  16:0.035798  17:0.054631  18:0.11151  19:0.53269  20:0.31012  21:0.032735  22:0.0081677  23:0.0047755  24:0  25:0  26:0  27:0  28:0  29:0  30:0  31:0  32:0  33:0  34:0  35:0  36:0  37:0  38:0  39:0  40:0  41:0  42:0  43:0  44:0  45:0  46:0  47:0
5.5811 0:0.019123  1:0.61983  2:0.31559  3:0.037235  4:0.0054617  5:0.0027666  6:0.34574  7:0.35398  8:0.23594  9:0.046094  10:0.0087295  11:0.0095114  12:0.13669  13:0.24791  14:0.43479  15:0.091281  16:0.039249  17:0.050078  18:0.018367  19:0.43781  20:0.49567  21:0.039937  22:0.0041298  23:0.004083  24:0  25:0  26:0  27:0  28:0  29:0  30:0  31:0  32:0  33:0  34:0  35:0  36:0  37:0  38:0  39:0  40:0  41:0  42:0  43:0  44:0  45:0  46:0  47:0
9 0:0.030726  1:0.55047  2:0.37972  3:0.032206  4:0.0028828  5:0.0040038  6:0.07692  7:0.59528  8:0.28135  9:0.026347  10:0.010808  11:0.0093013  12:0.062551  13:0.29179  14:0.41536  15:0.16266  16:0.026393  17:0.041253  18:0.044679  19:0.55974  20:0.34381  21:0.038994  22:0.0058977  23:0.0068834  24:0  25:0  26:0  27:0  28:0  29:0  30:0  31:0  32:0  33:0  34:0  35:0  36:0  37:0  38:0  39:0  40:0  41:0  42:0  43:0  44:0  45:0  46:0  47:0
2.2549 0:0.033725  1:0.25217  2:0.67647  3:0.033211  4:0.0025767  5:0.001852  6:0.059019  7:0.22744  8:0.59493  9:0.092104  10:0.012744  11:0.013766  12:0.10444  13:0.36178  14:0.30015  15:0.16614  16:0.034507  17:0.032984  18:0.039666  19:0.22296  20:0.7147  21:0.017032  22:0.003448  23:0.0021997  24:0  25:0  26:0  27:0  28:0  29:0  30:0  31:0  32:0  33:0  34:0  35:0  36:0  37:0  38:0  39:0  40:0  41:0  42:0  43:0  44:0  45:0  46:0  47:0
1.9847 0:0.048987  1:0.32991  2:0.4546  3:0.15546  4:0.0075901  5:0.0034452  6:0.14221  7:0.32153  8:0.28618  9:0.17914  10:0.028248  11:0.042693  12:0.14414  13:0.41572  14:0.21137  15:0.061098  16:0.066416  17:0.10125  18:0.055689  19:0.28108  20:0.53856  21:0.11294  22:0.0062044  23:0.0055197  24:0  25:0  26:0  27:0  28:0  29:0  30:0  31:0  32:0  33:0  34:0  35:0  36:0  37:0  38:0  39:0  40:0  41:0  42:0  43:0  44:0  45:0  46:0  47:0
9 0:0.050477  1:0.28386  2:0.53257  3:0.11538  4:0.010231  5:0.007484  6:0.11816  7:0.46437  8:0.31993  9:0.074861  10:0.013266  11:0.0094166  12:0.10983  13:0.39618  14:0.21699  15:0.22579  16:0.024729  17:0.02649  18:0.1458  19:0.41449  20:0.38473  21:0.042957  22:0.0064778  23:0.0055471  24:0  25:0  26:0  27:0  28:0  29:0  30:0  31:0  32:0  33:0  34:0  35:0  36:0  37:0  38:0  39:0  40:0  41:0  42:0  43:0  44:0  45:0  46:0  47:0
9 0:0.051025  1:0.50178  2:0.38619  3:0.049641  4:0.0072862  5:0.0040719  6:0.20897  7:0.31504  8:0.34244  9:0.097232  10:0.020261  11:0.016051  12:0.15487  13:0.37285  14:0.34576  15:0.083444  16:0.015797  17:0.027284  18:0.057555  19:0.51809  20:0.36162  21:0.04578  22:0.0085746  23:0.0083839  24:0  25:0  26:0  27:0  28:0  29:0  30:0  31:0  32:0  33:0  34:0  35:0  36:0  37:0  38:0  39:0  40:0  41:0  42:0  43:0  44:0  45:0  46:0  47:0
2.6555 0:0.045371  1:0.23395  2:0.63203  3:0.076359  4:0.0060997  5:0.0061919  6:0.10518  7:0.29223  8:0.46063  9:0.091099  10:0.019337  11:0.031526  12:0.089681  13:0.38117  14:0.37427  15:0.097202  16:0.029275  17:0.0284  18:0.065834  19:0.21349  20:0.54367  21:0.16507  22:0.007561  23:0.0043738  24:0  25:0  26:0  27:0  28:0  29:0  30:0  31:0  32:0  33:0  34:0  35:0  36:0  37:0  38:0  39:0  40:0  41:0  42:0  43:0  44:0  45:0  46:0  47:0
9 0:0.048081  1:0.51765  2:0.38377  3:0.044812  4:0.0043224  5:0.0013586  6:0.14618  7:0.3835  8:0.37384  9:0.064014  10:0.021989  11:0.010482  12:0.068105  13:0.47942  14:0.31593  15:0.088837  16:0.022924  17:0.024791  18:0.024863  19:0.62688  20:0.29552  21:0.044984  22:0.0050312  23:0.0027237  24:0  25:0  26:0  27:0  28:0  29:0  30:0  31:0  32:0  33:0  34:0  35:0  36:0  37:0  38:0  39:0  40:0  41:0  42:0  43:0  44:0  45:0  46:0  47:0
9 0:0.059963  1:0.71292  2:0.18668  3:0.035482  4:0.0023646  5:0.0025904  6:0.10974  7:0.6416  8:0.18855  9:0.039682  10:0.010508  11:0.0099308  12:0.19587  13:0.42816  14:0.2005  15:0.13764  16:0.019853  17:0.017979  18:0.069143  19:0.64823  20:0.26004  21:0.015917  22:0.0029789  23:0.003691  24:0  25:0  26:0  27:0  28:0  29:0  30:0  31:0  32:0  33:0  34:0  35:0  36:0  37:0  38:0  39:0  40:0  41:0  42:0  43:0  44:0  45:0  46:0  47:0
9 0:0.029331  1:0.67206  2:0.2665  3:0.028012  4:0.0022275  5:0.0018702  6:0.10438  7:0.70306  8:0.15885  9:0.023609  10:0.0058665  11:0.0042324  12:0.13339  13:0.31543  14:0.34973  15:0.15478  16:0.018715  17:0.027955  18:0.074017  19:0.72739  20:0.16771  21:0.022331  22:0.0043318  23:0.0042169  24:0  25:0  26:0  27:0  28:0  29:0  30:0  31:0  32:0  33:0  34:0  35:0  36:0  37:0  38:0  39:0  40:0  41:0  42:0  43:0  44:0  45:0  46:0  47:0
4.2586 0:0.094612  1:0.43773  2:0.41845  3:0.041108  4:0.0049383  5:0.0031598  6:0.15497  7:0.52511  8:0.26215  9:0.039449  10:0.010074  11:0.0082493  12:0.073531  13:0.26458  14:0.38007  15:0.22244  16:0.029905  17:0.029476  18:0.094848  19:0.41387  20:0.44637  21:0.032206  22:0.0072058  23:0.005502  24:0  25:0  26:0  27:0  28:0  29:0  30:0  31:0  32:0  33:0  34:0  35:0  36:0  37:0  38:0  39:0  40:0  41:0  42:0  43:0  44:0  45:0  46:0  47:0
9 0:0.11514  1:0.44698  2:0.3723  3:0.049299  4:0.010257  5:0.0060235  6:0.1595  7:0.50442  8:0.23376  9:0.067443  10:0.016021  11:0.018853  12:0.038129  13:0.37538  14:0.31831  15:0.19678  16:0.035009  17:0.036388  18:0.0994  19:0.52344  20:0.32472  21:0.033976  22:0.011883  23:0.0065791  24:0  25:0  26:0  27:0  28:0  29:0  30:0  31:0  32:0  33:0  34:0  35:0  36:0  37:0  38:0  39:0  40:0  41:0  42:0  43:0  44:0  45:0  46:0  47:0
9 0:0.11097  1:0.38861  2:0.46254  3:0.025492  4:0.0077218  5:0.0046617  6:0.18386  7:0.42927  8:0.23297  9:0.10276  10:0.017252  11:0.033874  12:0.088337  13:0.2964  14:0.42839  15:0.10449  16:0.041751  17:0.040635  18:0.11157  19:0.37703  20:0.45487  21:0.03594  22:0.011229  23:0.0093577  24:0  25:0  26:0  27:0  28:0  29:0  30:0  31:0  32:0  33:0  34:0  35:0  36:0  37:0  38:0  39:0  40:0  41:0  42:0  43:0  44:0  45:0  46:0  47:0
9 0:0.086437  1:0.37071  2:0.5092  3:0.020075  4:0.0078237  5:0.0057585  6:0.15316  7:0.4277  8:0.31026  9:0.061142  10:0.018561  11:0.029176  12:0.084643  13:0.3923  14:0.32924  15:0.11117  16:0.043454  17:0.039206  18:0.079931  19:0.46108  20:0.41339  21:0.030506  22:0.0073752  23:0.0077135  24:0  25:0  26:0  27:0  28:0  29:0  30:0  31:0  32:0  33:0  34:0  35:0  36:0  37:0  38:0  39:0  40:0  41:0  42:0  43:0  44:0  45:0  46:0  47:0
9 0:0.046198  1:0.3571  2:0.35988  3:0.2258  4:0.0070495  5:0.0039801  6:0.10431  7:0.55097  8:0.19562  9:0.11269  10:0.011884  11:0.024531  12:0.098419  13:0.22305  14:0.31759  15:0.271  16:0.041932  17:0.048003  18:0.038926  19:0.36619  20:0.39689  21:0.18471  22:0.0080891  23:0.0051894  24:0  25:0  26:0  27:0  28:0  29:0  30:0  31:0  32:0  33:0  34:0  35:0  36:0  37:0  38:0  39:0  40:0  41:0  42:0  43:0  44:0  45:0  46:0  47:0
9 0:0.067465  1:0.34123  2:0.34031  3:0.24398  4:0.0038921  5:0.0031276  6:0.13045  7:0.44569  8:0.29887  9:0.096741  10:0.0093141  11:0.018939  12:0.089805  13:0.42566  14:0.22492  15:0.18396  16:0.032707  17:0.042955  18:0.057449  19:0.32132  20:0.26411  21:0.34876  22:0.005181  23:0.003186  24:0  25:0  26:0  27:0  28:0  29:0  30:0  31:0  32:0  33:0  34:0  35:0  36:0  37:0  38:0  39:0  40:0  41:0  42:0  43:0  44:0  45:0  46:0  47:0
9 0:0.030887  1:0.6189  2:0.2681  3:0.071619  4:0.0068503  5:0.0036448  6:0.11613  7:0.37605  8:0.41141  9:0.040983  10:0.027524  11:0.0279  12:0.13047  13:0.408  14:0.23687  15:0.13302  16:0.038191  17:0.053458  18:0.065152  19:0.50631  20:0.31815  21:0.081918  22:0.016153  23:0.012312  24:0  25:0  26:0  27:0  28:0  29:0  30:0  31:0  32:0  33:0  34:0  35:0  36:0  37:0  38:0  39:0  40:0  41:0  42:0  43:0  44:0  45:0  46:0  47:0
2.867 0:0.079723  1:0.47215  2:0.42197  3:0.018288  4:0.0048751  5:0.0029941  6:0.17265  7:0.54248  8:0.2069  9:0.034114  10:0.018677  11:0.025178  12:0.10105  13:0.43931  14:0.28237  15:0.10822  16:0.03663  17:0.032421  18:0.070491  19:0.55044  20:0.34975  21:0.017539  22:0.006661  23:0.0051186  24:0  25:0  26:0  27:0  28:0  29:0  30:0  31:0  32:0  33:0  34:0  35:0  36:0  37:0  38:0  39:0  40:0  41:0  42:0  43:0  44:0  45:0  46:0  47:0
9 0:0.14495  1:0.59831  2:0.19285  3:0.047049  4:0.011206  5:0.0056441  6:0.30777  7:0.44635  8:0.19136  9:0.028041  10:0.01332  11:0.013157  12:0.18277  13:0.56494  14:0.17422  15:0.043019  16:0.018544  17:0.016516  18:0.13343  19:0.54549  20:0.29334  21:0.01626  22:0.007125  23:0.0043542  24:0  25:0  26:0  27:0  28:0  29:0  30:0  31:0  32:0  33:0  34:0  35:0  36:0  37:0  38:0  39:0  40:0  41:0  42:0  43:0  44:0  45:0  46:0  47:0
9 0:0.044196  1:0.47556  2:0.34431  3:0.1278  4:0.0047148  5:0.0034162  6:0.077667  7:0.20113  8:0.49722  9:0.18863  10:0.018947  11:0.0164  12:0.087238  13:0.33007  14:0.3974  15:0.1115  16:0.032338  17:0.041459  18:0.036505  19:0.38805  20:0.48101  21:0.083655  22:0.006368  23:0.0044106  24:0  25:0  26:0  27:0  28:0  29:0  30:0  31:0  32:0  33:0  34:0  35:0  36:0  37:0  38:0  39:0  40:0  41:0  42:0  43:0  44:0  45:0  46:0  47:0
9 0:0.048834  1:0.48271  2:0.41762  3:0.042293  4:0.0052668  5:0.0032788  6:0.15141  7:0.2818  8:0.42549  9:0.10455  10:0.017688  11:0.019076  12:0.1277  13:0.43475  14:0.27988  15:0.063913  16:0.033209  17:0.060548  18:0.091874  19:0.38408  20:0.35646  21:0.15062  22:0.0089795  23:0.0079861  24:0  25:0  26:0  27:0  28:0  29:0  30:0  31:0  32:0  33:0  34:0  35:0  36:0  37:0  38:0  39:0  40:0  41:0  42:0  43:0  44:0  45:0  46:0  47:0
9 0:0.077577  1:0.45484  2:0.37336  3:0.076722  4:0.0069769  5:0.010529  6:0.19827  7:0.36585  8:0.28371  9:0.077335  10:0.023625  11:0.051205  12:0.050428  13:0.48322  14:0.30539  15:0.042391  16:0.033594  17:0.084981  18:0.12135  19:0.44313  20:0.37935  21:0.036926  22:0.0079237  23:0.01132  24:0  25:0  26:0  27:0  28:0  29:0  30:0  31:0  32:0  33:0  34:0  35:0  36:0  37:0  38:0  39:0  40:0  41:0  42:0  43:0  44:0  45:0  46:0  47:0
9 0:0.057262  1:0.39896  2:0.36546  3:0.16479  4:0.0056848  5:0.0078499  6:0.1383  7:0.46465  8:0.26643  9:0.069321  10:0.016275  11:0.045021  12:0.054794  13:0.48387  14:0.27386  15:0.045  16:0.046593  17:0.09589  18:0.10996  19:0.4388  20:0.34467  21:0.081689  22:0.010915  23:0.013963  24:0  25:0  26:0  27:0  28:0  29:0  30:0  31:0  32:0  33:0  34:0  35:0  36:0  37:0  38:0  39:0  40:0  41:0  42:0  43:0  44:0  45:0  46:0  47:0
3.3442 0:0.057829  1:0.32739  2:0.49138  3:0.11291  4:0.0063747  5:0.0041138  6:0.32418  7:0.37123  8:0.20364  9:0.057445  10:0.017459  11:0.026048  12:0.16107  13:0.4031  14:0.30004  15:0.033976  16:0.042622  17:0.059186  18:0.1452  19:0.38982  20:0.38309  21:0.06861  22:0.0068435  23:0.0064264  24:0  25:0  26:0  27:0  28:0  29:0  30:0  31:0  32:0  33:0  34:0  35:0  36:0  37:0  38:0  39:0  40:0  41:0  42:0  43:0  44:0  45:0  46:0  47:0
7.8796 0:0.11386  1:0.26831  2:0.46268  3:0.15004  4:0.0031007  5:0.0020101  6:0.45842  7:0.24323  8:0.20785  9:0.070137  10:0.011539  11:0.008827  12:0.19538  13:0.29241  14:0.32696  15:0.093352  16:0.051773  17:0.040127  18:0.063743  19:0.22498  20:0.39896  21:0.30073  22:0.0053978  23:0.0061926  24:0  25:0  26:0  27:0  28:0  29:0  30:0  31:0  32:0  33:0  34:0  35:0  36:0  37:0  38:0  39:0  40:0  41:0  42:0  43:0  44:0  45:0  46:0  47:0
9 0:0.077485  1:0.70604  2:0.16214  3:0.042481  4:0.0085294  5:0.0033273  6:0.2165  7:0.43395  8:0.1993  9:0.080426  10:0.03562  11:0.034203  12:0.078948  13:0.36124  14:0.37858  15:0.077726  16:0.073298  17:0.030209  18:0.036288  19:0.43912  20:0.45974  21:0.045003  22:0.013262  23:0.0065892  24:0  25:0  26:0  27:0  28:0  29:0  30:0  31:0  32:0  33:0  34:0  35:0  36:0  37:0  38:0  39:0  40:0  41:0  42:0  43:0  44:0  45:0  46:0  47:0
8.7853 0:0.062665  1:0.62779  2:0.26008  3:0.036251  4:0.0082286  5:0.0049821  6:0.12639  7:0.34482  8:0.31879  9:0.13674  10:0.035367  11:0.037885  12:0.16825  13:0.42235  14:0.25873  15:0.056459  16:0.055932  17:0.038275  18:0.023741  19:0.48074  20:0.42579  21:0.049698  22:0.012498  23:0.0075288  24:0  25:0  26:0  27:0  28:0  29:0  30:0  31:0  32:0  33:0  34:0  35:0  36:0  37:0  38:0  39:0  40:0  41:0  42:0  43:0  44:0  45:0  46:0  47:0
9 0:0.054264  1:0.48363  2:0.43467  3:0.020709  4:0.0042672  5:0.0024606  6:0.33278  7:0.3407  8:0.21931  9:0.069481  10:0.013988  11:0.023748  12:0.095012  13:0.3267  14:0.37555  15:0.095515  16:0.04729  17:0.059934  18:0.05219  19:0.43646  20:0.46856  21:0.03312  22:0.0051581  23:0.0045163  24:0  25:0  26:0  27:0  28:0  29:0  30:0  31:0  32:0  33:0  34:0  35:0  36:0  37:0  38:0  39:0  40:0  41:0  42:0  43:0  44:0  45:0  46:0  47:0
9 0:0.044309  1:0.46279  2:0.46501  3:0.023001  4:0.0026397  5:0.0022542  6:0.24652  7:0.38055  8:0.27822  9:0.061473  10:0.013023  11:0.020211  12:0.08142  13:0.2911  14:0.39174  15:0.10689  16:0.059006  17:0.069841  18:0.034529  19:0.52982  20:0.40337  21:0.021893  22:0.006616  23:0.0037695  24:0  25:0  26:0  27:0  28:0  29:0  30:0  31:0  32:0  33:0  34:0  35:0  36:0  37:0  38:0  39:0  40:0  41:0  42:0  43:0  44:0  45:0  46:0  47:0
9 0:0.3471  1:0.38196  2:0.19608  3:0.065653  4:0.0042871  5:0.0049204  6:0.15858  7:0.6356  8:0.16663  9:0.023147  10:0.006472  11:0.0095601  12:0.080893  13:0.37113  14:0.4561  15:0.038116  16:0.017605  17:0.036155  18:0.48185  19:0.23213  20:0.20305  21:0.073854  22:0.0041298  23:0.0049865  24:0  25:0  26:0  27:0  28:0  29:0  30:0  31:0  32:0  33:0  34:0  35:0  36:0  37:0  38:0  39:0  40:0  41:0  42:0  43:0  44:0  45:0  46:0  47:0
9 0:0.38512  1:0.37735  2:0.18308  3:0.046227  4:0.0035989  5:0.0046202  6:0.23404  7:0.62382  8:0.11004  9:0.021087  10:0.0043633  11:0.0066425  12:0.15985  13:0.50006  14:0.27815  15:0.034225  16:0.010146  17:0.017574  18:0.4219  19:0.44791  20:0.10083  21:0.023414  22:0.002835  23:0.0031163  24:0  25:0  26:0  27:0  28:0  29:0  30:0  31:0  32:0  33:0  34:0  35:0  36:0  37:0  38:0  39:0  40:0  41:0  42:0  43:0  44:0  45:0  46:0  47:0
9 0:0.23479  1:0.53208  2:0.16874  3:0.055837  4:0.003687  5:0.0048682  6:0.24407  7:0.67779  8:0.038485  9:0.029209  10:0.0041799  11:0.0062575  12:0.2196  13:0.55011  14:0.1613  15:0.040036  16:0.011883  17:0.017065  18:0.30708  19:0.55187  20:0.11045  21:0.02455  22:0.0027801  23:0.0032695  24:0  25:0  26:0  27:0  28:0  29:0  30:0  31:0  32:0  33:0  34:0  35:0  36:0  37:0  38:0  39:0  40:0  41:0  42:0  43:0  44:0  45:0  46:0  47:0
9 0:0.24414  1:0.54113  2:0.18726  3:0.020589  4:0.0027566  5:0.0041269  6:0.20956  7:0.60225  8:0.099086  9:0.057996  10:0.011812  11:0.019292  12:0.37401  13:0.26252  14:0.22329  15:0.076852  16:0.025306  17:0.038019  18:0.32327  19:0.49393  20:0.15586  21:0.021429  22:0.0024851  23:0.0030272  24:0  25:0  26:0  27:0  28:0  29:0  30:0  31:0  32:0  33:0  34:0  35:0  36:0  37:0  38:0  39:0  40:0  41:0  42:0  43:0  44:0  45:0  46:0  47:0
9 0:0.39047  1:0.52302  2:0.078593  3:0.0053005  4:0.0010219  5:0.0015916  6:0.44933  7:0.24446  8:0.19695  9:0.064859  10:0.013078  11:0.031328  12:0.40287  13:0.40589  14:0.13003  15:0.035611  16:0.012141  17:0.013456  18:0.3835  19:0.53433  20:0.074861  21:0.0053991  22:0.00086152  23:0.0010523  24:0  25:0  26:0  27:0  28:0  29:0  30:0  31:0  32:0  33:0  34:0  35:0  36:0  37:0  38:0  39:0  40:0  41:0  42:0  43:0  44:0  45:0  46:0  47:0
9 0:0.42761  1:0.5077  2:0.05289  3:0.0093069  4:0.0011554  5:0.0013339  6:0.30696  7:0.359  8:0.25425  9:0.04876  10:0.011611  11:0.019417  12:0.27729  13:0.53214  14:0.15278  15:0.023399  16:0.0064303  17:0.00795  18:0.3931  19:0.53351  20:0.063577  21:0.0080057  22:0.00081834  23:0.00099154  24:0  25:0  26:0  27:0  28:0  29:0  30:0  31:0  32:0  33:0  34:0  35:0  36:0  37:0  38:0  39:0  40:0  41:0  42:0  43:0  44:0  45:0  46:0  47:0
9 0:0.30141  1:0.59159  2:0.092193  3:0.011997  4:0.0015469  5:0.0012572  6:0.16909  7:0.52072  8:0.22912  9:0.045198  10:0.018923  11:0.016945  12:0.18983  13:0.52237  14:0.23021  15:0.041994  16:0.0065999  17:0.0089997  18:0.24532  19:0.61967  20:0.1178  21:0.014932  22:0.0013098  23:0.00095741  24:0  25:0  26:0  27:0  28:0  29:0  30:0  31:0  32:0  33:0  34:0  35:0  36:0  37:0  38:0  39:0  40:0  41:0  42:0  43:0  44:0  45:0  46:0  47:0
9 0:0.25111  1:0.61196  2:0.12931  3:0.0054564  4:0.00086424  5:0.0012932  6:0.25449  7:0.43758  8:0.2119  9:0.060583  10:0.017049  11:0.018397  12:0.32108  13:0.29916  14:0.28957  15:0.06189  16:0.012405  17:0.015898  18:0.22409  19:0.62575  20:0.14139  21:0.0069146  22:0.00093256  23:0.00091651  24:0  25:0  26:0  27:0  28:0  29:0  30:0  31:0  32:0  33:0  34:0  35:0  36:0  37:0  38:0  39:0  40:0  41:0  42:0  43:0  44:0  45:0  46:0  47:0
9 0:0.2688  1:0.5445  2:0.1666  3:0.017315  4:0.001224  5:0.0015634  6:0.21623  7:0.50533  8:0.19891  9:0.059891  10:0.0092461  11:0.010392  12:0.2503  13:0.50084  14:0.21538  15:0.020479  16:0.0066063  17:0.0064016  18:0.23748  19:0.61308  20:0.13124  21:0.015544  22:0.0013402  23:0.0013147  24:0  25:0  26:0  27:0  28:0  29:0  30:0  31:0  32:0  33:0  34:0  35:0  36:0  37:0  38:0  39:0  40:0  41:0  42:0  43:0  44:0  45:0  46:0  47:0
9 0:0.19076  1:0.55368  2:0.21872  3:0.032474  4:0.0021268  5:0.0022467  6:0.17202  7:0.56029  8:0.17989  9:0.069368  10:0.0085323  11:0.0099088  12:0.18031  13:0.5618  14:0.22674  15:0.020065  16:0.0056115  17:0.0054679  18:0.15532  19:0.65782  20:0.14642  21:0.035954  22:0.0024236  23:0.0020581  24:0  25:0  26:0  27:0  28:0  29:0  30:0  31:0  32:0  33:0  34:0  35:0  36:0  37:0  38:0  39:0  40:0  41:0  42:0  43:0  44:0  45:0  46:0  47:0
9 0:0.21209  1:0.43596  2:0.29335  3:0.049429  4:0.0035356  5:0.0056293  6:0.10702  7:0.32061  8:0.41885  9:0.11046  10:0.015125  11:0.027933  12:0.17487  13:0.46701  14:0.25826  15:0.072474  16:0.013895  17:0.013494  18:0.23806  19:0.44154  20:0.28292  21:0.032102  22:0.0028246  23:0.0025514  24:0  25:0  26:0  27:0  28:0  29:0  30:0  31:0  32:0  33:0  34:0  35:0  36:0  37:0  38:0  39:0  40:0  41:0  42:0  43:0  44:0  45:0  46:0  47:0
9 0:0.25401  1:0.57989  2:0.14392  3:0.018474  4:0.0018716  5:0.0018299  6:0.14338  7:0.41812  8:0.34438  9:0.061208  10:0.013458  11:0.019456  12:0.12824  13:0.51274  14:0.2845  15:0.045444  16:0.011641  17:0.017433  18:0.21966  19:0.60697  20:0.16026  21:0.010226  22:0.0018018  23:0.0010907  24:0  25:0  26:0  27:0  28:0  29:0  30:0  31:0  32:0  33:0  34:0  35:0  36:0  37:0  38:0  39:0  40:0  41:0  42:0  43:0  44:0  45:0  46:0  47:0
9 0:0.32185  1:0.57425  2:0.099892  3:0.0031854  4:0.00051029  5:0.00031563  6:0.14113  7:0.54041  8:0.19351  9:0.095728  10:0.013337  11:0.015891  12:0.28091  13:0.33139  14:0.33079  15:0.046377  16:0.0043043  17:0.0062298  18:0.30254  19:0.58316  20:0.1102  21:0.0032506  22:0.0004866  23:0.00036151  24:0  25:0  26:0  27:0  28:0  29:0  30:0  31:0  32:0  33:0  34:0  35:0  36:0  37:0  38:0  39:0  40:0  41:0  42:0  43:0  44:0  45:0  46:0  47:0
9 0:0.32552  1:0.56945  2:0.10135  3:0.0030556  4:0.00038185  5:0.00024155  6:0.087552  7:0.58776  8:0.1624  9:0.13444  10:0.014196  11:0.013643  12:0.31073  13:0.30725  14:0.32479  15:0.048818  16:0.0044867  17:0.003929  18:0.31539  19:0.56922  20:0.11194  21:0.0027705  22:0.00033836  23:0.00033786  24:0  25:0  26:0  27:0  28:0  29:0  30:0  31:0  32:0  33:0  34:0  35:0  36:0  37:0  38:0  39:0  40:0  41:0  42:0  43:0  44:0  45:0  46:0  47:0
-9 0:0.32709  1:0.39915  2:0.18485  3:0.064816  4:0.0129  5:0.011197  6:0.31621  7:0.32981  8:0.2112  9:0.080151  10:0.024559  11:0.038075  12:0.39872  13:0.18126  14:0.25875  15:0.096213  16:0.026205  17:0.038842  18:0.21055  19:0.34356  20:0.36821  21:0.054779  22:0.010941  23:0.011952  24:0  25:0  26:0  27:0  28:0  29:0  30:0  31:0  32:0  33:0  34:0  35:0  36:0  37:0  38:0  39:0  40:0  41:0  42:0  43:0  44:0  45:0  46:0  47:0
-9 0:0.15399  1:0.48571  2:0.29664  3:0.043581  4:0.010802  5:0.0092679  6:0.15846  7:0.41898  8:0.26193  9:0.10405  10:0.026633  11:0.029946  12:0.16936  13:0.27114  14:0.37195  15:0.095246  16:0.046743  17:0.045565  18:0.12591  19:0.41677  20:0.38463  21:0.053  22:0.0092298  23:0.010468  24:0  25:0  26:0  27:0  28:0  29:0  30:0  31:0  32:0  33:0  34:0  35:0  36:0  37:0  38:0  39:0  40:0  41:0  42:0  43:0  44:0  45:0  46:0  47:0
-9 0:0.16069  1:0.61488  2:0.21244  3:0.008917  4:0.0016068  5:0.0014669  6:0.32974  7:0.49279  8:0.13004  9:0.022181  10:0.0097493  11:0.015493  12:0.19021  13:0.40027  14:0.27934  15:0.041016  16:0.025241  17:0.063913  18:0.1539  19:0.62429  20:0.21193  21:0.0075608  22:0.0013231  23:0.00099602  24:0  25:0  26:0  27:0  28:0  29:0  30:0  31:0  32:0  33:0  34:0  35:0  36:0  37:0  38:0  39:0  40:0  41:0  42:0  43:0  44:0  45:0  46:0  47:0
-9 0:0.17192  1:0.59392  2:0.21812  3:0.012141  4:0.0018797  5:0.0020094  6:0.34232  7:0.46561  8:0.13896  9:0.026835  10:0.01028  11:0.015996  12:0.18038  13:0.48703  14:0.23291  15:0.035711  16:0.013874  17:0.050104  18:0.1722  19:0.6041  20:0.20721  21:0.014289  22:0.001277  23:0.00093355  24:0  25:0  26:0  27:0  28:0  29:0  30:0  31:0  32:0  33:0  34:0  35:0  36:0  37:0  38:0  39:0  40:0  41:0  42:0  43:0  44:0  45:0  46:0  47:0
-9 0:0.16038  1:0.66063  2:0.16136  3:0.013593  4:0.0019478  5:0.0020944  6:0.22715  7:0.58988  8:0.10932  9:0.037155  10:0.018024  11:0.018475  12:0.17049  13:0.4767  14:0.2276  15:0.06314  16:0.022556  17:0.039505  18:0.15386  19:0.66767  20:0.16634  21:0.0092699  22:0.0014622  23:0.0014026  24:0  25:0  26:0  27:0  28:0  29:0  30:0  31:0  32:0  33:0  34:0  35:0  36:0  37:0  38:0  39:0  40:0  41:0  42:0  43:0  44:0  45:0  46:0  47:0
-9 0:0.1932  1:0.45358  2:0.28307  3:0.041828  4:0.013748  5:0.014576  6:0.10528  7:0.55014  8:0.23045  9:0.047824  10:0.034419  11:0.031889  12:0.1811  13:0.41285  14:0.29012  15:0.047182  16:0.023854  17:0.044901  18:0.26957  19:0.46826  20:0.20343  21:0.035255  22:0.011063  23:0.012423  24:0  25:0  26:0  27:0  28:0  29:0  30:0  31:0  32:0  33:0  34:0  35:0  36:0  37:0  38:0  39:0  40:0  41:0  42:0  43:0  44:0  45:0  46:0  47:0
-9 0:0.16978  1:0.57092  2:0.24237  3:0.013383  4:0.0015648  5:0.0019803  6:0.18127  7:0.3728  8:0.3418  9:0.070633  10:0.014189  11:0.019309  12:0.054987  13:0.48829  14:0.29294  15:0.090697  16:0.02791  17:0.045174  18:0.1777  19:0.58926  20:0.21992  21:0.009575  22:0.0018078  23:0.001739  24:0  25:0  26:0  27:0  28:0  29:0  30:0  31:0  32:0  33:0  34:0  35:0  36:0  37:0  38:0  39:0  40:0  41:0  42:0  43:0  44:0  45:0  46:0  47:0
-9 0:0.18699  1:0.54515  2:0.24868  3:0.015843  4:0.0014372  5:0.0018983  6:0.20285  7:0.37601  8:0.31177  9:0.069624  10:0.021623  11:0.018122  12:0.058495  13:0.48838  14:0.35573  15:0.058581  16:0.013728  17:0.025091  18:0.19327  19:0.56365  20:0.22817  21:0.011727  22:0.0017943  23:0.0013793  24:0  25:0  26:0  27:0  28:0  29:0  30:0  31:0  32:0  33:0  34:0  35:0  36:0  37:0  38:0  39:0  40:0  41:0  42:0  43:0  44:0  45:0  46:0  47:0
-9 0:0.14297  1:0.53579  2:0.29271  3:0.019558  4:0.0044729  5:0.0045059  6:0.10479  7:0.58922  8:0.24908  9:0.036656  10:0.009769  11:0.010495  12:0.078671  13:0.525  14:0.31988  15:0.047715  16:0.0097834  17:0.018952  18:0.19956  19:0.48479  20:0.27631  21:0.02612  22:0.0074249  23:0.0057975  24:0  25:0  26:0  27:0  28:0  29:0  30:0  31:0  32:0  33:0  34:0  35:0  36:0  37:0  38:0  39:0  40:0  41:0  42:0  43:0  44:0  45:0  46:0  47:0
-9 0:0.11036  1:0.56964  2:0.29545  3:0.015449  4:0.004905  5:0.0041928  6:0.095888  7:0.59035  8:0.26153  9:0.03582  10:0.0055003  11:0.010906  12:0.094735  13:0.50115  14:0.2833  15:0.075302  16:0.020499  17:0.025012  18:0.16943  19:0.52488  20:0.26059  21:0.024022  22:0.009878  23:0.011201  24:0  25:0  26:0  27:0  28:0  29:0  30:0  31:0  32:0  33:0  34:0  35:0  36:0  37:0  38:0  39:0  40:0  41:0  42:0  43:0  44:0  45:0  46:0  47:0
-9 0:0.058141  1:0.42213  2:0.3889  3:0.079129  4:0.023555  5:0.028142  6:0.041476  7:0.35828  8:0.3648  9:0.13205  10:0.043069  11:0.060322  12:0.030824  13:0.1966  14:0.49019  15:0.16925  16:0.063549  17:0.049592  18:0.067505  19:0.29262  20:0.49973  21:0.077028  22:0.029682  23:0.033435  24:0  25:0  26:0  27:0  28:0  29:0  30:0  31:0  32:0  33:0  34:0  35:0  36:0  37:0  38:0  39:0  40:0  41:0  42:0  43:0  44:0  45:0  46:0  47:0
-9 0:0.058364  1:0.38094  2:0.34856  3:0.1415  4:0.027402  5:0.043236  6:0.10016  7:0.36188  8:0.30659  9:0.12779  10:0.044375  11:0.0592  12:0.036728  13:0.32908  14:0.41829  15:0.11833  16:0.042816  17:0.054751  18:0.091089  19:0.28091  20:0.37716  21:0.16779  22:0.033508  23:0.049547  24:0  25:0  26:0  27:0  28:0  29:0  30:0  31:0  32:0  33:0  34:0  35:0  36:0  37:0  38:0  39:0  40:0  41:0  42:0  43:0  44:0  45:0  46:0  47:0
-9 0:0.092057  1:0.59219  2:0.28018  3:0.030663  4:0.0024923  5:0.0024159  6:0.1239  7:0.51488  8:0.25333  9:0.047405  10:0.025346  11:0.035139  12:0.066913  13:0.26538  14:0.48284  15:0.098755  16:0.042138  17:0.043971  18:0.098416  19:0.62852  20:0.24286  21:0.026194  22:0.0023204  23:0.0016897  24:0  25:0  26:0  27:0  28:0  29:0  30:0  31:0  32:0  33:0  34:0  35:0  36:0  37:0  38:0  39:0  40:0  41:0  42:0  43:0  44:0  45:0  46:0  47:0
-9 0:0.067429  1:0.23709  2:0.58339  3:0.088075  4:0.01102  5:0.012989  6:0.13099  7:0.20447  8:0.42674  9:0.12014  10:0.058211  11:0.05944  12:0.080316  13:0.34299  14:0.2709  15:0.18191  16:0.062825  17:0.061047  18:0.10388  19:0.40492  20:0.39096  21:0.076634  22:0.016323  23:0.0072799  24:0  25:0  26:0  27:0  28:0  29:0  30:0  31:0  32:0  33:0  34:0  35:0  36:0  37:0  38:0  39:0  40:0  41:0  42:0  43:0  44:0  45:0  46:0  47:0
-9 0:0.0892  1:0.21123  2:0.55173  3:0.11062  4:0.015508  5:0.021718  6:0.092602  7:0.33707  8:0.35747  9:0.1231  10:0.043983  11:0.04577  12:0.063121  13:0.2564  14:0.47646  15:0.095655  16:0.052971  17:0.055392  18:0.094171  19:0.42861  20:0.37455  21:0.060765  22:0.02027  23:0.021638  24:0  25:0  26:0  27:0  28:0  29:0  30:0  31:0  32:0  33:0  34:0  35:0  36:0  37:0  38:0  39:0  40:0  41:0  42:0  43:0  44:0  45:0  46:0  47:0
-9 0:0.22235  1:0.51574  2:0.23828  3:0.020189  4:0.0015599  5:0.0018794  6:0.31077  7:0.37916  8:0.22187  9:0.04692  10:0.022264  11:0.019025  12:0.1025  13:0.44389  14:0.2855  15:0.10707  16:0.030407  17:0.030636  18:0.22238  19:0.50622  20:0.25784  21:0.011321  22:0.001343  23:0.00089903  24:0  25:0  26:0  27:0  28:0  29:0  30:0  31:0  32:0  33:0  34:0  35:0  36:0  37:0  38:0  39:0  40:0  41:0  42:0  43:0  44:0  45:0  46:0  47:0
-9 0:0.19226  1:0.53628  2:0.24901  3:0.019782  4:0.0016031  5:0.0010686  6:0.31072  7:0.39852  8:0.19824  9:0.036048  10:0.026897  11:0.029578  12:0.08765  13:0.40597  14:0.36431  15:0.07543  16:0.029531  17:0.037113  18:0.19448  19:0.51654  20:0.27397  21:0.013007  22:0.00096375  23:0.0010402  24:0  25:0  26:0  27:0  28:0  29:0  30:0  31:0  32:0  33:0  34:0  35:0  36:0  37:0  38:0  39:0  40:0  41:0  42:0  43:0  44:0  45:0  46:0  47:0
-9 0:0.37723  1:0.36007  2:0.15879  3:0.078619  4:0.010396  5:0.014888  6:0.34941  7:0.35475  8:0.18041  9:0.070459  10:0.021508  11:0.023453  12:0.16349  13:0.39843  14:0.29675  15:0.05848  16:0.033732  17:0.049111  18:0.44495  19:0.24173  20:0.20175  21:0.084612  22:0.014525  23:0.01244  24:0  25:0  26:0  27:0  28:0  29:0  30:0  31:0  32:0  33:0  34:0  35:0  36:0  37:0  38:0  39:0  40:0  41:0  42:0  43:0  44:0  45:0  46:0  47:0
-9 0:0.20632  1:0.61767  2:0.12787  3:0.038552  4:0.0037645  5:0.0058185  6:0.23694  7:0.51275  8:0.20838  9:0.020941  10:0.0096284  11:0.011363  12:0.26743  13:0.38505  14:0.28596  15:0.027646  16:0.015816  17:0.018098  18:0.22576  19:0.59981  20:0.1169  21:0.043018  22:0.0059175  23:0.0085918  24:0  25:0  26:0  27:0  28:0  29:0  30:0  31:0  32:0  33:0  34:0  35:0  36:0  37:0  38:0  39:0  40:0  41:0  42:0  43:0  44:0  45:0  46:0  47:0
-9 0:0.17481  1:0.65197  2:0.13335  3:0.031501  4:0.0034504  5:0.0049239  6:0.20604  7:0.5451  8:0.2076  9:0.019377  10:0.010083  11:0.011798  12:0.26845  13:0.42729  14:0.24888  15:0.030549  16:0.014092  17:0.010743  18:0.15539  19:0.65196  20:0.14218  21:0.035399  22:0.0058366  23:0.0092339  24:0  25:0  26:0  27:0  28:0  29:0  30:0  31:0  32:0  33:0  34:0  35:0  36:0  37:0  38:0  39:0  40:0  41:0  42:0  43:0  44:0  45:0  46:0  47:0
-9 0:0.20847  1:0.61577  2:0.15876  3:0.015287  4:0.00071826  5:0.0010035  6:0.17053  7:0.60235  8:0.15159  9:0.048344  10:0.012073  11:0.015114  12:0.15943  13:0.41335  14:0.25542  15:0.11416  16:0.030005  17:0.027633  18:0.20353  19:0.63697  20:0.14572  21:0.012076  22:0.00077123  23:0.00093789  24:0  25:0  26:0  27:0  28:0  29:0  30:0  31:0  32:0  33:0  34:0  35:0  36:0  37:0  38:0  39:0  40:0  41:0  42:0  43:0  44:0  45:0  46:0  47:0
-4.9458 0:0.18325  1:0.49039  2:0.24033  3:0.067751  4:0.006614  5:0.011661  6:0.0606  7:0.44895  8:0.2777  9:0.13041  10:0.036043  11:0.046301  12:0.057303  13:0.18153  14:0.47251  15:0.16035  16:0.04419  17:0.08412  18:0.14733  19:0.4274  20:0.36667  21:0.044212  22:0.0049468  23:0.0094387  24:0  25:0  26:0  27:0  28:0  29:0  30:0  31:0  32:0  33:0  34:0  35:0  36:0  37:0  38:0  39:0  40:0  41:0  42:0  43:0  44:0  45:0  46:0  47:0
-9 0:0.024867  1:0.28749  2:0.61085  3:0.039226  4:0.012562  5:0.025003  6:0.040539  7:0.40299  8:0.33778  9:0.11473  10:0.053783  11:0.050175  12:0.10432  13:0.49981  14:0.13552  15:0.13338  16:0.060121  17:0.06685  18:0.076833  19:0.53095  20:0.26753  21:0.06993  22:0.023556  23:0.031203  24:0  25:0  26:0  27:0  28:0  29:0  30:0  31:0  32:0  33:0  34:0  35:0  36:0  37:0  38:0  39:0  40:0  41:0  42:0  43:0  44:0  45:0  46:0  47:0
-9 0:0.050016  1:0.30542  2:0.51666  3:0.072651  4:0.025098  5:0.030161  6:0.13928  7:0.42901  8:0.27631  9:0.084109  10:0.036412  11:0.034878  12:0.10402  13:0.44616  14:0.16343  15:0.15664  16:0.056553  17:0.073197  18:0.11523  19:0.36628  20:0.36645  21:0.064154  22:0.042562  23:0.045322  24:0  25:0  26:0  27:0  28:0  29:0  30:0  31:0  32:0  33:0  34:0  35:0  36:0  37:0  38:0  39:0  40:0  41:0  42:0  43:0  44:0  45:0  46:0  47:0
-1.0219 0:0.21757  1:0.51711  2:0.23021  3:0.024833  4:0.0053809  5:0.0048873  6:0.11596  7:0.39846  8:0.31405  9:0.09646  10:0.028196  11:0.046867  12:0.096435  13:0.36141  14:0.40821  15:0.087752  16:0.018414  17:0.02778  18:0.19956  19:0.59218  20:0.17591  21:0.024617  22:0.0027485  23:0.0049897  24:0  25:0  26:0  27:0  28:0  29:0  30:0  31:0  32:0  33:0  34:0  35:0  36:0  37:0  38:0  39:0  40:0  41:0  42:0  43:0  44:0  45:0  46:0  47:0
-7.9833 0:0.25456  1:0.57276  2:0.15609  3:0.014234  4:0.0015068  5:0.00085902  6:0.25778  7:0.54983  8:0.13006  9:0.023261  10:0.015467  11:0.023589  12:0.18765  13:0.42562  14:0.1789  15:0.067209  16:0.048191  17:0.092428  18:0.2609  19:0.58184  20:0.14194  21:0.013054  22:0.0012156  23:0.0010536  24:0  25:0  26:0  27:0  28:0  29:0  30:0  31:0  32:0  33:0  34:0  35:0  36:0  37:0  38:0  39:0  40:0  41:0  42:0  43:0  44:0  45:0  46:0  47:0
-5.0829 0:0.10091  1:0.34103  2:0.45337  3:0.064963  4:0.0188  5:0.020924  6:0.049418  7:0.41478  8:0.25348  9:0.158  10:0.057335  11:0.066992  12:0.04714  13:0.27585  14:0.42864  15:0.1233  16:0.037309  17:0.08776  18:0.12992  19:0.41464  20:0.38234  21:0.038619  22:0.016493  23:0.01799  24:0  25:0  26:0  27:0  28:0  29:0  30:0  31:0  32:0  33:0  34:0  35:0  36:0  37:0  38:0  39:0  40:0  41:0  42:0  43:0  44:0  45:0  46:0  47:0
-6.5724 0:0.23358  1:0.59628  2:0.14952  3:0.018465  4:0.00086295  5:0.001292  6:0.36456  7:0.49652  8:0.081337  9:0.043028  10:0.0051191  11:0.0094373  12:0.13371  13:0.52743  14:0.25741  15:0.047025  16:0.01477  17:0.01965  18:0.22529  19:0.55532  20:0.20046  21:0.017296  22:0.00065444  23:0.00098152  24:0  25:0  26:0  27:0  28:0  29:0  30:0  31:0  32:0  33:0  34:0  35:0  36:0  37:0  38:0  39:0  40:0  41:0  42:0  43:0  44:0  45:0  46:0  47:0
-9 0:0.23016  1:0.59988  2:0.1484  3:0.018733  4:0.001423  5:0.0014015  6:0.36464  7:0.48062  8:0.093866  9:0.043712  10:0.0061223  11:0.011036  12:0.16741  13:0.56799  14:0.21097  15:0.026801  16:0.010633  17:0.016196  18:0.22411  19:0.56363  20:0.19293  21:0.017388  22:0.00093265  23:0.0010124  24:0  25:0  26:0  27:0  28:0  29:0  30:0  31:0  32:0  33:0  34:0  35:0  36:0  37:0  38:0  39:0  40:0  41:0  42:0  43:0  44:0  45:0  46:0  47:0
-9 0:0.15948  1:0.49747  2:0.25568  3:0.058403  4:0.016583  5:0.012384  6:0.28399  7:0.4023  8:0.18697  9:0.082103  10:0.018749  11:0.025882  12:0.14811  13:0.49923  14:0.26085  15:0.051895  16:0.016825  17:0.023093  18:0.19401  19:0.53737  20:0.21425  21:0.033582  22:0.011716  23:0.0090773  24:0  25:0  26:0  27:0  28:0  29:0  30:0  31:0  32:0  33:0  34:0  35:0  36:0  37:0  38:0  39:0  40:0  41:0  42:0  43:0  44:0  45:0  46:0  47:0
-9 0:0.18875  1:0.45502  2:0.28895  3:0.058926  4:0.0032099  5:0.0051468  6:0.36932  7:0.4791  8:0.071957  9:0.045965  10:0.013108  11:0.020551  12:0.18964  13:0.40225  14:0.22207  15:0.10545  16:0.033193  17:0.047401  18:0.17447  19:0.52256  20:0.26152  21:0.033569  22:0.0025766  23:0.0053006  24:0  25:0  26:0  27:0  28:0  29:0  30:0  31:0  32:0  33:0  34:0  35:0  36:0  37:0  38:0  39:0  40:0  41:0  42:0  43:0  44:0  45:0  46:0  47:0
-9 0:0.19208  1:0.41549  2:0.3238  3:0.062874  4:0.0023562  5:0.0033989  6:0.49906  7:0.4127  8:0.036233  9:0.031472  10:0.0086753  11:0.011865  12:0.27689  13:0.44952  14:0.13425  15:0.079287  16:0.023802  17:0.036261  18:0.15963  19:0.50456  20:0.30288  21:0.028293  22:0.0016877  23:0.0029599  24:0  25:0  26:0  27:0  28:0  29:0  30:0  31:0  32:0  33:0  34:0  35:0  36:0  37:0  38:0  39:0  40:0  41:0  42:0  43:0  44:0  45:0  46:0  47:0
-9 0:0.19726  1:0.36275  2:0.35015  3:0.079128  4:0.0044552  5:0.0062546  6:0.49676  7:0.38865  8:0.055739  9:0.034905  10:0.011039  11:0.012909  12:0.24488  13:0.40182  14:0.15767  15:0.11906  16:0.024927  17:0.051653  18:0.15399  19:0.46405  20:0.34829  21:0.027278  22:0.0032163  23:0.0031708  24:0  25:0  26:0  27:0  28:0  29:0  30:0  31:0  32:0  33:0  34:0  35:0  36:0  37:0  38:0  39:0  40:0  41:0  42:0  43:0  44:0  45:0  46:0  47:0
-0.88725 0:0.13006  1:0.63635  2:0.21235  3:0.015648  4:0.0021956  5:0.0033962  6:0.23973  7:0.54858  8:0.13575  9:0.039465  10:0.016138  11:0.02033  12:0.1898  13:0.19213  14:0.35146  15:0.1557  16:0.031779  17:0.079136  18:0.1111  19:0.63238  20:0.22629  21:0.026988  22:0.0017767  23:0.0014688  24:0  25:0  26:0  27:0  28:0  29:0  30:0  31:0  32:0  33:0  34:0  35:0  36:0  37:0  38:0  39:0  40:0  41:0  42:0  43:0  44:0  45:0  46:0  47:0
-9 0:0.14161  1:0.60093  2:0.23617  3:0.017138  4:0.0019857  5:0.0021682  6:0.29528  7:0.49209  8:0.14428  9:0.036859  10:0.012129  11:0.019359  12:0.22214  13:0.13843  14:0.36336  15:0.14155  16:0.062026  17:0.072495  18:0.12931  19:0.5915  20:0.24334  21:0.033101  22:0.0013504  23:0.0013923  24:0  25:0  26:0  27:0  28:0  29:0  30:0  31:0  32:0  33:0  34:0  35:0  36:0  37:0  38:0  39:0  40:0  41:0  42:0  43:0  44:0  45:0  46:0  47:0
-9 0:0.18092  1:0.60552  2:0.20116  3:0.010255  4:0.00084778  5:0.0012978  6:0.33934  7:0.47632  8:0.12268  9:0.023796  10:0.017511  11:0.020364  12:0.26588  13:0.31245  14:0.20553  15:0.12806  16:0.042492  17:0.045586  18:0.16137  19:0.61622  20:0.21262  21:0.0078843  22:0.00075991  23:0.0011474  24:0  25:0  26:0  27:0  28:0  29:0  30:0  31:0  32:0  33:0  34:0  35:0  36:0  37:0  38:0  39:0  40:0  41:0  42:0  43:0  44:0  45:0  46:0  47:0
-2.8916 0:0.18836  1:0.74274  2:0.055176  3:0.01128  4:0.0011014  5:0.0013458  6:0.085684  7:0.73001  8:0.10957  9:0.049376  10:0.0095761  11:0.015788  12:0.11176  13:0.67598  14:0.14675  15:0.050163  16:0.009224  17:0.0061188  18:0.22495  19:0.70697  20:0.057942  21:0.0082409  22:0.00083426  23:0.001062  24:0  25:0  26:0  27:0  28:0  29:0  30:0  31:0  32:0  33:0  34:0  35:0  36:0  37:0  38:0  39:0  40:0  41:0  42:0  43:0  44:0  45:0  46:0  47:0
-9 0:0.092155  1:0.43915  2:0.30367  3:0.10985  4:0.027531  5:0.027635  6:0.053562  7:0.4178  8:0.30205  9:0.13554  10:0.037456  11:0.053596  12:0.095802  13:0.20492  14:0.44753  15:0.17276  16:0.044142  17:0.034844  18:0.039431  19:0.37804  20:0.30998  21:0.23327  22:0.022397  23:0.016885  24:0  25:0  26:0  27:0  28:0  29:0  30:0  31:0  32:0  33:0  34:0  35:0  36:0  37:0  38:0  39:0  40:0  41:0  42:0  43:0  44:0  45:0  46:0  47:0
-6.5945 0:0.061551  1:0.74159  2:0.18142  3:0.012699  4:0.0013649  5:0.001368  6:0.071231  7:0.61123  8:0.25558  9:0.034892  10:0.012762  11:0.0143  12:0.063052  13:0.41825  14:0.40777  15:0.058618  16:0.032011  17:0.020302  18:0.066618  19:0.77981  20:0.14124  21:0.010293  22:0.0010992  23:0.00094115  24:0  25:0  26:0  27:0  28:0  29:0  30:0  31:0  32:0  33:0  34:0  35:0  36:0  37:0  38:0  39:0  40:0  41:0  42:0  43:0  44:0  45:0  46:0  47:0
-9 0:0.067317  1:0.72556  2:0.19378  3:0.011173  4:0.00093773  5:0.0012412  6:0.077886  7:0.58407  8:0.27285  9:0.038282  10:0.014  11:0.012915  12:0.079731  13:0.40746  14:0.3941  15:0.070185  16:0.029  17:0.019524  18:0.076025  19:0.74235  20:0.17345  21:0.0063479  22:0.00086434  23:0.00095957  24:0  25:0  26:0  27:0  28:0  29:0  30:0  31:0  32:0  33:0  34:0  35:0  36:0  37:0  38:0  39:0  40:0  41:0  42:0  43:0  44:0  45:0  46:0  47:0
-9 0:0.33086  1:0.54057  2:0.12145  3:0.0042273  4:0.0013549  5:0.0015405  6:0.30764  7:0.50416  8:0.13975  9:0.021529  10:0.011674  11:0.015247  12:0.27753  13:0.42172  14:0.17831  15:0.037794  16:0.02487  17:0.059772  18:0.31172  19:0.60204  20:0.080398  21:0.0037781  22:0.00093198  23:0.0011347  24:0  25:0  26:0  27:0  28:0  29:0  30:0  31:0  32:0  33:0  34:0  35:0  36:0  37:0  38:0  39:0  40:0  41:0  42:0  43:0  44:0  45:0  46:0  47:0
-9 0:0.32569  1:0.55784  2:0.1081  3:0.0052949  4:0.0015288  5:0.0015425  6:0.31579  7:0.52007  8:0.12364  9:0.012096  10:0.012946  11:0.015462  12:0.24902  13:0.43038  14:0.18544  15:0.054147  16:0.031747  17:0.049263  18:0.32444  19:0.58662  20:0.081088  21:0.0057357  22:0.0010847  23:0.0010312  24:0  25:0  26:0  27:0  28:0  29:0  30:0  31:0  32:0  33:0  34:0  35:0  36:0  37:0  38:0  39:0  40:0  41:0  42:0  43:0  44:0  45:0  46:0  47:0
-9 0:0.092119  1:0.48579  2:0.30902  3:0.07312  4:0.024234  5:0.015716  6:0.096052  7:0.34369  8:0.31428  9:0.12355  10:0.062822  11:0.059608  12:0.12415  13:0.45602  14:0.2635  15:0.10201  16:0.027391  17:0.02692  18:0.16726  19:0.43138  20:0.28925  21:0.060969  22:0.019801  23:0.031344  24:0  25:0  26:0  27:0  28:0  29:0  30:0  31:0  32:0  33:0  34:0  35:0  36:0  37:0  38:0  39:0  40:0  41:0  42:0  43:0  44:0  45:0  46:0  47:0
-9 0:0.071315  1:0.32228  2:0.41159  3:0.12059  4:0.037514  5:0.036707  6:0.093973  7:0.21631  8:0.42799  9:0.13926  10:0.056736  11:0.06573  12:0.10716  13:0.42684  14:0.23048  15:0.16515  16:0.028006  17:0.042364  18:0.16377  19:0.18904  20:0.44382  21:0.14315  22:0.030404  23:0.029815  24:0  25:0  26:0  27:0  28:0  29:0  30:0  31:0  32:0  33:0  34:0  35:0  36:0  37:0  38:0  39:0  40:0  41:0  42:0  43:0  44:0  45:0  46:0  47:0
-9 0:0.063994  1:0.3806  2:0.37362  3:0.11842  4:0.029435  5:0.033927  6:0.045797  7:0.36215  8:0.42021  9:0.091708  10:0.042705  11:0.037433  12:0.047747  13:0.51616  14:0.17518  15:0.16974  16:0.033023  17:0.058147  18:0.082626  19:0.32427  20:0.44965  21:0.10393  22:0.017444  23:0.022085  24:0  25:0  26:0  27:0  28:0  29:0  30:0  31:0  32:0  33:0  34:0  35:0  36:0  37:0  38:0  39:0  40:0  41:0  42:0  43:0  44:0  45:0  46:0  47:0
-9 0:0.042721  1:0.31026  2:0.45335  3:0.15647  4:0.021654  5:0.01554  6:0.034061  7:0.33224  8:0.42506  9:0.15007  10:0.026683  11:0.03188  12:0.064911  13:0.44401  14:0.24214  15:0.1742  16:0.033617  17:0.041122  18:0.060782  19:0.26591  20:0.56042  21:0.086908  22:0.013615  23:0.012365  24:0  25:0  26:0  27:0  28:0  29:0  30:0  31:0  32:0  33:0  34:0  35:0  36:0  37:0  38:0  39:0  40:0  41:0  42:0  43:0  44:0  45:0  46:0  47:0
-9 0:0.089931  1:0.29331  2:0.42262  3:0.15523  4:0.02355  5:0.015356  6:0.075773  7:0.26319  8:0.34385  9:0.21528  10:0.047353  11:0.054559  12:0.13505  13:0.27601  14:0.38236  15:0.15707  16:0.022359  17:0.027164  18:0.12172  19:0.2808  20:0.46171  21:0.11529  22:0.012138  23:0.0083367  24:0  25:0  26:0  27:0  28:0  29:0  30:0  31:0  32:0  33:0  34:0  35:0  36:0  37:0  38:0  39:0  40:0  41:0  42:0  43:0  44:0  45:0  46:0  47:0
-8.2206 0:0.17904  1:0.58601  2:0.2162  3:0.013563  4:0.0024407  5:0.0027428  6:0.15445  7:0.4861  8:0.2044  9:0.07679  10:0.034852  11:0.043407  12:0.14311  13:0.34833  14:0.31692  15:0.12978  16:0.026426  17:0.03543  18:0.17529  19:0.62057  20:0.18824  21:0.01234  22:0.0019173  23:0.0016486  24:0  25:0  26:0  27:0  28:0  29:0  30:0  31:0  32:0  33:0  34:0  35:0  36:0  37:0  38:0  39:0  40:0  41:0  42:0  43:0  44:0  45:0  46:0  47:0
-9 0:0.18704  1:0.606  2:0.19628  3:0.0089886  4:0.00071484  5:0.00097365  6:0.33998  7:0.50507  8:0.12059  9:0.013686  10:0.0093574  11:0.01132  12:0.24781  13:0.35991  14:0.25194  15:0.075702  16:0.03031  17:0.03433  18:0.17987  19:0.65584  20:0.15294  21:0.01007  22:0.00054696  23:0.00073676  24:0  25:0  26:0  27:0  28:0  29:0  30:0  31:0  32:0  33:0  34:0  35:0  36:0  37:0  38:0  39:0  40:0  41:0  42:0  43:0  44:0  45:0  46:0  47:0
-9 0:0.092939  1:0.48943  2:0.37592  3:0.032357  4:0.0056008  5:0.0037469  6:0.13793  7:0.31794  8:0.35337  9:0.11652  10:0.030328  11:0.043906  12:0.027073  13:0.35754  14:0.49681  15:0.064837  16:0.023879  17:0.029862  18:0.06532  19:0.46966  20:0.42145  21:0.037472  22:0.0028704  23:0.0032312  24:0  25:0  26:0  27:0  28:0  29:0  30:0  31:0  32:0  33:0  34:0  35:0  36:0  37:0  38:0  39:0  40:0  41:0  42:0  43:0  44:0  45:0  46:0  47:0
-9 0:0.083082  1:0.54811  2:0.28535  3:0.043121  4:0.018662  5:0.021675  6:0.045777  7:0.35466  8:0.35245  9:0.12835  10:0.06291  11:0.055854  12:0.029804  13:0.45206  14:0.33108  15:0.086322  16:0.038884  17:0.061847  18:0.091136  19:0.47404  20:0.29704  21:0.079085  22:0.031239  23:0.027465  24:0  25:0  26:0  27:0  28:0  29:0  30:0  31:0  32:0  33:0  34:0  35:0  36:0  37:0  38:0  39:0  40:0  41:0  42:0  43:0  44:0  45:0  46:0  47:0
-3.0284 0:0.84687  1:0.089028  2:0.038882  3:0.020517  4:0.0022191  5:0.0024803  6:0.088059  7:0.71002  8:0.18801  9:0.012278  10:0.00071805  11:0.00091507  12:0.22489  13:0.69515  14:0.035491  15:0.029002  16:0.012562  17:0.0029034  18:0.82935  19:0.12381  20:0.030091  21:0.01324  22:0.0013904  23:0.0021207  24:0  25:0  26:0  27:0  28:0  29:0  30:0  31:0  32:0  33:0  34:0  35:0  36:0  37:0  38:0  39:0  40:0  41:0  42:0  43:0  44:0  45:0  46:0  47:0
-9 0:0.78406  1:0.15246  2:0.046725  3:0.012739  4:0.0015513  5:0.002461  6:0.11595  7:0.67708  8:0.19141  9:0.014149  10:0.00070189  11:0.00070295  12:0.24115  13:0.67907  14:0.040519  15:0.026009  16:0.010771  17:0.002482  18:0.75919  19:0.18664  20:0.042469  21:0.0090997  22:0.0010689  23:0.001529  24:0  25:0  26:0  27:0  28:0  29:0  30:0  31:0  32:0  33:0  34:0  35:0  36:0  37:0  38:0  39:0  40:0  41:0  42:0  43:0  44:0  45:0  46:0  47:0
-9 0:0.22885  1:0.6394  2:0.11668  3:0.010727  4:0.0018039  5:0.002542  6:0.23704  7:0.51747  8:0.20478  9:0.031957  10:0.0040068  11:0.0047405  12:0.32444  13:0.59273  14:0.072022  15:0.0093972  16:0.00097171  17:0.0004337  18:0.23593  19:0.61871  20:0.13285  21:0.0098501  22:0.0009541  23:0.0017041  24:0  25:0  26:0  27:0  28:0  29:0  30:0  31:0  32:0  33:0  34:0  35:0  36:0  37:0  38:0  39:0  40:0  41:0  42:0  43:0  44:0  45:0  46:0  47:0
-9 0:0.15603  1:0.66543  2:0.15993  3:0.014639  4:0.0021923  5:0.0017794  6:0.12882  7:0.61073  8:0.18731  9:0.038112  10:0.013651  11:0.021386  12:0.18552  13:0.65418  14:0.11203  15:0.030651  16:0.0084203  17:0.0091892  18:0.19315  19:0.64135  20:0.15196  21:0.011226  22:0.0009435  23:0.0013766  24:0  25:0  26:0  27:0  28:0  29:0  30:0  31:0  32:0  33:0  34:0  35:0  36:0  37:0  38:0  39:0  40:0  41:0  42:0  43:0  44:0  45:0  46:0  47:0
-9 0:0.17539  1:0.55108  2:0.23389  3:0.032511  4:0.0043635  5:0.0027673  6:0.18359  7:0.44757  8:0.28025  9:0.046412  10:0.020283  11:0.021903  12:0.23608  13:0.43452  14:0.19925  15:0.092015  16:0.018028  17:0.020109  18:0.23392  19:0.5753  20:0.17101  21:0.015783  22:0.0021756  23:0.0018023  24:0  25:0  26:0  27:0  28:0  29:0  30:0  31:0  32:0  33:0  34:0  35:0  36:0  37:0  38:0  39:0  40:0  41:0  42:0  43:0  44:0  45:0  46:0  47:0
-9 0:0.194  1:0.573  2:0.2008  3:0.025583  4:0.002754  5:0.0038706  6:0.21609  7:0.51128  8:0.21662  9:0.038619  10:0.0079243  11:0.009467  12:0.17189  13:0.44634  14:0.29822  15:0.057231  16:0.013057  17:0.013251  18:0.1798  19:0.59868  20:0.1655  21:0.043527  22:0.0053335  23:0.0071644  24:0  25:0  26:0  27:0  28:0  29:0  30:0  31:0  32:0  33:0  34:0  35:0  36:0  37:0  38:0  39:0  40:0  41:0  42:0  43:0  44:0  45:0  46:0  47:0
-9 0:0.19798  1:0.55745  2:0.21814  3:0.018971  4:0.0024355  5:0.0050246  6:0.22267  7:0.53194  8:0.19684  9:0.02997  10:0.0079856  11:0.01059  12:0.17967  13:0.51345  14:0.25221  15:0.032178  16:0.010583  17:0.01192  18:0.19579  19:0.59237  20:0.15052  21:0.047986  22:0.0048277  23:0.0085028  24:0  25:0  26:0  27:0  28:0  29:0  30:0  31:0  32:0  33:0  34:0  35:0  36:0  37:0  38:0  39:0  40:0  41:0  42:0  43:0  44:0  45:0  46:0  47:0
